svm_type c_svc
kernel_type rbf
gamma 2.19082e-005
nr_class 5
total_sv 4990
rho -0.525666 -0.428918 -0.805166 -0.100776 -0.118619 -0.518275 0.104973 -0.332885 -0.28183 0.408197
label 5 4 2 3 1
nr_sv 1000 1000 1000 1000 990
SV
1 1 1 1 0:1 1:1 2:1 3:1 4:2 5:2 6:3 7:3 8:3 9:1 10:1 11:1 12:2 13:2 14:1 15:1 16:1 17:1 18:1 19:1 20:1 21:3 22:1 23:1 24:1 25:1 26:1 27:1 28:1 29:1 30:1 31:2 32:2 33:1 34:1 35:1 36:1 37:3 38:1 39:1 40:1 41:1 42:1 43:1 44:2 45:1 46:1 47:1 48:1 49:1 50:1 51:1 52:1 53:1 54:1 55:1 56:1 57:1 58:1 59:1 60:1 61:1 62:1 63:1 64:1 65:1 66:1 67:1 68:1 
1 1 1 1 1:1 3:1 8:3 32:3 34:1 37:1 39:2 45:1 55:1 60:1 66:2 69:1 70:1 71:1 72:1 73:1 74:1 75:1 76:1 77:1 78:1 79:1 80:1 81:1 82:1 83:1 84:1 85:1 86:1 87:1 88:1 89:1 90:1 91:1 92:1 93:1 94:1 95:1 96:1 
1 1 1 1 1:1 3:2 8:3 13:2 17:1 32:4 36:1 37:3 39:1 41:3 44:5 59:1 66:5 70:3 87:1 102:1 125:2 127:1 129:1 134:1 139:2 140:2 151:1 154:1 160:1 162:1 201:1 272:1 311:1 322:1 328:3 339:1 342:2 345:1 354:1 359:1 385:2 391:1 393:1 404:1 439:1 458:1 469:1 474:1 476:1 480:1 520:1 534:2 560:1 566:1 579:1 600:1 607:1 629:1 667:1 712:1 713:1 714:1 715:1 716:1 717:1 718:1 719:1 720:1 721:1 722:2 723:1 724:2 725:1 726:1 727:1 728:1 729:1 730:1 731:1 732:1 733:1 734:1 735:2 736:1 737:1 738:1 739:1 740:1 741:1 742:1 743:1 744:1 
1 1 1 1 1:4 3:4 8:5 21:1 35:2 36:1 37:9 39:1 44:2 60:1 66:2 83:1 87:1 93:1 102:1 107:1 125:3 127:1 133:1 134:1 149:1 185:1 201:2 224:1 244:1 288:4 322:1 349:1 363:2 403:2 466:1 480:3 504:1 539:2 553:2 641:1 745:1 746:1 747:1 748:1 749:6 750:1 751:1 752:1 753:1 754:1 755:1 756:2 757:1 758:1 759:1 760:1 761:1 762:1 763:1 764:1 765:1 766:1 767:1 768:1 769:1 770:1 771:1 772:1 773:1 774:1 775:1 776:2 777:1 778:1 779:1 780:1 781:1 782:1 
1 1 1 1 1:4 3:3 8:5 13:1 15:1 17:1 21:1 31:2 32:10 33:2 34:3 35:3 36:1 37:12 39:1 44:3 45:1 47:1 55:4 56:1 58:1 59:1 60:4 66:6 71:1 74:5 84:1 87:2 92:1 96:1 100:1 102:1 105:1 114:1 122:1 125:2 127:1 150:1 153:1 154:1 159:1 167:1 168:1 171:1 187:1 189:1 191:2 201:1 219:2 226:1 238:1 263:1 267:1 288:1 300:1 301:2 311:1 312:1 319:1 339:1 358:1 359:1 386:1 388:1 405:1 453:2 463:2 469:2 488:1 519:1 523:1 534:1 538:1 545:1 548:1 560:1 572:1 583:1 595:1 600:1 614:1 653:1 682:1 691:1 704:1 714:1 721:1 722:1 733:1 784:1 791:1 814:1 822:1 849:1 850:1 851:1 852:1 853:1 854:1 855:1 856:1 857:1 858:1 859:1 860:1 861:1 862:1 863:1 864:1 865:1 866:1 867:1 868:1 869:1 870:1 871:1 872:1 873:1 874:1 875:1 876:1 877:1 878:1 879:1 880:1 881:1 882:1 883:1 884:1 885:1 886:1 887:1 888:1 889:1 890:1 891:1 892:1 893:1 894:1 895:1 896:1 897:1 898:1 899:1 900:1 901:1 902:1 903:1 904:1 905:1 906:1 907:1 908:2 909:1 
1 1 1 1 1:4 3:8 8:9 12:1 17:1 21:3 31:1 32:2 34:7 35:2 37:11 38:2 39:4 41:1 44:1 52:1 55:5 56:2 60:2 66:7 74:3 76:1 87:2 95:1 96:3 100:1 102:4 104:1 110:1 119:1 125:3 134:1 136:2 141:1 146:1 150:1 153:1 159:2 162:1 175:1 201:4 204:1 238:4 263:3 272:1 279:1 288:3 294:1 301:2 313:1 322:3 328:1 336:1 339:3 358:5 359:1 363:2 366:1 380:1 391:1 406:1 415:1 437:1 439:1 469:1 470:1 481:1 490:1 496:2 503:1 509:2 521:2 539:1 554:2 570:1 575:1 600:1 603:1 604:2 624:1 629:1 646:2 647:3 703:1 743:1 770:1 776:1 778:1 802:1 823:1 833:1 865:1 897:2 904:1 908:1 929:1 938:1 1018:1 1023:2 1036:1 1037:1 1038:1 1039:1 1040:1 1041:1 1042:1 1043:1 1044:1 1045:1 1046:1 1047:1 1048:1 1049:1 1050:1 1051:1 1052:1 1053:1 1054:1 1055:1 1056:1 1057:1 1058:2 1059:1 1060:1 1061:1 1062:1 1063:1 1064:1 1065:1 1066:1 1067:1 1068:1 1069:4 1070:1 1071:1 1072:2 1073:1 1074:1 1075:1 1076:1 1077:1 1078:1 1079:1 1080:1 1081:1 1082:2 1083:1 1084:1 1085:1 1086:1 1087:1 1088:2 1089:1 1090:1 1091:1 1092:1 1093:1 1094:1 1095:1 1096:1 1097:1 1098:1 1099:1 1100:2 1101:1 1102:1 1103:1 1104:1 1105:1 1106:1 1107:1 1108:1 1109:1 1110:1 1111:1 1112:1 1113:1 1114:1 1115:1 1116:1 1117:1 1118:1 1119:1 1120:1 1121:1 1122:1 1123:1 1124:1 1125:1 1126:1 1127:1 
1 1 1 1 1:2 5:1 6:2 7:2 8:1 32:3 34:3 35:1 37:4 39:1 41:2 44:1 55:3 58:1 59:1 66:5 70:1 74:1 83:1 87:1 99:1 100:2 127:3 133:1 138:1 141:1 146:1 170:1 171:1 201:5 217:1 241:1 263:2 301:1 336:1 366:1 411:1 534:1 600:1 618:1 718:1 778:1 866:1 902:1 962:2 973:1 1022:2 1023:1 1060:1 1091:1 1160:1 1161:1 1162:2 1163:1 1164:1 1165:1 1166:1 1167:1 1168:1 1169:1 1170:1 1171:1 1172:1 1173:1 1174:2 1175:1 1176:1 1177:1 1178:1 1179:1 
1 1 1 1 1:1 3:2 8:6 14:2 21:1 32:4 34:3 35:1 36:1 37:7 39:3 44:1 55:2 56:1 60:3 66:7 70:1 71:3 74:5 79:2 87:1 107:1 125:2 126:1 129:2 150:1 153:1 155:1 160:1 170:3 171:2 260:1 263:1 264:1 269:1 288:1 309:1 329:1 359:1 403:1 411:1 433:1 439:2 445:3 458:1 474:1 520:1 521:1 534:4 561:1 568:1 572:1 582:1 624:2 661:1 684:2 768:1 798:1 817:2 854:1 981:1 1003:1 1024:1 1212:1 1213:1 1214:1 1215:1 1216:1 1217:1 1218:2 1219:1 1220:1 1221:1 1222:1 1223:1 1224:1 1225:1 1226:2 1227:1 1228:1 1229:1 1230:1 1231:1 1232:1 1233:1 1234:1 1235:1 1236:1 1237:1 1238:1 1239:1 1240:1 1241:1 1242:1 1243:1 1244:1 1245:1 1246:1 1247:1 1248:1 
1 1 1 1 1:1 8:2 31:1 32:3 34:1 37:5 39:1 44:1 64:1 66:2 74:2 79:1 112:1 133:1 171:1 175:1 201:1 211:1 236:1 439:1 462:1 509:1 554:1 583:1 624:1 647:1 733:1 901:1 968:1 994:1 1126:1 1201:1 1249:2 1250:1 1251:1 1252:1 1253:1 1254:1 1255:1 1256:1 1257:1 1258:1 1259:1 1260:1 1261:1 1262:1 1263:1 
1 1 1 1 1:2 3:1 8:5 32:3 37:6 39:3 41:2 44:3 53:1 55:2 60:1 73:1 74:1 79:1 100:1 129:1 134:1 144:1 150:3 168:1 171:1 201:1 265:1 267:1 268:1 282:1 288:1 301:1 302:1 303:1 339:1 415:2 439:1 462:1 463:1 578:1 597:1 768:1 807:1 847:1 899:1 908:1 924:1 981:1 1029:1 1242:1 1565:1 1566:1 1567:1 1568:1 1569:1 1570:1 1571:1 1572:1 1573:1 1574:1 1575:1 1576:1 1577:1 1578:1 
1 1 1 1 0:1 1:4 3:2 8:3 31:1 32:2 34:1 37:1 41:1 44:2 45:1 57:2 58:1 60:1 66:1 70:1 105:1 119:1 120:2 154:2 164:1 171:1 184:1 208:1 267:1 311:1 324:1 340:1 359:2 360:1 416:1 469:1 521:1 594:1 595:1 697:1 891:1 931:2 969:1 1026:1 1031:1 1130:1 1579:1 1580:1 1581:1 1582:1 1583:1 1584:1 1585:1 1586:2 1587:1 1588:1 1589:1 1590:1 1591:1 1592:1 1593:1 1594:1 1595:1 1596:1 1597:1 1598:1 1599:1 1600:1 1601:1 
1 0 1 0 8:1 21:1 70:1 358:1 559:1 804:1 1177:1 1188:1 1435:1 1627:1 1628:1 1629:1 1630:1 1631:1 
1 1 1 1 1:2 3:3 8:2 21:1 31:1 37:3 38:1 39:1 40:1 41:1 44:1 56:1 66:1 96:2 100:1 133:1 157:1 158:1 160:1 201:1 272:1 330:1 349:1 363:1 391:1 453:1 480:1 494:1 505:1 512:1 532:1 641:1 737:2 897:1 990:1 1055:1 1644:1 1645:1 1646:1 1647:2 1648:1 1649:1 1650:1 1651:1 1652:1 1653:1 1654:1 
1 1 1 1 1:2 3:1 13:1 14:1 32:1 37:1 66:1 67:1 134:1 154:1 201:2 731:1 1060:1 1220:1 1275:1 1723:2 1724:3 1725:1 1726:1 1727:1 1728:1 1729:1 1730:1 1731:1 1732:1 1733:1 1734:1 1735:1 
1 1 1 1 1:7 2:1 3:7 8:8 13:1 14:3 16:1 17:1 32:11 33:1 34:2 35:2 36:2 37:14 39:1 43:1 44:2 55:1 60:1 63:1 64:1 65:1 66:4 72:1 74:9 79:2 87:1 93:1 98:1 102:1 107:1 112:1 125:2 127:4 129:1 133:1 149:2 150:2 159:1 164:1 168:2 201:2 219:1 238:1 244:1 263:1 279:1 297:1 309:1 311:1 313:1 319:1 320:1 339:1 363:1 404:1 408:1 458:1 467:1 468:1 479:2 481:1 485:1 490:1 497:1 512:1 521:1 550:1 554:2 568:1 572:3 575:1 578:1 592:1 595:1 600:2 626:3 651:1 676:1 715:1 716:1 721:1 722:1 730:1 731:1 742:1 768:1 779:1 792:1 798:1 816:1 819:1 822:1 823:1 847:1 890:1 897:3 929:1 933:1 962:1 988:1 1031:1 1134:1 1136:1 1155:1 1237:1 1295:1 1325:1 1427:2 1819:1 1919:1 1920:4 1921:3 1922:1 1923:1 1924:3 1925:1 1926:1 1927:1 1928:1 1929:1 1930:1 1931:1 1932:1 1933:1 1934:1 1935:1 1936:1 1937:1 1938:1 1939:1 1940:1 1941:1 1942:1 1943:1 1944:1 1945:1 1946:1 1947:1 1948:1 1949:1 1950:2 1951:1 1952:1 1953:1 1954:1 
1 1 1 1 8:1 14:1 21:1 32:1 37:3 39:1 44:1 66:1 70:1 129:1 162:1 190:1 330:1 363:2 459:1 549:1 672:1 678:1 702:1 1134:1 1977:1 2184:1 2185:1 2186:1 2187:1 2188:1 2189:1 2190:1 2191:1 2192:1 2193:1 2194:1 2195:1 
1 1 1 1 1:2 14:1 32:2 34:1 60:1 82:1 84:1 87:1 102:1 301:1 545:1 657:1 798:1 910:1 1295:1 1353:1 1500:2 2230:1 2231:1 2232:1 2233:1 2234:1 2235:1 2236:1 2237:1 2238:1 2239:1 
1 1 1 1 1:1 8:3 14:1 15:1 21:1 31:1 32:5 35:2 36:1 37:2 39:1 44:1 55:1 66:1 74:1 96:1 98:2 100:1 125:1 133:1 141:1 149:1 154:1 162:1 166:1 201:2 260:1 311:1 313:2 376:1 385:1 469:1 490:1 779:1 789:1 833:1 1045:1 1139:1 1172:1 1207:1 1451:1 1454:1 1475:1 1543:1 1563:1 1630:1 1645:1 2268:1 2269:1 2270:1 2271:1 2272:1 2273:1 2274:1 2275:1 2276:1 2277:1 2278:1 2279:1 2280:1 2281:1 2282:1 2283:1 2284:1 2285:1 2286:1 2287:1 2288:1 2289:1 
1 1 1 1 3:1 8:2 31:1 32:4 37:3 41:1 47:1 55:1 59:1 70:2 98:1 109:1 120:2 129:1 155:2 208:1 316:1 359:1 418:1 458:1 467:1 554:1 564:1 568:2 588:1 683:1 725:1 1006:1 1242:1 1566:1 1628:1 1860:1 2003:1 2359:1 2360:1 2361:1 2362:1 2363:1 2364:1 
1 1 1 1 1:1 8:2 21:1 31:1 32:3 35:2 36:2 37:4 55:2 66:3 76:1 268:1 279:1 294:1 322:1 554:1 600:1 683:2 835:1 910:1 940:1 1006:1 1034:1 1260:1 1348:1 2183:1 2423:3 2424:1 2425:1 2426:1 2427:1 2428:1 2429:1 
1 1 1 1 53:1 284:1 559:1 1513:1 2510:1 2511:1 
1 1 1 1 0:3 1:2 3:1 8:3 13:1 17:1 21:2 32:7 37:8 44:1 55:2 56:1 60:1 66:2 100:1 125:1 129:1 151:2 154:2 162:1 184:1 204:1 207:1 208:1 238:1 283:1 301:1 312:1 339:1 380:1 386:1 391:1 463:1 480:1 490:1 509:1 519:1 554:1 564:1 600:1 608:1 623:1 641:1 667:1 671:1 718:1 744:1 798:1 1015:1 1068:1 1072:1 1081:1 1099:2 1139:1 1170:2 1188:1 1194:1 1201:1 1228:1 1334:1 1512:1 1519:1 1618:1 1628:1 1632:1 1694:1 1706:1 1861:1 2523:2 2524:1 2525:1 2526:1 2527:1 2528:1 2529:1 2530:1 2531:1 2532:1 2533:1 2534:1 2535:1 2536:1 2537:1 2538:1 2539:1 
1 1 1 1 225:1 753:1 1243:1 1776:1 2540:1 2541:1 2542:1 2543:1 2544:1 2545:1 2546:1 2547:1 2548:1 
1 1 1 1 1:1 3:1 8:5 12:1 14:1 21:2 31:1 32:2 35:2 36:2 37:9 39:3 44:2 60:1 63:1 66:2 100:3 102:1 105:1 111:1 119:1 125:1 129:1 141:1 159:1 166:1 171:1 188:1 201:2 226:1 232:1 241:1 274:1 283:1 301:1 309:1 317:1 347:1 358:1 385:1 391:2 406:1 411:1 451:1 480:2 481:1 521:1 538:1 562:1 594:1 595:1 614:1 624:1 626:1 670:1 672:1 683:1 684:1 702:1 718:1 730:1 749:2 750:1 760:1 778:1 789:1 795:1 804:1 810:1 824:1 842:1 897:1 985:1 992:2 1059:1 1092:1 1282:1 1316:1 1427:2 1454:1 1502:1 1630:1 1691:1 1711:1 1719:1 1757:1 1864:1 2115:1 2375:1 2408:1 2549:1 2550:1 2551:1 2552:1 2553:1 2554:1 2555:1 2556:1 2557:1 2558:1 2559:1 2560:1 2561:1 2562:1 2563:1 2564:1 2565:1 2566:1 
1 1 1 1 1:4 3:2 6:1 7:1 8:2 14:2 21:2 31:1 35:1 36:3 37:4 45:1 54:1 55:2 56:1 60:2 66:4 83:1 87:1 98:1 122:1 150:2 169:1 190:1 198:1 204:4 241:1 283:1 288:1 315:1 322:1 339:1 345:1 393:1 406:1 416:1 451:1 490:1 521:1 560:1 594:1 598:1 618:1 740:1 816:1 910:1 943:1 992:1 1168:1 1170:1 1185:1 1260:1 1335:2 1503:1 1535:1 1539:1 1686:1 1876:1 2390:1 2526:1 2550:1 2636:1 2637:1 2638:1 2639:1 2640:1 2641:1 2642:1 2643:1 2644:1 2645:1 2646:1 2647:1 2648:1 2649:1 
1 1 1 1 1:2 3:3 8:2 14:3 21:3 31:2 32:4 33:1 34:1 36:1 37:7 38:1 39:4 41:1 44:4 53:2 56:2 60:2 63:1 66:1 70:1 73:1 74:2 79:1 93:1 96:1 105:1 114:1 127:1 133:1 150:1 171:1 226:1 228:1 258:2 262:1 263:2 330:1 334:1 363:1 385:1 408:1 451:1 453:1 490:1 517:1 623:1 662:1 703:1 816:1 833:3 837:1 866:2 962:1 1018:1 1126:1 1147:1 1152:1 1170:1 1185:2 1325:1 1329:1 1424:1 1452:1 1616:1 1810:1 1832:1 1935:1 1997:1 2026:1 2122:1 2318:1 2372:1 2526:1 2537:1 2650:1 2651:2 2652:1 2653:1 2654:1 2655:1 2656:1 2657:1 2658:1 2659:1 2660:1 2661:1 2662:1 2663:1 2664:1 2665:1 2666:1 2667:1 2668:1 
1 1 1 1 1:1 21:1 31:1 37:1 38:1 70:1 82:1 83:1 238:1 578:1 750:1 2696:1 
1 1 1 1 1:4 8:3 14:2 32:3 37:2 39:1 41:1 44:3 45:1 55:3 60:2 66:3 96:1 98:1 100:1 102:1 112:1 125:2 127:1 134:1 151:1 201:3 238:1 279:1 288:1 311:2 322:1 329:1 363:1 386:1 436:1 480:1 496:1 505:1 600:1 644:1 683:1 703:1 793:1 835:1 905:1 1015:1 1069:1 1316:1 1329:1 1424:1 1680:1 1835:1 1836:1 1837:2 1858:1 2437:1 2481:1 2791:1 2792:1 2793:3 2794:2 2795:1 2796:1 2797:1 2798:1 2799:1 2800:1 2801:1 2802:1 2803:1 2804:1 2805:1 
1 1 1 1 1:2 3:1 8:2 14:1 21:1 32:2 34:1 37:4 58:1 60:1 66:3 87:2 105:3 113:1 133:1 136:1 151:1 159:2 201:1 260:1 271:1 346:1 381:1 385:1 402:1 403:1 538:1 608:1 616:1 696:1 768:1 833:1 842:1 897:1 964:1 1173:1 1228:1 1366:1 1429:1 1628:1 1760:1 2086:1 2249:1 2363:1 2390:1 2553:1 2641:1 2806:1 2807:1 2808:1 2809:1 2810:1 2811:1 2812:1 2813:1 2814:1 2815:1 2816:1 2817:1 2818:1 2819:1 2820:1 2821:1 2822:1 2823:1 2824:1 2825:1 2826:1 2827:1 
1 1 1 1 8:1 1271:1 2893:1 2894:1 2895:1 2896:1 2897:1 
1 1 1 1 1:3 3:1 8:2 21:2 27:1 32:2 37:1 44:1 55:1 56:1 60:1 70:2 98:1 120:1 125:1 149:1 154:1 171:1 232:1 288:1 300:1 308:1 393:1 480:1 487:1 646:2 678:1 683:1 737:1 743:1 807:1 962:1 980:1 1037:1 1119:1 1170:1 1228:2 1646:1 1671:1 1687:1 1735:2 1878:1 2533:1 2765:1 2893:1 2937:1 2938:1 2939:1 2940:1 2941:1 2942:1 2943:1 2944:1 
1 1 1 1 0:1 1:8 3:5 8:5 12:1 17:1 21:4 32:4 35:1 36:1 37:7 39:1 44:2 45:2 55:3 58:1 59:2 60:1 63:1 66:4 70:1 74:1 82:1 93:1 98:1 105:2 112:1 121:1 122:1 125:2 127:2 136:1 150:1 151:1 159:1 164:1 171:2 201:2 259:1 260:1 263:2 265:1 267:1 272:2 282:1 284:1 301:1 313:1 324:1 347:1 348:1 362:1 366:1 391:2 408:1 462:1 463:3 469:1 566:1 594:1 599:1 626:1 641:1 665:1 750:1 783:1 792:1 840:1 863:1 867:1 897:1 929:1 962:1 1043:1 1045:1 1078:1 1119:1 1121:1 1139:1 1148:1 1177:1 1276:1 1416:1 1455:1 1466:1 1475:1 1656:1 1758:1 1774:1 1860:1 1861:1 1992:1 2207:1 2279:1 2526:1 2592:1 2603:1 2706:1 2858:1 3002:1 3144:1 3145:1 3146:1 3147:1 3148:1 3149:1 3150:1 3151:1 3152:1 3153:1 3154:1 3155:1 3156:1 3157:1 3158:1 3159:1 3160:1 3161:1 3162:1 3163:1 3164:1 3165:1 3166:1 3167:1 3168:2 3169:1 
1 1 1 0 0:1 1:2 8:3 21:1 32:1 39:2 41:1 44:3 45:1 66:1 70:1 121:1 129:1 134:1 171:1 272:1 418:2 439:1 520:1 594:1 595:1 600:1 701:1 725:1 909:1 995:1 1228:1 1374:1 1416:1 1455:1 1590:1 1763:1 1994:1 2179:1 2399:1 2422:1 2764:1 2881:1 3004:1 3170:1 3171:1 3172:1 3173:1 
1 1 1 1 1:3 8:9 14:4 21:1 32:2 34:1 35:1 37:7 39:2 41:3 44:4 53:1 54:3 55:2 56:1 59:1 71:1 98:1 100:1 102:1 105:1 113:1 115:1 121:1 133:1 139:1 144:2 151:1 156:1 159:1 162:1 171:1 191:1 201:3 226:1 272:1 311:1 320:1 345:1 347:1 385:1 406:1 439:1 469:1 480:1 490:2 494:1 497:1 549:1 567:1 575:1 578:1 595:1 647:1 649:1 728:1 776:1 793:1 821:1 824:1 896:1 959:1 1044:1 1170:1 1223:1 1278:1 1315:1 1536:1 1596:1 1675:1 1773:1 1873:1 1943:1 1983:1 2057:1 2084:1 2179:1 2279:1 2296:1 2533:1 2638:1 2686:1 2687:1 3286:1 3287:1 3288:1 3289:1 3290:1 3291:1 3292:1 3293:1 3294:1 3295:1 3296:1 3297:1 3298:1 3299:1 3300:1 3301:1 3302:1 3303:1 3304:1 3305:1 3306:1 3307:1 3308:1 
1 0 1 0 8:1 38:1 39:1 60:1 98:1 105:1 121:1 146:1 162:1 594:1 651:1 750:1 1687:1 2328:1 2530:1 3381:1 3382:1 
1 1 1 1 1:2 3:3 21:1 31:2 32:2 37:4 38:1 44:2 60:1 66:2 100:1 105:1 120:1 125:1 134:1 150:1 159:1 171:1 191:1 201:1 211:1 260:1 263:1 288:1 330:1 363:1 366:1 386:1 406:1 416:1 469:1 519:1 539:1 554:1 610:1 625:1 629:1 671:1 725:1 749:1 793:1 873:1 1056:1 1068:2 1316:1 1353:1 1409:1 1416:1 2052:1 2081:1 2375:1 2430:1 2558:1 2582:1 2635:1 2999:1 3015:1 3441:1 3442:1 3443:1 3444:1 3445:1 3446:1 3447:1 3448:1 3449:1 3450:1 3451:1 3452:1 3453:1 3454:1 3455:1 3456:1 3457:1 3458:1 3459:1 3460:1 3461:1 3462:1 3463:1 
1 1 1 1 0:1 2:1 6:3 7:3 8:1 14:2 31:2 32:7 34:1 37:2 39:1 44:1 55:1 60:1 74:3 87:2 93:1 100:1 112:1 122:1 125:2 127:1 146:1 232:1 294:1 301:1 322:1 347:1 363:1 386:1 416:1 468:1 484:1 493:1 521:1 610:2 621:1 646:1 650:1 682:1 685:1 718:1 959:1 1034:1 1124:1 1177:1 1236:1 1260:1 1294:1 1316:1 1363:1 1369:1 1538:1 1713:1 1804:1 2025:2 2203:2 2596:1 3464:1 3465:1 3466:3 3467:3 3468:1 3469:1 3470:1 3471:2 3472:1 3473:1 3474:1 3475:1 3476:1 3477:1 3478:1 3479:1 3480:1 3481:1 3482:1 3483:1 3484:1 3485:1 
1 1 1 1 8:1 31:1 37:1 44:2 96:1 125:1 129:1 168:1 204:1 600:1 1070:1 1276:1 1520:1 2163:1 3530:1 3531:1 3532:1 
1 1 1 1 1:4 3:3 8:6 12:1 14:2 21:1 34:3 37:4 39:2 44:1 55:2 59:1 66:1 70:1 71:1 74:2 79:1 100:1 102:1 119:1 125:2 189:1 226:1 237:1 263:1 284:1 288:1 295:1 322:2 328:1 355:1 406:1 521:1 539:1 603:1 614:1 796:1 815:1 816:1 821:1 910:1 959:1 1016:1 1020:1 1153:1 1418:1 1454:1 1502:2 1528:1 1757:1 1773:1 1843:1 2094:1 2134:1 2187:2 2275:1 2392:1 2658:1 2768:1 2952:1 3113:1 3125:1 3140:1 3211:1 3440:1 3557:1 3558:1 3559:1 3560:1 3561:1 3562:1 3563:1 3564:1 3565:1 3566:1 3567:1 3568:1 3569:1 3570:1 3571:1 3572:1 3573:1 3574:1 3575:1 3576:1 3577:1 3578:1 3579:2 3580:1 3581:1 3582:1 3583:1 3584:1 
1 1 1 1 1:3 3:1 6:3 7:3 8:3 17:1 18:1 21:1 31:2 32:4 34:2 35:1 36:2 37:2 39:1 53:1 55:2 66:2 70:1 71:1 87:1 100:2 102:1 104:1 134:1 141:1 150:4 201:2 238:2 272:1 283:1 288:1 311:1 321:1 328:1 354:1 391:1 487:1 554:1 560:1 600:1 618:3 662:1 671:1 701:1 840:1 890:1 1028:1 1112:1 1126:1 1168:1 1177:1 1430:1 1523:1 1535:1 1630:1 1681:1 2440:1 2504:1 2526:1 3127:1 3341:1 3471:1 3598:1 3599:1 3600:1 3601:1 3602:1 3603:1 3604:1 3605:1 3606:1 3607:1 3608:1 3609:1 
1 1 1 1 8:3 21:2 32:2 34:1 37:3 41:1 43:1 44:1 55:1 59:1 60:1 66:2 70:1 83:1 125:2 151:1 155:1 187:1 201:2 226:1 228:1 238:1 272:1 329:1 363:1 467:1 534:1 629:1 702:1 897:1 1351:1 1427:1 1861:1 2934:1 3610:1 3611:1 3612:1 3613:1 
1 1 1 1 0:3 1:11 3:11 5:1 6:1 7:1 8:14 14:4 15:1 17:1 21:4 31:3 32:6 34:7 35:1 36:4 37:16 38:1 39:8 41:2 44:12 45:1 53:2 54:1 55:10 58:2 59:1 60:4 64:1 66:9 70:1 79:3 82:1 87:1 98:3 100:3 102:2 103:1 105:9 107:1 111:1 120:1 122:3 125:3 127:1 129:3 134:1 136:5 142:1 146:2 149:2 150:7 151:1 154:1 159:1 162:1 167:1 168:1 171:2 185:2 193:1 199:1 201:1 207:1 208:2 217:1 218:1 219:2 244:1 258:4 260:6 263:1 265:3 267:1 294:2 311:2 313:3 316:1 318:1 322:1 324:1 330:2 336:2 341:1 342:1 347:4 354:2 358:1 363:2 365:1 366:1 380:2 385:2 394:2 402:2 403:1 404:1 410:1 411:1 414:1 416:1 436:1 439:1 450:1 451:1 458:1 469:3 480:1 485:2 490:2 492:1 496:5 509:1 521:2 535:1 539:1 543:2 553:1 575:1 579:1 585:1 594:1 595:1 600:2 603:1 609:2 619:2 623:2 641:1 645:3 646:3 647:2 675:1 683:1 712:1 716:1 718:1 787:1 798:1 800:2 804:1 816:1 825:1 833:1 856:1 857:1 884:1 897:3 904:1 929:1 931:1 933:2 983:1 993:1 1015:1 1020:1 1036:1 1037:1 1068:1 1119:1 1134:4 1185:1 1200:1 1243:1 1248:1 1262:1 1269:1 1275:1 1315:1 1432:1 1452:1 1528:1 1616:1 1645:1 1647:1 1661:2 1671:2 1686:1 1775:1 1791:1 1825:1 1946:1 1950:1 1994:1 2001:1 2052:1 2080:1 2118:1 2139:1 2192:1 2265:1 2405:1 2433:1 2475:1 2532:1 2533:2 2535:1 2701:1 2754:1 2757:1 2841:1 2861:2 2881:1 2938:1 2948:1 3127:1 3134:1 3219:2 3223:2 3238:1 3293:1 3394:1 3471:1 3614:1 3615:1 3616:1 3617:1 3618:1 3619:1 3620:1 3621:1 3622:1 3623:1 3624:1 3625:1 3626:1 3627:1 3628:1 3629:1 3630:1 3631:1 3632:1 3633:1 3634:1 3635:1 3636:1 3637:1 3638:1 3639:2 3640:1 3641:1 3642:1 3643:1 3644:1 3645:1 3646:1 3647:1 3648:1 3649:1 3650:1 3651:1 3652:1 3653:1 3654:1 3655:1 3656:1 3657:1 3658:1 3659:1 3660:1 3661:1 3662:1 3663:1 3664:1 3665:1 3666:1 3667:1 3668:1 3669:1 3670:1 3671:1 3672:1 3673:1 3674:1 3675:1 3676:1 3677:1 3678:2 3679:1 3680:1 3681:1 3682:1 3683:1 3684:1 3685:1 3686:1 3687:1 3688:1 3689:1 3690:1 3691:1 3692:1 3693:1 3694:1 
1 1 1 1 1:5 8:5 21:2 31:1 32:1 36:1 37:4 44:5 54:1 55:2 66:3 70:1 87:1 96:1 100:1 115:1 125:5 129:1 150:2 153:1 154:1 159:3 171:1 189:1 201:2 204:2 219:1 244:1 269:1 309:1 311:1 315:1 322:1 385:2 450:1 474:1 480:3 490:1 548:1 564:1 600:1 624:1 700:1 712:1 835:1 962:1 1018:1 1143:1 1195:1 1275:1 1428:1 1448:1 1517:1 1628:2 2073:1 2168:1 2243:1 2423:1 2454:1 2550:1 3569:1 3774:1 3775:1 3776:1 3777:1 3778:1 3779:2 3780:1 3781:1 3782:1 3783:1 
1 1 1 1 1:3 3:3 8:3 15:1 17:1 21:1 31:1 32:4 34:1 35:1 36:1 37:5 38:1 43:1 44:1 55:1 66:2 70:1 79:1 86:1 87:2 129:1 141:1 144:2 146:2 154:3 164:1 238:1 283:1 294:1 317:1 322:1 325:1 330:1 340:1 347:1 363:1 368:1 391:1 568:1 671:1 731:1 735:1 798:1 808:1 981:1 1134:2 1214:1 1393:1 1433:1 1505:2 1687:1 2763:1 2769:1 3006:1 3201:1 3503:1 3689:1 3764:1 3865:1 3866:1 3867:1 3868:1 3869:1 3870:1 3871:1 3872:1 3873:1 3874:1 3875:1 3876:1 3877:1 3878:1 
1 1 1 1 1:2 3:6 8:2 17:1 21:1 35:1 36:1 37:1 41:1 54:1 55:2 56:1 70:2 83:1 87:1 98:2 102:1 127:2 129:1 133:1 146:1 167:1 201:1 238:1 322:1 329:1 354:1 362:1 701:1 712:1 1162:1 1395:1 1687:1 1861:1 2057:1 2452:1 3272:1 3817:1 3970:1 3971:1 3972:1 3973:1 3974:1 3975:1 3976:1 3977:1 
1 1 1 1 1:7 3:3 8:10 21:7 31:2 32:11 34:4 35:2 36:1 37:13 38:1 39:1 44:2 53:2 54:1 55:5 56:3 58:1 59:1 60:1 63:1 66:6 67:1 70:2 71:3 74:5 79:4 82:1 87:2 93:1 98:1 100:2 102:3 104:1 125:2 126:1 133:1 141:1 146:1 164:1 170:1 171:1 189:3 190:2 201:1 219:1 228:1 237:1 244:1 258:1 263:2 272:1 273:1 283:1 288:1 294:1 301:1 309:1 311:1 317:1 328:1 329:1 336:2 345:1 354:1 362:1 363:2 366:1 368:2 386:1 391:1 404:1 408:1 415:1 445:2 453:1 463:1 474:1 489:1 493:1 503:1 521:1 526:1 539:1 549:1 557:1 565:1 580:1 583:1 604:1 609:1 614:1 624:1 625:1 626:1 646:2 647:1 684:2 750:2 760:1 761:1 764:1 765:1 768:1 813:1 817:2 854:1 910:2 924:1 929:1 959:1 1017:1 1038:1 1054:1 1058:2 1068:1 1071:1 1126:3 1130:1 1131:1 1139:1 1150:1 1170:1 1185:1 1217:1 1228:2 1248:1 1275:1 1321:1 1335:2 1338:1 1416:1 1629:2 1654:1 1683:1 1701:1 1942:1 1948:1 2143:1 2253:1 2413:1 2446:1 2449:1 2520:3 2533:1 2763:1 2919:1 3087:1 3281:1 3410:2 3587:1 3619:1 3679:1 3745:3 3902:1 3985:1 3986:1 3987:1 3988:1 3989:1 3990:1 3991:1 3992:1 3993:1 3994:1 3995:2 3996:1 3997:1 3998:1 3999:1 4000:1 4001:1 4002:1 4003:1 4004:1 4005:2 4006:1 4007:1 4008:1 4009:1 4010:1 4011:1 4012:1 4013:1 4014:1 4015:1 4016:1 4017:1 
1 1 1 1 1:4 3:4 8:6 13:2 14:4 17:1 21:3 31:1 32:6 34:4 35:4 36:3 37:16 38:3 39:4 43:1 44:1 53:1 54:1 55:6 59:1 60:1 65:3 66:7 71:1 74:5 79:4 80:1 82:1 83:1 87:1 92:1 93:1 102:1 105:1 125:2 127:1 129:1 134:2 136:3 138:1 144:2 146:2 159:1 160:2 162:1 164:2 221:1 237:1 238:1 260:1 283:1 287:1 301:1 312:1 349:1 363:3 381:1 391:1 448:1 453:1 463:1 474:1 481:1 521:3 532:1 539:1 541:1 543:1 550:1 553:2 566:1 568:1 569:1 571:1 572:1 600:2 604:1 623:1 662:1 681:1 683:1 684:1 687:1 702:1 742:5 765:1 768:1 810:1 817:1 825:1 882:1 929:1 938:1 962:1 1002:1 1057:1 1059:1 1094:1 1126:1 1135:1 1153:1 1170:1 1196:1 1275:2 1336:1 1432:1 1503:1 1533:1 1687:1 1756:1 1760:1 1772:1 1775:1 1818:1 1894:1 1942:1 2069:1 2091:1 2115:1 2201:1 2225:1 2407:1 2421:1 2432:1 2639:1 2640:1 2837:1 3010:1 3068:1 3126:1 3179:1 3247:1 3411:1 3494:1 3528:1 3587:1 3761:1 3866:1 4024:1 4086:1 4087:1 4088:1 4089:1 4090:1 4091:1 4092:1 4093:1 4094:1 4095:3 4096:1 4097:2 4098:1 4099:1 4100:1 4101:1 4102:1 4103:1 4104:1 4105:1 4106:1 4107:1 4108:1 4109:1 4110:1 4111:1 4112:1 4113:1 4114:1 4115:1 4116:1 4117:1 4118:1 4119:1 4120:1 4121:1 4122:1 
1 1 1 1 14:1 31:1 36:1 66:1 127:1 154:1 171:1 354:1 359:1 575:1 1435:1 1668:1 2047:1 4152:1 4153:1 
1 1 1 1 0:2 1:3 3:3 8:7 13:1 14:3 21:1 32:6 33:1 34:1 37:9 38:1 39:2 41:1 44:2 55:1 60:1 66:3 87:1 98:1 102:1 105:3 120:2 124:1 125:3 127:1 129:1 134:1 151:1 153:1 154:1 159:2 171:2 184:1 191:1 197:1 207:1 228:1 263:1 269:1 271:2 282:1 301:3 302:1 311:1 316:1 322:1 339:2 358:1 363:1 385:1 386:2 402:1 452:1 463:1 469:2 481:1 493:1 496:1 540:1 542:1 563:1 583:1 600:1 647:1 657:1 665:1 685:1 703:1 712:1 713:1 738:1 761:1 764:1 768:1 772:1 811:1 815:1 890:1 908:2 995:1 1006:1 1036:1 1088:1 1260:1 1292:1 1325:1 1334:1 1427:1 1454:1 1455:1 1523:1 1576:1 1742:1 1861:1 2008:1 2185:1 2363:1 2455:1 2550:1 2640:1 2676:1 2763:1 2803:1 2825:1 3283:1 3496:1 3591:1 3706:1 3772:1 3853:1 4145:2 4147:1 4320:1 4321:1 4322:1 4323:1 4324:1 4325:1 4326:1 4327:1 4328:1 4329:1 4330:1 4331:1 4332:1 4333:1 4334:1 4335:1 4336:1 4337:1 4338:1 4339:1 
1 1 1 1 0:1 1:1 15:1 21:2 31:1 32:3 34:2 44:1 60:2 63:1 66:3 96:1 100:1 105:1 149:1 150:1 171:1 260:1 283:1 288:1 313:1 339:1 347:1 439:1 480:1 528:1 539:1 641:1 703:1 717:1 1170:1 1177:1 1364:1 1686:1 2053:1 2423:1 3886:1 4255:1 4340:1 4341:1 4342:1 4343:1 4344:1 
1 1 1 1 1:1 8:2 13:1 14:1 32:3 36:1 37:2 39:1 44:1 45:1 55:2 63:1 70:1 74:2 121:1 127:1 129:2 144:1 150:1 171:1 259:1 260:2 267:2 288:1 301:1 329:1 398:1 404:1 521:1 578:1 595:1 649:1 908:1 1018:1 1182:1 1276:1 1323:1 1424:1 1944:1 1951:1 2148:1 2165:1 2230:1 2433:1 2752:1 2792:1 3881:1 4109:1 4345:1 4346:1 4347:1 
1 1 1 1 1:5 3:5 8:8 12:3 21:5 31:1 32:1 34:1 35:1 37:12 38:2 39:3 41:3 44:5 45:2 53:1 55:1 56:3 58:1 63:1 66:5 70:1 76:1 100:1 102:1 105:1 117:1 125:3 127:2 134:1 136:1 150:2 151:1 184:1 189:3 191:1 204:2 220:1 260:2 263:1 300:1 301:1 339:1 345:3 349:1 359:2 363:2 380:1 391:2 392:1 393:1 469:1 475:1 476:1 478:1 480:1 497:2 498:2 509:4 532:1 534:1 539:2 551:1 569:1 578:1 593:1 619:1 647:1 682:1 691:1 728:1 765:1 768:1 781:1 792:1 798:1 816:1 817:1 835:1 866:1 873:1 897:1 935:2 962:1 988:1 1016:1 1022:1 1031:1 1100:1 1136:1 1139:1 1279:1 1304:1 1537:1 1851:2 1857:2 1958:1 2002:1 2026:1 2050:1 2192:1 2397:1 2519:1 2663:1 2676:1 2815:1 2926:1 3148:1 3281:1 3572:1 3673:1 3814:1 4153:1 4412:1 4413:1 4414:1 4415:1 4416:2 4417:1 4418:1 4419:1 4420:1 4421:1 4422:1 4423:1 4424:2 4425:1 4426:1 4427:1 4428:1 4429:1 4430:1 4431:1 4432:1 4433:1 4434:1 4435:1 4436:1 4437:1 4438:1 4439:1 4440:1 4441:1 4442:1 4443:1 4444:1 4445:1 
1 1 1 1 1:4 3:3 8:9 14:2 17:2 18:1 21:5 32:9 33:1 34:6 37:4 44:1 55:3 59:1 60:4 64:1 65:1 66:10 74:2 75:1 80:1 83:2 86:1 87:5 100:1 102:1 104:1 111:1 127:2 141:1 149:1 154:2 156:1 171:2 175:1 181:1 184:1 187:1 189:1 201:1 211:1 232:1 233:2 237:1 238:1 267:4 268:1 311:1 329:1 349:1 364:1 365:1 386:1 389:1 453:1 463:1 468:1 469:2 480:2 497:1 503:1 521:2 530:1 600:2 629:1 630:1 638:1 703:1 743:1 789:2 796:1 804:1 806:1 809:1 835:1 866:1 876:1 897:1 1038:1 1068:1 1119:2 1185:1 1275:1 1283:1 1335:1 1353:1 1360:1 1364:1 1444:1 1686:1 1994:1 2052:1 2102:2 2250:1 2289:1 2305:1 2343:1 2413:2 2432:1 2599:1 2745:1 2750:7 2832:1 2844:1 2948:4 2954:2 2972:1 2988:1 3305:1 3313:1 3678:1 3956:1 4040:1 4155:1 4446:4 4447:2 4448:1 4449:1 4450:1 4451:1 4452:1 4453:1 4454:2 4455:2 4456:1 4457:1 4458:1 4459:1 4460:1 4461:1 4462:1 4463:1 4464:1 4465:1 4466:1 4467:1 4468:1 
1 1 1 1 1:2 8:1 21:1 36:1 44:1 55:1 66:2 71:1 105:2 127:1 134:1 146:2 159:1 189:1 237:1 263:1 480:1 521:1 530:1 567:1 647:1 662:1 809:1 897:1 1075:1 1240:1 1760:1 2324:1 2652:1 3011:1 3141:1 3548:1 4254:1 4507:1 4508:1 4509:1 4510:1 4511:1 4512:1 4513:1 4514:1 4515:1 4516:1 4517:1 
1 1 1 1 1:3 3:8 8:8 21:1 31:2 32:8 33:1 34:7 35:1 37:14 39:1 41:2 44:9 59:1 60:1 64:2 66:4 76:2 82:1 87:2 96:4 102:3 125:9 127:2 129:3 133:1 134:1 138:1 150:1 153:1 154:2 156:1 201:2 272:1 300:1 302:1 309:1 310:1 311:2 322:2 328:2 334:1 339:1 340:1 358:1 359:1 363:1 380:1 385:1 391:3 403:1 418:2 421:1 442:1 463:1 479:1 480:2 505:1 509:2 515:2 521:3 532:1 572:1 585:1 600:1 602:1 603:1 623:1 631:1 647:1 667:1 672:1 681:1 688:1 718:1 727:1 733:1 798:2 878:1 887:1 897:2 929:2 937:1 954:1 962:2 992:2 1068:1 1081:1 1134:1 1170:1 1204:2 1207:1 1283:1 1301:1 1331:1 1493:1 1686:1 1694:1 1923:1 1985:1 2239:1 2299:1 2529:2 2550:1 2934:1 2937:1 3007:1 3085:1 3261:1 3685:1 3980:1 4522:1 4523:1 4524:2 4525:1 4526:1 4527:1 4528:1 4529:1 4530:1 4531:1 4532:1 4533:1 4534:1 4535:1 4536:1 
1 1 1 0 1:2 3:1 8:2 21:1 35:1 36:1 37:3 38:2 41:1 44:3 55:1 98:3 168:1 258:1 263:1 342:1 380:1 559:1 562:1 624:1 791:1 821:1 1170:1 1246:1 1694:1 1815:1 1950:1 2733:1 3670:1 4208:1 4581:1 4582:1 4583:1 4584:1 4585:1 4586:1 4587:1 
1 1 1 1 1:1 3:1 8:1 21:2 32:1 37:4 38:1 44:1 96:1 100:1 125:1 136:1 159:1 201:1 207:1 233:1 349:1 474:1 575:1 589:1 718:1 749:1 764:1 904:1 935:1 1034:1 1195:1 1830:1 2526:1 2934:1 3507:1 4121:1 4697:1 4698:1 4699:1 4700:1 
1 1 1 1 1:3 3:2 8:3 12:1 16:1 31:1 32:1 36:1 37:4 39:1 41:1 44:1 66:1 70:1 76:1 87:1 100:1 104:1 105:2 125:1 168:1 201:1 303:1 311:2 339:1 347:2 348:1 354:1 362:1 363:1 386:1 413:1 415:1 439:1 443:1 469:1 539:1 549:1 595:1 600:1 603:1 675:1 708:1 718:2 720:1 775:1 789:1 897:1 916:1 986:1 996:1 1170:3 1204:1 1325:1 1535:1 1558:1 1921:1 2025:1 2028:1 2113:1 2481:1 2714:1 2876:1 3293:1 3303:1 3314:1 3348:1 4412:1 4703:1 4704:1 4705:1 4706:1 4707:1 4708:1 4709:1 4710:1 4711:1 
1 1 1 1 2286:1 2287:1 4743:1 4744:1 
1 1 1 1 0:1 1:4 3:5 8:2 14:1 32:1 34:1 36:3 37:5 39:1 41:1 44:4 45:1 60:1 66:6 70:1 79:1 100:1 108:1 125:1 151:1 159:5 162:1 171:1 184:1 201:4 303:1 305:1 310:1 332:1 342:1 345:1 347:1 359:1 363:1 391:1 439:1 469:1 489:1 490:1 493:1 494:1 521:1 539:1 578:1 600:1 611:1 631:1 702:2 712:1 718:1 751:2 752:2 798:2 817:1 831:1 908:1 945:1 983:1 1059:1 1138:1 1179:1 1292:1 1295:1 1647:1 1661:1 1708:1 1943:1 2026:1 2536:1 2637:1 3741:1 3817:1 3823:1 4808:2 4809:1 4810:1 4811:2 4812:2 4813:2 4814:1 4815:1 4816:1 
1 1 1 1 1:5 3:2 8:6 14:1 21:2 31:1 32:5 34:1 35:2 37:2 44:2 55:4 56:1 58:2 60:3 64:1 66:4 75:1 82:1 87:2 100:2 105:1 112:1 133:3 146:1 150:1 167:1 177:1 184:2 201:3 225:1 238:1 267:1 272:1 300:1 309:1 311:2 339:1 340:1 345:1 391:1 400:2 404:1 407:2 453:1 488:1 519:1 539:2 575:1 594:1 651:1 662:1 671:1 678:1 796:1 822:1 831:1 897:2 908:1 1088:1 1119:1 1162:1 1170:1 1389:1 1433:1 1454:1 1455:1 1671:1 1687:1 1818:1 1837:1 1858:1 1901:1 1910:1 1952:1 2026:1 2135:1 2207:1 2343:1 2450:1 2740:1 2765:1 2802:1 3176:1 3452:1 4780:1 4817:1 4818:1 4819:1 4820:1 4821:2 4822:1 4823:1 4824:1 4825:1 4826:1 4827:1 4828:1 4829:1 4830:1 4831:1 4832:1 4833:1 4834:1 4835:1 4836:1 4837:1 4838:1 4839:1 4840:1 4841:1 
1 1 1 1 1:2 8:3 14:2 32:1 36:1 37:2 45:1 55:1 56:1 66:1 70:1 74:1 79:1 87:1 127:1 150:1 168:1 187:1 189:2 363:1 391:1 497:1 518:1 520:1 595:1 650:1 684:1 733:1 810:1 1185:1 1412:1 1616:1 1628:2 1839:1 1952:1 3643:1 4829:1 4949:1 4950:1 4951:1 4952:1 4953:1 4954:1 
1 1 1 1 1:2 3:3 8:4 14:2 21:3 32:3 35:1 36:2 37:2 44:2 56:1 65:1 66:4 79:2 87:1 125:2 133:3 134:1 136:1 146:1 149:3 164:1 171:2 189:4 263:1 288:1 289:1 313:1 317:1 319:1 339:1 345:1 349:1 359:1 404:2 431:1 447:2 451:1 469:1 494:1 521:1 554:2 569:1 618:1 631:1 647:2 673:3 680:1 684:1 750:1 798:2 817:1 831:1 847:1 866:1 890:1 995:1 1022:1 1068:1 1090:1 1135:1 1170:1 1201:1 1207:1 1254:1 1338:1 1416:1 1427:1 1435:1 1445:1 1454:1 1475:1 1505:1 1645:1 1755:2 1773:1 2026:1 2239:1 2375:1 2687:1 2823:1 2952:1 3006:1 3069:1 3234:2 4254:1 4780:1 4823:1 5010:1 5011:1 5012:1 5013:1 5014:1 5015:1 5016:1 5017:1 5018:1 5019:1 5020:1 5021:1 5022:1 5023:1 
1 1 1 1 0:2 1:7 3:6 8:5 12:1 14:2 21:2 31:4 32:7 33:1 34:3 35:2 37:15 41:3 47:1 55:4 56:1 59:1 60:1 64:1 66:3 74:4 87:1 93:1 96:2 100:2 102:1 125:2 127:2 129:1 134:3 145:1 154:4 159:1 170:1 179:1 181:1 184:1 189:1 201:1 204:1 226:1 263:1 267:1 274:1 301:1 307:2 311:1 313:1 317:1 319:1 322:1 347:3 356:1 359:1 363:3 371:1 380:1 451:1 463:1 466:1 469:1 474:1 478:1 479:1 480:1 485:2 490:1 496:1 521:2 560:1 567:1 603:1 626:1 646:1 647:2 649:1 671:1 672:2 731:1 740:1 768:1 771:1 789:1 790:1 796:1 804:1 810:1 821:1 833:2 847:1 908:1 929:1 986:2 1013:1 1029:1 1057:1 1058:2 1085:1 1096:1 1134:1 1152:1 1158:1 1177:1 1189:1 1212:1 1213:1 1297:1 1342:1 1494:1 1645:1 1750:1 1856:2 1861:1 2011:2 2043:2 2048:1 2115:1 2668:1 2672:1 2725:1 2773:1 3076:1 3479:1 3701:1 3824:1 4102:1 4277:1 4573:1 4779:1 5024:1 5025:1 5026:1 5027:1 5028:1 5029:1 5030:1 5031:1 5032:1 5033:1 5034:1 5035:1 5036:1 5037:1 5038:1 5039:1 5040:2 5041:1 5042:1 5043:1 5044:2 5045:1 5046:2 5047:1 5048:1 5049:1 5050:1 5051:1 5052:1 5053:1 5054:1 5055:1 5056:1 5057:1 5058:1 5059:1 5060:1 5061:1 5062:1 
1 1 1 1 3:3 12:1 17:1 35:1 36:1 37:5 55:2 56:1 59:1 63:1 66:1 87:1 92:1 93:1 100:1 119:1 125:1 127:1 134:1 150:1 171:1 244:1 263:2 267:1 272:1 288:1 301:1 313:1 344:1 359:1 363:1 370:1 410:2 478:1 479:1 521:1 539:1 604:1 647:1 681:1 682:1 683:1 816:1 1036:1 1088:1 1201:1 1239:1 1520:1 1661:1 1771:1 1796:1 2786:1 3891:1 5082:1 5083:1 5084:1 5085:1 5086:1 5087:1 5088:1 5089:1 5090:1 5091:1 5092:1 
1 1 1 1 1:6 3:4 8:6 13:2 14:1 17:2 21:2 31:2 32:8 33:2 34:4 35:3 36:7 37:5 39:3 44:3 47:1 54:1 55:1 56:1 60:1 66:7 76:1 79:1 87:1 96:2 98:3 100:2 102:4 117:1 124:1 125:2 127:6 129:1 136:1 149:2 150:1 155:2 171:1 201:5 207:1 208:1 273:1 313:1 320:1 322:2 336:3 347:2 354:2 358:1 359:1 366:2 385:1 408:3 418:2 427:1 453:1 459:1 463:2 474:2 476:1 494:1 507:1 534:1 567:1 570:1 578:1 609:2 624:1 629:2 647:1 660:2 696:1 701:1 712:1 718:1 730:1 750:1 768:1 816:1 823:1 897:2 959:1 1000:1 1007:1 1015:1 1070:1 1081:1 1100:1 1177:1 1207:1 1430:1 1454:1 1611:1 1616:1 1654:1 1713:1 1861:1 2012:1 2116:1 2147:1 2161:1 2422:1 2973:2 3273:1 3368:1 3370:1 3380:1 3520:1 4044:1 4145:1 4344:1 4718:1 4816:1 5154:1 5155:1 5156:1 5157:1 5158:1 5159:1 5160:1 5161:1 5162:1 5163:1 5164:1 
1 1 1 1 1:5 8:9 14:1 18:1 21:2 31:1 32:9 34:2 35:1 37:8 41:1 45:5 54:1 55:1 59:3 60:1 63:2 66:5 74:5 75:1 79:1 87:8 96:1 100:1 105:2 134:1 141:1 146:3 154:3 162:1 168:2 171:3 175:1 179:1 185:1 190:1 201:3 228:1 232:3 237:1 239:1 260:1 267:5 268:1 311:1 322:3 339:2 340:1 363:2 391:4 400:1 413:1 415:1 447:1 452:1 453:1 468:1 471:1 480:2 481:1 493:1 496:1 521:1 548:1 644:1 671:2 718:1 768:2 770:1 798:1 806:1 809:5 819:1 892:1 897:1 908:1 949:1 986:1 1028:1 1162:1 1213:1 1284:1 1349:1 1454:1 1475:1 1692:7 1708:1 1720:1 1788:1 1861:1 1916:1 1952:1 2121:1 2189:1 2269:1 2294:2 2403:1 2408:1 2483:1 2498:1 2550:1 2899:1 2953:1 2977:1 3006:1 3411:1 3470:1 3493:1 3504:1 4040:2 4234:1 4592:1 5311:1 5432:1 5465:1 5466:1 5467:2 5468:1 5469:1 5470:2 5471:1 5472:1 5473:2 5474:1 5475:1 5476:1 5477:1 
1 1 1 1 1:4 3:1 8:2 15:1 32:3 34:1 37:5 39:2 44:3 64:1 66:4 112:1 171:1 287:1 288:1 313:1 316:1 406:1 519:1 523:1 539:1 600:1 768:2 935:1 964:1 1068:1 1374:1 1513:1 1576:1 1582:1 2124:2 2136:1 2325:1 2334:1 2449:1 2486:3 2499:1 2526:1 2725:1 3662:1 3824:2 4836:1 5123:1 5478:2 5479:1 5480:1 5481:1 5482:1 5483:1 5484:1 5485:1 5486:1 5487:1 5488:2 5489:1 5490:1 5491:1 5492:1 5493:1 5494:1 5495:1 5496:1 
1 1 1 1 3:3 21:1 34:1 36:1 37:2 44:1 288:1 358:1 396:1 404:1 463:1 539:1 697:1 908:1 992:1 1031:1 1645:1 1668:1 2206:1 3389:1 5497:1 5498:1 5499:1 
1 1 1 1 1:3 3:1 8:6 12:2 14:4 21:2 32:5 34:2 35:2 36:2 37:7 38:1 39:2 44:1 54:2 55:1 59:1 60:1 66:3 67:2 87:3 102:1 107:1 125:1 127:1 129:2 134:1 149:3 150:1 151:5 154:1 168:1 187:1 189:1 201:3 226:1 263:2 267:3 282:1 359:1 385:1 386:1 406:1 463:1 467:1 474:1 480:1 490:1 532:1 543:1 567:1 610:1 738:1 851:1 920:1 1088:2 1094:1 1177:1 1201:1 1292:1 1369:1 1509:1 1827:1 1985:1 2116:1 2532:1 2562:1 2705:1 2867:1 2873:1 3078:1 3130:1 3179:1 3275:1 3305:1 3357:1 3716:1 3754:1 5202:1 5277:1 5441:1 5521:1 5522:3 5523:1 5524:1 5525:1 5526:2 5527:2 5528:1 5529:2 
1 1 1 1 1:4 3:2 8:5 12:1 14:3 21:2 32:3 34:1 35:2 36:2 37:2 39:1 41:1 44:2 55:2 56:1 58:1 60:2 66:4 74:1 79:1 83:1 100:1 102:1 105:1 125:1 136:2 146:1 187:1 201:2 211:1 238:1 279:1 288:2 311:1 322:1 336:2 345:1 354:1 366:1 404:1 407:1 408:1 411:1 509:1 565:1 578:1 621:1 693:1 702:1 718:1 751:1 752:1 804:1 807:1 817:1 821:1 831:1 920:1 973:1 1100:1 1141:1 1369:1 1423:3 1427:1 1552:1 1595:1 1606:1 1628:5 1642:1 1655:1 1671:1 1694:1 2029:1 2052:1 2412:1 2532:1 2599:1 2660:1 2690:1 2846:1 3004:1 3026:1 3268:2 3382:1 3846:1 4225:1 4313:1 4562:1 5123:1 5429:1 5526:1 5563:1 5564:1 5565:1 5566:1 5567:1 5568:1 5569:1 5570:1 5571:1 5572:1 5573:1 5574:1 
1 1 1 1 0:1 1:3 3:4 5:1 8:5 14:1 17:1 21:1 34:2 36:1 37:8 38:2 39:1 55:1 56:2 60:1 74:2 79:1 102:1 105:4 112:1 125:1 134:1 185:1 201:2 207:1 258:1 260:1 268:1 285:1 288:1 313:1 328:1 339:1 342:3 345:1 347:2 349:1 354:2 363:1 380:1 404:2 421:1 463:1 469:1 539:1 572:2 580:1 604:1 619:1 645:1 646:1 701:1 820:1 859:2 929:1 955:1 1060:1 1069:1 1074:1 1126:1 1226:1 1273:2 1365:1 1647:2 1687:1 1731:1 1749:1 1806:1 1856:1 1994:1 2227:1 2290:1 2318:2 3358:1 3754:1 4624:1 4725:1 4779:2 5200:1 5575:1 5576:1 5577:1 5578:1 5579:1 5580:2 5581:1 5582:1 5583:1 5584:1 5585:1 5586:1 5587:1 5588:1 5589:1 
1 1 1 0 1:1 37:1 38:1 44:1 63:1 133:1 385:1 599:1 779:1 824:1 1094:1 2243:1 3653:1 3741:1 4121:1 5631:1 5632:1 5633:1 5634:1 5635:1 5636:1 
1 1 1 1 1:3 8:4 14:1 31:1 32:3 34:3 36:2 37:7 39:1 44:1 46:1 55:1 61:1 66:3 67:2 87:1 100:1 105:1 121:1 125:1 136:1 150:1 151:1 156:1 159:1 171:1 201:1 263:1 271:1 288:1 310:1 311:2 320:1 321:1 329:1 340:1 354:2 402:1 406:1 469:1 474:1 490:2 539:1 598:1 600:1 625:1 703:1 712:1 743:1 745:1 876:1 1015:1 1157:1 1201:1 1213:1 1426:1 1628:1 1671:1 1757:1 1761:1 1861:1 2192:1 2375:1 2405:1 2807:1 3280:1 3330:1 3331:2 3476:1 3502:1 3518:1 3851:1 3870:1 5121:1 5694:1 5695:1 5696:1 5697:1 5698:1 
1 1 1 1 1:26 3:12 8:25 13:3 14:21 17:2 21:4 31:6 32:15 34:11 35:6 37:27 38:1 39:7 42:1 43:1 44:2 45:3 46:2 47:1 54:1 55:10 56:4 57:1 58:1 59:1 60:2 63:2 66:10 68:1 70:1 71:6 73:1 74:27 76:1 79:6 87:1 93:3 94:1 98:1 99:1 100:4 102:2 105:1 112:1 125:9 129:1 133:2 134:2 136:3 137:1 139:1 141:1 144:2 146:1 148:1 150:5 153:1 154:2 159:3 162:2 165:1 168:3 170:2 171:2 175:1 177:1 189:8 191:1 193:1 197:1 201:1 238:2 241:1 244:1 258:1 267:2 268:1 271:2 272:3 283:1 284:3 288:2 297:1 301:2 313:1 317:1 322:4 328:2 330:2 339:2 345:1 348:1 359:4 363:3 368:2 380:1 381:4 382:2 391:2 393:1 404:1 411:1 413:1 415:1 433:2 437:1 439:1 445:1 451:2 463:1 468:2 469:1 475:2 481:1 485:1 494:1 496:1 503:1 509:5 515:1 521:1 539:3 550:1 551:1 553:1 554:1 560:1 565:1 572:2 575:1 589:1 591:1 592:1 598:2 600:2 608:1 626:4 641:1 646:1 647:3 651:1 653:1 671:2 675:1 682:1 684:7 697:1 712:1 718:1 722:1 725:1 735:1 738:2 742:1 750:1 761:1 765:1 770:1 781:1 785:1 789:1 792:1 796:1 806:1 809:1 811:1 817:7 835:1 873:1 878:1 902:4 908:2 929:1 933:3 964:1 973:5 984:1 986:1 989:3 1029:2 1056:1 1057:2 1061:1 1081:1 1092:1 1130:1 1147:1 1177:2 1196:4 1214:1 1228:1 1239:2 1240:1 1244:1 1248:1 1264:3 1273:1 1275:1 1312:1 1313:2 1316:2 1334:1 1350:1 1412:1 1427:1 1436:1 1444:2 1503:2 1513:1 1518:1 1543:2 1551:1 1552:1 1559:1 1563:4 1581:1 1596:3 1616:1 1642:1 1683:1 1705:1 1709:1 1742:1 1875:1 1896:1 1947:1 1950:5 1951:1 1968:1 1984:1 1985:1 2011:2 2021:1 2069:1 2073:1 2111:1 2117:1 2121:1 2122:1 2170:1 2192:3 2284:1 2409:2 2430:1 2459:1 2474:1 2483:1 2499:1 2519:1 2520:1 2582:2 2596:1 2640:1 2660:1 2665:2 2698:1 2730:1 2830:1 2853:1 2858:1 2861:1 2895:1 3062:1 3066:1 3068:1 3087:1 3169:1 3193:1 3200:1 3300:1 3326:1 3480:1 3508:1 3612:1 3625:1 3830:1 3855:1 3866:1 3900:1 4009:1 4024:1 4046:1 4084:1 4101:1 4182:2 4208:2 4276:1 4519:2 4536:1 4565:1 4585:1 4592:2 4690:1 4699:1 4726:1 4755:1 4846:1 4896:1 4942:1 5155:1 5225:2 5299:1 5418:1 5441:3 5553:1 5584:1 5704:1 5705:1 5706:2 5707:1 5708:1 5709:1 5710:2 5711:1 5712:1 5713:1 5714:1 5715:1 5716:1 5717:1 5718:4 5719:1 5720:1 5721:1 5722:1 5723:1 5724:1 5725:1 5726:2 5727:1 5728:1 5729:1 5730:1 5731:1 5732:1 5733:1 5734:1 5735:1 5736:1 5737:2 5738:1 5739:2 5740:2 5741:1 5742:2 5743:2 5744:1 5745:1 5746:1 5747:1 5748:1 5749:1 5750:1 5751:1 5752:1 5753:1 5754:1 5755:1 5756:1 5757:1 5758:1 5759:1 5760:1 5761:1 5762:1 5763:1 5764:1 5765:1 5766:1 5767:1 5768:2 5769:1 5770:1 5771:1 5772:1 5773:1 
1 1 1 0 1:2 8:2 41:1 45:1 55:1 58:2 60:1 149:1 191:1 330:1 539:1 568:1 596:1 1147:2 1706:1 1782:1 2012:1 2137:1 2360:1 2535:1 3123:1 3172:1 5774:2 5775:1 
1 1 1 1 0:1 1:2 3:2 8:3 14:1 31:1 32:1 37:1 44:3 45:1 55:1 56:1 63:1 66:3 87:2 96:1 171:2 197:2 201:2 237:1 238:1 267:1 288:1 301:1 328:1 339:1 359:1 363:1 380:1 391:1 403:1 404:1 439:1 453:3 462:1 480:1 497:1 521:1 609:1 789:1 816:1 835:1 886:1 974:1 1054:1 1139:1 1200:1 1329:1 1353:1 1563:1 1885:1 1978:1 2269:1 2285:1 2378:1 2743:2 2948:4 4185:1 4192:1 4314:1 5085:2 5786:1 5824:1 5825:1 5826:1 5827:1 5828:2 5829:1 5830:1 5831:1 5832:1 5833:1 5834:1 5835:1 5836:1 5837:1 
1 1 1 1 1:4 3:3 8:1 21:2 32:2 34:1 36:1 37:4 38:1 56:1 102:1 125:2 128:1 139:1 146:1 156:1 160:1 283:1 288:1 402:1 404:1 421:1 481:1 513:1 534:3 610:1 702:1 703:1 715:1 721:2 722:2 844:1 905:1 953:1 992:1 1236:2 1275:2 1448:1 1708:1 1729:1 2290:1 2532:1 3245:1 5838:1 5839:1 5840:1 
1 1 1 1 1:2 3:4 8:6 13:1 17:2 21:1 34:1 37:10 38:1 39:1 41:1 44:3 45:1 55:1 56:2 60:2 66:2 67:2 79:1 100:1 105:2 107:1 125:4 136:1 150:1 154:1 185:1 201:2 244:1 272:1 322:1 330:1 340:1 347:1 354:1 359:1 380:1 391:1 404:1 458:1 481:1 496:1 521:1 534:1 572:1 585:1 588:1 589:1 604:1 629:1 683:1 738:1 761:1 777:1 789:1 831:1 1019:1 1081:1 1170:3 1274:1 1275:1 1359:1 1427:1 1618:1 1640:1 1657:1 1734:1 1973:1 2120:1 2423:1 2908:1 3222:1 3302:1 3591:1 4121:1 4812:1 4814:1 4829:1 4957:1 5110:1 5162:1 5558:1 5848:1 5849:1 5850:1 5851:1 5852:1 5853:1 5854:1 5855:1 5856:1 5857:1 
1 1 1 1 1:3 3:2 8:1 21:1 31:1 37:1 125:1 129:1 150:1 201:1 224:1 288:1 362:1 385:1 408:1 480:1 556:1 601:1 650:1 1088:1 3879:1 5160:1 5899:2 5900:1 5901:1 5902:1 
1 1 1 1 1:1 3:2 8:2 12:1 14:1 21:3 34:1 36:2 37:7 38:1 44:3 55:5 56:1 65:1 66:3 83:1 87:1 100:2 149:1 154:1 156:1 159:1 187:1 201:1 238:1 282:1 294:1 347:1 362:1 363:1 366:1 391:1 404:1 406:1 451:2 480:1 490:1 539:1 604:2 610:1 624:1 630:1 641:1 647:1 696:1 701:1 737:1 750:1 838:1 897:1 993:1 1006:1 1027:1 1094:1 1162:1 1170:1 1207:1 1331:1 1336:1 1372:1 1541:1 1556:2 1616:1 1681:1 1683:1 1686:1 1839:4 1862:1 1896:1 1919:1 1962:1 2102:1 2172:1 2395:1 2537:1 2934:1 3795:1 4000:1 4024:1 4031:1 4054:1 4875:1 5982:2 5983:1 5984:1 5985:1 5986:1 5987:1 5988:1 5989:1 5990:1 5991:1 5992:1 5993:1 5994:1 5995:1 5996:1 
1 1 1 1 1:1 3:1 8:1 12:1 14:1 16:1 17:1 32:1 34:1 35:1 36:1 37:6 39:1 41:1 44:3 56:1 58:1 66:4 67:1 73:1 87:1 93:1 105:2 127:1 129:1 137:1 153:1 156:1 162:2 168:1 201:3 238:2 271:1 272:1 359:1 404:1 453:1 458:1 459:1 505:1 509:1 513:1 519:1 539:1 610:1 624:1 626:1 629:1 718:1 727:1 770:1 831:1 1068:1 1134:2 1177:1 1196:1 1331:1 1427:1 1501:1 1621:1 1672:1 1697:1 1719:1 2163:1 2267:1 2375:1 2450:1 2456:1 2550:1 2607:1 2786:1 3004:1 3356:1 3741:1 5202:1 6012:1 6013:1 6014:1 6015:1 6016:1 6017:1 6018:1 
1 1 1 1 0:1 1:9 3:2 6:2 7:2 8:8 14:1 15:1 16:1 17:1 21:3 31:1 32:13 35:1 36:1 37:2 39:1 44:1 54:1 55:3 57:1 59:1 60:1 63:1 66:7 74:7 79:3 87:2 102:1 120:4 125:1 127:1 144:1 146:2 154:1 171:3 181:1 193:1 207:1 208:1 237:1 244:1 263:1 279:2 285:1 288:1 294:1 301:1 308:1 316:1 347:1 359:1 363:2 391:3 393:1 406:1 411:1 453:1 463:1 468:1 474:2 480:1 481:1 485:1 490:2 496:1 509:1 532:1 539:2 550:1 560:1 574:2 608:2 616:4 617:3 618:1 624:1 625:2 626:1 636:1 641:1 647:1 662:1 682:1 696:1 730:1 731:1 745:1 765:1 796:1 823:1 909:1 989:2 992:2 1006:1 1080:1 1094:1 1152:1 1170:1 1173:1 1204:1 1236:1 1262:1 1283:1 1329:1 1336:1 1353:1 1596:1 1642:1 1861:1 2001:1 2102:1 2151:1 2190:1 2209:1 2284:1 2424:1 2435:1 2529:1 2536:1 2566:1 2648:1 2720:1 3097:1 3343:1 3364:1 3450:1 3584:1 3607:1 3608:1 3786:1 3829:1 3990:1 4085:1 4412:1 4538:1 4871:1 5650:1 6020:1 6029:1 6030:1 6031:1 6032:1 6033:1 6034:1 6035:1 6036:1 6037:1 6038:1 6039:1 6040:1 6041:1 6042:1 6043:1 6044:1 6045:1 6046:1 6047:1 6048:1 6049:1 6050:1 6051:1 6052:1 6053:1 6054:1 
1 1 1 1 1:1 8:3 12:1 21:1 31:1 32:2 34:2 35:1 37:3 39:2 41:1 44:3 45:1 53:1 55:2 56:1 66:2 70:1 74:1 87:1 96:1 105:1 121:1 125:1 127:1 149:1 151:1 201:1 224:2 238:1 263:2 265:1 311:1 315:1 319:1 329:1 339:1 363:1 391:1 414:1 439:1 490:1 509:1 554:1 568:1 594:1 629:1 641:1 683:1 712:1 866:1 910:1 931:1 1003:1 1059:1 1138:2 1177:1 1430:1 1475:2 1675:1 1701:1 1761:1 2036:1 2449:1 2526:1 2759:1 3733:1 4344:1 4553:1 5044:1 6085:1 6086:1 6087:1 
1 0 1 0 8:3 34:1 55:1 98:1 159:1 336:1 359:1 366:1 583:1 610:1 651:1 670:1 701:1 882:1 994:1 1022:1 1290:1 1705:1 2031:2 2832:1 3211:1 3338:1 3355:1 6004:1 6088:2 6089:1 6090:1 6091:1 
1 1 1 1 1:1 3:2 8:1 14:1 32:1 35:1 36:1 37:3 41:1 44:3 55:3 64:1 80:2 83:1 87:3 93:1 100:1 102:1 105:1 112:1 155:1 187:1 189:1 201:4 224:1 239:1 244:1 263:1 288:1 322:1 328:1 345:1 358:1 385:2 404:2 407:1 413:1 463:1 469:1 481:1 505:1 539:1 600:1 786:1 808:1 943:1 995:1 1015:1 1038:5 1156:1 1291:1 1363:1 1374:1 1462:1 1506:1 1632:1 1861:1 2948:3 2973:2 3327:1 3964:1 4020:1 4034:1 4277:1 4921:1 5476:1 6134:1 6135:2 6136:1 6137:2 6138:1 6139:1 6140:1 6141:1 6142:1 6143:1 6144:1 6145:1 6146:1 
1 1 1 1 1:8 3:4 8:4 13:1 14:4 21:1 32:4 37:3 39:1 44:1 63:1 66:1 71:2 72:1 74:2 79:1 107:1 125:1 149:1 168:1 178:1 180:1 260:1 297:1 322:1 363:1 366:1 398:1 453:1 475:1 526:1 543:1 567:1 591:1 595:1 609:1 646:1 682:1 683:1 684:1 742:1 753:1 786:1 787:1 933:1 935:1 961:1 962:1 973:1 1177:1 1273:1 1515:1 1687:1 2549:1 2582:1 2910:1 4257:1 5111:1 5137:1 5236:1 5890:1 6200:1 6201:1 6202:1 6203:1 6204:1 6205:1 6206:1 6207:2 6208:1 6209:1 6210:1 6211:1 6212:1 6213:1 6214:1 6215:1 6216:1 6217:1 6218:1 6219:1 6220:1 6221:1 
1 1 1 1 1:1 3:1 8:2 14:2 31:1 32:2 34:1 35:1 37:6 44:1 66:2 71:2 74:2 87:1 136:2 149:1 150:1 154:1 164:1 167:1 168:1 267:1 301:1 303:1 363:1 521:1 539:1 683:1 707:1 768:1 789:1 819:2 1170:1 1348:2 1369:1 1418:1 1590:1 2039:1 2078:1 2107:1 2172:1 2173:1 2271:1 2296:1 2553:1 3838:1 4415:1 6085:1 6222:1 6223:1 6224:1 6225:1 6226:1 6227:1 6228:1 6229:1 6230:1 6231:1 6232:1 6233:1 6234:1 6235:1 
1 1 1 1 1:2 3:3 8:12 13:2 14:1 21:8 32:10 33:1 34:2 35:2 36:1 37:16 39:1 41:3 55:4 56:1 58:1 60:3 66:8 71:1 74:6 79:1 87:1 96:2 98:1 102:1 105:3 111:2 112:1 124:1 127:2 133:1 136:1 138:2 141:1 146:1 154:1 171:6 177:1 189:1 193:1 195:1 197:1 201:2 233:1 237:1 260:2 263:1 267:3 271:1 283:1 288:1 294:1 301:1 309:3 311:1 313:2 317:2 322:1 324:1 328:1 329:2 343:1 358:2 363:1 385:1 389:1 391:1 439:1 445:1 448:2 451:1 463:1 512:1 538:1 539:2 554:1 557:1 560:2 574:1 589:1 614:1 624:1 651:2 662:1 683:2 684:2 702:1 718:3 749:3 750:2 768:1 770:1 779:2 789:1 795:1 823:1 854:1 883:1 897:1 905:1 941:1 962:1 981:2 1002:1 1003:1 1018:1 1029:1 1044:1 1100:1 1119:2 1121:1 1126:1 1139:1 1195:1 1201:1 1237:1 1241:1 1260:1 1273:1 1364:1 1424:1 1427:1 1463:1 1528:1 1644:1 1654:2 1744:1 2126:1 2135:2 2143:1 2148:1 2183:1 2408:1 2414:1 2428:1 2449:1 2552:1 2701:1 2749:1 2752:1 2815:1 2858:1 3452:1 3520:1 3545:1 3619:1 3774:1 4127:1 4234:1 4437:1 4793:2 4845:1 5224:1 5524:1 5605:2 5710:1 5767:1 5990:1 6236:1 6237:1 6238:1 6239:1 6240:1 6241:1 6242:1 6243:1 6244:1 6245:1 6246:1 6247:1 6248:1 6249:1 6250:1 6251:1 6252:1 6253:1 6254:1 6255:1 6256:1 6257:1 6258:1 
1 1 1 1 21:1 36:1 37:1 44:1 87:1 121:1 129:1 168:1 322:1 354:1 404:1 712:1 807:1 1236:1 1242:1 1566:1 6264:1 
1 1 1 1 1:3 3:4 8:3 12:1 21:1 32:1 34:1 37:5 39:1 44:1 55:1 58:1 60:1 63:1 93:1 96:1 97:1 106:1 125:1 136:1 150:1 201:1 263:1 265:2 279:1 380:1 414:1 469:1 521:1 647:1 831:1 835:1 908:1 910:2 933:1 1055:1 1068:1 1125:1 1155:1 1162:1 1199:1 1248:1 1365:1 1475:1 1498:1 1788:1 2234:3 2449:1 2686:1 3283:1 4475:1 4829:1 5044:1 5542:1 6273:1 6274:1 6275:1 6276:1 6277:1 6278:1 6279:1 6280:1 
1 1 1 1 1:2 8:1 32:1 34:2 37:2 45:1 55:3 60:1 82:1 87:2 263:1 267:1 313:1 359:1 363:1 385:2 414:1 451:1 567:1 792:1 962:1 1003:1 1057:1 1088:1 1228:1 1454:1 1630:1 1901:1 3176:1 4052:2 4254:1 5018:1 5806:1 6353:1 6354:1 
1 1 1 1 1:2 3:1 8:3 21:2 31:1 37:8 38:1 44:1 55:1 66:1 70:1 74:1 96:1 100:1 125:2 168:1 187:1 191:1 192:1 197:1 201:2 204:2 211:1 263:1 285:1 307:1 329:1 345:1 358:1 363:1 391:1 416:1 463:1 505:1 524:2 548:1 557:1 600:3 638:1 645:2 646:1 674:2 687:1 718:1 740:1 946:1 1068:1 1090:1 1117:1 1139:1 1167:2 1335:1 1448:1 1554:1 1563:1 1774:1 1861:2 1862:1 1951:5 1994:1 2102:2 2137:1 2163:1 2211:1 2366:1 2526:1 2568:1 2668:1 2716:1 3255:1 3314:1 3355:1 3448:1 4016:2 4162:1 4259:1 4647:1 4663:1 4753:1 5244:1 5540:1 5824:1 6178:1 6199:1 6364:1 6365:1 6366:2 6367:1 6368:1 6369:1 6370:1 6371:1 6372:1 6373:1 6374:1 6375:1 6376:1 6377:1 6378:1 6379:1 6380:1 6381:1 6382:1 6383:1 6384:1 6385:1 6386:1 6387:1 6388:1 6389:1 6390:1 6391:1 6392:1 6393:1 6394:1 6395:2 6396:2 6397:1 
1 1 1 1 8:5 17:2 21:1 32:1 37:3 39:1 44:4 66:1 79:3 87:1 100:1 125:1 129:1 150:1 154:2 166:1 168:1 180:1 263:1 317:1 359:1 363:1 439:1 467:1 508:2 619:1 712:1 718:1 749:1 785:1 817:1 933:1 1068:1 1505:1 1675:1 2257:1 2764:1 2917:1 3256:1 6398:1 6399:1 6400:1 6401:1 6402:1 6403:1 6404:1 6405:1 6406:1 6407:1 
1 1 1 1 1:3 3:1 8:2 14:1 21:2 32:4 34:1 35:2 37:3 39:3 44:2 45:1 55:1 58:1 59:1 60:2 63:1 66:7 70:2 74:4 79:1 87:3 96:1 98:1 146:2 168:1 192:1 267:2 280:1 283:1 288:1 311:2 322:1 348:1 363:1 368:1 381:1 411:1 431:1 464:1 465:1 469:1 488:1 496:1 521:1 594:1 718:2 768:1 770:1 779:1 792:1 796:1 806:1 847:1 931:1 1037:1 1063:1 1158:1 1182:1 1283:1 1538:1 1589:1 1630:1 1690:1 1708:1 1757:1 1853:1 2011:1 2081:1 2124:1 2187:1 2262:1 2316:1 2343:1 2450:1 2743:1 2745:1 2746:2 2848:1 3920:1 3970:1 3985:1 4495:1 5312:1 5642:1 6425:1 6426:1 6427:1 6428:1 6429:1 6430:1 6431:1 6432:1 6433:1 6434:1 6435:1 
1 1 1 1 1:3 3:2 8:1 18:1 21:2 32:8 34:1 37:5 39:1 41:1 44:3 60:1 63:1 66:4 70:1 102:1 104:1 105:1 127:1 150:1 155:1 177:1 184:1 185:1 233:1 322:2 463:1 487:1 490:1 501:1 529:1 545:1 549:1 554:1 575:1 596:1 647:1 671:1 718:1 751:1 752:1 776:1 929:1 933:1 962:1 995:1 1015:1 1222:1 1283:1 1335:1 1412:1 1581:1 1621:3 1712:1 1771:1 2116:1 2255:1 2449:1 2599:1 2926:1 3415:1 4219:1 4668:1 5150:1 5223:1 6123:2 6521:1 6522:1 6523:1 6524:1 6525:1 
1 1 1 1 1:7 3:1 8:4 14:3 21:3 32:16 34:6 35:1 37:8 38:1 39:1 44:2 45:3 55:3 58:1 60:1 64:1 66:8 68:1 71:1 74:5 79:2 86:1 87:4 93:1 96:1 105:1 120:3 125:1 127:2 149:1 150:1 154:1 177:1 184:1 190:1 233:1 244:1 263:1 267:3 268:1 271:1 272:1 301:1 307:1 311:2 312:1 328:1 340:2 358:1 359:2 363:1 366:1 406:1 411:1 416:1 451:1 480:1 490:1 493:2 505:1 521:1 535:1 548:1 549:1 551:1 554:1 557:1 560:1 570:1 578:1 600:1 603:1 604:1 623:1 626:1 649:1 679:1 680:1 718:1 733:2 768:1 771:1 789:1 804:1 806:1 897:1 908:1 924:1 945:1 959:1 962:1 1030:1 1036:1 1038:1 1045:1 1094:1 1126:1 1147:2 1162:1 1185:1 1206:1 1207:1 1242:1 1316:1 1329:1 1374:1 1510:1 1556:4 1617:1 1839:1 1982:1 1994:1 2170:1 2599:1 2640:1 2675:1 2954:1 3011:1 3130:3 3405:1 3504:1 4022:1 4024:3 4054:1 4447:1 4479:1 4593:1 4629:1 4755:1 5311:1 6325:1 6595:3 6596:1 6597:1 6598:2 6599:1 6600:1 6601:2 
1 1 1 1 1:6 3:4 8:8 14:1 15:1 21:2 31:1 32:6 34:2 37:6 39:1 44:3 55:1 58:1 60:3 66:6 70:1 71:1 74:1 82:1 86:1 87:4 93:1 95:1 98:1 100:2 102:1 105:2 112:3 125:2 127:1 141:1 149:1 154:2 164:1 168:1 171:4 181:2 201:2 238:1 263:2 267:3 300:1 301:2 317:1 321:1 322:1 324:1 328:3 359:1 362:1 363:1 368:1 386:1 403:1 404:1 462:1 463:1 480:2 490:3 521:1 565:2 566:2 572:1 575:2 583:1 625:1 666:1 671:1 678:1 681:1 730:2 750:1 809:1 816:1 821:1 842:1 882:1 897:1 929:1 933:1 953:1 994:1 1017:1 1027:1 1034:1 1063:1 1100:1 1200:1 1201:1 1248:1 1416:1 1589:1 1712:1 1717:1 1770:2 1861:1 2499:1 2550:1 2754:1 2763:1 2768:1 2786:1 2988:1 3275:1 3283:4 3412:1 4455:1 4647:1 4656:2 5023:1 5494:1 5515:1 5834:1 6632:1 6633:1 6634:2 6635:1 6636:1 6637:1 6638:1 
1 1 1 1 1:1 8:4 12:1 14:1 32:2 35:2 36:1 37:2 44:1 66:1 67:1 87:1 133:1 151:1 279:1 288:1 391:1 439:1 523:1 602:1 684:1 712:1 768:1 897:1 954:1 981:1 1081:1 1207:1 1282:1 1694:1 2053:1 2494:1 2495:1 2530:1 3845:1 3906:2 5183:1 6022:1 6664:1 6665:1 6666:1 6667:1 6668:1 
1 1 1 1 1:6 3:8 6:1 7:1 8:7 15:1 16:2 21:2 32:2 34:2 37:7 43:2 44:1 55:2 56:3 60:3 66:3 100:2 102:1 124:1 125:3 127:1 134:2 136:2 201:1 208:1 263:1 288:1 301:1 322:1 328:1 336:1 347:3 349:1 354:2 363:1 385:3 400:1 436:1 443:1 453:1 462:1 478:1 490:1 505:2 512:1 548:1 572:1 647:1 651:1 683:1 778:1 789:1 814:1 824:2 897:1 904:1 905:1 929:2 1046:1 1081:1 1084:1 1172:1 1286:1 1475:1 1535:1 1671:1 1705:1 1854:2 1915:1 1921:1 2093:1 2107:1 2284:1 2390:2 2420:2 2493:1 2557:1 2701:1 3182:1 3261:1 3364:1 3612:1 4084:1 4846:1 4968:1 5604:2 6145:1 6150:1 6585:1 6674:1 6675:1 6676:1 6677:1 6678:1 6679:1 6680:1 6681:1 6682:1 6683:1 6684:1 6685:1 6686:1 6687:1 6688:1 6689:1 6690:1 6691:1 6692:1 6693:1 6694:1 6695:1 6696:1 6697:1 6698:1 6699:1 
1 1 1 1 8:2 17:1 21:2 32:3 35:2 36:1 37:3 44:1 55:1 66:4 87:2 154:1 155:2 171:1 267:1 301:1 359:1 368:1 437:1 453:1 509:1 532:1 539:1 566:1 600:1 745:1 785:1 789:1 813:1 823:1 908:1 954:1 962:1 1003:1 1081:1 1153:1 1170:1 1207:1 1556:2 1898:1 3577:1 4024:1 4054:1 5712:1 6320:1 6596:1 6628:1 9666:1 11801:1 13949:2 13950:1 13951:1 13952:1 
1 1 1 1 1:1 3:2 8:9 13:1 21:2 32:2 34:1 37:6 39:2 44:1 55:3 59:2 66:3 70:1 71:1 74:5 82:1 87:1 105:2 125:2 129:1 134:1 146:1 150:1 164:1 189:2 263:3 340:1 363:1 385:1 453:1 485:1 521:1 523:1 532:1 539:1 550:1 560:1 595:1 649:1 682:1 738:2 761:1 779:1 796:1 855:1 861:1 882:1 935:1 954:1 959:2 1015:1 1068:1 1207:1 1217:1 1264:1 1335:1 1346:1 1621:1 1655:1 1691:1 1708:2 1968:1 1973:1 2450:1 2637:1 2789:1 3097:1 3106:1 3648:1 3729:1 3913:1 4155:2 4472:1 4688:1 5735:1 5954:1 6916:1 10629:1 13967:1 13968:1 13969:2 
1 1 1 1 1:4 3:5 14:1 32:1 34:1 36:1 37:1 39:1 44:3 56:2 59:1 66:5 87:1 98:1 120:1 125:1 133:1 159:2 201:1 207:1 228:1 260:1 271:1 288:1 311:2 336:1 345:1 354:1 385:1 391:1 404:2 480:1 497:1 505:1 521:1 554:2 656:1 666:1 751:1 752:1 789:1 851:1 1009:1 1069:1 1090:1 1094:1 1139:1 1162:1 1172:1 1292:1 1435:1 1458:1 1475:1 1630:1 1648:1 2004:1 2014:1 2050:1 2092:1 2120:1 2207:1 2211:1 2405:1 2497:1 2763:1 2940:1 3138:1 3148:1 4073:1 4439:1 5415:1 5550:1 5824:1 6161:2 6164:1 6192:1 6548:1 7075:1 7643:1 8110:1 8137:1 9839:1 10232:1 10964:1 11167:1 11939:1 12570:1 12602:1 13988:3 13989:1 13990:1 13991:2 13992:1 13993:1 13994:1 13995:1 13996:1 13997:1 13998:1 13999:1 14000:1 14001:1 14002:1 14003:1 14004:1 14005:1 
1 1 1 1 1:3 3:1 8:3 14:1 37:5 55:2 66:2 74:3 79:1 96:1 98:1 128:1 141:1 153:1 301:2 307:1 358:1 411:1 448:1 481:1 529:1 557:1 595:1 600:1 603:2 626:1 684:1 789:2 807:1 809:3 817:2 841:1 897:1 931:2 1951:1 2011:1 2408:1 2411:1 2413:1 2444:3 2450:1 2752:1 2961:1 3493:1 3643:1 4073:1 4217:1 4231:1 4516:1 5638:1 6273:1 6400:1 14031:1 
1 1 1 1 1:1 8:1 14:1 32:1 35:1 37:2 66:1 67:1 98:1 137:1 141:1 149:1 154:2 160:1 191:1 258:1 404:1 480:1 496:1 509:1 575:1 647:1 681:1 750:1 1334:1 1718:1 2682:1 3076:1 6301:1 12830:1 14052:1 14053:1 
1 1 1 1 8:1 37:2 38:1 71:1 74:1 98:1 129:1 149:1 594:1 
1 1 1 1 0:1 1:13 3:3 8:7 17:1 18:1 21:6 31:8 32:22 33:3 34:8 35:3 37:20 39:1 41:1 44:8 54:3 55:2 56:4 57:1 59:2 60:4 63:1 64:1 65:1 66:17 70:1 71:4 74:13 75:2 79:3 87:3 92:1 96:4 100:4 102:3 104:2 105:11 111:2 112:2 121:1 124:1 125:8 127:6 133:2 134:3 146:1 149:1 150:1 159:2 168:2 171:4 181:4 187:1 190:1 223:1 229:1 232:1 238:2 244:1 259:1 260:2 267:3 269:2 279:1 283:2 288:1 292:2 300:2 301:1 302:1 311:1 313:2 319:1 322:1 328:3 329:1 339:3 348:2 351:1 358:2 359:4 362:2 363:4 366:2 389:2 391:2 400:2 414:1 415:1 416:1 424:1 451:2 480:4 503:1 505:1 519:2 521:1 532:1 539:1 543:1 548:1 554:1 560:1 569:1 574:1 575:2 579:2 594:2 603:4 630:1 641:5 644:1 647:4 651:1 662:1 696:1 703:1 718:3 768:1 792:1 802:2 816:1 823:1 835:1 871:1 908:1 909:1 929:1 935:2 951:1 962:1 973:1 992:1 1023:1 1033:2 1059:7 1094:1 1100:1 1119:1 1139:2 1162:1 1177:1 1216:1 1286:2 1316:2 1331:1 1349:2 1441:1 1444:1 1445:3 1454:1 1465:1 1475:5 1513:1 1574:1 1581:1 1640:1 1710:1 1755:1 1771:1 1819:1 1860:1 1901:1 1916:1 1921:1 1951:1 1986:1 1994:2 2010:1 2033:1 2179:1 2275:1 2284:1 2373:1 2403:1 2404:2 2419:4 2506:3 2639:1 2663:1 2720:2 2857:1 2858:1 2907:1 2911:1 2999:1 3817:1 3825:1 3855:3 3860:2 3926:1 4034:1 4079:1 4703:1 5109:1 5923:1 6654:1 7720:1 8766:2 10403:1 10510:1 10809:4 11220:1 12780:1 14072:1 14073:1 14074:1 14075:1 14076:1 14077:1 14078:1 
1 1 1 1 1:7 3:2 6:2 7:1 8:4 14:3 21:3 32:3 33:1 34:3 35:2 36:1 37:8 41:1 44:4 55:3 56:1 60:1 66:7 82:1 96:2 98:1 100:2 121:1 125:3 127:3 134:2 146:1 153:1 154:2 155:1 162:1 167:1 168:1 175:1 179:1 191:1 201:7 260:3 267:1 269:1 271:1 294:1 334:1 347:1 359:1 368:1 404:1 443:1 453:1 463:1 480:1 539:1 554:1 563:1 572:1 584:1 598:1 599:1 621:1 637:2 647:1 696:1 731:1 740:1 781:1 791:1 806:1 809:1 842:1 940:1 973:1 992:1 1015:1 1081:1 1141:1 1172:2 1173:1 1201:1 1260:1 1286:1 1300:1 1307:1 1319:1 1335:1 1349:1 1369:1 1475:1 1563:1 1585:1 1616:2 1617:1 1719:1 1771:1 1810:2 1816:1 1886:1 2168:1 2207:1 2311:1 2312:1 2375:1 2433:1 2435:1 2481:1 2499:1 2617:1 2676:1 2909:1 3474:1 3830:1 3850:1 4277:1 4297:1 4436:1 4647:1 4896:3 5784:1 7171:1 7462:1 9979:1 11842:1 12147:1 12839:1 14079:1 14080:1 14081:1 14082:1 14083:1 14084:1 14085:1 
1 1 1 1 3:1 8:1 15:1 21:1 35:1 37:3 38:1 44:3 54:1 59:1 63:1 66:3 93:1 125:2 167:1 263:1 294:1 300:1 334:1 345:1 358:1 363:1 391:1 404:1 406:1 566:1 583:1 647:1 674:1 793:1 921:1 1017:1 1033:1 1170:1 1632:1 1719:1 1919:1 2176:1 3273:3 4718:1 6629:1 8141:1 10492:1 10627:1 10958:1 14147:1 
1 1 1 1 1:5 3:7 8:8 12:1 14:1 21:1 31:1 35:2 37:9 38:2 41:2 43:1 44:3 55:2 56:2 59:1 60:2 66:6 67:1 70:2 74:3 75:1 76:1 79:1 87:2 96:1 100:1 102:2 104:2 105:1 112:1 125:1 149:1 154:1 160:1 171:1 201:3 204:4 206:1 208:1 263:1 267:1 272:2 313:1 321:1 329:1 340:1 342:6 359:2 363:1 408:1 476:1 512:1 539:1 572:1 600:2 604:1 605:1 611:1 651:1 712:1 718:1 728:1 740:2 768:1 779:1 882:1 973:1 1013:1 1060:1 1068:1 1090:1 1135:1 1147:1 1242:1 1275:1 1297:1 1323:1 1416:1 1563:1 1642:1 1647:1 1675:1 1712:1 1946:1 1975:1 1978:2 1993:1 2774:1 2886:1 3136:1 4008:1 4612:1 4814:2 4887:1 5469:1 6006:1 6023:2 6577:1 6927:1 6957:1 6963:1 9298:1 9929:1 10707:1 11140:1 12856:1 14168:1 14169:1 14170:1 14171:1 
1 1 1 1 125:1 416:1 2394:1 
1 1 1 1 1:5 3:5 6:3 7:3 8:4 12:1 14:1 21:2 31:1 32:10 34:5 35:1 36:1 37:7 39:2 43:1 44:2 45:1 53:1 54:2 55:1 56:5 60:3 64:1 66:7 67:1 74:1 75:1 79:1 83:1 84:1 87:4 100:2 104:3 105:2 120:2 125:2 136:2 146:1 151:1 171:2 184:1 187:1 189:1 232:1 238:3 301:1 322:1 348:1 359:1 381:1 385:1 386:1 439:1 451:1 462:1 463:1 480:2 496:1 509:1 530:1 544:1 568:1 579:1 584:1 600:1 604:2 618:1 621:1 680:1 703:1 733:2 765:1 768:1 775:1 778:1 789:2 808:1 835:1 929:2 996:1 1019:1 1038:1 1147:1 1177:1 1180:1 1295:1 1331:1 1380:1 1427:1 1430:1 1489:1 1630:1 1818:1 1839:1 1917:1 1951:1 1993:1 2012:1 2014:1 2025:4 2028:1 2208:1 2318:1 2433:1 2449:1 2875:1 2885:1 2990:1 3169:1 3871:1 4155:1 4412:2 4896:1 5610:1 6004:1 6193:1 6353:1 7703:1 8108:1 10868:1 14249:4 14250:1 14251:1 14252:1 14253:1 14254:1 14255:1 14256:1 14257:1 14258:1 
1 1 1 1 6621:1 8656:1 
1 1 1 1 3:1 8:2 14:1 21:1 31:1 34:2 37:1 47:1 55:1 56:1 59:1 60:3 66:3 79:1 87:1 105:1 125:1 150:1 168:1 170:1 171:1 181:2 201:4 232:1 301:1 311:1 336:1 359:1 445:1 451:1 526:1 529:1 543:2 595:1 641:1 647:1 692:1 702:3 825:1 897:1 931:1 962:1 985:1 990:1 995:1 1029:1 1147:1 1152:1 1198:1 1416:1 1502:1 1683:1 1708:1 1720:2 2293:1 3920:1 4052:1 8175:1 10746:1 14284:1 14285:1 
1 1 1 0.9358652260551972 0:1 1:1 8:3 14:1 17:1 37:2 39:1 44:3 55:1 67:1 79:2 83:1 98:2 125:2 150:1 171:2 187:1 198:1 238:1 512:1 550:1 566:1 570:1 571:1 718:1 738:1 763:1 768:1 798:1 853:1 875:1 1170:1 1260:1 1316:1 1416:1 1523:1 1624:1 1861:1 1973:1 3827:1 5202:1 6301:1 6999:1 8129:1 8417:1 14286:1 
1 1 1 1 30:1 37:1 39:1 55:1 66:1 559:2 1005:1 1809:1 1869:1 2675:1 3886:1 4246:1 4268:1 9339:1 10696:1 14292:1 14293:1 14294:1 14295:1 14296:1 14297:1 14298:1 14299:1 14300:1 
1 1 1 0 6:1 7:2 8:2 12:1 36:1 37:2 41:1 44:1 149:1 354:1 404:1 618:1 645:1 678:1 701:1 821:1 1433:1 1691:1 1771:1 3261:1 10134:1 14316:1 14317:1 14318:1 
1 1 1 1 1:5 3:2 5:1 8:9 14:4 21:4 32:4 34:1 36:1 37:3 39:4 41:1 43:1 44:5 55:1 59:1 60:1 66:4 71:2 73:1 74:1 76:1 87:1 96:1 98:3 105:1 125:1 127:1 129:3 134:2 136:2 142:1 151:3 154:1 159:1 168:1 171:2 201:2 208:1 232:1 269:1 288:1 329:2 355:1 363:1 459:1 463:1 466:1 474:1 475:1 507:1 521:1 557:1 567:1 594:1 662:1 718:1 792:1 873:1 897:2 929:2 1003:1 1057:1 1088:1 1134:2 1188:1 1427:1 1621:1 1628:1 1641:1 1687:1 1733:1 1965:1 2012:1 2317:1 2452:1 2504:1 2610:1 2837:1 2858:1 3087:1 3102:1 3211:1 3261:1 3367:1 3380:3 3595:1 3613:1 3647:2 3694:1 3881:1 4102:1 4420:1 4790:1 4950:1 5137:1 5154:1 5155:1 5157:1 5162:1 5309:1 5553:1 5912:1 6110:1 6705:1 6835:1 7084:1 8015:1 12131:1 13139:1 14194:1 14330:1 14331:1 14332:1 14333:2 14334:1 14335:1 
1 1 1 1 1:2 8:1 34:1 44:1 60:1 65:1 66:1 125:1 151:1 171:1 204:4 301:1 322:1 359:1 453:1 463:1 480:1 600:3 833:1 872:1 908:1 929:1 1029:1 1170:1 2113:1 2115:1 2603:1 2940:1 3076:1 3952:1 4147:1 5470:1 5529:1 11184:1 14336:1 14337:1 14338:1 14339:1 
1 1 1 1 1:5 8:3 32:1 34:1 35:1 36:1 37:1 39:1 44:2 55:1 59:1 66:2 74:2 98:1 129:1 144:1 239:1 311:1 354:1 509:2 699:1 1026:1 1911:2 2149:1 2749:1 2763:1 3305:1 4254:1 4667:1 5157:2 11724:1 12013:1 14371:1 14372:1 
1 1 1 0 1:5 3:1 8:4 34:1 37:2 44:5 45:1 55:1 56:1 66:1 87:1 98:2 125:1 127:1 136:1 149:2 150:2 201:3 226:1 258:1 263:1 265:2 272:1 285:1 313:1 340:1 354:1 408:2 433:1 469:1 474:1 480:2 490:1 493:1 494:1 557:1 611:1 623:1 712:1 718:1 725:1 779:1 866:1 1002:1 1018:1 1134:1 1226:1 1246:1 1260:1 1427:1 1683:1 2535:1 2661:1 3222:1 4719:1 5431:1 5838:1 6777:1 7726:1 7907:1 8745:1 11778:1 11779:1 12122:1 14382:1 14383:1 14384:1 
1 1 1 1 1:1 3:1 8:2 14:1 21:1 31:1 32:2 34:1 37:5 39:1 44:1 45:1 58:1 66:1 70:1 71:2 74:4 79:1 87:1 98:1 100:1 105:1 119:1 125:1 129:2 134:1 149:1 150:1 171:1 175:1 177:1 178:1 224:1 309:1 339:1 366:1 378:2 427:1 509:1 521:1 598:1 802:1 816:1 973:1 974:1 1054:1 1155:1 1264:1 1392:1 1706:1 2049:1 2637:1 3032:1 4232:1 4950:1 5553:1 5706:1 5709:1 6033:1 9068:1 
1 1 1 1 6:2 7:2 21:1 31:1 32:2 37:1 41:1 55:1 56:1 66:1 100:1 102:1 105:2 136:1 149:1 263:1 311:1 363:1 469:2 554:1 575:1 618:1 821:1 897:1 1185:1 1260:1 1419:1 1427:1 1675:1 1691:1 2137:1 2269:1 2640:1 2641:1 2974:1 3591:1 3607:1 3608:1 3878:1 5530:1 6446:1 6957:1 7320:1 10538:1 10627:1 13955:1 14392:1 14393:1 
1 1 1 1 1:14 3:15 8:11 12:2 14:3 21:7 31:1 32:6 34:4 35:1 37:21 39:1 41:7 44:8 45:1 53:1 55:8 56:4 60:1 63:1 66:20 70:1 74:1 76:1 83:1 87:3 93:2 96:1 102:4 112:1 125:7 127:2 138:1 146:1 150:1 154:2 156:3 159:1 167:1 171:2 187:3 188:1 191:1 201:12 211:1 232:2 237:1 238:1 254:2 260:2 263:4 267:2 271:1 283:1 288:3 295:1 300:1 301:1 310:1 311:3 313:2 322:4 328:3 336:1 339:1 357:1 358:1 363:4 381:2 385:2 386:1 391:2 402:1 404:2 416:1 421:1 427:1 443:2 451:2 463:1 469:1 471:1 481:2 490:1 501:1 503:1 505:3 510:1 560:1 565:1 566:1 600:1 619:1 629:2 637:1 646:1 657:2 667:1 674:2 675:1 683:1 700:1 708:1 718:1 730:2 731:1 740:1 750:1 768:1 770:1 779:3 798:1 823:2 825:1 839:1 851:2 866:2 876:1 878:1 897:3 904:1 962:2 999:1 1003:1 1016:1 1018:1 1022:1 1038:1 1052:1 1060:1 1066:1 1100:1 1126:1 1139:1 1167:3 1170:1 1201:2 1213:1 1236:2 1242:1 1248:1 1254:1 1260:1 1275:2 1283:2 1291:1 1335:3 1367:1 1375:1 1448:3 1454:2 1489:1 1517:1 1535:1 1563:1 1566:1 1587:1 1614:1 1642:1 1690:1 1712:1 1719:1 1774:2 1818:1 1837:3 1909:1 1913:1 1978:1 1994:3 2015:1 2020:1 2044:1 2052:2 2211:1 2285:1 2293:1 2298:1 2430:1 2499:2 2637:1 2683:2 2703:1 2705:1 2716:1 2757:1 2819:1 2891:1 3013:1 3050:1 3068:1 3125:1 3283:1 3355:2 3438:1 3526:1 3685:1 3739:1 3830:1 3846:2 3902:1 3914:1 3918:1 3968:1 3991:1 4012:1 4392:1 4481:1 4492:1 4968:1 5265:1 5292:6 5295:1 5309:1 5369:1 5400:1 5461:1 5480:1 5509:1 5589:1 5811:1 5814:1 5824:1 6005:1 6023:1 6155:1 6257:1 6452:2 6678:1 6735:1 7186:1 7236:2 7240:1 7275:1 7425:1 7559:1 7592:1 7789:1 8037:1 8220:1 8286:1 8809:1 9325:1 9328:1 9351:1 9353:1 9586:1 10177:1 10243:1 10552:1 10627:1 10646:3 10705:1 10709:1 10725:1 10877:1 11072:1 11140:1 11664:1 11877:2 12024:1 12107:4 12518:1 12993:1 13053:1 13155:1 13340:1 13757:1 13809:1 14398:2 14399:1 14400:1 14401:1 14402:1 14403:1 14404:1 14405:1 14406:1 14407:1 14408:1 14409:1 14410:1 14411:1 14412:1 14413:1 14414:1 14415:1 14416:1 14417:1 14418:1 14419:1 14420:1 14421:1 14422:1 14423:2 14424:1 14425:2 14426:1 14427:1 14428:1 14429:1 14430:1 14431:1 14432:1 14433:2 14434:1 14435:1 14436:1 14437:1 14438:1 14439:1 14440:1 14441:1 14442:1 14443:1 14444:1 14445:1 14446:1 14447:1 14448:1 
1 1 1 1 1:1 3:1 15:2 21:1 32:3 36:1 37:3 41:1 44:1 60:1 66:2 70:2 71:1 121:1 125:2 150:1 151:1 191:1 201:1 263:2 349:1 480:1 509:1 578:1 701:1 904:1 1174:1 1177:1 1206:1 1412:1 1542:1 1618:1 1924:1 1943:1 2833:1 4344:1 4710:1 10202:1 10906:1 11921:1 12638:1 
1 1 1 1 8:1 21:1 31:1 32:1 37:2 41:1 129:1 168:1 219:1 474:1 539:1 604:1 807:1 933:1 
1 1 1 1 1:3 2:1 3:9 8:8 12:1 14:1 15:1 18:1 21:4 31:3 32:15 34:1 35:2 36:2 37:17 38:1 39:1 41:1 44:5 53:1 55:1 56:5 60:4 64:1 66:10 67:1 70:2 74:3 79:1 80:1 87:7 98:1 100:1 102:2 105:1 120:1 125:5 129:1 134:1 136:1 141:2 149:3 150:1 151:1 153:1 155:1 156:1 171:1 187:1 189:1 190:2 201:1 237:1 267:2 301:2 311:2 322:1 328:1 346:2 358:1 363:2 368:1 385:1 403:1 404:1 411:1 426:1 445:1 463:2 480:3 485:1 506:1 509:1 521:1 554:1 557:1 560:3 598:1 600:1 604:1 611:1 624:1 645:2 646:1 702:1 703:2 712:1 718:2 738:1 768:1 773:1 778:1 798:1 871:1 992:1 1022:1 1040:1 1139:1 1157:1 1167:1 1172:1 1228:2 1236:1 1336:1 1614:1 1675:1 1744:1 1898:1 1943:1 1951:1 2000:3 2005:1 2053:1 2057:1 2143:1 2373:1 2397:1 2420:2 2440:1 2515:1 2550:1 2676:1 2919:1 3243:1 3283:1 3565:1 3902:1 4315:1 4844:1 5527:2 5553:1 5621:1 6691:1 6692:1 6791:3 7108:2 7616:1 8075:1 8762:1 8849:1 9286:1 9803:1 10785:1 11344:1 13335:1 14491:1 14492:1 14493:1 14494:1 14495:1 14496:2 14497:1 
1 1 1 1 1:3 3:4 8:4 14:3 21:2 32:12 34:6 35:1 36:1 37:10 39:1 44:4 53:1 54:1 55:4 60:2 64:3 66:8 70:1 87:1 93:1 96:1 98:1 100:1 105:1 111:1 125:1 127:1 149:1 151:2 155:1 167:1 168:1 201:2 207:1 267:2 271:1 288:1 311:1 328:1 334:1 345:1 358:1 359:2 362:1 363:1 380:1 385:1 458:2 467:1 469:1 474:1 480:2 485:1 487:1 490:1 493:1 497:1 532:2 549:1 557:1 560:1 572:1 596:1 600:1 610:1 631:1 678:1 718:1 804:1 816:4 882:1 888:1 943:1 962:1 984:1 1027:2 1091:2 1099:1 1134:1 1155:1 1170:2 1316:1 1331:1 1454:1 1953:1 1954:1 1992:1 2423:1 2461:1 2812:1 2917:1 3051:1 3247:1 3529:1 4082:1 4472:2 5110:1 5264:1 5352:1 5815:1 7178:1 8933:1 9571:1 10099:1 12869:1 14522:1 14523:1 14524:1 14525:1 14526:1 14527:1 14528:1 14529:1 
1 1 1 1 0:2 1:2 3:5 8:10 14:2 31:2 32:8 34:1 36:2 37:11 39:2 41:2 44:5 45:4 53:1 55:1 56:1 59:1 60:2 63:2 64:4 66:8 70:2 87:2 96:1 98:1 102:5 105:2 111:1 125:1 127:1 136:1 150:1 151:1 155:1 159:1 162:2 171:2 201:3 244:1 263:3 265:1 271:1 283:1 301:3 311:1 321:1 322:2 330:1 340:1 345:1 354:1 363:1 380:1 385:2 436:1 439:1 451:1 469:1 480:2 490:1 521:1 553:1 572:1 594:1 603:1 629:1 631:2 651:2 682:1 683:1 684:1 702:1 718:1 776:1 817:1 824:1 876:1 897:2 905:1 962:2 985:2 1023:2 1068:2 1201:1 1369:2 1397:1 1435:1 1447:1 1475:1 1640:1 1839:1 1854:3 1898:1 2123:1 2196:1 2208:1 2234:1 2572:1 2711:1 2759:1 2773:1 2926:1 2934:1 3247:1 3381:2 3662:1 3870:2 3889:2 3908:1 4648:1 4807:1 4898:1 4992:1 5233:1 5554:1 5583:1 5746:1 6614:1 6687:1 6995:1 8077:1 8479:1 10329:1 10353:1 10434:1 11435:1 11832:1 11847:1 12189:1 14555:1 14556:1 14557:1 14558:1 14559:1 14560:1 14561:1 14562:3 14563:1 14564:1 14565:1 14566:1 14567:1 14568:1 14569:1 14570:1 14571:1 14572:1 14573:1 14574:1 
1 1 1 1 0:1 1:3 3:5 8:5 12:1 13:2 14:2 18:1 21:1 30:1 31:1 32:10 33:1 34:3 35:1 37:14 40:1 41:2 44:2 45:1 55:4 56:3 63:1 66:3 87:4 93:2 102:1 105:1 113:1 120:1 125:2 127:1 139:1 146:1 148:1 149:1 153:2 159:1 160:6 167:1 171:2 187:1 191:2 197:1 204:1 207:1 260:1 263:2 267:2 278:1 288:1 301:1 309:1 313:1 322:1 342:3 345:2 347:2 354:2 359:1 363:2 391:2 400:2 403:1 411:1 451:2 474:1 480:2 506:1 513:3 534:1 539:1 575:1 600:1 610:1 623:2 626:1 647:1 678:1 740:1 785:1 806:1 808:1 835:1 938:1 1018:1 1034:2 1057:1 1060:1 1127:1 1136:1 1141:1 1147:1 1170:1 1208:2 1242:1 1276:1 1292:1 1320:1 1329:1 1331:2 1335:1 1359:1 1563:1 1686:1 1729:2 1857:1 1871:1 1901:1 2789:2 2812:1 3042:1 3073:1 3247:1 3350:1 3591:1 3671:1 4024:1 4025:3 4184:1 4366:1 4431:1 5158:2 5796:1 5896:1 5946:1 6554:1 7757:3 7817:1 8596:3 8597:1 8637:1 9448:1 9975:1 12062:1 12407:1 13573:2 14593:1 14594:1 14595:1 14596:1 14597:1 14598:1 14599:1 14600:1 14601:1 14602:1 14603:1 
1 1 1 1 1:4 3:3 8:4 32:1 35:1 37:1 39:1 41:3 44:3 55:2 56:1 60:3 66:4 70:1 94:1 95:1 98:1 105:3 112:2 134:1 136:1 159:2 201:2 283:1 288:2 345:1 358:1 385:1 406:1 422:1 490:1 521:1 539:1 594:1 595:1 596:1 629:1 641:1 740:1 770:1 798:1 847:1 897:1 936:1 938:1 954:1 962:1 974:1 1015:1 1029:1 1100:1 1126:1 1170:1 1207:1 1208:1 1435:2 1683:1 2134:1 2411:1 2462:1 2481:1 2483:1 2672:1 2710:1 2763:2 3081:1 3677:1 3923:1 4469:1 4625:1 5507:1 5834:1 6968:1 7112:1 11876:1 12248:1 12662:1 14611:1 14612:2 14613:1 14614:1 14615:1 
1 1 1 1 1:1 8:2 14:2 45:1 60:1 66:1 74:1 79:1 134:1 153:1 189:1 260:1 271:1 288:1 311:1 397:1 543:1 684:2 731:1 779:1 817:1 908:1 931:1 1069:1 1155:1 1763:1 2450:1 2919:1 2978:1 3766:1 4495:1 14617:1 14618:2 14619:1 14620:1 
1 1 1 1 1:2 3:1 8:3 15:1 21:1 31:2 35:1 36:1 37:2 40:1 41:2 42:1 44:2 45:3 54:1 66:1 74:1 93:1 96:1 100:1 114:1 129:2 139:1 162:1 260:1 263:1 288:1 298:1 301:1 385:1 474:1 554:1 662:1 796:1 954:1 995:1 1027:1 1139:1 1207:1 1228:1 1333:1 1412:1 1427:1 1433:2 1524:1 2958:1 6782:1 12254:1 
1 1 1 1 1:3 8:5 17:1 21:1 32:3 36:1 37:2 44:1 66:2 70:1 71:1 74:1 79:1 87:1 105:1 129:1 146:1 150:3 159:2 168:1 171:1 187:1 223:1 238:1 312:1 339:1 354:1 363:2 408:1 565:1 566:1 572:1 580:1 594:1 595:1 833:1 885:1 954:1 976:1 995:1 1170:1 1207:1 1323:1 1458:1 1984:1 2097:1 2305:1 2423:1 2428:1 2550:1 3228:1 3774:1 4089:1 4231:1 4232:1 6083:1 14627:1 14628:1 14629:1 14630:1 14631:1 14632:1 14633:1 
1 1 1 1 1:3 2:1 3:2 8:2 12:1 15:1 21:1 31:1 32:4 34:1 37:2 39:1 44:1 55:2 59:1 60:2 64:1 66:2 100:2 102:1 105:2 112:1 136:1 146:2 149:1 155:1 167:1 171:2 267:1 347:1 363:1 385:1 386:1 404:1 539:1 566:1 636:1 647:1 683:1 718:1 740:1 776:1 866:1 931:1 959:1 1002:1 1018:1 1119:2 1167:1 1286:1 1400:1 1416:1 1475:1 1720:1 1755:1 1952:1 1981:1 2075:1 2102:1 2239:1 2275:1 2310:1 2405:2 2979:1 3892:1 4829:1 4875:1 5866:1 6133:1 8134:1 9417:1 9994:1 10740:1 12025:1 14702:1 14703:1 14704:1 
1 1 1 1 1:1 3:1 36:1 37:4 44:3 55:1 63:1 66:1 100:1 102:1 122:1 149:1 150:1 154:1 162:1 204:1 474:1 534:1 553:1 561:1 562:1 702:1 738:1 816:2 839:1 947:1 958:1 969:2 1018:1 1819:1 1992:1 2074:1 4562:1 7413:1 7785:1 8156:1 8921:1 8924:1 11759:1 14708:1 14709:1 14710:1 14711:1 14712:1 
1 1 1 1 0:1 8:3 14:1 21:2 31:1 32:2 37:4 54:2 58:1 66:2 70:1 71:1 87:1 105:2 125:1 151:1 155:1 159:1 226:1 244:2 315:1 344:1 354:1 358:1 363:2 481:1 521:1 567:1 601:1 616:1 623:1 647:1 765:1 767:1 776:1 796:1 800:1 897:1 1063:2 1427:1 1628:1 1629:1 1700:1 1771:1 2025:1 2449:1 2493:1 2686:1 2687:1 3612:1 3804:1 3878:1 3901:1 4270:1 5293:1 5370:1 5755:1 5766:1 5767:1 7418:1 8457:1 14731:1 14732:1 
1 1 1 1 1:4 3:2 8:4 14:1 31:1 32:6 33:1 34:2 35:1 37:6 38:1 44:2 45:1 55:2 56:1 57:1 60:1 66:2 72:1 74:3 79:1 92:1 96:1 120:1 125:1 127:1 159:1 171:1 181:1 184:2 201:3 211:1 263:2 267:1 288:1 321:1 328:2 363:1 368:1 390:1 391:2 490:1 505:1 515:1 521:1 554:1 566:1 578:1 626:1 636:1 651:1 656:1 758:2 809:2 890:2 897:1 902:1 908:2 974:1 1036:1 1088:1 1123:1 1126:1 1207:1 1331:1 1416:1 1455:1 1475:2 1563:1 1625:1 1630:1 1715:1 1770:1 1994:2 2060:1 2291:1 2405:1 2445:1 2532:1 2560:1 2752:1 2783:1 2858:1 2936:1 3214:1 3453:1 3677:1 3772:1 3860:1 4688:1 4757:1 5469:1 5470:1 6509:1 6664:1 7824:1 10633:1 12687:1 14146:1 14769:1 14770:1 14771:1 14772:1 14773:3 
1 1 1 1 1:1 3:1 8:9 14:7 21:2 33:1 34:1 35:1 37:5 41:1 44:5 46:1 55:1 56:1 60:1 66:2 79:1 87:3 98:1 100:2 107:2 125:2 127:1 129:1 137:2 140:1 150:4 157:1 159:1 162:1 168:1 204:3 208:1 232:1 238:1 244:1 260:1 267:1 278:1 287:1 301:1 308:1 310:1 321:1 322:1 347:1 381:1 439:1 451:2 458:2 467:1 485:1 496:1 550:1 575:1 588:1 591:1 592:1 610:1 647:1 651:2 672:1 712:2 718:1 740:1 831:1 905:1 1274:1 1335:1 1427:2 1465:1 1503:1 1691:1 1706:1 1877:2 1946:1 1964:1 1973:2 1974:3 1978:1 1994:1 2028:1 2111:1 2112:1 2120:1 2169:1 2195:1 2384:2 2640:1 2676:1 2873:3 3293:1 3502:1 3552:1 3729:1 3979:2 4159:1 4887:1 4979:1 5000:1 5110:1 5111:2 5162:1 5543:1 6692:1 6768:2 8869:1 9805:1 10051:2 10055:1 10067:1 10949:1 14290:1 14323:1 14795:1 14796:1 14797:1 14798:1 14799:1 14800:1 14801:1 
1 1 1 1 1:2 8:3 21:2 32:1 35:1 44:1 55:1 60:1 66:1 71:1 87:4 93:1 128:1 146:1 168:1 239:1 267:2 269:1 271:1 294:1 322:1 339:1 368:1 427:1 462:1 480:1 559:1 572:1 595:1 596:1 625:1 662:1 671:1 768:1 806:1 809:1 1138:1 1153:2 1316:1 1422:1 1472:3 1475:1 1485:1 1554:1 1861:1 2446:1 2774:1 3183:1 4912:1 4949:1 5744:1 6468:1 8949:1 12846:1 14818:1 14819:1 
1 1 1 1 1:3 3:2 8:3 32:1 35:1 37:2 55:1 66:4 73:1 87:1 98:1 127:1 184:1 232:3 265:1 301:1 363:1 469:1 519:1 548:1 549:1 823:1 897:1 922:1 1090:1 1435:2 1454:1 1917:1 2317:1 2449:1 2462:1 2756:1 2899:1 3452:1 3615:1 4334:1 4738:1 6353:1 9029:1 9956:1 12939:1 13565:2 14820:1 14821:1 14822:1 14823:1 
1 1 1 1 1:4 8:7 13:1 15:2 21:1 31:2 32:3 34:1 35:1 36:1 37:3 39:4 41:2 44:6 54:1 55:2 60:1 65:1 70:3 74:1 79:1 83:1 87:1 96:1 98:3 100:2 104:1 105:1 122:1 125:1 127:1 129:2 134:1 144:1 149:1 150:1 171:1 191:1 198:1 201:3 211:1 219:1 238:1 263:3 272:1 292:1 294:1 298:1 330:1 336:1 363:3 366:1 385:1 391:1 469:1 490:1 494:2 509:2 521:1 566:2 568:1 595:1 626:1 629:1 638:1 678:1 683:1 787:1 793:1 804:1 891:1 897:1 902:1 908:1 973:1 1002:1 1029:1 1037:1 1147:1 1167:1 1254:1 1334:1 1455:1 2056:1 2861:1 2891:1 2934:2 3087:1 3219:1 3377:1 3517:1 3795:1 4206:1 4311:1 4667:1 5095:1 5613:1 6451:1 7412:1 8026:1 8203:1 9075:1 12842:1 
1 1 1 1 1:2 3:1 8:4 12:1 14:1 15:1 18:1 21:1 31:2 32:5 34:1 36:1 37:2 44:2 45:1 53:1 55:3 59:1 64:1 66:2 67:1 68:1 70:2 93:1 105:1 127:2 136:3 146:1 150:2 151:2 201:1 232:1 308:1 313:1 321:1 328:1 345:1 349:1 358:1 366:1 439:1 480:2 485:1 490:1 496:1 697:1 908:2 1139:1 1170:1 1430:1 1556:1 1686:1 1839:1 2172:1 2207:1 3130:1 3419:1 4714:1 4757:1 4904:2 4992:1 5529:1 5801:1 5969:1 6126:1 6325:1 6723:1 10839:1 11797:1 14903:3 14904:1 14905:1 
1 1 1 1 1:6 3:1 8:7 12:1 14:2 21:2 31:1 32:16 34:2 37:10 39:4 41:1 45:3 54:1 55:4 58:3 59:3 60:1 63:1 66:7 71:3 73:1 74:12 75:2 79:1 87:2 92:1 96:2 98:1 100:4 102:2 104:1 105:2 112:1 121:1 125:4 146:1 154:1 164:1 168:2 179:2 181:1 184:1 190:1 191:1 201:4 238:1 239:1 263:3 267:5 288:3 300:1 318:1 328:3 339:1 340:1 345:1 351:1 363:4 380:1 385:2 391:2 411:1 413:1 439:1 448:1 453:2 463:2 480:1 487:1 490:1 497:2 509:1 515:1 519:1 521:2 535:1 554:3 555:1 595:1 625:1 641:1 671:1 678:1 683:1 718:1 771:1 789:1 791:1 796:4 833:1 876:1 891:1 897:3 908:1 929:1 947:1 968:1 1000:1 1021:1 1027:1 1029:1 1082:1 1177:1 1198:1 1297:1 1316:1 1556:1 1584:1 1645:1 1685:1 1692:1 1719:3 1742:1 1839:1 1842:1 1860:1 1991:1 2011:1 2020:1 2279:1 2284:2 2446:1 2499:1 2858:1 2954:1 3130:2 3147:2 4051:1 4896:1 5137:1 5194:1 5271:1 5382:3 5627:1 5817:1 5827:1 6001:1 6127:1 8175:2 9136:1 9814:4 10554:1 12257:1 12765:1 13496:1 14914:1 14915:1 14916:1 14917:1 14918:1 14919:1 14920:1 14921:1 14922:1 14923:1 14924:1 14925:1 
1 1 1 1 1:2 3:1 8:2 14:1 21:2 36:1 37:2 39:1 44:1 58:1 66:3 73:1 125:1 134:1 150:1 305:1 322:1 358:1 363:1 366:1 404:1 469:1 480:1 594:1 684:1 707:1 929:1 1006:1 1036:1 1420:1 1628:1 1683:1 1691:1 2053:1 2210:1 2701:1 2765:1 4670:1 4872:1 5422:1 5655:1 6069:1 6780:1 7131:1 11172:1 13099:1 14997:1 14998:1 14999:1 15000:1 15001:1 15002:1 15003:1 
1 1 1 1 1:2 8:4 13:1 14:1 17:1 31:1 32:5 33:2 34:3 37:3 39:2 41:1 44:6 53:1 60:1 66:2 67:2 70:1 79:1 87:1 96:1 102:1 105:1 120:2 121:1 125:6 129:1 136:1 150:2 154:1 156:1 311:1 317:1 327:1 329:1 348:1 416:1 469:1 539:1 564:1 568:1 600:1 647:1 678:1 820:2 935:1 959:1 1082:1 1187:1 1960:1 2056:1 2070:1 2418:1 2729:1 4667:1 4892:1 6540:1 7202:1 15004:1 15005:1 
1 1 1 1 1:2 3:4 8:1 12:1 21:3 32:3 35:3 36:1 37:5 39:1 44:2 45:1 53:1 55:1 58:1 60:2 66:3 76:1 87:1 102:1 120:1 133:1 134:1 154:1 159:1 171:1 175:1 201:2 223:1 224:2 238:1 244:1 271:1 283:1 301:1 311:2 313:1 322:1 324:1 336:1 349:1 393:1 466:1 480:1 483:1 494:1 521:1 526:1 559:1 568:1 596:1 610:1 647:3 750:2 776:1 779:1 840:1 866:1 897:3 907:1 932:1 933:1 1021:1 1172:1 1177:1 1293:1 1329:1 1475:3 1538:1 1715:1 1818:1 1864:1 1867:1 2373:1 2917:1 3357:1 3544:1 3817:1 4568:1 5660:1 6361:1 6635:1 8025:1 10232:2 11432:1 13758:1 15011:1 15012:1 15013:1 15014:1 15015:2 15016:1 15017:1 15018:1 15019:1 15020:1 15021:1 15022:1 15023:1 
1 1 1 1 3:1 8:2 14:1 21:3 32:5 34:1 35:2 37:6 41:1 55:2 60:2 66:4 87:4 88:1 105:5 149:2 151:1 204:1 229:1 267:3 328:1 339:1 345:1 363:1 366:1 385:1 390:1 391:2 413:1 414:2 487:1 569:1 572:1 600:1 610:1 623:1 683:1 718:1 730:1 792:1 796:1 807:1 908:1 962:1 972:1 1015:1 1359:1 1441:2 1452:1 1454:1 1475:2 1503:1 1506:1 1808:1 1994:1 2483:1 2740:1 3564:1 3749:1 4022:2 4233:1 4976:1 5815:1 6751:1 7584:1 9068:1 14377:1 15026:1 
1 1 1 1 0:1 1:4 3:4 8:5 14:2 17:2 32:3 34:1 36:1 37:2 41:1 44:2 60:4 63:1 66:4 79:1 87:2 96:3 100:2 105:1 125:2 136:1 151:1 154:1 168:1 171:1 237:1 238:2 267:1 271:1 272:1 279:1 283:1 288:2 301:1 322:2 324:1 347:1 358:1 362:1 363:3 385:1 463:1 477:1 480:3 481:1 490:1 496:1 539:1 560:1 566:1 623:1 641:2 768:2 789:1 882:1 910:1 984:1 1015:1 1153:1 1170:1 1316:1 1332:1 1349:1 1397:1 1554:1 1585:1 1618:1 1652:1 1683:1 1684:2 1760:1 1921:1 1955:1 2557:1 3486:1 3490:1 3751:1 4923:1 6199:1 8692:1 8935:1 10647:2 11927:3 15030:2 15031:1 15032:1 15033:1 15034:1 
1 1 1 1 1:10 3:5 8:7 14:4 15:1 21:5 31:2 32:9 34:1 36:3 37:16 39:5 41:2 44:3 55:2 60:1 64:1 66:9 74:7 87:3 96:1 100:1 102:1 124:1 125:9 127:2 138:1 150:1 151:1 154:1 159:1 160:1 164:2 171:2 175:1 189:1 201:7 219:1 237:1 260:1 267:2 288:1 301:2 309:1 322:1 323:1 328:1 330:2 339:2 345:2 347:1 349:2 357:1 362:1 363:4 380:2 385:3 416:1 469:1 474:1 480:1 490:1 519:2 527:1 532:1 534:1 556:1 565:1 594:1 600:1 603:1 609:1 610:1 626:2 647:1 662:1 665:1 680:1 684:1 702:2 712:1 718:2 723:3 730:1 733:1 740:1 768:1 798:2 822:2 866:1 876:1 897:1 908:1 910:2 962:1 1015:1 1018:1 1020:1 1022:2 1031:1 1036:1 1057:1 1060:1 1068:1 1071:1 1072:1 1201:3 1229:1 1243:1 1260:1 1273:1 1274:1 1279:1 1427:2 1438:1 1451:1 1518:1 1536:1 1549:1 1576:1 1720:1 1750:1 1832:1 1853:1 1946:1 2000:1 2017:1 2069:1 2179:1 2279:1 2665:1 2728:1 2893:1 3081:1 3250:1 3261:1 3302:1 3324:1 3729:1 3986:1 4189:1 4248:1 4438:1 4461:1 4613:1 4670:2 4719:1 4957:1 5584:1 5817:1 5857:1 5885:1 5946:1 6004:1 7167:1 8062:1 8175:1 9004:1 9110:1 10037:1 10663:1 11277:1 11404:1 12263:1 13371:1 13598:1 13987:1 14955:1 15054:2 15055:1 15056:1 15057:1 15058:1 15059:1 15060:1 15061:1 15062:1 15063:1 
1 1 1 1 1:4 3:4 8:2 14:1 17:1 32:2 34:2 35:1 37:5 39:1 44:1 55:2 58:1 60:1 66:1 71:1 87:1 105:1 127:1 141:1 146:1 159:1 171:2 197:1 201:1 238:1 288:1 305:1 311:1 324:1 366:1 385:1 391:1 393:1 399:1 414:1 452:1 492:1 509:1 521:1 575:1 584:1 604:1 647:1 768:1 776:1 778:1 800:2 847:1 866:1 897:2 910:1 1002:1 1036:1 1138:1 1260:1 1395:1 1545:1 1554:1 1626:1 1896:1 2020:1 2424:1 2497:1 2670:1 2725:1 2763:1 2786:1 2936:1 3011:1 3946:1 4095:1 4261:1 4344:1 4556:1 4861:1 5121:1 6087:1 6377:1 7068:1 7069:1 7236:1 7386:1 8826:1 13788:1 13818:1 14706:1 15093:1 15094:1 15095:2 15096:1 15097:1 15098:1 15099:1 15100:1 15101:1 15102:1 15103:1 15104:1 15105:1 15106:1 15107:1 15108:1 15109:1 
1 1 1 1 8:2 13:1 17:1 32:7 34:1 37:3 39:1 41:1 43:2 44:1 45:2 60:3 63:1 66:1 70:1 74:1 79:1 96:3 105:3 119:1 125:1 144:1 151:2 154:1 155:1 238:1 283:1 285:1 313:1 345:1 358:1 363:1 365:1 380:2 403:1 451:1 463:1 469:2 480:1 494:1 509:1 526:1 560:1 573:1 575:1 585:1 596:1 600:2 641:1 730:1 750:1 758:1 1068:2 1070:1 1208:1 1278:1 1283:1 1316:1 1347:1 1380:1 1682:1 1700:1 1713:2 1771:2 1772:1 2360:1 2786:1 3283:1 3613:1 4668:2 5158:1 5338:1 7167:1 7964:1 10520:1 12214:1 15110:1 15111:1 15112:1 15113:1 
1 1 1 1 1:1 32:1 34:1 39:1 41:1 66:1 96:1 162:1 236:1 310:1 345:1 385:1 469:1 798:1 838:1 1167:1 1911:1 5482:1 11871:1 12988:1 
1 1 1 1 1:8 3:2 8:7 14:3 17:2 21:1 31:2 32:4 34:2 35:2 36:3 37:6 38:1 41:4 44:6 54:1 55:3 56:1 60:2 64:1 66:4 67:1 70:3 74:1 82:1 83:1 92:1 96:2 100:1 102:3 105:4 106:1 120:2 125:1 134:1 149:1 150:2 155:1 156:1 159:2 179:1 191:1 201:8 202:1 211:1 238:2 263:2 272:1 288:2 294:2 324:1 328:1 329:1 336:1 345:1 358:1 363:2 385:1 386:1 391:1 402:1 404:2 408:1 416:1 443:1 451:1 469:2 480:6 490:3 509:1 539:2 549:1 565:1 572:1 584:1 594:2 595:1 598:1 604:1 624:1 631:1 683:2 697:1 750:1 779:1 802:1 808:1 816:1 825:1 842:1 856:1 866:1 897:2 902:1 931:1 936:1 984:1 1015:1 1029:1 1088:1 1126:1 1139:1 1151:1 1170:1 1228:1 1248:1 1331:1 1435:1 1454:1 1542:1 1683:1 1720:1 1919:1 2048:1 2408:1 2548:1 2759:1 2803:1 2891:1 2952:1 2997:1 3193:1 3740:1 4027:1 4606:2 4611:2 4625:1 4626:2 4922:1 6241:1 6787:1 6945:1 6963:1 7117:1 7469:1 9803:1 10025:1 10589:1 11073:1 11975:1 12480:1 12507:1 12515:1 13504:1 14974:1 15114:2 15115:1 15116:1 15117:1 15118:1 15119:1 15120:1 15121:1 15122:1 15123:1 15124:1 
1 1 1 1 1:2 3:5 8:3 15:1 21:1 32:9 35:1 37:14 44:2 64:1 66:3 70:1 87:1 100:1 111:1 127:2 136:1 151:1 164:1 189:3 232:1 263:3 283:1 301:1 316:1 363:1 380:1 497:3 515:1 545:1 684:1 697:1 712:1 718:2 731:2 778:1 779:1 817:2 851:1 882:1 884:1 995:1 1003:1 1122:1 1126:1 1442:1 1825:1 1878:1 1896:1 1908:1 1954:1 2032:1 2075:1 2151:1 2446:1 2592:1 2727:1 2757:1 3609:1 3643:1 3867:1 3881:3 3982:1 4089:1 4470:1 4810:1 4830:1 5321:1 5554:1 5723:1 6464:1 6617:1 6922:1 7066:1 7357:1 7420:1 7440:1 8122:1 9044:1 9447:1 9673:1 9693:1 10055:1 10695:1 11371:1 12258:1 13080:1 13359:1 13364:1 15158:1 15159:1 15160:1 15161:1 15162:1 15163:1 15164:1 15165:1 15166:1 15167:1 15168:1 15169:1 15170:1 15171:1 15172:1 15173:1 15174:1 15175:1 15176:1 15177:1 15178:1 
1 1 1 1 0:1 1:2 3:7 8:3 12:1 14:1 21:1 31:1 32:5 34:2 35:3 37:7 44:1 55:1 56:3 58:1 60:2 66:1 70:1 71:1 74:1 76:1 79:1 87:1 100:1 102:1 105:1 111:1 112:1 120:1 122:1 125:1 171:2 189:1 202:1 238:1 260:1 263:1 271:1 272:1 288:1 294:1 311:1 320:1 324:1 336:1 347:1 362:1 363:1 365:1 439:1 490:1 497:1 505:2 521:1 567:1 601:1 631:1 712:1 822:1 831:1 838:1 878:1 890:1 897:1 1005:1 1034:2 1045:1 1064:1 1414:1 1447:3 1475:2 1502:1 1633:1 1701:1 1901:1 2757:1 2843:1 2907:1 3913:1 4669:1 4671:1 4795:1 5293:1 5338:1 5601:1 6232:1 6588:1 7968:1 9660:1 9747:1 9803:4 10916:1 11319:1 12742:1 15186:1 15187:1 15188:1 15189:1 15190:1 15191:1 15192:1 15193:1 15194:1 15195:1 15196:1 15197:1 15198:1 
1 1 1 1 0:2 1:5 3:2 8:4 21:3 31:2 32:3 33:1 34:1 35:1 36:1 37:3 39:1 41:4 44:1 53:1 54:1 55:4 66:2 67:1 87:1 96:1 102:1 105:2 122:1 125:3 131:1 134:1 136:2 150:3 156:1 159:2 160:2 167:1 187:1 201:1 260:2 263:2 269:1 279:2 311:1 313:2 322:1 330:1 342:6 345:1 362:1 363:1 480:1 490:1 551:1 556:1 600:1 601:1 647:1 651:1 671:1 681:1 698:2 718:1 777:1 779:1 798:1 835:2 905:1 1054:1 1068:1 1170:2 1228:1 1239:1 1248:1 1279:1 1288:1 1293:1 1611:1 1630:1 1704:1 1864:1 1896:1 1910:1 1946:1 1968:1 1994:1 2004:1 2005:1 2457:1 2670:1 2727:1 3222:1 3741:1 4409:1 4431:1 4588:1 5625:1 6002:1 7087:1 8903:1 9733:1 14186:1 15217:1 
1 1 1 1 0:1 1:5 3:6 8:3 14:2 31:1 32:6 33:1 36:1 37:6 39:1 44:1 55:1 64:1 66:3 74:4 87:5 93:1 104:1 105:1 107:1 125:3 129:1 133:2 146:1 151:1 154:1 164:1 165:1 170:1 171:2 195:1 201:1 238:1 265:1 266:1 267:1 268:1 325:1 330:1 334:1 336:1 363:2 366:1 374:1 445:1 463:2 467:1 474:2 480:1 490:1 518:1 539:2 560:1 566:1 575:1 582:1 585:1 587:2 597:1 671:1 674:1 697:1 718:1 731:1 768:1 825:1 835:1 964:1 995:1 1000:1 1069:1 1127:1 1155:1 1223:1 1240:1 1275:1 1511:1 1565:1 1680:1 1734:1 1973:1 2173:1 2553:1 2755:1 2778:1 2838:1 2847:2 2908:1 3304:1 3305:1 3507:1 3774:1 3850:1 3906:1 4008:1 4083:1 4765:1 4965:1 5111:1 5278:1 6436:1 6439:1 6628:1 6745:1 6876:1 7002:2 7045:1 7262:1 7296:1 8064:1 8368:1 10900:1 10969:1 11637:1 11638:1 12418:1 13076:1 13585:1 14280:1 15229:1 15230:1 15231:1 15232:1 15233:1 15234:2 15235:1 15236:1 15237:1 15238:1 15239:1 15240:1 15241:1 15242:1 15243:1 
1 1 1 1 1:2 3:3 6:5 7:5 8:3 14:1 16:1 21:3 32:4 33:1 34:2 37:5 41:2 42:1 43:2 44:2 47:1 54:1 58:1 64:1 66:2 74:1 82:1 83:1 87:1 127:3 136:1 141:1 175:1 244:1 267:1 268:1 271:1 322:2 411:1 439:1 616:2 662:1 712:1 740:1 765:2 933:1 1059:2 1175:1 1244:1 1335:2 1628:2 1632:1 1656:1 2176:1 2390:3 2841:2 2926:1 3076:1 3133:1 3471:2 3613:1 3913:1 3952:1 3989:1 6562:1 10054:1 10061:1 12805:1 15130:1 15254:2 15255:1 15256:1 15257:1 15258:1 
1 1 1 0 1:2 39:5 41:2 44:4 79:1 87:1 105:1 121:1 129:1 232:1 272:1 335:1 404:1 439:1 594:1 595:1 629:1 696:1 712:1 933:1 1134:1 1229:1 1545:1 1715:1 1860:1 1875:1 1950:1 8369:1 11140:1 15264:1 
1 0 1 0 36:1 44:1 98:1 125:1 404:1 559:4 594:1 833:1 928:1 1628:1 3970:1 
1 1 1 1 0:1 1:2 3:1 8:5 14:1 32:4 37:3 55:1 58:2 60:2 66:2 67:1 79:1 87:4 94:1 95:1 98:1 105:1 127:1 149:1 168:1 184:1 264:1 267:3 271:1 272:1 339:1 345:1 386:1 391:1 447:1 453:1 521:2 539:1 565:1 641:1 740:1 750:1 973:2 974:1 1069:1 1081:1 1126:1 1135:1 1170:1 1207:1 1234:1 1348:1 1359:1 1372:1 1539:1 1586:1 1603:1 1681:1 2445:1 3305:1 3395:1 3592:1 3804:1 5831:1 7722:1 8134:1 8553:1 8572:1 8590:1 9596:1 10026:1 12248:1 13370:1 14325:1 15272:1 15273:1 15274:1 15275:1 15276:1 15277:1 15278:2 15279:1 15280:1 15281:1 
1 1 1 1 0:1 3:1 8:2 14:1 21:1 32:3 37:2 39:1 41:2 44:2 55:1 56:1 59:1 60:1 66:1 105:2 120:1 122:2 127:1 129:2 136:1 149:1 151:1 162:1 193:1 225:1 308:1 328:1 329:1 358:1 414:1 463:1 595:1 598:1 621:2 649:1 725:1 743:1 1054:1 1170:1 1201:1 1466:1 1475:1 1733:1 1860:1 2139:1 2526:1 3247:1 3913:1 5393:1 6737:1 6738:1 14468:1 
1 1 1 1 1:1 3:2 8:1 14:1 31:1 32:1 35:1 37:8 41:3 44:3 53:1 55:1 67:1 87:1 98:1 125:2 127:1 138:1 159:1 191:1 201:2 211:1 267:1 279:1 322:1 330:1 378:1 385:1 480:1 521:1 566:1 614:1 712:1 731:1 749:2 772:1 775:1 908:1 954:1 1172:1 1207:1 1331:1 1334:2 1510:1 1828:1 1830:1 1864:1 1975:2 2026:1 2111:1 3591:1 8873:1 9500:2 13612:1 13744:1 15299:2 15300:1 15301:1 15302:1 15303:1 
1 1 1 1 3:2 21:1 37:1 44:1 53:1 129:1 150:1 162:1 481:1 1644:1 1832:1 3902:1 10250:1 
1 1 1 1 1:3 8:2 15:1 17:1 21:3 31:1 34:2 37:3 66:4 100:1 125:1 127:1 156:1 184:1 190:1 201:4 244:1 320:2 339:1 380:2 391:1 469:1 474:1 490:1 509:1 515:3 521:1 539:1 611:1 683:1 718:1 730:1 804:1 924:1 972:1 1015:1 1018:1 1099:1 1153:1 1177:1 1196:1 1229:1 1331:1 1512:1 1630:1 1675:1 1713:1 1846:1 2493:1 2588:1 2703:1 3060:1 3347:1 4384:1 5290:1 5372:1 6257:1 6538:1 10666:1 12733:1 15317:1 15318:1 15319:1 15320:1 
1 1 1 1 1:2 8:4 13:1 14:1 31:1 32:1 36:2 37:3 39:1 40:1 41:2 44:1 45:2 55:1 66:3 125:1 129:1 147:1 150:1 159:1 169:1 171:1 201:3 219:1 263:1 267:1 288:1 358:1 366:1 385:2 391:1 411:1 439:1 480:1 521:1 565:1 566:1 567:1 594:1 712:1 718:1 976:1 990:2 994:1 1018:1 1055:1 1090:1 1451:1 1454:1 1509:1 1614:1 1647:1 1730:1 1861:1 1896:1 2056:1 2338:3 2549:1 2596:1 2679:1 2934:1 3324:1 3453:1 4667:1 5195:1 7631:1 8933:1 11761:1 11923:1 15321:2 15322:1 15323:1 15324:1 15325:1 15326:1 
1 1 1 1 1:5 3:2 8:5 12:1 21:2 31:1 32:5 34:2 35:2 36:2 37:3 41:2 44:1 55:1 58:3 60:2 66:2 68:1 87:2 93:1 96:1 98:2 100:1 102:1 111:1 113:1 125:3 129:1 134:1 136:1 151:3 154:1 156:1 220:1 238:1 265:1 288:1 308:1 309:1 322:1 339:1 354:1 358:2 359:1 402:1 404:1 416:1 427:1 467:1 469:2 490:1 496:1 497:1 528:1 578:2 600:2 674:1 681:1 718:1 807:1 814:1 815:1 835:1 868:1 883:1 890:1 908:1 943:1 1002:1 1015:1 1018:1 1044:1 1162:1 1170:2 1182:1 1294:1 1423:1 1854:1 1899:1 2020:1 2096:1 2123:1 2535:1 2593:1 2676:1 3562:1 3619:1 3678:1 3970:1 4121:1 4373:1 5295:1 5526:1 5624:1 6704:2 9684:1 10144:1 11592:1 11821:1 15332:1 15333:1 
1 1 1 1 0:1 8:2 21:1 35:2 37:4 39:1 53:1 55:1 66:1 74:4 87:1 96:1 102:1 125:1 287:1 301:1 311:1 330:1 451:1 453:1 463:1 501:1 520:2 572:1 596:1 604:1 624:1 629:1 697:1 738:3 750:1 861:1 992:1 1246:1 1314:1 1335:1 1423:2 1964:1 1973:1 2069:1 2902:1 3097:2 3275:1 3479:1 4073:1 4814:1 5350:1 6241:1 6424:2 7347:1 7977:3 8393:1 14056:1 14058:1 15365:1 15366:1 15367:1 
1 1 1 1 1:1 3:2 8:5 13:2 14:1 17:1 21:3 31:1 32:2 34:1 35:1 37:15 39:1 41:1 44:8 54:1 55:3 60:2 63:1 66:3 70:2 79:1 87:2 95:1 100:1 120:2 129:2 134:1 136:1 149:1 154:1 155:1 159:1 168:1 191:1 201:2 207:1 219:1 264:1 288:1 300:1 313:3 322:1 347:1 354:1 363:2 378:2 405:1 408:2 411:1 451:3 458:1 479:1 507:5 514:4 530:1 647:1 681:1 712:1 740:1 743:1 765:1 769:1 815:1 1028:1 1040:1 1060:1 1070:1 1119:3 1134:1 1177:1 1258:1 1297:1 1316:1 1334:1 1335:3 1616:1 1675:1 1686:1 1694:1 1708:2 1719:1 1750:2 1821:1 1922:1 1935:2 2168:1 2375:1 2456:2 2521:3 2553:1 2660:1 2752:1 2891:1 2977:1 3155:1 3382:1 3677:1 4024:1 4495:1 4647:1 4989:1 5466:2 5844:1 6353:1 6428:1 6627:1 8412:1 10115:1 14702:1 15368:1 15369:1 15370:1 15371:1 15372:1 15373:1 15374:1 15375:1 15376:1 15377:1 
1 1 1 1 0:1 1:10 3:3 8:6 14:2 15:2 18:1 21:2 31:4 32:6 34:3 35:1 36:1 37:16 39:2 41:4 44:6 45:1 48:1 54:2 55:10 58:1 59:5 60:2 66:11 74:1 87:1 95:1 96:7 98:2 100:2 102:4 104:1 105:2 112:1 113:1 120:2 121:1 122:2 124:1 125:2 127:1 129:1 134:1 136:3 150:1 154:2 155:1 156:1 159:4 160:1 163:1 165:1 168:1 180:1 201:5 207:1 208:2 219:3 244:1 258:6 259:1 260:1 263:1 265:5 279:1 284:2 285:1 288:4 301:1 311:3 313:2 316:1 317:1 319:1 320:5 322:1 328:1 330:2 332:1 334:1 339:2 345:2 347:1 348:1 354:2 359:2 363:2 371:1 378:1 385:1 390:1 391:3 400:1 408:1 436:1 451:3 453:1 469:2 474:1 481:1 485:1 487:1 490:6 493:1 496:2 505:2 521:2 543:1 548:1 553:1 566:1 572:1 578:1 579:1 584:1 602:1 604:1 609:1 624:1 629:2 641:2 647:1 674:2 683:1 691:1 712:2 718:2 731:2 737:1 740:1 758:1 765:1 768:1 789:1 797:1 816:1 866:2 876:1 878:1 897:5 904:1 905:1 908:1 909:1 910:1 932:1 995:1 1012:1 1063:1 1066:1 1090:1 1155:1 1177:1 1199:1 1236:2 1242:1 1292:1 1293:1 1294:1 1335:1 1431:1 1433:2 1451:1 1454:3 1463:1 1563:1 1630:1 1657:1 1671:1 1673:1 1686:1 1750:1 1767:1 1774:1 1782:1 1810:1 1832:5 1860:1 1864:1 1943:1 1950:2 2011:1 2036:1 2080:1 2096:1 2107:1 2118:1 2223:1 2350:1 2483:1 2557:1 2660:1 2675:1 2676:1 2713:1 2727:1 2740:1 2757:1 2789:1 2874:3 3138:1 3242:1 3350:1 3508:1 4073:1 4092:1 4174:1 4178:1 4613:1 4707:1 4719:1 4748:1 4823:1 4930:1 5146:2 5486:1 5984:1 6199:1 6892:1 7493:1 8006:1 8087:1 8256:1 8497:1 8589:1 8799:1 8964:1 9075:1 9265:1 9802:1 9958:1 10061:1 10322:1 10342:1 10403:1 10448:1 10468:1 11153:1 11222:1 11460:1 12194:1 12337:2 12507:1 12515:1 13340:1 14096:1 14138:1 15387:2 15388:1 15389:1 15390:1 15391:1 15392:1 15393:1 15394:1 15395:1 15396:1 15397:1 
1 1 1 1 1:5 3:2 8:8 12:1 13:1 14:3 21:2 32:3 37:12 39:4 41:1 44:2 55:1 57:1 59:1 60:1 63:3 64:1 66:4 74:4 79:3 98:2 129:2 136:1 146:1 150:1 154:1 162:2 189:1 201:1 282:1 295:1 311:1 322:1 389:1 404:2 458:1 467:2 480:1 481:2 505:1 509:1 513:1 528:1 539:1 662:1 675:1 693:1 702:1 742:1 783:1 821:1 876:2 904:1 933:1 981:1 984:1 1068:1 1134:3 1172:1 1242:1 1369:1 1695:1 1924:2 1932:1 1972:1 2104:1 2163:1 2188:1 2189:1 2483:1 2550:2 2822:1 3026:1 3173:1 3567:1 4241:2 4302:1 4571:2 4699:1 4957:1 5162:1 5702:1 5847:1 6274:1 6758:1 7288:1 7942:1 8149:1 8328:1 9446:1 10968:1 13573:1 14377:1 15421:1 15422:1 15423:1 15424:1 15425:1 15426:1 15427:1 15428:1 15429:1 15430:2 15431:2 15432:2 15433:1 15434:1 15435:1 15436:1 
1 1 1 1 1:1 3:3 14:1 15:1 21:2 32:3 34:1 36:1 37:5 38:1 41:2 44:1 55:1 60:2 66:1 67:1 79:1 87:1 100:1 105:3 127:1 133:3 146:1 150:1 159:1 201:3 207:1 228:2 260:1 263:1 269:1 271:1 311:2 316:1 322:1 339:2 345:1 375:1 380:1 385:1 404:1 469:2 480:1 490:1 505:1 521:1 604:1 758:1 793:1 795:1 798:2 935:1 995:1 1006:1 1008:1 1236:1 1288:1 1435:1 1466:1 1640:1 1742:1 1994:1 2179:1 2284:1 3293:1 3331:1 3609:1 3772:1 4008:1 4016:1 4844:1 5116:1 5693:1 6903:2 7652:1 9211:3 9218:1 11318:1 11492:1 15437:1 
1 1 1 1 0:1 1:14 3:13 8:20 13:1 14:5 18:3 21:9 31:5 32:7 33:1 34:3 35:1 36:3 37:28 38:1 39:3 41:1 44:4 45:2 53:1 54:1 55:4 56:2 59:2 60:1 63:7 66:12 70:1 71:4 74:13 79:1 87:3 93:1 96:1 100:2 105:2 122:1 125:7 127:3 133:2 134:1 141:5 146:2 150:2 151:1 155:1 159:2 164:1 168:1 170:1 171:2 175:1 187:1 189:4 190:1 201:3 219:2 226:1 239:1 241:1 260:1 263:4 267:3 279:1 288:2 294:2 301:1 308:1 309:1 311:1 312:2 322:1 328:1 330:1 334:1 340:2 345:1 347:1 348:1 358:1 359:3 363:3 366:1 372:1 381:1 391:2 404:1 411:1 413:1 414:1 439:2 453:1 458:2 459:2 463:1 469:1 476:1 480:1 481:1 490:1 494:1 505:1 506:1 509:3 516:1 521:1 539:1 548:1 550:4 554:1 557:1 565:1 578:1 595:1 597:1 609:1 631:1 632:1 647:1 684:3 692:1 703:1 708:1 718:1 738:1 757:1 767:1 778:1 779:2 796:1 798:2 808:1 816:1 817:2 835:1 866:1 873:1 878:1 885:1 897:1 908:2 933:2 935:2 962:2 973:1 991:1 1002:1 1015:1 1029:1 1054:1 1057:1 1068:2 1090:3 1094:3 1134:1 1143:1 1153:1 1177:1 1196:1 1201:1 1207:1 1217:1 1229:1 1239:1 1240:1 1264:1 1265:1 1275:1 1293:1 1316:1 1369:1 1380:1 1454:1 1502:2 1503:1 1518:1 1551:1 1595:1 1600:1 1616:1 1630:1 1640:1 1657:1 1667:1 1675:1 1691:1 1709:1 1715:1 1742:1 1744:1 1771:1 1773:1 1839:1 1943:1 1950:1 1965:1 1980:1 1994:1 2151:1 2179:1 2190:1 2235:2 2267:1 2298:1 2399:1 2438:1 2530:1 2536:1 2607:1 2763:1 2765:1 2779:2 2786:1 2893:1 3130:1 3160:2 3265:1 3304:1 3305:2 3317:1 3405:1 3411:1 3500:2 3579:1 3632:1 3685:1 3777:1 3833:1 4024:1 4156:1 4218:1 4310:1 4846:1 4951:1 4975:2 5045:1 5187:1 5223:1 5255:1 5404:1 5441:1 5681:1 5715:1 5716:1 6249:1 6329:1 6468:1 6499:1 6510:1 6521:1 6628:1 6891:2 6990:1 7243:3 7781:1 7838:1 7916:1 7981:1 7982:1 8129:1 9128:1 9436:1 9498:1 10964:1 11430:1 11481:1 11884:2 12473:1 14596:1 15443:1 15444:1 15445:1 15446:1 15447:1 15448:1 15449:1 15450:1 15451:1 15452:1 15453:1 15454:1 15455:1 15456:1 15457:1 15458:1 15459:1 15460:1 15461:1 
1 1 1 1 1:7 3:10 4:1 8:13 12:1 14:4 21:7 32:14 33:1 34:4 35:3 37:20 39:2 43:1 44:2 47:1 54:1 55:3 56:3 59:2 60:7 63:2 64:1 66:9 70:2 71:1 73:1 74:7 79:8 87:9 98:5 100:2 104:1 105:3 125:4 127:2 134:2 136:3 144:1 146:2 149:1 153:1 154:1 159:3 168:1 170:1 171:4 180:1 189:2 201:3 232:1 237:1 238:2 239:1 244:2 260:2 271:1 274:1 300:1 301:2 309:1 311:5 312:1 313:3 330:3 339:1 340:3 348:1 363:2 366:1 389:1 391:1 404:1 411:1 415:1 439:1 443:1 453:1 459:1 466:1 467:1 469:3 479:2 485:1 496:1 497:1 503:2 509:1 516:1 521:1 526:1 543:6 544:1 554:1 560:1 566:1 572:1 594:2 595:1 603:1 647:1 687:1 703:1 712:1 718:1 765:1 770:1 771:1 779:2 785:2 789:2 802:1 817:2 823:1 853:1 866:1 873:2 885:1 918:1 936:1 954:1 967:1 973:1 1015:2 1058:2 1068:1 1081:1 1094:1 1134:2 1185:1 1207:1 1214:1 1242:1 1427:1 1431:2 1640:1 1656:1 1675:1 1680:2 1691:1 1807:1 1818:1 1839:1 1871:2 1875:1 1947:1 1950:1 2026:1 2148:1 2310:2 2320:1 2413:2 2450:2 2461:1 2533:1 2637:1 2752:1 2757:1 2764:1 2773:1 2926:2 2978:1 3130:1 3201:1 3223:1 3246:1 3293:1 3335:1 3368:1 3416:1 3619:1 3652:1 3716:1 3876:2 3913:1 4109:1 4231:1 4300:1 4461:1 4465:1 4495:1 4688:1 4980:1 5096:1 5162:2 5265:1 5404:1 5481:1 5673:1 5752:1 5774:1 6039:1 6194:1 6256:1 6290:1 6435:1 7045:1 7912:1 7929:1 8312:1 8313:1 8547:1 8557:1 8930:1 9507:1 9517:1 11052:1 11392:1 11724:1 13168:1 13174:1 13411:1 13507:1 14952:1 14955:1 15472:2 15473:1 15474:1 15475:1 15476:1 15477:1 15478:1 15479:1 
1 1 1 1 1:3 3:2 8:1 21:2 31:3 32:2 33:1 34:1 37:7 55:1 56:1 60:1 66:5 70:1 79:2 80:1 100:1 102:1 105:2 125:2 127:2 134:1 136:1 149:1 153:1 154:1 155:1 201:6 211:1 267:1 288:3 294:1 320:2 329:1 363:1 385:1 403:1 463:1 469:1 480:1 485:1 490:3 506:1 509:1 535:1 547:1 594:1 600:1 601:1 610:2 631:1 674:1 750:1 804:1 838:1 897:1 908:1 929:1 959:1 962:1 1056:1 1131:1 1143:1 1170:1 1177:1 1207:1 1254:1 1316:1 1336:1 1372:1 1466:1 1528:1 1535:1 1628:3 1630:1 1642:1 1681:1 1772:1 1984:1 2366:1 2656:1 2837:2 2841:1 2845:1 3212:1 3506:1 4085:1 4093:1 4320:1 4528:1 4592:1 5587:1 5840:1 6108:1 6678:1 7912:2 8277:1 9093:1 13759:1 13992:1 15509:1 15510:1 15511:1 15512:1 15513:1 15514:1 15515:1 
1 1 1 1 1:1 3:1 8:1 12:1 21:2 31:1 32:1 37:1 55:1 58:1 60:1 66:2 87:3 120:1 134:1 141:1 171:1 177:1 181:1 238:1 244:1 260:1 267:1 271:1 301:2 366:1 368:1 403:1 609:1 647:1 809:1 831:1 1227:1 1916:1 2399:2 3131:1 4506:1 4510:1 4692:1 5009:1 5554:1 9799:1 13231:1 15516:1 15517:1 15518:1 15519:1 15520:1 
1 1 1 1 1:4 8:3 13:1 14:1 21:1 32:4 36:1 37:3 53:1 59:1 66:2 74:3 79:2 87:1 96:1 102:1 125:2 126:1 129:1 133:1 140:1 149:1 150:1 244:1 435:1 439:1 441:1 442:1 462:1 463:1 539:1 600:1 684:1 696:1 1174:1 1196:1 1412:1 1505:1 1692:1 1951:1 2379:1 2906:1 3902:1 4437:1 4814:1 15563:1 15564:1 
1 1 1 1 0:1 8:1 17:1 32:1 34:1 37:1 60:1 66:2 83:1 84:1 87:1 98:1 104:1 150:2 191:1 201:1 263:1 301:1 311:1 347:1 363:1 463:1 549:1 683:1 833:1 936:1 1147:1 1148:1 1260:1 1335:1 1392:1 2097:1 2484:1 2535:1 3090:1 4753:1 5414:1 6232:1 11035:1 14582:1 15600:1 15601:1 
1 1 1 1 0:1 1:1 8:1 15:1 32:2 34:1 36:1 37:2 39:1 44:1 55:1 59:1 60:1 66:1 67:1 70:1 71:1 74:1 98:1 100:1 105:2 115:1 151:2 263:1 269:1 342:1 346:1 385:1 404:1 485:1 542:1 557:1 673:1 718:1 769:1 959:1 1183:1 1274:1 1293:1 1530:1 1549:1 1671:1 1719:1 12186:1 15654:1 
1 1 1 1 1:1 3:1 8:1 21:2 32:2 37:1 39:1 44:1 55:1 60:1 66:2 70:1 74:2 87:1 129:1 267:1 287:1 355:1 381:1 404:1 518:1 519:1 532:1 566:1 583:1 605:1 718:1 954:1 1068:1 1134:1 1207:1 1616:1 1737:1 2484:2 2733:1 2984:1 3004:1 15663:1 15664:1 15665:1 
1 1 1 1 1:1 3:1 7:1 8:3 31:1 32:2 33:1 37:2 38:1 44:1 50:1 55:2 60:1 100:1 105:1 136:3 138:1 156:1 171:1 191:1 201:4 271:1 322:1 328:1 345:1 366:1 385:1 386:1 463:2 480:1 490:2 567:1 600:1 610:1 765:1 821:1 842:1 877:1 883:1 1262:1 1427:1 1454:1 1500:1 1864:1 1962:1 1971:1 2535:2 3278:1 3678:1 3706:1 4732:1 5364:1 8715:1 8831:1 9485:1 11778:1 15828:1 15829:1 15830:1 15831:1 15832:1 15833:1 
1 1 1 1 13:1 37:1 41:1 53:1 604:1 725:1 749:1 760:1 764:1 2394:1 2675:1 2676:1 3591:1 5305:1 5527:1 6253:1 
1 1 1 1 0:1 1:7 2:1 3:14 4:1 8:21 13:1 14:1 17:6 21:5 31:5 32:18 33:1 34:7 35:4 37:30 38:5 39:7 43:1 44:3 45:2 46:1 53:5 55:6 56:3 60:3 63:3 66:15 67:2 70:1 71:2 74:17 79:5 87:6 92:1 100:2 102:5 105:4 109:1 111:1 112:2 121:1 125:5 129:1 136:6 141:3 148:1 149:1 150:3 153:1 170:2 177:1 181:1 187:1 189:2 193:1 201:2 224:1 226:1 233:1 239:1 244:2 260:1 263:3 273:1 274:2 288:3 297:3 301:1 311:1 322:1 323:1 328:1 329:1 330:1 339:1 348:1 359:1 363:3 381:1 385:1 391:2 397:1 411:2 427:1 433:1 439:5 468:1 474:1 476:1 479:2 480:1 481:1 483:1 490:1 496:4 509:2 512:1 523:1 526:1 539:3 543:1 549:2 550:1 554:2 557:1 565:2 570:2 572:1 604:2 623:1 646:1 651:1 662:1 685:1 702:3 718:1 750:1 781:1 798:1 801:1 811:1 816:1 822:1 833:1 862:2 910:2 929:2 933:1 959:1 964:1 968:1 979:1 985:1 1012:1 1013:1 1027:2 1036:1 1043:3 1057:1 1068:1 1088:1 1090:1 1153:1 1189:1 1199:1 1207:1 1246:1 1279:1 1427:2 1442:1 1503:1 1538:1 1654:1 1683:2 1704:1 1705:1 1709:1 1750:1 1871:1 1885:1 1922:1 1942:2 1950:1 1951:1 1952:1 1994:2 2000:3 2187:1 2230:1 2492:1 2548:2 2578:1 2743:1 2812:1 2858:2 2877:1 3035:1 3042:1 3080:1 3081:1 3181:1 3212:1 3329:2 3335:3 3409:1 3551:1 3694:1 3716:2 3729:1 3757:1 3876:1 3979:1 4077:1 4082:1 4083:1 4099:1 4171:1 4223:1 4297:1 4431:1 4447:1 4489:1 4539:1 4542:1 4561:1 5007:6 5413:2 5488:2 5492:1 5612:1 5735:13 5853:1 5954:1 5957:5 5958:2 6259:1 6264:1 6426:1 6450:1 7207:1 7547:1 7873:1 7875:1 7964:1 7983:2 8005:1 8109:1 8177:1 8203:1 8822:1 8890:1 9149:1 9580:1 9618:1 9900:2 10060:1 10094:1 11064:1 12053:1 12193:1 12206:1 12333:1 12704:1 12765:1 12808:1 13448:1 13682:1 13774:1 14055:1 15682:1 15884:1 15885:1 15886:1 15887:1 15888:1 15889:1 15890:2 15891:3 15892:1 15893:1 15894:1 15895:1 15896:1 15897:2 15898:1 15899:1 15900:1 15901:1 15902:1 15903:1 15904:1 15905:1 15906:1 15907:1 15908:1 15909:1 15910:1 
1 1 1 1 3:3 8:6 12:1 32:3 34:1 35:1 37:8 74:2 100:1 112:1 125:2 154:1 171:1 207:1 228:1 288:2 313:1 338:1 348:1 349:1 366:1 404:1 411:1 469:1 479:1 547:1 553:1 555:1 557:1 666:1 683:2 707:1 718:1 751:1 752:1 768:1 878:1 1029:1 1045:1 1088:1 1126:2 1156:1 1177:1 1236:1 1260:2 1416:1 1435:1 1445:1 1456:1 1530:1 1628:1 1630:1 1810:1 1901:5 2275:1 2395:1 2407:1 2419:1 2526:1 2553:1 2709:1 3035:1 3260:1 3384:1 3716:1 3839:1 3893:2 4034:1 5949:1 6020:1 6195:1 7422:1 7448:1 7568:1 7788:1 9621:1 9761:1 10003:1 10114:1 11408:1 13712:1 14976:1 15911:2 15912:1 15913:1 15914:1 15915:1 15916:1 15917:1 15918:1 15919:1 
1 1 1 1 1:3 3:2 8:3 14:1 17:1 21:4 32:4 34:2 35:3 36:3 37:12 38:1 41:1 44:1 55:3 56:1 58:2 60:1 66:1 71:1 83:1 84:1 96:1 102:2 108:1 112:2 141:1 146:1 150:1 156:1 162:1 197:1 201:3 211:1 226:2 228:1 236:2 294:1 297:1 308:1 311:1 312:1 316:1 336:1 337:1 363:1 391:2 393:1 411:1 421:1 447:1 448:1 452:1 463:1 476:1 481:2 523:1 526:1 528:1 539:2 560:1 561:1 568:1 572:1 583:1 595:1 625:1 629:1 630:1 641:1 677:1 718:1 730:1 731:1 789:1 792:1 802:1 824:1 959:1 1003:1 1006:1 1229:1 1308:1 1335:1 1366:1 1412:1 1675:1 1701:1 1760:1 1837:1 1854:2 2031:2 2163:1 2203:1 2360:1 2417:1 2996:1 3283:1 3350:1 3591:1 3815:1 3850:1 3889:1 3893:1 4355:1 4888:2 5233:1 5288:1 5619:1 7118:1 7572:1 8225:1 10134:1 11589:1 14484:1 15931:1 15932:1 15933:1 
1 1 1 1 1:1 3:1 8:1 14:1 21:2 32:2 37:2 38:1 44:1 45:1 93:1 136:2 159:1 208:1 226:1 301:1 322:1 345:1 363:1 381:1 404:1 578:1 749:3 954:1 1152:1 1196:1 1207:1 1473:1 2100:1 2307:1 3980:1 3981:1 5293:1 10931:1 10946:1 15934:1 15935:1 15936:1 15937:1 15938:1 
1 1 1 1 1:1 3:2 8:4 14:1 21:1 31:2 32:4 34:3 35:1 37:8 44:1 45:2 55:1 63:2 66:1 71:1 74:6 87:3 100:1 102:1 105:1 121:1 125:2 127:2 146:1 150:1 171:2 187:1 237:2 267:1 271:1 301:3 322:1 328:1 334:1 340:2 358:1 439:1 594:1 678:1 691:1 740:1 771:1 819:1 904:1 905:1 929:1 933:1 935:1 1024:1 1036:1 1155:1 1310:1 1465:1 1496:1 1556:2 1658:1 1717:1 1719:2 1942:1 2205:1 2444:2 2450:1 2498:1 2639:1 2663:1 3283:1 3365:1 3411:1 5236:1 5488:1 5537:1 6620:1 12585:1 12656:1 13935:1 15576:1 15583:1 15584:2 15939:2 15940:1 15941:1 15942:1 
1 1 1 1 1:3 3:4 8:3 14:1 21:1 31:4 32:7 34:1 36:1 37:6 39:2 41:3 44:5 45:1 54:1 55:2 58:1 60:3 63:1 64:1 66:4 70:1 87:1 96:1 105:2 114:1 136:4 151:1 160:1 201:2 238:1 258:1 260:1 263:1 265:1 271:1 272:1 278:1 322:1 330:1 342:1 348:1 349:1 363:2 385:1 391:1 408:1 433:1 453:1 467:1 480:4 490:2 496:1 532:1 535:1 543:2 568:1 572:1 600:1 602:1 604:1 619:1 623:1 624:1 629:1 644:1 712:1 718:1 742:1 821:1 909:1 930:1 962:1 1036:1 1170:1 1226:2 1248:1 1274:1 1363:1 1554:1 1647:1 1695:1 1782:1 2003:2 2255:1 2449:1 2698:1 2727:1 2774:1 2914:1 3132:1 3302:1 3757:1 4430:1 4656:1 5223:1 5755:1 5857:1 5996:1 7524:1 9291:1 9523:1 12469:1 15882:1 15944:1 
