svm_type c_svc
kernel_type rbf
gamma 4.45937e-006
nr_class 5
total_sv 500
rho -0.0244972 0.000270486 0.000319779 0.042975 0.0123732 -0.017022 0.016939 -0.0165167 0.0178943 0.0264486
label 5 4 2 3 1
nr_sv 100 100 100 100 100
SV
1 1 1 1 0:1 1:1 2:1 3:1 4:2 5:2 6:3 7:3 8:3 9:1 10:1 11:1 12:2 13:2 14:1 15:1 16:1 17:1 18:1 19:1 20:1 21:3 22:1 23:1 24:1 25:1 26:1 27:1 28:1 29:1 30:1 31:2 32:2 33:1 34:1 35:1 36:1 37:3 38:1 39:1 40:1 41:1 42:1 43:1 44:2 45:1 46:1 47:1 48:1 49:1 50:1 51:1 52:1 53:1 54:1 55:1 56:1 57:1 58:1 59:1 60:1 61:1 62:1 63:1 64:1 65:1 66:1 67:1 68:1 137910:1 137911:1 137912:1 137913:1 137914:2 137915:2 137916:3 137917:1 137918:1 137919:1 137920:1 137921:1 137922:1 137923:1 137924:1 137925:1 137926:1 137927:1 137928:1 137929:1 137930:1 137931:1 137932:1 137933:1 137934:1 137935:1 137936:1 137937:1 137938:1 137939:1 137940:1 137941:1 137942:1 137943:1 137944:1 137945:1 137946:1 137947:1 137948:1 137949:1 137950:1 137951:1 137952:1 137953:1 137954:1 137955:1 137956:1 137957:1 137958:1 137959:1 137960:1 137961:1 137962:1 137963:1 137964:1 137965:1 137966:1 137967:1 137968:1 137969:1 137970:1 137971:1 137972:1 137973:1 137974:1 137975:1 137976:1 137977:1 137978:1 137979:1 137980:1 137981:1 137982:1 137983:1 137984:1 137985:1 137986:1 137987:1 137988:1 137989:1 137990:1 
1 1 1 1 1:1 3:1 8:3 32:3 34:1 37:1 39:2 45:1 55:1 60:1 66:2 69:1 70:1 71:1 72:1 73:1 74:1 75:1 76:1 77:1 78:1 79:1 80:1 81:1 82:1 83:1 84:1 85:1 86:1 87:1 88:1 89:1 90:1 91:1 92:1 93:1 94:1 95:1 96:1 137991:1 137992:1 137993:1 137994:1 137995:1 137996:1 137997:1 137998:1 137999:1 138000:1 138001:1 138002:1 138003:1 138004:1 138005:1 138006:1 138007:1 138008:1 138009:1 138010:1 138011:1 138012:1 138013:1 138014:1 138015:1 138016:1 138017:1 138018:1 138019:1 138020:1 138021:1 138022:1 138023:1 138024:1 138025:1 138026:1 138027:1 138028:1 138029:1 138030:1 138031:1 138032:1 138033:1 138034:1 
1 1 1 1 1:1 3:2 8:3 13:2 17:1 32:4 36:1 37:3 39:1 41:3 44:5 59:1 66:5 70:3 87:1 102:1 125:2 127:1 129:1 134:1 139:2 140:2 151:1 154:1 160:1 162:1 201:1 272:1 311:1 322:1 328:3 339:1 342:2 345:1 354:1 359:1 385:2 391:1 393:1 404:1 439:1 458:1 469:1 474:1 476:1 480:1 520:1 534:2 560:1 566:1 579:1 600:1 607:1 629:1 667:1 712:1 713:1 714:1 715:1 716:1 717:1 718:1 719:1 720:1 721:1 722:2 723:1 724:2 725:1 726:1 727:1 728:1 729:1 730:1 731:1 732:1 733:1 734:1 735:2 736:1 737:1 738:1 739:1 740:1 741:1 742:1 743:1 744:1 137959:1 138098:1 138099:2 138100:1 138140:1 138206:1 138613:1 138640:1 138792:1 138899:1 138987:1 139374:1 139375:1 139376:1 139377:1 139378:1 139379:1 139380:1 139381:1 139382:1 139383:1 139384:1 139385:1 139386:1 139387:1 139388:1 139389:1 139390:1 139391:1 139392:1 139393:1 139394:1 139395:1 139396:1 139397:1 139398:1 139399:2 139400:1 139401:1 139402:1 139403:1 139404:1 139405:1 139406:1 139407:1 139408:1 139409:1 139410:1 139411:1 139412:2 139413:1 139414:1 139415:1 139416:1 139417:2 139418:1 139419:1 139420:1 139421:1 139422:1 139423:1 139424:1 139425:1 139426:1 139427:1 139428:1 139429:1 139430:1 139431:1 139432:1 139433:1 139434:1 139435:1 139436:1 139437:1 139438:1 139439:1 139440:1 139441:1 139442:1 139443:1 139444:1 139445:1 139446:1 139447:1 139448:1 139449:1 139450:1 139451:1 139452:1 139453:1 139454:1 139455:1 139456:1 139457:1 139458:1 139459:1 139460:1 139461:1 139462:1 139463:1 139464:1 139465:1 139466:1 139467:1 139468:1 139469:1 139470:1 139471:1 139472:1 139473:1 139474:1 139475:1 139476:1 139477:1 
1 1 1 1 1:4 3:4 8:5 21:1 35:2 36:1 37:9 39:1 44:2 60:1 66:2 83:1 87:1 93:1 102:1 107:1 125:3 127:1 133:1 134:1 149:1 185:1 201:2 224:1 244:1 288:4 322:1 349:1 363:2 403:2 466:1 480:3 504:1 539:2 553:2 641:1 745:1 746:1 747:1 748:1 749:6 750:1 751:1 752:1 753:1 754:1 755:1 756:2 757:1 758:1 759:1 760:1 761:1 762:1 763:1 764:1 765:1 766:1 767:1 768:1 769:1 770:1 771:1 772:1 773:1 774:1 775:1 776:2 777:1 778:1 779:1 780:1 781:1 782:1 137959:2 138046:1 138091:1 138146:1 138232:1 138243:1 138279:1 138572:1 138637:2 138820:1 138847:1 138866:1 138930:1 139400:1 139478:1 139479:1 139480:1 139481:1 139482:1 139483:1 139484:1 139485:1 139486:1 139487:1 139488:1 139489:1 139490:1 139491:1 139492:1 139493:1 139494:1 139495:1 139496:1 139497:1 139498:1 139499:1 139500:1 139501:1 139502:1 139503:1 139504:1 139505:1 139506:1 139507:1 139508:1 139509:1 139510:1 139511:1 139512:1 139513:1 139514:1 139515:1 139516:1 139517:1 139518:1 139519:1 139520:1 139521:1 139522:1 139523:1 139524:1 139525:1 139526:1 139527:1 139528:1 139529:1 139530:1 139531:1 139532:1 139533:1 139534:1 139535:1 139536:1 139537:1 139538:1 139539:1 139540:1 139541:1 139542:1 139543:1 139544:1 139545:2 139546:1 139547:1 139548:1 139549:1 139550:2 139551:1 139552:1 139553:1 139554:1 139555:1 139556:1 139557:1 139558:1 139559:1 139560:1 139561:1 139562:1 139563:1 139564:1 139565:1 139566:1 139567:1 139568:1 139569:1 139570:1 139571:1 139572:1 
1 1 1 1 1:4 3:3 8:5 13:1 15:1 17:1 21:1 31:2 32:10 33:2 34:3 35:3 36:1 37:12 39:1 44:3 45:1 47:1 55:4 56:1 58:1 59:1 60:4 66:6 71:1 74:5 84:1 87:2 92:1 96:1 100:1 102:1 105:1 114:1 122:1 125:2 127:1 150:1 153:1 154:1 159:1 167:1 168:1 171:1 187:1 189:1 191:2 201:1 219:2 226:1 238:1 263:1 267:1 288:1 300:1 301:2 311:1 312:1 319:1 339:1 358:1 359:1 386:1 388:1 405:1 453:2 463:2 469:2 488:1 519:1 523:1 534:1 538:1 545:1 548:1 560:1 572:1 583:1 595:1 600:1 614:1 653:1 682:1 691:1 704:1 714:1 721:1 722:1 733:1 784:1 791:1 814:1 822:1 849:1 850:1 851:1 852:1 853:1 854:1 855:1 856:1 857:1 858:1 859:1 860:1 861:1 862:1 863:1 864:1 865:1 866:1 867:1 868:1 869:1 870:1 871:1 872:1 873:1 874:1 875:1 876:1 877:1 878:1 879:1 880:1 881:1 882:1 883:1 884:1 885:1 886:1 887:1 888:1 889:1 890:1 891:1 892:1 893:1 894:1 895:1 896:1 897:1 898:1 899:1 900:1 901:1 902:1 903:1 904:1 905:1 906:1 907:1 908:2 909:1 137945:2 137949:1 137959:3 137994:1 137999:1 138029:1 138045:1 138061:1 138123:1 138124:1 138125:1 138145:1 138146:1 138165:1 138169:1 138232:1 138265:1 138332:1 138407:1 138415:1 138475:1 138570:1 138608:1 138609:1 138767:1 138792:2 138832:1 138847:1 138986:1 139051:1 139091:1 139170:1 139181:1 139283:1 139411:1 139412:1 139625:1 139720:2 139752:1 139753:1 139754:1 139755:1 139756:1 139757:1 139758:1 139759:1 139760:1 139761:1 139762:1 139763:1 139764:1 139765:1 139766:1 139767:1 139768:1 139769:1 139770:1 139771:1 139772:1 139773:1 139774:1 139775:1 139776:1 139777:1 139778:1 139779:1 139780:1 139781:1 139782:1 139783:1 139784:1 139785:1 139786:1 139787:1 139788:1 139789:1 139790:1 139791:1 139792:1 139793:1 139794:1 139795:1 139796:1 139797:1 139798:1 139799:1 139800:1 139801:1 139802:1 139803:1 139804:1 139805:1 139806:1 139807:1 139808:1 139809:1 139810:1 139811:1 139812:1 139813:1 139814:1 139815:1 139816:1 139817:1 139818:1 139819:1 139820:1 139821:1 139822:1 139823:1 139824:1 139825:1 139826:1 139827:1 139828:1 139829:1 139830:1 139831:1 139832:1 139833:1 139834:1 139835:1 139836:1 139837:1 139838:1 139839:1 139840:1 139841:1 139842:1 139843:1 139844:1 139845:1 139846:1 139847:1 139848:1 139849:1 139850:1 139851:1 139852:1 139853:1 139854:1 139855:1 139856:2 139857:1 139858:1 139859:1 139860:1 139861:1 139862:1 139863:1 139864:1 139865:1 139866:1 139867:1 139868:1 139869:1 139870:1 139871:1 139872:1 139873:1 139874:1 139875:1 139876:1 139877:1 139878:1 139879:1 139880:1 139881:1 139882:1 139883:1 139884:1 139885:1 139886:1 139887:1 139888:1 139889:1 139890:1 139891:1 139892:1 139893:1 139894:1 139895:1 139896:1 139897:1 139898:1 139899:1 139900:1 139901:1 139902:1 139903:1 139904:1 139905:1 139906:1 139907:1 139908:1 139909:1 139910:1 139911:1 139912:1 139913:1 139914:1 139915:2 139916:1 139917:1 139918:1 139919:1 139920:1 
1 1 1 1 1:4 3:8 8:9 12:1 17:1 21:3 31:1 32:2 34:7 35:2 37:11 38:2 39:4 41:1 44:1 52:1 55:5 56:2 60:2 66:7 74:3 76:1 87:2 95:1 96:3 100:1 102:4 104:1 110:1 119:1 125:3 134:1 136:2 141:1 146:1 150:1 153:1 159:2 162:1 175:1 201:4 204:1 238:4 263:3 272:1 279:1 288:3 294:1 301:2 313:1 322:3 328:1 336:1 339:3 358:5 359:1 363:2 366:1 380:1 391:1 406:1 415:1 437:1 439:1 469:1 470:1 481:1 490:1 496:2 503:1 509:2 521:2 539:1 554:2 570:1 575:1 600:1 603:1 604:2 624:1 629:1 646:2 647:3 703:1 743:1 770:1 776:1 778:1 802:1 823:1 833:1 865:1 897:2 904:1 908:1 929:1 938:1 1018:1 1023:2 1036:1 1037:1 1038:1 1039:1 1040:1 1041:1 1042:1 1043:1 1044:1 1045:1 1046:1 1047:1 1048:1 1049:1 1050:1 1051:1 1052:1 1053:1 1054:1 1055:1 1056:1 1057:1 1058:2 1059:1 1060:1 1061:1 1062:1 1063:1 1064:1 1065:1 1066:1 1067:1 1068:1 1069:4 1070:1 1071:1 1072:2 1073:1 1074:1 1075:1 1076:1 1077:1 1078:1 1079:1 1080:1 1081:1 1082:2 1083:1 1084:1 1085:1 1086:1 1087:1 1088:2 1089:1 1090:1 1091:1 1092:1 1093:1 1094:1 1095:1 1096:1 1097:1 1098:1 1099:1 1100:2 1101:1 1102:1 1103:1 1104:1 1105:1 1106:1 1107:1 1108:1 1109:1 1110:1 1111:1 1112:1 1113:1 1114:1 1115:1 1116:1 1117:1 1118:1 1119:1 1120:1 1121:1 1122:1 1123:1 1124:1 1125:1 1126:1 1127:1 137952:2 137959:2 138004:1 138008:1 138146:2 138238:1 138386:1 138415:2 138444:1 138535:1 138753:1 138832:1 138903:1 138946:1 139084:1 139109:1 139171:1 139272:2 139687:1 139715:1 139720:1 139756:1 139778:1 139796:1 139804:1 139915:1 139936:1 139998:1 140345:1 140346:1 140347:1 140348:1 140349:1 140350:1 140351:1 140352:2 140353:1 140354:1 140355:1 140356:1 140357:2 140358:1 140359:1 140360:1 140361:1 140362:1 140363:1 140364:1 140365:1 140366:1 140367:1 140368:1 140369:1 140370:1 140371:1 140372:1 140373:1 140374:1 140375:1 140376:1 140377:1 140378:1 140379:1 140380:1 140381:1 140382:1 140383:1 140384:1 140385:1 140386:1 140387:1 140388:1 140389:1 140390:1 140391:1 140392:1 140393:1 140394:1 140395:1 140396:1 140397:1 140398:1 140399:1 140400:1 140401:1 140402:1 140403:1 140404:1 140405:1 140406:1 140407:1 140408:1 140409:1 140410:1 140411:1 140412:1 140413:1 140414:1 140415:1 140416:1 140417:1 140418:1 140419:1 140420:1 140421:1 140422:1 140423:1 140424:1 140425:1 140426:1 140427:1 140428:1 140429:1 140430:1 140431:1 140432:1 140433:1 140434:1 140435:1 140436:1 140437:1 140438:1 140439:1 140440:1 140441:1 140442:1 140443:1 140444:1 140445:1 140446:1 140447:1 140448:1 140449:1 140450:1 140451:1 140452:1 140453:2 140454:1 140455:1 140456:1 140457:1 140458:1 140459:1 140460:1 140461:1 140462:1 140463:1 140464:1 140465:1 140466:1 140467:1 140468:2 140469:1 140470:1 140471:1 140472:1 140473:1 140474:1 140475:1 140476:1 140477:1 140478:1 140479:1 140480:1 140481:1 140482:1 140483:1 140484:1 140485:1 140486:1 140487:1 140488:1 140489:1 140490:1 140491:1 140492:1 140493:1 140494:1 140495:1 140496:1 140497:1 140498:1 140499:1 140500:1 140501:1 140502:1 140503:1 140504:1 140505:1 140506:1 140507:1 140508:1 140509:1 140510:1 140511:1 140512:1 140513:1 140514:1 140515:1 140516:1 140517:1 140518:1 140519:1 140520:1 140521:1 140522:1 140523:1 140524:1 140525:1 140526:2 140527:1 140528:1 140529:1 140530:1 140531:1 140532:1 140533:1 140534:1 140535:1 140536:1 140537:1 140538:1 140539:1 140540:1 140541:1 140542:1 140543:1 140544:1 140545:1 140546:1 140547:1 140548:1 140549:1 140550:1 140551:1 140552:1 140553:1 140554:1 140555:1 140556:1 140557:1 140558:1 140559:1 140560:1 140561:1 140562:1 140563:1 140564:1 140565:1 140566:1 140567:1 140568:1 140569:1 140570:1 140571:1 140572:1 140573:1 140574:1 140575:1 140576:1 140577:1 140578:1 140579:1 140580:1 140581:1 140582:1 140583:1 140584:1 140585:1 140586:1 140587:1 140588:1 140589:1 140590:1 140591:1 140592:1 140593:1 140594:1 140595:1 140596:1 140597:1 140598:1 140599:1 140600:1 
1 1 1 1 1:2 5:1 6:2 7:2 8:1 32:3 34:3 35:1 37:4 39:1 41:2 44:1 55:3 58:1 59:1 66:5 70:1 74:1 83:1 87:1 99:1 100:2 127:3 133:1 138:1 141:1 146:1 170:1 171:1 201:5 217:1 241:1 263:2 301:1 336:1 366:1 411:1 534:1 600:1 618:1 718:1 778:1 866:1 902:1 962:2 973:1 1022:2 1023:1 1060:1 1091:1 1160:1 1161:1 1162:2 1163:1 1164:1 1165:1 1166:1 1167:1 1168:1 1169:1 1170:1 1171:1 1172:1 1173:1 1174:2 1175:1 1176:1 1177:1 1178:1 1179:1 137916:2 137959:1 137980:1 137999:1 138091:1 138165:1 138271:1 138655:1 138971:1 139083:1 139084:1 139771:1 140212:1 140269:1 140305:1 140413:1 140705:1 140706:1 140707:1 140708:1 140709:1 140710:1 140711:1 140712:1 140713:1 140714:1 140715:1 140716:1 140717:1 140718:1 140719:1 140720:1 140721:1 140722:1 140723:1 140724:1 140725:1 140726:1 140727:1 140728:1 140729:1 140730:1 140731:1 140732:1 140733:1 140734:1 140735:1 140736:1 140737:1 140738:1 140739:1 140740:1 140741:1 140742:1 140743:1 140744:1 140745:1 140746:1 140747:1 140748:1 140749:1 140750:1 140751:1 140752:1 140753:1 140754:1 140755:1 140756:1 140757:1 140758:1 140759:1 140760:1 140761:1 140762:2 140763:1 140764:1 140765:1 140766:1 140767:1 140768:1 140769:1 140770:1 140771:1 140772:1 140773:1 140774:1 140775:1 140776:1 140777:1 140778:1 140779:1 140780:1 140781:1 140782:1 140783:1 140784:1 
1 1 1 1 1:1 3:2 8:6 14:2 21:1 32:4 34:3 35:1 36:1 37:7 39:3 44:1 55:2 56:1 60:3 66:7 70:1 71:3 74:5 79:2 87:1 107:1 125:2 126:1 129:2 150:1 153:1 155:1 160:1 170:3 171:2 260:1 263:1 264:1 269:1 288:1 309:1 329:1 359:1 403:1 411:1 433:1 439:2 445:3 458:1 474:1 520:1 521:1 534:4 561:1 568:1 572:1 582:1 624:2 661:1 684:2 768:1 798:1 817:2 854:1 981:1 1003:1 1024:1 1212:1 1213:1 1214:1 1215:1 1216:1 1217:1 1218:2 1219:1 1220:1 1221:1 1222:1 1223:1 1224:1 1225:1 1226:2 1227:1 1228:1 1229:1 1230:1 1231:1 1232:1 1233:1 1234:1 1235:1 1236:1 1237:1 1238:1 1239:1 1240:1 1241:1 1242:1 1243:1 1244:1 1245:1 1246:1 1247:1 1248:1 138002:1 138008:1 138146:1 138169:1 138357:1 138386:1 138415:1 138634:1 138735:1 138833:2 138931:1 138991:1 139009:1 139050:1 139181:1 139387:1 139720:1 139731:1 139772:1 139856:1 140034:1 140079:1 140127:1 140425:1 140545:1 140598:1 140634:2 140681:1 140855:2 140932:1 140933:1 140934:1 140935:1 140936:1 140937:1 140938:1 140939:1 140940:1 140941:1 140942:1 140943:1 140944:1 140945:1 140946:1 140947:1 140948:1 140949:1 140950:1 140951:1 140952:1 140953:1 140954:1 140955:1 140956:1 140957:1 140958:1 140959:1 140960:1 140961:1 140962:1 140963:1 140964:1 140965:1 140966:1 140967:1 140968:1 140969:1 140970:1 140971:1 140972:1 140973:1 140974:1 140975:1 140976:1 140977:1 140978:1 140979:1 140980:1 140981:1 140982:1 140983:1 140984:1 140985:1 140986:1 140987:1 140988:1 140989:1 140990:1 140991:1 140992:1 140993:1 140994:1 140995:1 140996:1 140997:1 140998:1 140999:1 141000:1 141001:1 141002:1 141003:1 141004:1 141005:1 141006:1 141007:1 141008:1 141009:1 141010:1 141011:1 141012:1 141013:1 141014:1 141015:1 141016:1 141017:1 141018:1 141019:1 141020:1 141021:1 141022:1 141023:1 141024:1 141025:1 141026:1 141027:1 141028:1 141029:1 141030:1 141031:1 141032:1 141033:1 141034:1 141035:1 141036:1 141037:1 141038:1 141039:1 141040:1 141041:1 141042:1 141043:1 141044:1 141045:1 141046:1 141047:1 141048:1 141049:1 141050:1 
1 1 1 1 1:1 8:2 31:1 32:3 34:1 37:5 39:1 44:1 64:1 66:2 74:2 79:1 112:1 133:1 171:1 175:1 201:1 211:1 236:1 439:1 462:1 509:1 554:1 583:1 624:1 647:1 733:1 901:1 968:1 994:1 1126:1 1201:1 1249:2 1250:1 1251:1 1252:1 1253:1 1254:1 1255:1 1256:1 1257:1 1258:1 1259:1 1260:1 1261:1 1262:1 1263:1 137959:1 138009:1 138091:1 138117:1 138235:1 138415:1 138659:1 139163:1 139164:1 139315:1 140352:1 141051:1 141052:1 141053:1 141054:1 141055:1 141056:2 141057:1 141058:1 141059:1 141060:1 141061:1 141062:1 141063:1 141064:1 141065:1 141066:1 141067:1 141068:1 141069:1 141070:1 141071:1 141072:1 141073:1 141074:1 141075:1 141076:1 141077:1 141078:1 141079:1 141080:1 141081:1 141082:1 141083:1 141084:1 141085:1 141086:1 141087:1 141088:1 141089:1 141090:1 141091:1 141092:1 141093:1 141094:1 
1 1 1 1 1:2 3:1 8:5 32:3 37:6 39:3 41:2 44:3 53:1 55:2 60:1 73:1 74:1 79:1 100:1 129:1 134:1 144:1 150:3 168:1 171:1 201:1 265:1 267:1 268:1 282:1 288:1 301:1 302:1 303:1 339:1 415:2 439:1 462:1 463:1 578:1 597:1 768:1 807:1 847:1 899:1 908:1 924:1 981:1 1029:1 1242:1 1565:1 1566:1 1567:1 1568:1 1569:1 1570:1 1571:1 1572:1 1573:1 1574:1 1575:1 1576:1 1577:1 1578:1 137998:1 138009:1 138107:1 138169:1 138325:1 138326:1 138332:1 138410:1 138411:1 138412:1 138996:1 139000:1 139074:1 139084:1 139625:1 139856:1 139915:1 140127:1 140320:1 140416:1 140611:1 141412:1 141654:1 141865:1 141997:1 142086:1 142090:1 142091:1 142092:1 142093:1 142094:1 142095:1 142096:1 142097:1 142098:1 142099:1 142100:1 142101:1 142102:1 142103:1 142104:1 142105:1 142106:1 142107:1 142108:1 142109:1 142110:1 142111:1 142112:1 142113:1 142114:1 142115:1 142116:1 142117:1 142118:1 142119:1 142120:1 142121:1 142122:1 142123:1 142124:1 142125:1 142126:1 142127:1 142128:1 142129:1 142130:1 142131:1 142132:1 142133:1 142134:1 142135:1 142136:1 142137:1 142138:1 142139:1 142140:1 142141:1 142142:1 142143:1 
1 1 1 1 0:1 1:4 3:2 8:3 31:1 32:2 34:1 37:1 41:1 44:2 45:1 57:2 58:1 60:1 66:1 70:1 105:1 119:1 120:2 154:2 164:1 171:1 184:1 208:1 267:1 311:1 324:1 340:1 359:2 360:1 416:1 469:1 521:1 594:1 595:1 697:1 891:1 931:2 969:1 1026:1 1031:1 1130:1 1579:1 1580:1 1581:1 1582:1 1583:1 1584:1 1585:1 1586:2 1587:1 1588:1 1589:1 1590:1 1591:1 1592:1 1593:1 1594:1 1595:1 1596:1 1597:1 1598:1 1599:1 1600:1 1601:1 137910:1 138070:1 138146:1 138396:1 138475:1 138655:1 138807:1 139070:1 139145:1 139199:1 139584:1 140237:1 140868:1 141190:1 141645:1 142149:1 142150:2 142151:1 142152:1 142153:1 142154:1 142155:1 142156:1 142157:1 142158:1 142159:1 142160:1 142161:1 142162:1 142163:1 142164:1 142165:1 142166:1 142167:1 142168:1 142169:1 142170:1 142171:1 142172:1 142173:1 142174:1 142175:1 142176:1 142177:1 142178:1 142179:1 142180:1 142181:1 142182:1 142183:1 142184:1 142185:1 142186:1 142187:1 142188:1 142189:1 142190:1 142191:1 142192:1 142193:1 142194:1 142195:1 142196:1 142197:1 142198:1 142199:1 142200:1 142201:1 142202:1 142203:1 142204:1 142205:1 142206:1 142207:1 142208:1 142209:1 142210:1 
1 1 1 1 8:1 21:1 70:1 358:1 559:1 804:1 1177:1 1188:1 1435:1 1627:1 1628:1 1629:1 1630:1 1631:1 138535:1 142362:1 142363:1 142364:1 142365:1 142366:1 142367:1 142368:1 142369:1 142370:1 142371:1 142372:1 142373:1 
1 1 1 1 1:2 3:3 8:2 21:1 31:1 37:3 38:1 39:1 40:1 41:1 44:1 56:1 66:1 96:2 100:1 133:1 157:1 158:1 160:1 201:1 272:1 330:1 349:1 363:1 391:1 453:1 480:1 494:1 505:1 512:1 532:1 641:1 737:2 897:1 990:1 1055:1 1644:1 1645:1 1646:1 1647:2 1648:1 1649:1 1650:1 1651:1 1652:1 1653:1 1654:1 137952:1 137955:1 137956:1 138091:1 138131:1 138146:1 138232:1 138748:1 138930:1 138989:1 139181:1 141262:1 142245:1 142405:1 142406:1 142407:1 142408:1 142409:1 142410:1 142411:1 142412:1 142413:1 142414:1 142415:1 142416:1 142417:1 142418:1 142419:1 142420:1 142421:1 142422:1 142423:1 142424:1 142425:1 142426:1 142427:1 142428:1 142429:1 142430:1 142431:1 142432:1 142433:1 142434:1 142435:1 142436:1 142437:1 142438:1 142439:1 142440:1 142441:1 142442:1 142443:1 142444:1 142445:1 142446:1 
1 1 1 1 1:2 3:1 13:1 14:1 32:1 37:1 66:1 67:1 134:1 154:1 201:2 731:1 1060:1 1220:1 1275:1 1723:2 1724:3 1725:1 1726:1 1727:1 1728:1 1729:1 1730:1 1731:1 1732:1 1733:1 1734:1 1735:1 137989:1 138489:1 139433:1 142723:2 142724:1 142725:1 142726:1 142727:1 142728:1 142729:1 142730:1 142731:1 142732:1 142733:1 142734:1 142735:1 142736:1 142737:1 142738:1 142739:1 142740:1 142741:1 142742:1 142743:1 142744:1 142745:1 142746:1 142747:1 142748:1 142749:1 142750:1 
1 1 1 1 1:7 2:1 3:7 8:8 13:1 14:3 16:1 17:1 32:11 33:1 34:2 35:2 36:2 37:14 39:1 43:1 44:2 55:1 60:1 63:1 64:1 65:1 66:4 72:1 74:9 79:2 87:1 93:1 98:1 102:1 107:1 112:1 125:2 127:4 129:1 133:1 149:2 150:2 159:1 164:1 168:2 201:2 219:1 238:1 244:1 263:1 279:1 297:1 309:1 311:1 313:1 319:1 320:1 339:1 363:1 404:1 408:1 458:1 467:1 468:1 479:2 481:1 485:1 490:1 497:1 512:1 521:1 550:1 554:2 568:1 572:3 575:1 578:1 592:1 595:1 600:2 626:3 651:1 676:1 715:1 716:1 721:1 722:1 730:1 731:1 742:1 768:1 779:1 792:1 798:1 816:1 819:1 822:1 823:1 847:1 890:1 897:3 929:1 933:1 962:1 988:1 1031:1 1134:1 1136:1 1155:1 1237:1 1295:1 1325:1 1427:2 1819:1 1919:1 1920:4 1921:3 1922:1 1923:1 1924:3 1925:1 1926:1 1927:1 1928:1 1929:1 1930:1 1931:1 1932:1 1933:1 1934:1 1935:1 1936:1 1937:1 1938:1 1939:1 1940:1 1941:1 1942:1 1943:1 1944:1 1945:1 1946:1 1947:1 1948:1 1949:1 1950:2 1951:1 1952:1 1953:1 1954:1 137912:1 137946:1 137949:1 137959:1 137985:1 137986:1 137999:1 138002:1 138009:1 138039:1 138091:1 138115:1 138117:1 138146:1 138147:2 138232:1 138265:1 138317:1 138357:1 138400:1 138401:1 138489:1 138552:1 138570:1 139013:1 139069:1 139088:2 139211:1 139288:1 139411:1 139528:1 139672:1 139720:1 139804:1 139901:1 140151:1 140211:1 140241:1 140260:1 140622:1 140634:1 140717:1 141174:1 141175:1 141176:1 141203:2 141233:1 141313:1 141374:1 141897:1 141940:1 142002:1 142198:1 142289:1 142473:1 142711:1 142922:1 143065:1 143095:1 143135:1 143404:1 143405:1 143406:1 143407:1 143408:1 143409:1 143410:1 143411:1 143412:1 143413:1 143414:1 143415:1 143416:1 143417:1 143418:1 143419:1 143420:1 143421:1 143422:1 143423:1 143424:1 143425:1 143426:1 143427:1 143428:1 143429:1 143430:1 143431:2 143432:1 143433:1 143434:1 143435:1 143436:1 143437:1 143438:1 143439:1 143440:1 143441:1 143442:1 143443:1 143444:1 143445:1 143446:1 143447:1 143448:1 143449:1 143450:1 143451:1 143452:1 143453:1 143454:2 143455:1 143456:1 143457:1 143458:1 143459:1 143460:1 143461:1 143462:1 143463:1 143464:1 143465:1 143466:1 143467:1 143468:1 143469:1 143470:1 143471:1 143472:1 143473:1 143474:1 143475:1 143476:1 143477:1 143478:1 143479:1 143480:1 143481:1 143482:1 143483:1 143484:1 143485:1 143486:1 143487:1 143488:1 143489:1 143490:1 143491:1 143492:1 143493:1 143494:1 143495:1 143496:1 143497:1 143498:1 143499:1 143500:1 143501:1 143502:1 143503:1 143504:1 143505:1 143506:1 143507:1 143508:1 143509:1 143510:1 143511:1 143512:1 143513:1 143514:1 143515:1 143516:1 143517:1 143518:1 143519:1 143520:1 143521:1 143522:1 143523:1 143524:1 143525:1 143526:1 143527:1 143528:1 143529:1 143530:1 143531:1 143532:1 143533:1 143534:1 143535:1 143536:1 143537:1 143538:1 143539:1 143540:1 143541:1 143542:1 143543:1 143544:1 143545:1 143546:1 143547:1 143548:1 143549:1 143550:1 143551:1 143552:1 143553:1 143554:1 143555:1 143556:1 143557:1 143558:1 143559:1 143560:1 143561:1 143562:1 143563:1 143564:1 143565:1 143566:1 143567:1 143568:1 143569:1 
1 1 1 1 8:1 14:1 21:1 32:1 37:3 39:1 44:1 66:1 70:1 129:1 162:1 190:1 330:1 363:2 459:1 549:1 672:1 678:1 702:1 1134:1 1977:1 2184:1 2185:1 2186:1 2187:1 2188:1 2189:1 2190:1 2191:1 2192:1 2193:1 2194:1 2195:1 138238:1 138930:2 138989:1 138990:1 138998:1 139358:1 139394:1 140129:1 142328:1 142847:1 144590:1 144591:1 144592:1 144593:1 144594:1 144595:1 144596:1 144597:1 144598:1 144599:1 144600:1 144601:1 144602:1 144603:1 144604:1 144605:1 144606:1 144607:1 144608:1 144609:1 144610:1 144611:1 144612:1 144613:1 
1 1 1 1 1:2 14:1 32:2 34:1 60:1 82:1 84:1 87:1 102:1 301:1 545:1 657:1 798:1 910:1 1295:1 1353:1 1500:2 2230:1 2231:1 2232:1 2233:1 2234:1 2235:1 2236:1 2237:1 2238:1 2239:1 138014:1 138332:1 138489:1 144128:1 144451:1 144701:1 144702:1 144703:1 144704:1 144705:1 144706:1 144707:1 144708:1 144709:1 144710:1 144711:1 144712:1 144713:1 144714:1 144715:1 144716:1 144717:1 144718:1 144719:1 144720:1 144721:1 144722:1 144723:1 144724:1 
1 1 1 1 1:1 8:3 14:1 15:1 21:1 31:1 32:5 35:2 36:1 37:2 39:1 44:1 55:1 66:1 74:1 96:1 98:2 100:1 125:1 133:1 141:1 149:1 154:1 162:1 166:1 201:2 260:1 311:1 313:2 376:1 385:1 469:1 490:1 779:1 789:1 833:1 1045:1 1139:1 1172:1 1207:1 1451:1 1454:1 1475:1 1543:1 1563:1 1630:1 1645:1 2268:1 2269:1 2270:1 2271:1 2272:1 2273:1 2274:1 2275:1 2276:1 2277:1 2278:1 2279:1 2280:1 2281:1 2282:1 2283:1 2284:1 2285:1 2286:1 2287:1 2288:1 2289:1 137945:1 137999:1 138101:1 138125:1 138162:1 138357:1 138763:1 138870:1 139171:1 139229:1 139598:1 140259:1 140916:1 141212:1 141407:1 142289:1 143043:1 143287:1 143594:1 144402:1 144841:1 144842:1 144843:1 144844:1 144845:1 144846:1 144847:1 144848:1 144849:1 144850:1 144851:1 144852:1 144853:1 144854:1 144855:1 144856:1 144857:1 144858:1 144859:1 144860:1 144861:1 144862:1 144863:1 144864:1 144865:1 144866:1 144867:1 144868:1 144869:1 144870:1 144871:1 144872:1 144873:1 144874:1 144875:1 144876:1 144877:1 144878:1 144879:1 144880:1 144881:1 144882:1 144883:1 144884:1 144885:1 144886:1 144887:1 144888:1 144889:1 144890:1 144891:1 144892:1 144893:1 144894:1 144895:1 144896:1 144897:1 144898:1 144899:1 
1 1 1 1 3:1 8:2 31:1 32:4 37:3 41:1 47:1 55:1 59:1 70:2 98:1 109:1 120:2 129:1 155:2 208:1 316:1 359:1 418:1 458:1 467:1 554:1 564:1 568:2 588:1 683:1 725:1 1006:1 1242:1 1566:1 1628:1 1860:1 2003:1 2359:1 2360:1 2361:1 2362:1 2363:1 2364:1 137945:1 138126:1 138127:2 138146:1 138216:1 139058:1 139084:1 139088:1 140099:1 140201:1 140202:1 140283:1 141525:1 142100:1 142169:1 143067:1 143199:1 144059:1 144499:1 144528:1 145165:1 145166:1 145167:1 145168:1 145169:1 145170:1 145171:1 145172:1 145173:1 145174:1 145175:1 145176:1 145177:1 145178:1 145179:1 145180:1 145181:1 145182:1 145183:1 145184:1 145185:1 145186:1 145187:1 145188:1 145189:1 145190:1 145191:1 
1 1 1 1 1:1 8:2 21:1 31:1 32:3 35:2 36:2 37:4 55:2 66:3 76:1 268:1 279:1 294:1 322:1 554:1 600:1 683:2 835:1 910:1 940:1 1006:1 1034:1 1260:1 1348:1 2183:1 2423:3 2424:1 2425:1 2426:1 2427:1 2428:1 2429:1 137949:2 138004:1 138360:1 138985:1 139084:2 139555:1 139856:1 140200:1 140201:1 140209:1 140210:1 140211:1 140212:1 141812:1 144589:1 145445:1 145469:2 145470:1 145471:1 145472:1 145473:1 145474:1 145475:1 145476:1 145477:1 145478:1 145479:1 145480:1 145481:1 145482:1 145483:1 145484:1 145485:1 145486:1 145487:1 145488:1 145489:1 145490:1 145491:1 145492:1 145493:1 145494:1 145495:1 
1 1 1 1 53:1 284:1 559:1 1513:1 2510:1 2511:1 145926:1 145927:1 145928:1 145929:1 145930:1 
1 1 1 1 0:3 1:2 3:1 8:3 13:1 17:1 21:2 32:7 37:8 44:1 55:2 56:1 60:1 66:2 100:1 125:1 129:1 151:2 154:2 162:1 184:1 204:1 207:1 208:1 238:1 283:1 301:1 312:1 339:1 380:1 386:1 391:1 463:1 480:1 490:1 509:1 519:1 554:1 564:1 600:1 608:1 623:1 641:1 667:1 671:1 718:1 744:1 798:1 1015:1 1068:1 1072:1 1081:1 1099:2 1139:1 1170:2 1188:1 1194:1 1201:1 1228:1 1334:1 1512:1 1519:1 1618:1 1628:1 1632:1 1694:1 1706:1 1861:1 2523:2 2524:1 2525:1 2526:1 2527:1 2528:1 2529:1 2530:1 2531:1 2532:1 2533:1 2534:1 2535:1 2536:1 2537:1 2538:1 2539:1 138140:1 138146:1 138165:1 138238:1 138986:1 139053:1 139088:1 139181:1 139344:1 139380:1 139400:1 139830:1 139991:1 140053:1 140211:1 140453:1 140742:1 140813:2 140814:2 141475:1 141893:1 141921:1 142337:1 142375:1 142568:1 142646:1 144528:1 145609:1 145964:1 145965:1 145966:1 145967:1 145968:1 145969:1 145970:1 145971:1 145972:1 145973:1 145974:1 145975:1 145976:1 145977:1 145978:1 145979:1 145980:1 145981:1 145982:1 145983:1 145984:1 145985:1 145986:1 145987:1 145988:1 145989:1 145990:1 145991:1 145992:1 145993:1 145994:1 145995:1 145996:1 145997:1 145998:1 145999:1 146000:1 146001:1 146002:1 146003:1 146004:1 146005:1 146006:1 146007:1 146008:1 146009:1 146010:1 146011:1 146012:1 146013:1 146014:1 146015:1 146016:1 146017:1 146018:1 146019:1 146020:1 146021:1 146022:1 146023:1 146024:1 146025:1 146026:1 146027:1 146028:1 146029:1 146030:1 146031:1 146032:1 146033:1 146034:1 146035:1 146036:1 146037:1 146038:1 146039:1 146040:1 146041:1 146042:1 146043:1 
1 1 1 1 225:1 753:1 1243:1 1776:1 2540:1 2541:1 2542:1 2543:1 2544:1 2545:1 2546:1 2547:1 2548:1 146044:1 146045:1 146046:1 146047:1 146048:1 146049:1 146050:1 146051:1 146052:1 146053:1 146054:1 146055:1 
1 1 1 1 1:1 3:1 8:5 12:1 14:1 21:2 31:1 32:2 35:2 36:2 37:9 39:3 44:2 60:1 63:1 66:2 100:3 102:1 105:1 111:1 119:1 125:1 129:1 141:1 159:1 166:1 171:1 188:1 201:2 226:1 232:1 241:1 274:1 283:1 301:1 309:1 317:1 347:1 358:1 385:1 391:2 406:1 411:1 451:1 480:2 481:1 521:1 538:1 562:1 594:1 595:1 614:1 624:1 626:1 670:1 672:1 683:1 684:1 702:1 718:1 730:1 749:2 750:1 760:1 778:1 789:1 795:1 804:1 810:1 824:1 842:1 897:1 985:1 992:2 1059:1 1092:1 1282:1 1316:1 1427:2 1454:1 1502:1 1630:1 1691:1 1711:1 1719:1 1757:1 1864:1 2115:1 2375:1 2408:1 2549:1 2550:1 2551:1 2552:1 2553:1 2554:1 2555:1 2556:1 2557:1 2558:1 2559:1 2560:1 2561:1 2562:1 2563:1 2564:1 2565:1 2566:1 137949:2 137950:1 137951:1 138146:1 138162:1 138169:1 138187:1 138188:1 138271:1 138292:1 138332:1 138357:1 138613:1 138870:1 139067:1 139400:1 139487:1 139610:1 139886:1 140169:1 140238:1 140890:1 141280:1 141328:1 141699:1 141971:1 142300:1 143798:1 143806:1 143922:1 144732:1 144849:1 145428:1 145637:1 145853:1 146056:1 146057:1 146058:1 146059:1 146060:1 146061:1 146062:1 146063:1 146064:1 146065:1 146066:1 146067:1 146068:1 146069:1 146070:1 146071:1 146072:1 146073:1 146074:1 146075:1 146076:1 146077:1 146078:1 146079:1 146080:1 146081:1 146082:1 146083:1 146084:1 146085:1 146086:1 146087:1 146088:1 146089:1 146090:1 146091:1 146092:1 146093:1 146094:1 146095:1 146096:1 146097:1 146098:1 146099:1 146100:1 146101:1 146102:1 146103:1 146104:1 146105:1 146106:1 146107:1 146108:1 146109:1 146110:1 146111:1 146112:1 146113:1 146114:1 146115:1 146116:1 146117:1 146118:1 146119:1 146120:1 146121:1 146122:1 146123:1 146124:1 146125:1 146126:1 146127:1 146128:1 146129:1 146130:1 146131:1 146132:1 146133:1 146134:1 146135:1 146136:1 146137:1 146138:1 146139:1 146140:1 146141:1 146142:1 146143:1 146144:1 146145:1 146146:1 146147:1 146148:1 146149:1 146150:1 146151:1 146152:1 146153:1 146154:1 
1 1 1 1 1:4 3:2 6:1 7:1 8:2 14:2 21:2 31:1 35:1 36:3 37:4 45:1 54:1 55:2 56:1 60:2 66:4 83:1 87:1 98:1 122:1 150:2 169:1 190:1 198:1 204:4 241:1 283:1 288:1 315:1 322:1 339:1 345:1 393:1 406:1 416:1 451:1 490:1 521:1 560:1 594:1 598:1 618:1 740:1 816:1 910:1 943:1 992:1 1168:1 1170:1 1185:1 1260:1 1335:2 1503:1 1535:1 1539:1 1686:1 1876:1 2390:1 2526:1 2550:1 2636:1 2637:1 2638:1 2639:1 2640:1 2641:1 2642:1 2643:1 2644:1 2645:1 2646:1 2647:1 2648:1 2649:1 137916:1 137949:1 138002:1 138046:1 138357:1 138386:1 138489:1 138529:1 138647:1 138986:1 138987:1 139029:1 139075:1 139132:1 139480:1 139524:1 140210:1 140743:1 141847:1 141963:1 141964:1 143113:1 143295:1 143733:1 144426:1 145326:1 145327:1 146030:1 146066:1 146067:1 146068:1 146189:1 146405:1 146406:1 146407:1 146408:1 146409:1 146410:1 146411:1 146412:1 146413:1 146414:1 146415:1 146416:1 146417:1 146418:1 146419:1 146420:1 146421:1 146422:1 146423:1 146424:1 146425:2 146426:1 146427:1 146428:1 146429:1 146430:1 146431:1 146432:1 146433:1 146434:1 146435:1 146436:1 146437:1 146438:1 146439:1 146440:1 146441:1 146442:1 146443:1 146444:1 146445:1 146446:1 146447:1 146448:1 146449:1 146450:1 146451:1 146452:1 146453:1 146454:1 146455:1 146456:1 146457:1 146458:1 146459:1 146460:1 146461:1 146462:1 146463:1 146464:1 146465:1 146466:1 146467:1 
1 1 1 1 1:2 3:3 8:2 14:3 21:3 31:2 32:4 33:1 34:1 36:1 37:7 38:1 39:4 41:1 44:4 53:2 56:2 60:2 63:1 66:1 70:1 73:1 74:2 79:1 93:1 96:1 105:1 114:1 127:1 133:1 150:1 171:1 226:1 228:1 258:2 262:1 263:2 330:1 334:1 363:1 385:1 408:1 451:1 453:1 490:1 517:1 623:1 662:1 703:1 816:1 833:3 837:1 866:2 962:1 1018:1 1126:1 1147:1 1152:1 1170:1 1185:2 1325:1 1329:1 1424:1 1452:1 1616:1 1810:1 1832:1 1935:1 1997:1 2026:1 2122:1 2318:1 2372:1 2526:1 2537:1 2650:1 2651:2 2652:1 2653:1 2654:1 2655:1 2656:1 2657:1 2658:1 2659:1 2660:1 2661:1 2662:1 2663:1 2664:1 2665:1 2666:1 2667:1 2668:1 137952:1 138008:1 138009:1 138045:1 138061:1 138091:1 138146:1 138169:1 138238:1 138317:1 138357:1 138572:1 138713:1 138729:1 138813:1 138914:1 139162:1 139181:1 139283:1 139395:1 139681:1 140061:1 140247:1 140742:1 141320:1 141611:1 141612:1 141691:1 143095:1 143190:1 144350:1 144852:2 145022:1 145215:1 145363:1 145381:1 146468:1 146469:1 146470:1 146471:1 146472:1 146473:1 146474:1 146475:1 146476:1 146477:1 146478:1 146479:1 146480:1 146481:1 146482:1 146483:1 146484:1 146485:1 146486:1 146487:1 146488:1 146489:1 146490:1 146491:1 146492:1 146493:1 146494:1 146495:1 146496:1 146497:1 146498:1 146499:1 146500:1 146501:1 146502:1 146503:1 146504:1 146505:1 146506:1 146507:1 146508:1 146509:1 146510:1 146511:1 146512:1 146513:1 146514:1 146515:1 146516:1 146517:1 146518:1 146519:1 146520:1 146521:1 146522:1 146523:1 146524:1 146525:1 146526:1 146527:1 146528:1 146529:1 146530:1 146531:1 146532:1 146533:1 146534:1 146535:1 146536:1 146537:1 146538:1 146539:1 146540:1 146541:1 146542:1 146543:1 146544:1 146545:1 146546:1 146547:1 146548:1 146549:1 146550:1 146551:1 146552:1 146553:1 146554:1 146555:1 146556:1 146557:1 146558:1 
1 1 1 1 1:1 21:1 31:1 37:1 38:1 70:1 82:1 83:1 238:1 578:1 750:1 2696:1 137952:1 138014:1 138015:1 138360:1 143325:1 143326:1 146661:1 146662:1 146663:1 146664:1 146665:1 
1 1 1 1 1:4 8:3 14:2 32:3 37:2 39:1 41:1 44:3 45:1 55:3 60:2 66:3 96:1 98:1 100:1 102:1 112:1 125:2 127:1 134:1 151:1 201:3 238:1 279:1 288:1 311:2 322:1 329:1 363:1 386:1 436:1 480:1 496:1 505:1 600:1 644:1 683:1 703:1 793:1 835:1 905:1 1015:1 1069:1 1316:1 1329:1 1424:1 1680:1 1835:1 1836:1 1837:2 1858:1 2437:1 2481:1 2791:1 2792:1 2793:3 2794:2 2795:1 2796:1 2797:1 2798:1 2799:1 2800:1 2801:1 2802:1 2803:1 2804:1 2805:1 138232:1 138332:1 138601:1 138695:1 138696:1 139013:1 139272:1 139457:1 139545:1 139904:1 139919:1 140034:1 140320:1 140468:1 140676:1 140813:1 141812:1 142289:1 142395:1 142444:1 142623:1 142757:1 143148:1 143168:1 143257:1 145784:1 145858:1 147140:1 147141:1 147142:1 147143:1 147144:1 147145:1 147146:1 147147:1 147148:1 147149:1 147150:1 147151:1 147152:1 147153:1 147154:1 147155:1 147156:1 147157:1 147158:1 147159:1 147160:1 147161:1 147162:1 147163:1 147164:1 147165:1 147166:1 147167:1 147168:1 147169:1 147170:1 147171:1 147172:1 147173:1 147174:1 147175:1 147176:1 147177:1 147178:1 147179:1 147180:1 147181:1 147182:1 147183:1 147184:1 147185:1 147186:1 147187:1 147188:1 147189:1 147190:1 147191:1 147192:1 147193:1 147194:1 147195:1 147196:1 147197:1 147198:1 147199:1 147200:1 147201:1 147202:1 147203:1 
1 1 1 1 1:2 3:1 8:2 14:1 21:1 32:2 34:1 37:4 58:1 60:1 66:3 87:2 105:3 113:1 133:1 136:1 151:1 159:2 201:1 260:1 271:1 346:1 381:1 385:1 402:1 403:1 538:1 608:1 616:1 696:1 768:1 833:1 842:1 897:1 964:1 1173:1 1228:1 1366:1 1429:1 1628:1 1760:1 2086:1 2249:1 2363:1 2390:1 2553:1 2641:1 2806:1 2807:1 2808:1 2809:1 2810:1 2811:1 2812:1 2813:1 2814:1 2815:1 2816:1 2817:1 2818:1 2819:1 2820:1 2821:1 2822:1 2823:1 2824:1 2825:1 2826:1 2827:1 138002:1 138046:1 138057:1 138870:1 138912:1 139528:1 139886:1 140758:1 140813:1 140854:1 141803:1 142047:1 143210:1 143230:1 144179:1 144852:1 145311:1 146099:1 147204:1 147205:1 147206:1 147207:1 147208:1 147209:1 147210:1 147211:1 147212:1 147213:1 147214:1 147215:1 147216:1 147217:1 147218:1 147219:1 147220:1 147221:1 147222:1 147223:1 147224:1 147225:1 147226:1 147227:1 147228:1 147229:1 147230:1 147231:1 147232:1 147233:1 147234:1 147235:1 147236:1 147237:1 147238:1 147239:1 147240:1 147241:1 147242:1 147243:1 147244:1 147245:1 147246:1 147247:1 147248:1 147249:1 147250:1 147251:1 147252:1 147253:1 147254:1 147255:1 147256:1 147257:1 147258:1 147259:1 147260:1 147261:1 147262:1 147263:1 147264:1 147265:1 
1 1 1 1 8:1 1271:1 2893:1 2894:1 2895:1 2896:1 2897:1 147591:1 147592:1 147593:1 147594:1 147595:1 147596:1 
1 1 1 1 1:3 3:1 8:2 21:2 27:1 32:2 37:1 44:1 55:1 56:1 60:1 70:2 98:1 120:1 125:1 149:1 154:1 171:1 232:1 288:1 300:1 308:1 393:1 480:1 487:1 646:2 678:1 683:1 737:1 743:1 807:1 962:1 980:1 1037:1 1119:1 1170:1 1228:2 1646:1 1671:1 1687:1 1735:2 1878:1 2533:1 2765:1 2893:1 2937:1 2938:1 2939:1 2940:1 2941:1 2942:1 2943:1 2944:1 138046:1 138128:1 138165:1 138407:1 139013:1 139283:1 140320:1 141847:1 142412:1 142413:1 142818:1 143199:1 143404:1 145999:1 147754:1 147795:1 147796:1 147797:1 147798:1 147799:1 147800:1 147801:1 147802:1 147803:1 147804:1 147805:1 147806:1 147807:1 147808:1 147809:1 147810:1 147811:1 147812:1 147813:1 147814:1 147815:1 147816:1 147817:1 147818:1 147819:1 147820:1 147821:1 147822:1 147823:1 147824:1 147825:1 147826:1 147827:1 147828:1 147829:1 147830:1 147831:1 147832:1 147833:1 147834:1 147835:1 147836:1 147837:1 147838:1 147839:1 147840:1 
1 1 1 1 0:1 1:8 3:5 8:5 12:1 17:1 21:4 32:4 35:1 36:1 37:7 39:1 44:2 45:2 55:3 58:1 59:2 60:1 63:1 66:4 70:1 74:1 82:1 93:1 98:1 105:2 112:1 121:1 122:1 125:2 127:2 136:1 150:1 151:1 159:1 164:1 171:2 201:2 259:1 260:1 263:2 265:1 267:1 272:2 282:1 284:1 301:1 313:1 324:1 347:1 348:1 362:1 366:1 391:2 408:1 462:1 463:3 469:1 566:1 594:1 599:1 626:1 641:1 665:1 750:1 783:1 792:1 840:1 863:1 867:1 897:1 929:1 962:1 1043:1 1045:1 1078:1 1119:1 1121:1 1139:1 1148:1 1177:1 1276:1 1416:1 1455:1 1466:1 1475:1 1656:1 1758:1 1774:1 1860:1 1861:1 1992:1 2207:1 2279:1 2526:1 2592:1 2603:1 2706:1 2858:1 3002:1 3144:1 3145:1 3146:1 3147:1 3148:1 3149:1 3150:1 3151:1 3152:1 3153:1 3154:1 3155:1 3156:1 3157:1 3158:1 3159:1 3160:1 3161:1 3162:1 3163:1 3164:1 3165:1 3166:1 3167:1 3168:2 3169:1 137949:1 137962:1 137980:1 137999:1 138014:1 138045:1 138146:1 138165:2 138238:2 138317:1 138321:1 138372:1 138435:1 138546:1 138547:1 138780:1 138996:1 139067:1 139084:1 139793:1 139799:1 139856:1 139940:1 140060:1 140061:1 140222:1 140750:1 140798:1 140813:1 140814:1 141147:1 141593:1 141700:1 141854:1 142497:1 142573:1 142931:1 142932:1 142940:1 143363:1 143908:1 144770:1 145293:1 145632:1 145780:1 146737:1 146738:1 146963:1 147610:1 147623:1 148864:1 148865:1 148866:1 148867:1 148868:1 148869:1 148870:1 148871:1 148872:1 148873:1 148874:1 148875:1 148876:1 148877:1 148878:1 148879:1 148880:1 148881:1 148882:1 148883:1 148884:1 148885:1 148886:1 148887:1 148888:1 148889:1 148890:1 148891:1 148892:1 148893:1 148894:1 148895:1 148896:1 148897:1 148898:1 148899:1 148900:1 148901:1 148902:1 148903:1 148904:1 148905:1 148906:1 148907:1 148908:1 148909:1 148910:1 148911:1 148912:1 148913:1 148914:1 148915:1 148916:1 148917:1 148918:1 148919:1 148920:1 148921:1 148922:1 148923:1 148924:1 148925:1 148926:1 148927:1 148928:1 148929:1 148930:1 148931:1 148932:1 148933:1 148934:1 148935:1 148936:1 148937:1 148938:1 148939:1 148940:1 148941:1 148942:1 148943:1 148944:1 148945:1 148946:1 148947:1 148948:1 148949:1 148950:1 148951:1 148952:1 148953:1 148954:1 148955:1 148956:1 148957:1 148958:1 148959:1 148960:1 148961:1 148962:1 148963:1 148964:1 148965:1 148966:1 148967:2 148968:1 148969:1 148970:1 148971:1 148972:1 148973:1 148974:1 148975:1 148976:1 148977:1 148978:1 148979:1 148980:1 148981:1 
1 1 1 1 0:1 1:2 8:3 21:1 32:1 39:2 41:1 44:3 45:1 66:1 70:1 121:1 129:1 134:1 171:1 272:1 418:2 439:1 520:1 594:1 595:1 600:1 701:1 725:1 909:1 995:1 1228:1 1374:1 1416:1 1455:1 1590:1 1763:1 1994:1 2179:1 2399:1 2422:1 2764:1 2881:1 3004:1 3170:1 3171:1 3172:1 3173:1 138998:1 138999:1 139067:1 139070:1 139403:1 139404:1 139856:1 140908:1 141050:1 141467:1 141593:1 141700:1 142178:1 143278:1 145358:1 145375:1 145467:1 145780:1 148055:1 148982:1 148983:1 148984:1 148985:1 148986:1 148987:1 148988:1 148989:1 148990:1 148991:1 148992:1 148993:1 148994:1 148995:1 148996:1 148997:1 148998:1 148999:1 149000:1 149001:1 149002:1 149003:1 149004:1 149005:1 149006:1 149007:1 149008:1 149009:1 149010:1 149011:1 
1 1 1 1 1:3 8:9 14:4 21:1 32:2 34:1 35:1 37:7 39:2 41:3 44:4 53:1 54:3 55:2 56:1 59:1 71:1 98:1 100:1 102:1 105:1 113:1 115:1 121:1 133:1 139:1 144:2 151:1 156:1 159:1 162:1 171:1 191:1 201:3 226:1 272:1 311:1 320:1 345:1 347:1 385:1 406:1 439:1 469:1 480:1 490:2 494:1 497:1 549:1 567:1 575:1 578:1 595:1 647:1 649:1 728:1 776:1 793:1 821:1 824:1 896:1 959:1 1044:1 1170:1 1223:1 1278:1 1315:1 1536:1 1596:1 1675:1 1773:1 1873:1 1943:1 1983:1 2057:1 2084:1 2179:1 2279:1 2296:1 2533:1 2638:1 2686:1 2687:1 3286:1 3287:1 3288:1 3289:1 3290:1 3291:1 3292:1 3293:1 3294:1 3295:1 3296:1 3297:1 3298:1 3299:1 3300:1 3301:1 3302:1 3303:1 3304:1 3305:1 3306:1 3307:1 3308:1 137959:2 137975:1 138072:1 138091:1 138238:1 138357:1 138647:1 138648:1 138870:1 138963:1 139084:1 139171:1 139226:1 139427:1 139856:2 140591:1 140593:1 140813:1 140814:1 141176:1 141242:1 142246:1 142667:1 143190:1 143728:1 143875:1 144059:1 144173:1 144287:1 144599:1 144928:1 145311:1 146390:1 146586:1 146615:1 146664:1 146983:1 147320:1 149297:1 149563:1 149564:1 149565:1 149566:1 149567:1 149568:1 149569:1 149570:1 149571:1 149572:1 149573:1 149574:1 149575:1 149576:1 149577:1 149578:1 149579:1 149580:1 149581:1 149582:1 149583:1 149584:1 149585:1 149586:1 149587:1 149588:1 149589:1 149590:1 149591:1 149592:1 149593:1 149594:1 149595:1 149596:1 149597:1 149598:1 149599:1 149600:1 149601:1 149602:1 149603:1 149604:1 149605:1 149606:1 149607:1 149608:1 149609:1 149610:1 149611:1 149612:1 149613:1 149614:1 149615:1 149616:1 149617:1 149618:1 149619:1 149620:1 149621:1 149622:1 149623:1 149624:1 149625:1 149626:1 149627:1 149628:1 149629:1 149630:1 149631:1 149632:1 149633:1 149634:1 149635:1 149636:1 149637:1 149638:1 149639:1 149640:1 149641:1 149642:1 149643:1 149644:1 149645:1 149646:1 149647:1 149648:1 149649:1 149650:1 149651:1 149652:1 149653:1 149654:1 149655:1 149656:1 149657:1 149658:1 149659:1 
1 1 1 1 8:1 38:1 39:1 60:1 98:1 105:1 121:1 146:1 162:1 594:1 651:1 750:1 1687:1 2328:1 2530:1 3381:1 3382:1 138045:1 139927:1 150030:1 150031:1 150032:1 150033:1 150034:1 150035:1 150036:1 150037:1 150038:1 150039:1 150040:1 150041:1 150042:1 150043:1 
1 1 1 1 1:2 3:3 21:1 31:2 32:2 37:4 38:1 44:2 60:1 66:2 100:1 105:1 120:1 125:1 134:1 150:1 159:1 171:1 191:1 201:1 211:1 260:1 263:1 288:1 330:1 363:1 366:1 386:1 406:1 416:1 469:1 519:1 539:1 554:1 610:1 625:1 629:1 671:1 725:1 749:1 793:1 873:1 1056:1 1068:2 1316:1 1353:1 1409:1 1416:1 2052:1 2081:1 2375:1 2430:1 2558:1 2582:1 2635:1 2999:1 3015:1 3441:1 3442:1 3443:1 3444:1 3445:1 3446:1 3447:1 3448:1 3449:1 3450:1 3451:1 3452:1 3453:1 3454:1 3455:1 3456:1 3457:1 3458:1 3459:1 3460:1 3461:1 3462:1 3463:1 137952:1 138002:1 138146:2 138263:1 138913:1 138930:1 138989:1 139088:1 140078:1 141374:1 141475:1 141593:1 141630:1 144770:1 145827:1 147299:1 148075:1 149287:1 149672:1 150062:1 150307:1 150308:1 150309:1 150310:1 150311:1 150312:1 150313:1 150314:1 150315:1 150316:1 150317:1 150318:1 150319:1 150320:1 150321:1 150322:1 150323:1 150324:1 150325:1 150326:1 150327:1 150328:1 150329:1 150330:1 150331:1 150332:1 150333:1 150334:1 150335:1 150336:1 150337:1 150338:1 150339:1 150340:1 150341:1 150342:1 150343:1 150344:1 150345:1 150346:1 150347:1 150348:1 150349:1 150350:1 150351:1 150352:1 150353:1 150354:1 150355:1 150356:1 150357:1 150358:1 150359:1 150360:1 150361:1 150362:1 150363:1 150364:1 150365:1 150366:1 150367:1 150368:1 150369:1 150370:1 150371:1 150372:1 150373:1 150374:1 150375:1 
1 1 1 1 0:1 2:1 6:3 7:3 8:1 14:2 31:2 32:7 34:1 37:2 39:1 44:1 55:1 60:1 74:3 87:2 93:1 100:1 112:1 122:1 125:2 127:1 146:1 232:1 294:1 301:1 322:1 347:1 363:1 386:1 416:1 468:1 484:1 493:1 521:1 610:2 621:1 646:1 650:1 682:1 685:1 718:1 959:1 1034:1 1124:1 1177:1 1236:1 1260:1 1294:1 1316:1 1363:1 1369:1 1538:1 1713:1 1804:1 2025:2 2203:2 2596:1 3464:1 3465:1 3466:3 3467:3 3468:1 3469:1 3470:1 3471:2 3472:1 3473:1 3474:1 3475:1 3476:1 3477:1 3478:1 3479:1 3480:1 3481:1 3482:1 3483:1 3484:1 3485:1 137916:3 137999:1 138117:1 138162:1 138357:1 139125:2 139402:1 139857:1 140632:1 141775:1 141803:1 142473:1 142487:1 142957:1 143300:1 144254:1 145222:1 146184:1 146274:1 147345:1 147853:1 148178:1 148179:1 148201:1 150376:1 150377:1 150378:3 150379:1 150380:1 150381:1 150382:1 150383:1 150384:1 150385:1 150386:1 150387:1 150388:1 150389:2 150390:2 150391:1 150392:2 150393:1 150394:1 150395:1 150396:1 150397:1 150398:1 150399:1 150400:1 150401:1 150402:1 150403:1 150404:1 150405:1 150406:1 150407:1 150408:1 150409:1 150410:1 150411:1 150412:1 150413:1 150414:1 150415:1 150416:1 150417:1 150418:1 150419:1 150420:1 150421:1 150422:1 150423:1 150424:1 150425:1 150426:1 150427:1 150428:1 150429:1 150430:1 150431:1 150432:1 150433:1 150434:1 150435:1 150436:1 150437:1 150438:1 150439:1 150440:1 150441:1 150442:1 150443:1 150444:1 150445:1 150446:1 150447:1 
1 1 1 1 8:1 31:1 37:1 44:2 96:1 125:1 129:1 168:1 204:1 600:1 1070:1 1276:1 1520:1 2163:1 3530:1 3531:1 3532:1 138088:1 138572:1 139619:1 142238:1 143961:1 144528:1 150720:1 150721:1 150722:1 150723:1 150724:1 150725:1 150726:1 150727:1 150728:1 150729:1 150730:1 
1 1 1 1 1:4 3:3 8:6 12:1 14:2 21:1 34:3 37:4 39:2 44:1 55:2 59:1 66:1 70:1 71:1 74:2 79:1 100:1 102:1 119:1 125:2 189:1 226:1 237:1 263:1 284:1 288:1 295:1 322:2 328:1 355:1 406:1 521:1 539:1 603:1 614:1 796:1 815:1 816:1 821:1 910:1 959:1 1016:1 1020:1 1153:1 1418:1 1454:1 1502:2 1528:1 1757:1 1773:1 1843:1 2094:1 2134:1 2187:2 2275:1 2392:1 2658:1 2768:1 2952:1 3113:1 3125:1 3140:1 3211:1 3440:1 3557:1 3558:1 3559:1 3560:1 3561:1 3562:1 3563:1 3564:1 3565:1 3566:1 3567:1 3568:1 3569:1 3570:1 3571:1 3572:1 3573:1 3574:1 3575:1 3576:1 3577:1 3578:1 3579:2 3580:1 3581:1 3582:1 3583:1 3584:1 138069:1 138376:1 138386:1 138570:1 139084:1 139106:1 139559:2 139705:1 139720:1 139816:1 140210:1 140256:1 140425:1 140531:1 141236:1 141856:1 142820:1 144223:1 144261:1 145341:1 145533:1 146109:1 146130:1 149916:1 150847:1 150859:1 150860:1 150861:1 150862:1 150863:1 150864:1 150865:1 150866:1 150867:1 150868:1 150869:1 150870:1 150871:1 150872:1 150873:1 150874:2 150875:1 150876:1 150877:1 150878:1 150879:1 150880:1 150881:1 150882:1 150883:1 150884:1 150885:1 150886:1 150887:1 150888:1 150889:1 150890:1 150891:1 150892:1 150893:1 150894:1 150895:1 150896:1 150897:1 150898:1 150899:1 150900:1 150901:1 150902:1 150903:1 150904:1 150905:1 150906:1 150907:1 150908:1 150909:1 150910:1 150911:1 150912:1 150913:1 150914:1 150915:1 150916:1 150917:1 150918:1 150919:1 150920:1 150921:1 150922:1 150923:1 150924:1 150925:1 150926:1 150927:2 150928:1 150929:1 150930:1 150931:1 150932:1 150933:1 150934:1 150935:1 150936:1 150937:1 150938:1 150939:1 150940:1 150941:1 150942:1 150943:1 150944:1 150945:1 150946:1 
1 1 1 1 1:3 3:1 6:3 7:3 8:3 17:1 18:1 21:1 31:2 32:4 34:2 35:1 36:2 37:2 39:1 53:1 55:2 66:2 70:1 71:1 87:1 100:2 102:1 104:1 134:1 141:1 150:4 201:2 238:2 272:1 283:1 288:1 311:1 321:1 328:1 354:1 391:1 487:1 554:1 560:1 600:1 618:3 662:1 671:1 701:1 840:1 890:1 1028:1 1112:1 1126:1 1168:1 1177:1 1430:1 1523:1 1535:1 1630:1 1681:1 2440:1 2504:1 2526:1 3127:1 3341:1 3471:1 3598:1 3599:1 3600:1 3601:1 3602:1 3603:1 3604:1 3605:1 3606:1 3607:1 3608:1 3609:1 137916:3 137949:1 138116:1 138165:1 138346:1 138405:1 138987:1 139252:1 140212:1 140421:1 140425:1 140800:1 141168:1 141207:1 141212:1 141625:1 141855:1 142314:1 142371:1 143325:1 143582:1 144863:1 145272:1 145294:1 145976:1 146407:1 146623:1 146753:1 148672:1 148864:1 149401:1 150018:1 150571:1 150572:1 151002:1 151003:1 151004:1 151005:1 151006:1 151007:1 151008:1 151009:1 151010:1 151011:1 151012:1 151013:1 151014:1 151015:1 151016:1 151017:1 151018:1 151019:1 151020:1 151021:1 151022:1 151023:1 151024:1 151025:1 151026:1 151027:1 151028:1 151029:1 151030:1 151031:1 151032:1 151033:1 151034:1 151035:1 151036:1 151037:2 151038:1 151039:1 151040:1 151041:1 151042:1 151043:2 151044:1 151045:1 151046:1 151047:1 151048:1 151049:1 151050:1 151051:1 151052:1 151053:1 151054:1 151055:1 151056:1 151057:1 151058:1 151059:1 151060:1 151061:1 151062:1 
1 1 1 1 8:3 21:2 32:2 34:1 37:3 41:1 43:1 44:1 55:1 59:1 60:1 66:2 70:1 83:1 125:2 151:1 155:1 187:1 201:2 226:1 228:1 238:1 272:1 329:1 363:1 467:1 534:1 629:1 702:1 897:1 1351:1 1427:1 1861:1 2934:1 3610:1 3611:1 3612:1 3613:1 138206:1 138235:1 138238:1 138332:1 138385:1 139272:1 139451:1 140035:1 140324:1 140800:1 140813:1 140814:1 141147:1 142757:1 142758:1 143190:1 143441:1 143895:1 145018:1 145218:1 146689:1 147378:1 150866:1 150950:1 151063:1 151064:1 151065:1 151066:1 151067:1 151068:1 151069:1 151070:1 151071:1 151072:1 151073:1 151074:1 151075:1 151076:1 151077:1 151078:1 151079:1 151080:1 151081:1 151082:1 151083:1 151084:1 
1 1 1 1 0:3 1:11 3:11 5:1 6:1 7:1 8:14 14:4 15:1 17:1 21:4 31:3 32:6 34:7 35:1 36:4 37:16 38:1 39:8 41:2 44:12 45:1 53:2 54:1 55:10 58:2 59:1 60:4 64:1 66:9 70:1 79:3 82:1 87:1 98:3 100:3 102:2 103:1 105:9 107:1 111:1 120:1 122:3 125:3 127:1 129:3 134:1 136:5 142:1 146:2 149:2 150:7 151:1 154:1 159:1 162:1 167:1 168:1 171:2 185:2 193:1 199:1 201:1 207:1 208:2 217:1 218:1 219:2 244:1 258:4 260:6 263:1 265:3 267:1 294:2 311:2 313:3 316:1 318:1 322:1 324:1 330:2 336:2 341:1 342:1 347:4 354:2 358:1 363:2 365:1 366:1 380:2 385:2 394:2 402:2 403:1 404:1 410:1 411:1 414:1 416:1 436:1 439:1 450:1 451:1 458:1 469:3 480:1 485:2 490:2 492:1 496:5 509:1 521:2 535:1 539:1 543:2 553:1 575:1 579:1 585:1 594:1 595:1 600:2 603:1 609:2 619:2 623:2 641:1 645:3 646:3 647:2 675:1 683:1 712:1 716:1 718:1 787:1 798:1 800:2 804:1 816:1 825:1 833:1 856:1 857:1 884:1 897:3 904:1 929:1 931:1 933:2 983:1 993:1 1015:1 1020:1 1036:1 1037:1 1068:1 1119:1 1134:4 1185:1 1200:1 1243:1 1248:1 1262:1 1269:1 1275:1 1315:1 1432:1 1452:1 1528:1 1616:1 1645:1 1647:1 1661:2 1671:2 1686:1 1775:1 1791:1 1825:1 1946:1 1950:1 1994:1 2001:1 2052:1 2080:1 2118:1 2139:1 2192:1 2265:1 2405:1 2433:1 2475:1 2532:1 2533:2 2535:1 2701:1 2754:1 2757:1 2841:1 2861:2 2881:1 2938:1 2948:1 3127:1 3134:1 3219:2 3223:2 3238:1 3293:1 3394:1 3471:1 3614:1 3615:1 3616:1 3617:1 3618:1 3619:1 3620:1 3621:1 3622:1 3623:1 3624:1 3625:1 3626:1 3627:1 3628:1 3629:1 3630:1 3631:1 3632:1 3633:1 3634:1 3635:1 3636:1 3637:1 3638:1 3639:2 3640:1 3641:1 3642:1 3643:1 3644:1 3645:1 3646:1 3647:1 3648:1 3649:1 3650:1 3651:1 3652:1 3653:1 3654:1 3655:1 3656:1 3657:1 3658:1 3659:1 3660:1 3661:1 3662:1 3663:1 3664:1 3665:1 3666:1 3667:1 3668:1 3669:1 3670:1 3671:1 3672:1 3673:1 3674:1 3675:1 3676:1 3677:1 3678:2 3679:1 3680:1 3681:1 3682:1 3683:1 3684:1 3685:1 3686:1 3687:1 3688:1 3689:1 3690:1 3691:1 3692:1 3693:1 3694:1 137910:1 137916:1 137945:1 138014:1 138039:2 138056:1 138057:1 138122:1 138146:1 138165:2 138169:1 138229:1 138230:1 138232:1 138235:2 138238:1 138405:2 138416:1 138455:1 138459:1 138475:2 138489:1 138494:1 138570:1 138658:1 138754:1 138792:1 138870:1 138913:1 138930:2 138998:1 138999:1 139084:2 139144:1 139179:1 139211:1 139452:1 139475:1 139619:1 139681:1 139682:2 139756:1 139870:1 139895:1 139969:1 140018:1 140171:1 140192:1 140211:1 140234:1 140345:1 140363:1 140407:2 140516:1 140545:2 140813:1 140814:1 140854:1 140868:1 140881:1 141045:1 141083:1 141120:1 141289:1 141434:2 141855:2 141995:1 142103:1 142246:1 142369:1 142406:1 142478:2 142505:1 142573:1 142638:1 142646:2 142652:1 142653:1 142654:1 142695:1 142739:1 142835:1 142836:1 143013:1 143046:2 143363:1 143382:1 143765:1 143902:1 144155:1 144156:2 144192:1 144193:1 144397:1 144410:1 144418:1 144599:1 144699:1 145189:1 145271:2 145538:1 145573:1 146167:1 146189:1 146425:1 146426:1 146522:1 146636:3 146701:1 147112:1 147439:1 147842:1 148002:1 148091:1 148213:1 148235:1 148272:1 148796:1 148807:1 148929:1 149231:1 149257:1 149315:1 149385:1 149916:1 150075:1 150315:1 150510:1 150874:1 151085:1 151086:1 151087:1 151088:1 151089:1 151090:1 151091:1 151092:1 151093:1 151094:1 151095:1 151096:1 151097:1 151098:1 151099:1 151100:1 151101:1 151102:1 151103:1 151104:1 151105:1 151106:1 151107:2 151108:1 151109:1 151110:1 151111:1 151112:1 151113:1 151114:1 151115:1 151116:1 151117:1 151118:1 151119:1 151120:1 151121:1 151122:1 151123:1 151124:1 151125:1 151126:1 151127:1 151128:1 151129:1 151130:1 151131:1 151132:1 151133:1 151134:1 151135:1 151136:1 151137:1 151138:1 151139:1 151140:1 151141:1 151142:1 151143:1 151144:1 151145:1 151146:1 151147:1 151148:1 151149:1 151150:1 151151:1 151152:1 151153:1 151154:1 151155:1 151156:1 151157:1 151158:1 151159:1 151160:1 151161:1 151162:1 151163:1 151164:1 151165:1 151166:1 151167:1 151168:1 151169:1 151170:1 151171:1 151172:1 151173:1 151174:1 151175:1 151176:1 151177:1 151178:1 151179:1 151180:1 151181:1 151182:1 151183:1 151184:1 151185:1 151186:1 151187:1 151188:1 151189:1 151190:1 151191:1 151192:1 151193:1 151194:1 151195:1 151196:1 151197:1 151198:1 151199:1 151200:1 151201:1 151202:1 151203:1 151204:1 151205:1 151206:1 151207:1 151208:1 151209:1 151210:1 151211:1 151212:1 151213:1 151214:1 151215:1 151216:1 151217:1 151218:1 151219:1 151220:1 151221:1 151222:1 151223:1 151224:1 151225:1 151226:1 151227:1 151228:1 151229:1 151230:1 151231:1 151232:2 151233:1 151234:1 151235:1 151236:1 151237:1 151238:1 151239:1 151240:1 151241:2 151242:1 151243:1 151244:1 151245:1 151246:1 151247:1 151248:1 151249:1 151250:1 151251:1 151252:1 151253:1 151254:1 151255:1 151256:1 151257:1 151258:1 151259:1 151260:1 151261:1 151262:1 151263:1 151264:1 151265:1 151266:1 151267:1 151268:1 151269:1 151270:1 151271:1 151272:1 151273:1 151274:1 151275:1 151276:1 151277:1 151278:1 151279:1 151280:1 151281:1 151282:1 151283:1 151284:1 151285:1 151286:1 151287:1 151288:1 151289:1 151290:1 151291:1 151292:1 151293:1 151294:1 151295:1 151296:1 151297:1 151298:1 151299:1 151300:1 151301:1 151302:1 151303:1 151304:1 151305:1 151306:1 151307:1 151308:1 151309:1 151310:1 151311:1 151312:1 151313:1 151314:1 151315:1 151316:1 151317:1 151318:1 151319:1 151320:1 151321:1 151322:1 151323:1 151324:1 151325:1 151326:1 151327:1 151328:1 151329:1 151330:1 151331:1 151332:1 151333:1 151334:2 151335:1 151336:1 151337:1 151338:1 151339:1 151340:1 151341:1 151342:1 151343:2 151344:2 151345:1 151346:1 151347:1 151348:1 151349:1 151350:1 151351:1 151352:1 151353:1 151354:1 151355:1 151356:1 151357:1 151358:1 151359:1 151360:1 151361:1 151362:1 151363:1 151364:2 151365:1 151366:1 151367:1 151368:1 151369:1 151370:1 151371:1 151372:1 151373:1 151374:1 151375:1 151376:1 151377:1 151378:1 151379:1 151380:1 151381:1 151382:1 151383:1 151384:1 151385:1 151386:1 151387:1 151388:1 151389:1 151390:1 151391:1 151392:1 151393:1 151394:1 151395:1 151396:1 151397:1 151398:1 151399:1 151400:1 151401:1 151402:1 151403:1 151404:1 151405:1 151406:1 151407:1 151408:1 151409:1 151410:1 151411:1 151412:1 151413:1 151414:1 151415:1 151416:1 151417:1 151418:1 151419:1 151420:1 151421:1 151422:1 151423:1 151424:1 151425:1 151426:1 151427:1 151428:1 151429:1 151430:1 151431:1 
1 1 1 1 1:5 8:5 21:2 31:1 32:1 36:1 37:4 44:5 54:1 55:2 66:3 70:1 87:1 96:1 100:1 115:1 125:5 129:1 150:2 153:1 154:1 159:3 171:1 189:1 201:2 204:2 219:1 244:1 269:1 309:1 311:1 315:1 322:1 385:2 450:1 474:1 480:3 490:1 548:1 564:1 600:1 624:1 700:1 712:1 835:1 962:1 1018:1 1143:1 1195:1 1275:1 1428:1 1448:1 1517:1 1628:2 2073:1 2168:1 2243:1 2423:1 2454:1 2550:1 3569:1 3774:1 3775:1 3776:1 3777:1 3778:1 3779:2 3780:1 3781:1 3782:1 3783:1 138088:1 138165:1 138169:1 138232:1 138238:1 138360:1 138415:1 138416:1 138421:1 138754:1 138855:1 138870:2 138871:1 138872:1 139374:1 139375:1 139376:1 139400:1 139524:1 139555:1 139619:4 139991:1 140010:1 140065:1 140212:1 140331:1 140598:1 141147:1 141207:1 141242:1 141971:1 143652:1 143834:1 143902:1 144526:1 145560:1 148515:1 149012:1 149383:1 149530:1 150610:1 151849:1 151850:1 151851:1 151852:1 151853:1 151854:1 151855:1 151856:1 151857:1 151858:1 151859:1 151860:1 151861:1 151862:1 151863:1 151864:1 151865:1 151866:1 151867:1 151868:1 151869:1 151870:1 151871:1 151872:1 151873:1 151874:1 151875:1 151876:1 151877:1 151878:1 151879:1 151880:1 151881:1 151882:1 151883:1 151884:1 151885:1 151886:1 151887:1 151888:1 151889:1 151890:1 151891:1 151892:1 151893:1 151894:1 151895:1 151896:1 151897:1 151898:1 151899:1 151900:1 151901:1 151902:1 151903:1 151904:1 151905:1 151906:1 
1 1 1 1 1:3 3:3 8:3 15:1 17:1 21:1 31:1 32:4 34:1 35:1 36:1 37:5 38:1 43:1 44:1 55:1 66:2 70:1 79:1 86:1 87:2 129:1 141:1 144:2 146:2 154:3 164:1 238:1 283:1 294:1 317:1 322:1 325:1 330:1 340:1 347:1 363:1 368:1 391:1 568:1 671:1 731:1 735:1 798:1 808:1 981:1 1134:2 1214:1 1393:1 1433:1 1505:2 1687:1 2763:1 2769:1 3006:1 3201:1 3503:1 3689:1 3764:1 3865:1 3866:1 3867:1 3868:1 3869:1 3870:1 3871:1 3872:1 3873:1 3874:1 3875:1 3876:1 3877:1 3878:1 138020:1 138039:1 138106:1 138107:1 138125:2 138146:1 138265:1 138361:1 138405:1 138408:1 138930:1 138989:1 139124:1 139378:1 139477:1 139646:1 140131:1 140236:1 140308:1 140800:1 141145:1 141851:1 142168:1 142716:1 143325:1 143616:1 144185:1 145171:1 147003:1 148629:1 152357:1 152358:1 152359:1 152360:1 152361:1 152362:1 152363:1 152364:1 152365:1 152366:1 152367:1 152368:1 152369:1 152370:1 152371:1 152372:1 152373:1 152374:1 152375:1 152376:1 152377:1 152378:1 152379:1 152380:1 152381:1 152382:1 152383:1 152384:1 152385:1 152386:1 152387:1 152388:1 152389:1 152390:1 152391:1 152392:1 152393:1 152394:1 152395:1 152396:1 152397:1 152398:1 152399:1 152400:1 152401:1 152402:1 152403:1 152404:1 152405:1 152406:1 152407:1 152408:1 152409:1 152410:1 152411:1 152412:1 152413:1 152414:1 152415:1 152416:1 152417:1 152418:1 
1 1 1 1 1:2 3:6 8:2 17:1 21:1 35:1 36:1 37:1 41:1 54:1 55:2 56:1 70:2 83:1 87:1 98:2 102:1 127:2 129:1 133:1 146:1 167:1 201:1 238:1 322:1 329:1 354:1 362:1 701:1 712:1 1162:1 1395:1 1687:1 1861:1 2057:1 2452:1 3272:1 3817:1 3970:1 3971:1 3972:1 3973:1 3974:1 3975:1 3976:1 3977:1 137949:1 138216:1 138238:1 138265:1 138546:1 138547:1 138796:1 139181:1 139375:1 139756:1 140320:1 140800:1 141534:1 142246:1 142314:1 142757:1 142758:1 143556:1 143671:1 144020:1 146363:1 147842:1 148373:1 148890:1 148975:1 151064:1 152863:1 152864:1 152865:1 152866:1 152867:1 152868:1 152869:1 152870:1 152871:1 152872:1 152873:1 152874:1 152875:1 152876:1 152877:1 152878:1 152879:1 152880:1 152881:1 152882:1 152883:1 152884:1 152885:1 152886:1 152887:1 152888:1 152889:1 152890:1 152891:1 152892:1 
1 1 1 1 1:7 3:3 8:10 21:7 31:2 32:11 34:4 35:2 36:1 37:13 38:1 39:1 44:2 53:2 54:1 55:5 56:3 58:1 59:1 60:1 63:1 66:6 67:1 70:2 71:3 74:5 79:4 82:1 87:2 93:1 98:1 100:2 102:3 104:1 125:2 126:1 133:1 141:1 146:1 164:1 170:1 171:1 189:3 190:2 201:1 219:1 228:1 237:1 244:1 258:1 263:2 272:1 273:1 283:1 288:1 294:1 301:1 309:1 311:1 317:1 328:1 329:1 336:2 345:1 354:1 362:1 363:2 366:1 368:2 386:1 391:1 404:1 408:1 415:1 445:2 453:1 463:1 474:1 489:1 493:1 503:1 521:1 526:1 539:1 549:1 557:1 565:1 580:1 583:1 604:1 609:1 614:1 624:1 625:1 626:1 646:2 647:1 684:2 750:2 760:1 761:1 764:1 765:1 768:1 813:1 817:2 854:1 910:2 924:1 929:1 959:1 1017:1 1038:1 1054:1 1058:2 1068:1 1071:1 1126:3 1130:1 1131:1 1139:1 1150:1 1170:1 1185:1 1217:1 1228:2 1248:1 1275:1 1321:1 1335:2 1338:1 1416:1 1629:2 1654:1 1683:1 1701:1 1942:1 1948:1 2143:1 2253:1 2413:1 2446:1 2449:1 2520:3 2533:1 2763:1 2919:1 3087:1 3281:1 3410:2 3587:1 3619:1 3679:1 3745:3 3902:1 3985:1 3986:1 3987:1 3988:1 3989:1 3990:1 3991:1 3992:1 3993:1 3994:1 3995:2 3996:1 3997:1 3998:1 3999:1 4000:1 4001:1 4002:1 4003:1 4004:1 4005:2 4006:1 4007:1 4008:1 4009:1 4010:1 4011:1 4012:1 4013:1 4014:1 4015:1 4016:1 4017:1 137959:1 137989:1 137999:1 138009:2 138014:1 138101:1 138102:1 138122:1 138165:1 138169:1 138238:2 138268:1 138317:1 138332:1 138333:1 138360:1 138376:1 138386:1 138546:1 138547:1 138550:1 138552:1 138640:1 138654:1 138802:1 139013:1 139084:1 139163:1 139164:1 139165:1 139181:1 139284:1 139310:1 139387:1 139528:1 139635:1 139705:1 139720:1 139856:2 140020:1 140067:1 140129:1 140154:1 140210:2 140256:1 140276:1 140338:1 140348:1 140394:1 140425:1 140634:1 140742:1 140951:1 140982:1 141045:1 141083:1 141242:1 141379:1 141856:1 141958:1 141971:1 142047:1 142131:1 142170:1 142328:1 142952:1 143024:1 143515:1 143732:1 144505:1 144760:1 145248:1 145280:1 145363:1 145365:1 145577:1 145578:1 146043:1 146069:1 146130:1 146478:1 146635:1 147086:1 147106:1 147124:1 147385:1 147589:1 147926:1 148225:1 148408:1 149050:1 150132:1 150461:1 150679:1 150954:1 151606:1 151653:1 151823:1 151910:1 151911:1 152821:1 152941:1 152942:1 152943:1 152944:1 152945:1 152946:1 152947:1 152948:1 152949:2 152950:1 152951:1 152952:1 152953:1 152954:1 152955:1 152956:1 152957:1 152958:1 152959:1 152960:1 152961:1 152962:1 152963:1 152964:1 152965:1 152966:1 152967:1 152968:1 152969:2 152970:1 152971:1 152972:1 152973:1 152974:1 152975:1 152976:1 152977:1 152978:1 152979:1 152980:1 152981:1 152982:1 152983:1 152984:1 152985:1 152986:1 152987:1 152988:1 152989:1 152990:1 152991:1 152992:1 152993:1 152994:1 152995:1 152996:1 152997:1 152998:1 152999:1 153000:1 153001:1 153002:1 153003:1 153004:1 153005:1 153006:1 153007:1 153008:1 153009:1 153010:1 153011:1 153012:1 153013:1 153014:1 153015:1 153016:1 153017:1 153018:1 153019:1 153020:1 153021:1 153022:1 153023:1 153024:1 153025:1 153026:1 153027:1 153028:1 153029:1 153030:1 153031:1 153032:1 153033:1 153034:1 153035:1 153036:1 153037:1 153038:1 153039:1 153040:1 153041:1 153042:1 153043:1 153044:1 153045:1 153046:1 153047:1 153048:1 153049:1 153050:1 153051:1 153052:1 153053:1 153054:1 153055:1 153056:1 153057:1 153058:1 153059:1 153060:1 153061:1 153062:1 153063:1 153064:1 153065:1 153066:1 153067:1 153068:1 153069:1 153070:1 153071:1 153072:1 153073:1 153074:1 153075:1 153076:1 153077:1 153078:1 153079:1 153080:1 153081:1 153082:1 153083:1 153084:1 153085:1 153086:1 153087:1 153088:1 153089:1 153090:1 153091:1 153092:1 153093:1 153094:1 153095:1 153096:1 153097:1 153098:1 153099:1 153100:1 153101:1 153102:1 153103:1 153104:1 153105:1 153106:1 153107:1 153108:1 153109:1 153110:1 153111:1 153112:1 153113:1 153114:1 153115:1 153116:1 153117:1 153118:1 153119:1 153120:1 153121:1 153122:1 153123:1 153124:1 
1 1 1 1 1:4 3:4 8:6 13:2 14:4 17:1 21:3 31:1 32:6 34:4 35:4 36:3 37:16 38:3 39:4 43:1 44:1 53:1 54:1 55:6 59:1 60:1 65:3 66:7 71:1 74:5 79:4 80:1 82:1 83:1 87:1 92:1 93:1 102:1 105:1 125:2 127:1 129:1 134:2 136:3 138:1 144:2 146:2 159:1 160:2 162:1 164:2 221:1 237:1 238:1 260:1 283:1 287:1 301:1 312:1 349:1 363:3 381:1 391:1 448:1 453:1 463:1 474:1 481:1 521:3 532:1 539:1 541:1 543:1 550:1 553:2 566:1 568:1 569:1 571:1 572:1 600:2 604:1 623:1 662:1 681:1 683:1 684:1 687:1 702:1 742:5 765:1 768:1 810:1 817:1 825:1 882:1 929:1 938:1 962:1 1002:1 1057:1 1059:1 1094:1 1126:1 1135:1 1153:1 1170:1 1196:1 1275:2 1336:1 1432:1 1503:1 1533:1 1687:1 1756:1 1760:1 1772:1 1775:1 1818:1 1894:1 1942:1 2069:1 2091:1 2115:1 2201:1 2225:1 2407:1 2421:1 2432:1 2639:1 2640:1 2837:1 3010:1 3068:1 3126:1 3179:1 3247:1 3411:1 3494:1 3528:1 3587:1 3761:1 3866:1 4024:1 4086:1 4087:1 4088:1 4089:1 4090:1 4091:1 4092:1 4093:1 4094:1 4095:3 4096:1 4097:2 4098:1 4099:1 4100:1 4101:1 4102:1 4103:1 4104:1 4105:1 4106:1 4107:1 4108:1 4109:1 4110:1 4111:1 4112:1 4113:1 4114:1 4115:1 4116:1 4117:1 4118:1 4119:1 4120:1 4121:1 4122:1 137949:1 137952:2 137959:2 137960:1 138009:2 138015:1 138029:1 138106:1 138140:1 138146:1 138238:1 138261:1 138357:1 138360:1 138372:1 138405:1 138415:1 138753:1 138913:1 138977:1 139079:1 139084:2 139109:1 139272:1 139358:1 139432:1 139516:2 139517:1 139590:1 139619:1 139691:1 139901:1 139998:1 140037:1 140136:1 140154:1 140191:1 140211:2 140256:1 140545:1 140619:1 140620:1 140621:1 141011:1 141023:1 141261:1 141997:1 142081:1 142646:1 143094:1 143210:1 143497:1 143885:1 144154:1 144316:1 144410:1 144688:1 145074:2 145215:1 145248:1 145508:1 145510:1 145556:1 145667:1 145779:1 145859:1 146269:1 146422:1 147700:1 147733:1 148140:1 148213:1 148302:1 148766:1 149050:1 149438:1 150567:1 150954:1 152056:1 152249:1 152372:1 153498:1 153499:1 153500:1 153501:1 153502:1 153503:1 153504:1 153505:1 153506:1 153507:1 153508:1 153509:1 153510:1 153511:1 153512:1 153513:1 153514:1 153515:1 153516:1 153517:1 153518:1 153519:1 153520:1 153521:1 153522:1 153523:1 153524:1 153525:1 153526:1 153527:1 153528:1 153529:1 153530:1 153531:1 153532:1 153533:1 153534:1 153535:1 153536:1 153537:1 153538:1 153539:1 153540:1 153541:1 153542:1 153543:1 153544:1 153545:1 153546:1 153547:1 153548:1 153549:1 153550:1 153551:1 153552:1 153553:1 153554:1 153555:1 153556:1 153557:1 153558:2 153559:1 153560:1 153561:1 153562:1 153563:1 153564:1 153565:1 153566:1 153567:2 153568:1 153569:1 153570:1 153571:1 153572:1 153573:1 153574:1 153575:1 153576:1 153577:1 153578:1 153579:1 153580:1 153581:1 153582:1 153583:1 153584:1 153585:1 153586:1 153587:1 153588:1 153589:1 153590:1 153591:1 153592:1 153593:1 153594:1 153595:1 153596:1 153597:1 153598:1 153599:1 153600:1 153601:1 153602:1 153603:1 153604:1 153605:1 153606:1 153607:1 153608:1 153609:1 153610:1 153611:1 153612:1 153613:1 153614:1 153615:1 153616:1 153617:1 153618:1 153619:1 153620:1 153621:1 153622:1 153623:1 153624:1 153625:1 153626:1 153627:1 153628:1 153629:1 153630:1 153631:1 153632:1 153633:1 153634:1 153635:1 153636:1 153637:1 153638:1 153639:1 153640:1 153641:1 153642:1 153643:1 153644:1 153645:1 153646:1 153647:1 153648:1 153649:1 153650:1 153651:1 153652:1 153653:1 153654:1 153655:1 153656:1 153657:1 153658:1 153659:1 153660:1 153661:1 153662:1 153663:1 153664:1 153665:1 153666:1 153667:1 153668:1 153669:1 153670:1 153671:1 153672:1 153673:1 153674:1 153675:1 
1 1 1 1 14:1 31:1 36:1 66:1 127:1 154:1 171:1 354:1 359:1 575:1 1435:1 1668:1 2047:1 4152:1 4153:1 139524:1 143922:1 144024:1 152453:1 153785:1 153786:1 153787:1 153788:1 153789:1 153790:1 153791:1 153792:1 153793:1 153794:1 
1 1 1 1 0:2 1:3 3:3 8:7 13:1 14:3 21:1 32:6 33:1 34:1 37:9 38:1 39:2 41:1 44:2 55:1 60:1 66:3 87:1 98:1 102:1 105:3 120:2 124:1 125:3 127:1 129:1 134:1 151:1 153:1 154:1 159:2 171:2 184:1 191:1 197:1 207:1 228:1 263:1 269:1 271:2 282:1 301:3 302:1 311:1 316:1 322:1 339:2 358:1 363:1 385:1 386:2 402:1 452:1 463:1 469:2 481:1 493:1 496:1 540:1 542:1 563:1 583:1 600:1 647:1 657:1 665:1 685:1 703:1 712:1 713:1 738:1 761:1 764:1 768:1 772:1 811:1 815:1 890:1 908:2 995:1 1006:1 1036:1 1088:1 1260:1 1292:1 1325:1 1334:1 1427:1 1454:1 1455:1 1523:1 1576:1 1742:1 1861:1 2008:1 2185:1 2363:1 2455:1 2550:1 2640:1 2676:1 2763:1 2803:1 2825:1 3283:1 3496:1 3591:1 3706:1 3772:1 3853:1 4145:2 4147:1 4320:1 4321:1 4322:1 4323:1 4324:1 4325:1 4326:1 4327:1 4328:1 4329:1 4330:1 4331:1 4332:1 4333:1 4334:1 4335:1 4336:1 4337:1 4338:1 4339:1 137952:1 137959:1 138046:1 138057:1 138078:1 138249:1 138268:1 138357:2 138415:1 138501:1 138601:1 138792:1 138930:1 138950:1 138996:1 139084:1 139375:1 139378:1 139379:1 139513:1 139559:1 139731:1 139756:1 139856:2 139879:1 139880:1 139904:1 139915:1 140100:1 140201:1 140233:1 140345:1 140515:1 140516:1 140676:1 140813:1 141434:1 141525:1 142231:1 142469:1 142644:1 142836:1 143134:1 143264:1 144735:1 145240:1 146067:1 146068:1 146462:1 146616:1 146987:1 147191:1 147247:1 148254:1 149011:1 149188:1 149759:1 150202:1 150526:1 150979:1 152224:1 152254:1 152365:1 153755:1 154500:1 154618:1 154619:1 154620:1 154621:1 154622:1 154623:1 154624:1 154625:1 154626:1 154627:1 154628:1 154629:1 154630:1 154631:1 154632:1 154633:1 154634:1 154635:1 154636:1 154637:1 154638:1 154639:1 154640:1 154641:1 154642:1 154643:1 154644:1 154645:1 154646:1 154647:1 154648:1 154649:1 154650:1 154651:1 154652:1 154653:1 154654:1 154655:1 154656:1 154657:1 154658:1 154659:1 154660:1 154661:1 154662:1 154663:1 154664:1 154665:1 154666:1 154667:1 154668:1 154669:1 154670:1 154671:1 154672:1 154673:1 154674:1 154675:1 154676:1 154677:1 154678:1 154679:1 154680:1 154681:1 154682:1 154683:1 154684:1 154685:1 154686:1 154687:1 154688:1 154689:1 154690:1 154691:1 154692:1 154693:1 154694:1 154695:1 154696:1 154697:1 154698:1 154699:1 154700:1 154701:1 154702:1 154703:1 154704:1 154705:1 154706:1 154707:1 154708:1 154709:1 154710:1 154711:1 154712:1 154713:1 154714:1 154715:1 154716:1 154717:1 154718:1 154719:1 154720:1 154721:1 154722:1 154723:1 154724:1 154725:1 154726:1 154727:1 
1 1 1 1 0:1 1:1 15:1 21:2 31:1 32:3 34:2 44:1 60:2 63:1 66:3 96:1 100:1 105:1 149:1 150:1 171:1 260:1 283:1 288:1 313:1 339:1 347:1 439:1 480:1 528:1 539:1 641:1 703:1 717:1 1170:1 1177:1 1364:1 1686:1 2053:1 2423:1 3886:1 4255:1 4340:1 4341:1 4342:1 4343:1 4344:1 138008:1 138045:1 138057:1 138268:1 138361:1 138386:1 138387:1 138921:1 139400:1 139703:1 140424:1 140627:1 140742:1 141145:1 144079:1 144254:1 146843:1 147612:1 149387:1 150019:1 150175:1 151621:1 154336:1 154337:1 154728:1 154729:1 154730:1 154731:1 154732:1 154733:1 154734:1 154735:1 154736:1 154737:1 154738:1 154739:1 154740:1 154741:1 154742:1 154743:1 154744:1 154745:1 154746:1 154747:1 154748:1 154749:1 154750:1 154751:1 154752:1 
1 1 1 1 1:1 8:2 13:1 14:1 32:3 36:1 37:2 39:1 44:1 45:1 55:2 63:1 70:1 74:2 121:1 127:1 129:2 144:1 150:1 171:1 259:1 260:2 267:2 288:1 301:1 329:1 398:1 404:1 521:1 578:1 595:1 649:1 908:1 1018:1 1182:1 1276:1 1323:1 1424:1 1944:1 1951:1 2148:1 2165:1 2230:1 2433:1 2752:1 2792:1 3881:1 4109:1 4345:1 4346:1 4347:1 138232:1 138713:1 138998:1 139052:1 139070:1 139206:1 139211:1 139770:1 139810:1 139915:1 140247:1 140876:1 141215:1 142140:1 142141:1 142758:1 143520:1 143538:1 144021:1 144410:1 144495:1 144496:1 144701:1 144702:1 145538:1 146797:1 146949:1 146988:1 151659:1 154753:1 154754:1 154755:1 154756:1 154757:1 154758:1 154759:1 154760:1 154761:1 154762:1 154763:1 154764:1 154765:1 154766:1 154767:1 154768:1 154769:1 154770:1 154771:1 154772:1 154773:1 154774:1 154775:1 154776:1 154777:1 154778:1 154779:1 154780:1 154781:1 154782:1 
1 1 1 1 1:5 3:5 8:8 12:3 21:5 31:1 32:1 34:1 35:1 37:12 38:2 39:3 41:3 44:5 45:2 53:1 55:1 56:3 58:1 63:1 66:5 70:1 76:1 100:1 102:1 105:1 117:1 125:3 127:2 134:1 136:1 150:2 151:1 184:1 189:3 191:1 204:2 220:1 260:2 263:1 300:1 301:1 339:1 345:3 349:1 359:2 363:2 380:1 391:2 392:1 393:1 469:1 475:1 476:1 478:1 480:1 497:2 498:2 509:4 532:1 534:1 539:2 551:1 569:1 578:1 593:1 619:1 647:1 682:1 691:1 728:1 765:1 768:1 781:1 792:1 798:1 816:1 817:1 835:1 866:1 873:1 897:1 935:2 962:1 988:1 1016:1 1022:1 1031:1 1100:1 1136:1 1139:1 1279:1 1304:1 1537:1 1851:2 1857:2 1958:1 2002:1 2026:1 2050:1 2192:1 2397:1 2519:1 2663:1 2676:1 2815:1 2926:1 3148:1 3281:1 3572:1 3673:1 3814:1 4153:1 4412:1 4413:1 4414:1 4415:1 4416:2 4417:1 4418:1 4419:1 4420:1 4421:1 4422:1 4423:1 4424:2 4425:1 4426:1 4427:1 4428:1 4429:1 4430:1 4431:1 4432:1 4433:1 4434:1 4435:1 4436:1 4437:1 4438:1 4439:1 4440:1 4441:1 4442:1 4443:1 4444:1 4445:1 137952:2 137959:2 138004:1 138232:1 138360:1 138407:1 138414:1 138561:1 138572:1 138615:1 138792:1 138930:2 138931:1 139084:1 139085:1 139106:1 139142:1 139179:1 139559:1 139992:1 140526:1 140738:1 141206:1 141219:1 141782:1 142073:1 142197:1 142198:1 142515:1 142637:1 143013:1 143128:1 143802:1 143908:1 144105:1 144359:1 144516:1 145096:1 145380:1 145636:2 146269:1 146495:1 146677:1 146886:1 147131:2 147352:1 147430:1 148096:1 148515:1 150132:1 150815:1 150847:1 151241:1 151578:1 152618:1 153900:1 154104:1 154908:1 155254:1 155255:1 155256:1 155257:1 155258:1 155259:1 155260:1 155261:1 155262:1 155263:1 155264:1 155265:1 155266:1 155267:1 155268:1 155269:1 155270:1 155271:1 155272:1 155273:1 155274:1 155275:1 155276:1 155277:1 155278:1 155279:1 155280:1 155281:1 155282:1 155283:1 155284:1 155285:1 155286:1 155287:1 155288:1 155289:1 155290:1 155291:1 155292:1 155293:1 155294:1 155295:1 155296:1 155297:1 155298:1 155299:1 155300:2 155301:1 155302:1 155303:1 155304:1 155305:1 155306:1 155307:1 155308:1 155309:1 155310:1 155311:1 155312:1 155313:1 155314:1 155315:1 155316:2 155317:1 155318:1 155319:1 155320:1 155321:1 155322:1 155323:1 155324:1 155325:1 155326:1 155327:1 155328:1 155329:1 155330:1 155331:1 155332:1 155333:1 155334:1 155335:1 155336:1 155337:1 155338:1 155339:1 155340:1 155341:1 155342:1 155343:1 155344:1 155345:1 155346:1 155347:1 155348:1 155349:1 155350:1 155351:1 155352:1 155353:1 155354:1 155355:1 155356:1 155357:1 155358:1 155359:1 155360:1 155361:1 155362:1 155363:1 155364:1 155365:1 155366:1 155367:1 155368:1 155369:1 155370:1 155371:1 155372:1 155373:1 155374:1 155375:1 155376:1 155377:1 155378:1 155379:1 155380:1 155381:1 155382:1 155383:1 155384:1 155385:1 155386:1 155387:1 155388:1 155389:1 155390:1 155391:1 155392:1 155393:1 155394:1 155395:1 155396:1 155397:1 155398:1 155399:1 155400:1 155401:1 155402:1 155403:1 155404:1 155405:1 155406:1 
1 1 1 1 1:4 3:3 8:9 14:2 17:2 18:1 21:5 32:9 33:1 34:6 37:4 44:1 55:3 59:1 60:4 64:1 65:1 66:10 74:2 75:1 80:1 83:2 86:1 87:5 100:1 102:1 104:1 111:1 127:2 141:1 149:1 154:2 156:1 171:2 175:1 181:1 184:1 187:1 189:1 201:1 211:1 232:1 233:2 237:1 238:1 267:4 268:1 311:1 329:1 349:1 364:1 365:1 386:1 389:1 453:1 463:1 468:1 469:2 480:2 497:1 503:1 521:2 530:1 600:2 629:1 630:1 638:1 703:1 743:1 789:2 796:1 804:1 806:1 809:1 835:1 866:1 876:1 897:1 1038:1 1068:1 1119:2 1185:1 1275:1 1283:1 1335:1 1353:1 1360:1 1364:1 1444:1 1686:1 1994:1 2052:1 2102:2 2250:1 2289:1 2305:1 2343:1 2413:2 2432:1 2599:1 2745:1 2750:7 2832:1 2844:1 2948:4 2954:2 2972:1 2988:1 3305:1 3313:1 3678:1 3956:1 4040:1 4155:1 4446:4 4447:2 4448:1 4449:1 4450:1 4451:1 4452:1 4453:1 4454:2 4455:2 4456:1 4457:1 4458:1 4459:1 4460:1 4461:1 4462:1 4463:1 4464:1 4465:1 4466:1 4467:1 4468:1 137986:1 137999:1 138000:1 138001:1 138008:3 138011:1 138020:1 138021:1 138046:1 138332:1 138360:1 138553:1 138569:1 138572:1 138789:1 138792:1 139079:1 139091:1 139206:1 139272:1 139400:1 139451:1 139480:1 139804:1 139917:1 139935:2 140018:1 140034:1 140102:1 140195:1 140212:1 140238:1 140348:1 140545:1 140679:1 140917:1 141423:1 141653:1 141995:1 142047:1 142419:1 142473:1 142563:1 142721:1 142731:1 143361:1 143441:1 143710:1 144755:1 145018:1 145218:1 145368:1 145409:1 145563:1 147320:1 147410:1 148018:1 148732:1 150149:1 150265:1 150480:1 150564:1 150988:1 151335:1 151768:1 152082:1 152749:1 152952:1 153073:1 153235:1 154700:1 154832:1 154833:1 155407:4 155408:1 155409:1 155410:2 155411:1 155412:1 155413:1 155414:1 155415:1 155416:1 155417:1 155418:1 155419:1 155420:1 155421:1 155422:1 155423:1 155424:1 155425:1 155426:1 155427:1 155428:1 155429:1 155430:1 155431:1 155432:1 155433:1 155434:1 155435:1 155436:1 155437:1 155438:1 155439:1 155440:1 155441:1 155442:1 155443:1 155444:1 155445:1 155446:1 155447:1 155448:1 155449:1 155450:1 155451:1 155452:1 155453:1 155454:1 155455:1 155456:1 155457:1 155458:1 155459:1 155460:1 155461:1 155462:1 155463:1 155464:1 155465:1 155466:1 155467:1 155468:1 155469:1 155470:1 155471:1 155472:1 155473:1 155474:1 155475:1 155476:1 155477:1 155478:1 155479:1 155480:1 155481:1 155482:1 155483:1 155484:1 155485:1 155486:1 155487:1 155488:1 155489:1 155490:1 155491:1 155492:1 155493:1 155494:1 155495:1 155496:1 155497:1 155498:1 155499:1 155500:1 155501:1 155502:1 155503:1 155504:1 155505:1 155506:1 155507:1 155508:1 155509:1 155510:1 155511:1 155512:1 155513:1 155514:1 155515:1 155516:1 155517:1 155518:1 155519:1 155520:1 155521:1 155522:1 155523:1 155524:1 155525:1 155526:1 155527:1 155528:1 155529:1 155530:1 155531:1 155532:1 155533:1 155534:1 155535:1 155536:1 155537:1 155538:1 155539:1 155540:1 155541:1 155542:1 155543:1 155544:1 155545:1 155546:1 155547:1 155548:1 
1 1 1 1 1:2 8:1 21:1 36:1 44:1 55:1 66:2 71:1 105:2 127:1 134:1 146:2 159:1 189:1 237:1 263:1 480:1 521:1 530:1 567:1 647:1 662:1 809:1 897:1 1075:1 1240:1 1760:1 2324:1 2652:1 3011:1 3141:1 3548:1 4254:1 4507:1 4508:1 4509:1 4510:1 4511:1 4512:1 4513:1 4514:1 4515:1 4516:1 4517:1 138165:1 139400:1 139524:1 139655:1 140516:1 140890:1 141293:1 143210:1 144088:1 145597:1 146479:1 146693:1 149399:1 150824:1 155804:1 155805:1 155806:1 155807:1 155808:1 155809:1 155810:1 155811:1 155812:1 155813:1 155814:1 155815:1 155816:1 155817:1 155818:1 155819:1 155820:1 155821:1 155822:1 155823:1 155824:1 155825:1 155826:1 155827:1 155828:1 155829:1 155830:1 155831:1 155832:1 155833:1 155834:1 155835:1 155836:1 
1 1 1 1 1:3 3:8 8:8 21:1 31:2 32:8 33:1 34:7 35:1 37:14 39:1 41:2 44:9 59:1 60:1 64:2 66:4 76:2 82:1 87:2 96:4 102:3 125:9 127:2 129:3 133:1 134:1 138:1 150:1 153:1 154:2 156:1 201:2 272:1 300:1 302:1 309:1 310:1 311:2 322:2 328:2 334:1 339:1 340:1 358:1 359:1 363:1 380:1 385:1 391:3 403:1 418:2 421:1 442:1 463:1 479:1 480:2 505:1 509:2 515:2 521:3 532:1 572:1 585:1 600:1 602:1 603:1 623:1 631:1 647:1 667:1 672:1 681:1 688:1 718:1 727:1 733:1 798:2 878:1 887:1 897:2 929:2 937:1 954:1 962:2 992:2 1068:1 1081:1 1134:1 1170:1 1204:2 1207:1 1283:1 1301:1 1331:1 1493:1 1686:1 1694:1 1923:1 1985:1 2239:1 2299:1 2529:2 2550:1 2934:1 2937:1 3007:1 3085:1 3261:1 3685:1 3980:1 4522:1 4523:1 4524:2 4525:1 4526:1 4527:1 4528:1 4529:1 4530:1 4531:1 4532:1 4533:1 4534:1 4535:1 4536:1 137959:1 137986:2 138004:2 138088:1 138125:1 138129:1 138146:3 138232:1 138238:1 138268:1 138407:1 138415:1 138429:1 138455:1 138813:1 138847:1 138855:2 138870:1 138890:1 138930:1 139099:2 139162:1 139262:1 139280:1 139555:1 139619:2 139671:1 139770:1 139779:1 139793:1 139848:1 139856:2 139901:1 139990:1 140211:1 140224:1 140239:1 140259:1 140362:1 140407:2 140429:1 140516:1 140545:1 140632:1 140633:1 140901:1 140902:1 140918:1 140929:1 140979:1 141147:2 141203:1 141207:1 141239:1 141276:1 141732:1 141786:1 142268:1 142396:1 142515:1 142646:1 142667:1 142668:1 142970:1 143434:1 143439:1 143847:1 143961:1 144258:1 144410:1 144442:1 144516:1 144528:1 144780:1 144841:1 145083:1 145573:1 145982:1 145983:1 146066:1 146067:1 146423:2 146424:1 146689:1 146855:1 147384:1 147385:1 147568:1 147754:1 148183:1 148550:1 148630:1 149206:1 149301:1 149412:1 150655:1 151206:1 151370:1 151823:1 152703:1 154063:1 154064:1 154160:1 155206:1 155609:1 155754:1 155858:1 155859:1 155860:1 155861:1 155862:1 155863:1 155864:1 155865:1 155866:1 155867:1 155868:1 155869:1 155870:1 155871:2 155872:1 155873:1 155874:1 155875:1 155876:1 155877:1 155878:1 155879:1 155880:1 155881:1 155882:1 155883:1 155884:1 155885:1 155886:1 155887:1 155888:1 155889:1 155890:1 155891:1 155892:1 155893:1 155894:1 155895:1 155896:1 155897:1 155898:1 155899:1 155900:1 155901:1 155902:1 155903:1 155904:1 155905:1 155906:1 155907:1 155908:1 155909:1 155910:1 155911:1 155912:1 155913:1 155914:1 155915:1 155916:1 155917:1 155918:1 155919:1 155920:1 155921:1 155922:1 155923:1 155924:1 155925:1 155926:1 155927:1 155928:1 155929:1 155930:1 155931:1 155932:1 155933:1 155934:1 155935:1 155936:1 155937:1 155938:1 155939:1 155940:1 155941:1 155942:1 155943:1 155944:1 155945:1 155946:1 155947:1 155948:1 155949:1 155950:1 155951:1 155952:1 155953:1 155954:1 155955:1 155956:1 155957:1 155958:1 155959:1 
1 1 1 1 1:2 3:1 8:2 21:1 35:1 36:1 37:3 38:2 41:1 44:3 55:1 98:3 168:1 258:1 263:1 342:1 380:1 559:1 562:1 624:1 791:1 821:1 1170:1 1246:1 1694:1 1815:1 1950:1 2733:1 3670:1 4208:1 4581:1 4582:1 4583:1 4584:1 4585:1 4586:1 4587:1 137949:1 137952:2 138039:1 138165:1 138322:1 139013:1 141633:1 142667:1 143043:2 146859:1 147371:1 149530:1 149626:1 151804:1 152476:1 152778:1 156227:1 156228:1 156229:1 156230:1 156231:1 156232:1 156233:1 156234:1 156235:1 156236:1 156237:1 156238:1 156239:1 156240:1 156241:1 156242:1 156243:1 156244:1 156245:1 156246:1 156247:1 156248:1 156249:1 156250:1 156251:1 156252:1 156253:1 
1 1 1 1 1:1 3:1 8:1 21:2 32:1 37:4 38:1 44:1 96:1 100:1 125:1 136:1 159:1 201:1 207:1 233:1 349:1 474:1 575:1 589:1 718:1 749:1 764:1 904:1 935:1 1034:1 1195:1 1830:1 2526:1 2934:1 3507:1 4121:1 4697:1 4698:1 4699:1 4700:1 137952:1 138146:1 138376:1 138748:1 139485:1 139992:1 140709:1 142119:1 142419:1 142658:1 145976:1 149511:1 150460:1 150549:1 151181:1 153666:1 154711:1 156859:1 156860:1 156861:1 156862:1 156863:1 156864:1 156865:1 156866:1 156867:1 156868:1 156869:1 156870:1 156871:1 156872:1 156873:1 156874:1 156875:1 156876:1 156877:1 156878:1 156879:1 156880:1 
1 1 1 1 1:3 3:2 8:3 12:1 16:1 31:1 32:1 36:1 37:4 39:1 41:1 44:1 66:1 70:1 76:1 87:1 100:1 104:1 105:2 125:1 168:1 201:1 303:1 311:2 339:1 347:2 348:1 354:1 362:1 363:1 386:1 413:1 415:1 439:1 443:1 469:1 539:1 549:1 595:1 600:1 603:1 675:1 708:1 718:2 720:1 775:1 789:1 897:1 916:1 986:1 996:1 1170:3 1204:1 1325:1 1535:1 1558:1 1921:1 2025:1 2028:1 2113:1 2481:1 2714:1 2876:1 3293:1 3303:1 3314:1 3348:1 4412:1 4703:1 4704:1 4705:1 4706:1 4707:1 4708:1 4709:1 4710:1 4711:1 138004:1 138122:1 138501:1 138546:1 138930:1 138963:1 139070:1 139286:1 139404:1 139904:1 140362:1 140709:1 140742:1 140890:1 141145:1 141412:1 141434:1 141865:1 142053:1 142667:1 142759:1 142777:1 142970:1 143431:1 144269:1 145657:1 145784:1 146753:1 147270:1 149598:1 149640:1 152010:1 152011:1 154783:1 156899:1 156900:1 156901:1 156902:1 156903:1 156904:1 156905:1 156906:1 156907:1 156908:1 156909:1 156910:1 156911:1 156912:1 156913:1 156914:1 156915:1 156916:1 156917:1 156918:1 156919:1 156920:1 156921:1 156922:1 156923:1 156924:1 156925:1 156926:1 156927:1 156928:1 156929:1 156930:1 156931:1 156932:1 156933:1 156934:1 156935:1 156936:1 156937:1 156938:1 156939:1 156940:1 156941:1 156942:1 156943:1 156944:1 156945:1 156946:1 156947:1 156948:1 156949:1 156950:1 156951:1 156952:1 156953:1 156954:1 
1 1 1 1 2286:1 2287:1 4743:1 4744:1 144895:1 157113:1 157114:1 
1 1 1 1 0:1 1:4 3:5 8:2 14:1 32:1 34:1 36:3 37:5 39:1 41:1 44:4 45:1 60:1 66:6 70:1 79:1 100:1 108:1 125:1 151:1 159:5 162:1 171:1 184:1 201:4 303:1 305:1 310:1 332:1 342:1 345:1 347:1 359:1 363:1 391:1 439:1 469:1 489:1 490:1 493:1 494:1 521:1 539:1 578:1 600:1 611:1 631:1 702:2 712:1 718:1 751:2 752:2 798:2 817:1 831:1 908:1 945:1 983:1 1059:1 1138:1 1179:1 1292:1 1295:1 1647:1 1661:1 1708:1 1943:1 2026:1 2536:1 2637:1 3741:1 3817:1 3823:1 4808:2 4809:1 4810:1 4811:2 4812:2 4813:2 4814:1 4815:1 4816:1 138051:1 138146:1 138232:1 138405:1 138429:1 138985:1 138986:1 139358:1 139457:1 139489:2 139707:1 140014:1 140015:1 140139:1 140211:1 140212:1 140545:1 140709:1 140813:1 141083:1 141995:1 143109:1 144105:1 144792:1 145284:1 145676:1 146111:1 146112:1 146979:2 147161:1 147277:1 147712:1 148103:1 148797:1 149890:1 150764:1 152103:1 152558:1 153145:1 153195:1 153196:2 153575:1 153900:1 153945:1 154102:1 154388:1 155968:1 156920:1 157420:1 157421:1 157422:1 157423:1 157424:1 157425:1 157426:1 157427:1 157428:1 157429:1 157430:1 157431:1 157432:1 157433:1 157434:1 157435:1 157436:1 157437:1 157438:1 157439:1 157440:1 157441:1 157442:1 157443:1 157444:1 157445:1 157446:1 157447:1 157448:1 157449:1 157450:1 157451:1 157452:2 157453:2 157454:2 157455:1 157456:1 157457:1 157458:1 157459:1 157460:1 157461:1 157462:1 157463:1 157464:1 157465:1 157466:1 157467:1 157468:1 157469:1 157470:1 157471:1 157472:1 157473:1 157474:1 157475:1 157476:1 157477:1 157478:1 157479:1 157480:1 157481:1 157482:1 157483:1 157484:1 
1 1 1 1 1:5 3:2 8:6 14:1 21:2 31:1 32:5 34:1 35:2 37:2 44:2 55:4 56:1 58:2 60:3 64:1 66:4 75:1 82:1 87:2 100:2 105:1 112:1 133:3 146:1 150:1 167:1 177:1 184:2 201:3 225:1 238:1 267:1 272:1 300:1 309:1 311:2 339:1 340:1 345:1 391:1 400:2 404:1 407:2 453:1 488:1 519:1 539:2 575:1 594:1 651:1 662:1 671:1 678:1 796:1 822:1 831:1 897:2 908:1 1088:1 1119:1 1162:1 1170:1 1389:1 1433:1 1454:1 1455:1 1671:1 1687:1 1818:1 1837:1 1858:1 1901:1 1910:1 1952:1 2026:1 2135:1 2207:1 2343:1 2450:1 2740:1 2765:1 2802:1 3176:1 3452:1 4780:1 4817:1 4818:1 4819:1 4820:1 4821:2 4822:1 4823:1 4824:1 4825:1 4826:1 4827:1 4828:1 4829:1 4830:1 4831:1 4832:1 4833:1 4834:1 4835:1 4836:1 4837:1 4838:1 4839:1 4840:1 4841:1 137986:1 138001:1 138008:1 138014:1 138045:1 138046:1 138146:1 138232:2 138332:1 138357:1 138407:1 138431:1 138640:1 138652:1 138802:1 139079:1 139181:1 139707:1 139870:2 140195:1 140260:1 140323:1 140890:1 141128:1 141129:1 141475:1 142652:1 142716:1 142998:1 144038:1 144333:1 144977:1 144980:1 146891:1 147825:1 147826:1 147837:1 149139:1 150688:1 154394:1 154500:1 156092:1 156507:1 157485:1 157486:1 157487:1 157488:1 157489:1 157490:1 157491:1 157492:1 157493:1 157494:2 157495:2 157496:1 157497:1 157498:1 157499:1 157500:1 157501:1 157502:1 157503:1 157504:1 157505:1 157506:1 157507:1 157508:1 157509:1 157510:1 157511:1 157512:1 157513:1 157514:1 157515:1 157516:1 157517:1 157518:1 157519:1 157520:1 157521:1 157522:1 157523:1 157524:1 157525:1 157526:1 157527:1 157528:1 157529:1 157530:1 157531:1 157532:1 157533:1 157534:1 157535:1 157536:1 157537:1 157538:1 157539:1 157540:1 157541:1 157542:1 157543:1 157544:1 157545:1 157546:1 157547:1 157548:1 157549:1 157550:1 157551:1 157552:1 157553:1 157554:1 157555:1 157556:1 157557:1 157558:1 157559:1 157560:1 157561:1 157562:1 157563:1 157564:1 157565:1 157566:1 157567:1 157568:1 157569:1 157570:1 157571:1 157572:1 157573:1 157574:1 157575:1 157576:1 157577:1 157578:1 157579:1 157580:1 157581:1 157582:1 157583:1 157584:1 157585:1 157586:1 157587:1 
1 1 1 1 1:2 8:3 14:2 32:1 36:1 37:2 45:1 55:1 56:1 66:1 70:1 74:1 79:1 87:1 127:1 150:1 168:1 187:1 189:2 363:1 391:1 497:1 518:1 520:1 595:1 650:1 684:1 733:1 810:1 1185:1 1412:1 1616:1 1628:2 1839:1 1952:1 3643:1 4829:1 4949:1 4950:1 4951:1 4952:1 4953:1 4954:1 138357:1 138552:1 138613:1 138896:1 138899:1 139590:1 139979:1 140800:1 141167:1 141215:1 141577:1 141803:1 142642:1 143127:1 144203:1 148743:1 151201:1 151761:1 151905:1 155309:1 157513:1 158178:1 158179:1 158180:1 158181:1 158182:1 158183:1 158184:1 158185:1 158186:1 158187:1 158188:1 158189:1 158190:1 158191:1 158192:1 158193:1 158194:1 158195:1 158196:1 158197:1 158198:1 158199:1 158200:1 158201:1 158202:1 158203:1 158204:1 158205:1 
1 1 1 1 1:2 3:3 8:4 14:2 21:3 32:3 35:1 36:2 37:2 44:2 56:1 65:1 66:4 79:2 87:1 125:2 133:3 134:1 136:1 146:1 149:3 164:1 171:2 189:4 263:1 288:1 289:1 313:1 317:1 319:1 339:1 345:1 349:1 359:1 404:2 431:1 447:2 451:1 469:1 494:1 521:1 554:2 569:1 618:1 631:1 647:2 673:3 680:1 684:1 750:1 798:2 817:1 831:1 847:1 866:1 890:1 995:1 1022:1 1068:1 1090:1 1135:1 1170:1 1201:1 1207:1 1254:1 1338:1 1416:1 1427:1 1435:1 1445:1 1454:1 1475:1 1505:1 1645:1 1755:2 1773:1 2026:1 2239:1 2375:1 2687:1 2823:1 2952:1 3006:1 3069:1 3234:2 4254:1 4780:1 4823:1 5010:1 5011:1 5012:1 5013:1 5014:1 5015:1 5016:1 5017:1 5018:1 5019:1 5020:1 5021:1 5022:1 5023:1 138039:1 138238:1 138489:1 138640:1 138792:1 138985:1 139088:1 139142:1 139211:1 139283:1 139559:1 139707:1 139856:1 140166:1 140516:1 140619:1 140620:1 141532:1 141593:1 141696:1 142469:1 144185:1 144866:1 145161:1 145388:1 145446:1 145962:1 146495:1 146658:1 146972:1 147251:1 147453:1 148918:1 149002:1 149547:1 149988:1 150208:1 151761:1 152057:1 152431:1 152753:1 153735:1 153900:1 154914:1 154934:1 155169:1 156490:1 156608:1 156870:1 157305:1 157508:1 157711:1 158441:1 158442:1 158443:1 158444:1 158445:1 158446:1 158447:1 158448:1 158449:1 158450:1 158451:1 158452:1 158453:1 158454:1 158455:1 158456:1 158457:1 158458:1 158459:1 158460:1 158461:1 158462:1 158463:1 158464:1 158465:1 158466:1 158467:1 158468:1 158469:1 158470:1 158471:1 158472:1 158473:1 158474:1 158475:1 158476:1 158477:1 158478:1 158479:1 158480:1 158481:1 158482:1 158483:1 158484:1 158485:1 158486:1 158487:1 158488:1 158489:1 158490:1 158491:1 158492:1 158493:1 158494:1 158495:1 158496:1 158497:1 158498:1 158499:1 158500:1 158501:1 158502:1 158503:1 158504:1 158505:1 158506:1 158507:1 158508:1 158509:1 158510:1 158511:1 158512:1 158513:1 158514:1 158515:1 158516:1 158517:1 158518:1 158519:1 158520:1 158521:1 158522:1 158523:1 158524:1 158525:1 
1 1 1 1 0:2 1:7 3:6 8:5 12:1 14:2 21:2 31:4 32:7 33:1 34:3 35:2 37:15 41:3 47:1 55:4 56:1 59:1 60:1 64:1 66:3 74:4 87:1 93:1 96:2 100:2 102:1 125:2 127:2 129:1 134:3 145:1 154:4 159:1 170:1 179:1 181:1 184:1 189:1 201:1 204:1 226:1 263:1 267:1 274:1 301:1 307:2 311:1 313:1 317:1 319:1 322:1 347:3 356:1 359:1 363:3 371:1 380:1 451:1 463:1 466:1 469:1 474:1 478:1 479:1 480:1 485:2 490:1 496:1 521:2 560:1 567:1 603:1 626:1 646:1 647:2 649:1 671:1 672:2 731:1 740:1 768:1 771:1 789:1 790:1 796:1 804:1 810:1 821:1 833:2 847:1 908:1 929:1 986:2 1013:1 1029:1 1057:1 1058:2 1085:1 1096:1 1134:1 1152:1 1158:1 1177:1 1189:1 1212:1 1213:1 1297:1 1342:1 1494:1 1645:1 1750:1 1856:2 1861:1 2011:2 2043:2 2048:1 2115:1 2668:1 2672:1 2725:1 2773:1 3076:1 3479:1 3701:1 3824:1 4102:1 4277:1 4573:1 4779:1 5024:1 5025:1 5026:1 5027:1 5028:1 5029:1 5030:1 5031:1 5032:1 5033:1 5034:1 5035:1 5036:1 5037:1 5038:1 5039:1 5040:2 5041:1 5042:1 5043:1 5044:2 5045:1 5046:2 5047:1 5048:1 5049:1 5050:1 5051:1 5052:1 5053:1 5054:1 5055:1 5056:1 5057:1 5058:1 5059:1 5060:1 5061:1 5062:1 137945:2 137946:1 137959:1 138046:1 138082:1 138122:1 138125:1 138162:1 138165:1 138337:1 138384:1 138415:1 138424:1 138489:1 138570:2 138675:1 138792:1 138813:2 138930:1 138960:1 139022:1 139079:1 139092:1 139099:1 139206:1 139212:1 139378:1 139545:1 139559:1 139599:1 139670:1 139720:1 139752:1 139900:1 139915:1 140138:1 140237:1 140516:1 140611:1 140895:1 140916:1 140937:1 141147:1 141190:1 141382:1 142205:1 142505:1 142746:1 142952:1 142978:1 144005:1 144254:1 144258:1 144357:1 144760:1 144771:1 145161:1 145380:1 145996:1 146030:1 146066:1 146657:1 146658:1 147663:1 148235:1 149192:1 149287:1 149439:1 149627:1 149844:1 149976:1 150066:1 150480:1 150514:1 151323:1 154389:1 155876:1 156200:1 157003:1 157318:1 158336:1 158526:1 158527:1 158528:1 158529:1 158530:1 158531:1 158532:1 158533:1 158534:1 158535:1 158536:1 158537:1 158538:1 158539:1 158540:1 158541:1 158542:1 158543:1 158544:1 158545:1 158546:1 158547:1 158548:1 158549:1 158550:1 158551:1 158552:1 158553:1 158554:1 158555:1 158556:1 158557:1 158558:1 158559:1 158560:1 158561:1 158562:1 158563:1 158564:1 158565:1 158566:1 158567:1 158568:1 158569:1 158570:1 158571:1 158572:1 158573:1 158574:1 158575:1 158576:1 158577:1 158578:1 158579:1 158580:1 158581:1 158582:1 158583:1 158584:1 158585:1 158586:1 158587:1 158588:1 158589:1 158590:1 158591:1 158592:1 158593:1 158594:1 158595:1 158596:1 158597:1 158598:1 158599:1 158600:1 158601:1 158602:1 158603:1 158604:1 158605:1 158606:1 158607:1 158608:1 158609:1 158610:1 158611:1 158612:1 158613:1 158614:1 158615:1 158616:1 158617:1 158618:1 158619:1 158620:1 158621:1 158622:1 158623:1 158624:1 158625:1 158626:1 158627:1 158628:1 158629:1 158630:1 158631:1 158632:1 158633:1 158634:1 158635:1 158636:1 158637:1 158638:1 158639:1 158640:1 158641:1 158642:1 158643:1 158644:1 158645:1 158646:1 158647:1 158648:1 158649:1 158650:1 158651:1 158652:1 158653:1 158654:1 158655:1 158656:1 158657:1 158658:1 158659:1 158660:1 158661:1 158662:1 158663:1 158664:1 158665:1 158666:1 158667:1 158668:1 158669:1 158670:1 158671:1 158672:1 158673:1 158674:1 158675:1 158676:1 158677:1 158678:1 158679:1 158680:1 158681:1 158682:1 158683:1 158684:1 158685:1 158686:1 158687:1 158688:1 158689:1 158690:1 
1 1 1 1 3:3 12:1 17:1 35:1 36:1 37:5 55:2 56:1 59:1 63:1 66:1 87:1 92:1 93:1 100:1 119:1 125:1 127:1 134:1 150:1 171:1 244:1 263:2 267:1 272:1 288:1 301:1 313:1 344:1 359:1 363:1 370:1 410:2 478:1 479:1 521:1 539:1 604:1 647:1 681:1 682:1 683:1 816:1 1036:1 1088:1 1201:1 1239:1 1520:1 1661:1 1771:1 1796:1 2786:1 3891:1 5082:1 5083:1 5084:1 5085:1 5086:1 5087:1 5088:1 5089:1 5090:1 5091:1 5092:1 137949:1 137950:1 138279:1 138317:1 138386:1 138510:1 138815:1 138930:1 139084:1 139109:1 139300:1 139522:1 140141:1 140345:1 140516:1 140545:1 140589:1 142675:1 145421:1 146269:1 147338:1 149217:1 151093:1 152249:1 152300:1 152689:1 158162:1 158572:1 158792:1 158793:1 158794:1 158795:1 158796:1 158797:1 158798:1 158799:1 158800:1 158801:1 158802:1 158803:1 158804:1 158805:1 158806:1 158807:1 158808:1 158809:1 158810:1 158811:1 158812:1 158813:1 158814:1 158815:1 158816:1 158817:1 158818:1 158819:1 158820:1 158821:1 158822:1 158823:1 158824:1 158825:1 158826:1 158827:1 158828:1 158829:1 158830:1 158831:1 158832:1 158833:1 158834:1 158835:1 
1 1 1 1 1:6 3:4 8:6 13:2 14:1 17:2 21:2 31:2 32:8 33:2 34:4 35:3 36:7 37:5 39:3 44:3 47:1 54:1 55:1 56:1 60:1 66:7 76:1 79:1 87:1 96:2 98:3 100:2 102:4 117:1 124:1 125:2 127:6 129:1 136:1 149:2 150:1 155:2 171:1 201:5 207:1 208:1 273:1 313:1 320:1 322:2 336:3 347:2 354:2 358:1 359:1 366:2 385:1 408:3 418:2 427:1 453:1 459:1 463:2 474:2 476:1 494:1 507:1 534:1 567:1 570:1 578:1 609:2 624:1 629:2 647:1 660:2 696:1 701:1 712:1 718:1 730:1 750:1 768:1 816:1 823:1 897:2 959:1 1000:1 1007:1 1015:1 1070:1 1081:1 1100:1 1177:1 1207:1 1430:1 1454:1 1611:1 1616:1 1654:1 1713:1 1861:1 2012:1 2116:1 2147:1 2161:1 2422:1 2973:2 3273:1 3368:1 3370:1 3380:1 3520:1 4044:1 4145:1 4344:1 4718:1 4816:1 5154:1 5155:1 5156:1 5157:1 5158:1 5159:1 5160:1 5161:1 5162:1 5163:1 5164:1 137945:2 137946:2 137947:1 137949:2 137959:1 138002:1 138004:1 138046:1 138066:1 138078:1 138232:1 138405:1 138415:1 138461:1 138496:1 138654:1 138675:1 139013:3 139028:1 139029:1 139036:1 139092:1 139124:1 139181:1 139284:1 139285:1 139375:1 139386:1 139387:2 139528:1 139555:1 139559:1 139687:1 139770:1 139771:2 139856:1 140035:1 140102:2 140233:1 140534:1 141147:1 141168:1 141180:1 141242:1 141334:1 141741:1 141855:2 141997:1 142082:1 142246:1 142289:1 142357:1 142658:1 142700:2 142711:1 142999:1 143013:1 143029:2 143267:1 143556:1 143566:1 143576:1 143671:1 143728:1 144254:1 144439:1 144697:1 145467:1 146015:1 146399:1 146654:1 146691:1 148189:1 148524:1 149345:1 149503:1 149997:1 150719:1 150874:1 151378:1 152764:1 153308:1 154048:1 154394:1 154711:1 155080:1 155226:1 156126:2 156173:1 156186:1 158107:1 158352:1 158663:1 159166:1 159167:1 159168:1 159169:1 159170:1 159171:1 159172:1 159173:1 159174:1 159175:1 159176:1 159177:1 159178:1 159179:1 159180:1 159181:1 159182:1 159183:1 159184:1 159185:1 159186:2 159187:1 159188:1 159189:1 159190:1 159191:1 159192:1 159193:1 159194:1 159195:1 159196:1 159197:1 159198:1 159199:1 159200:1 159201:1 159202:1 159203:1 159204:1 159205:1 159206:1 159207:1 159208:1 159209:1 159210:1 159211:1 159212:1 159213:1 159214:1 159215:1 159216:1 159217:1 159218:1 159219:1 159220:1 159221:1 159222:1 159223:1 159224:1 159225:1 159226:1 159227:1 159228:1 159229:1 159230:1 159231:1 159232:1 159233:1 159234:1 159235:1 159236:1 159237:1 159238:1 159239:1 159240:1 159241:1 159242:1 159243:1 159244:1 159245:1 159246:1 159247:1 159248:1 159249:1 159250:1 159251:1 159252:1 159253:1 159254:1 159255:1 159256:1 159257:1 159258:1 159259:1 159260:1 159261:1 159262:1 159263:1 159264:1 159265:1 159266:1 159267:1 159268:1 
1 1 1 1 1:5 8:9 14:1 18:1 21:2 31:1 32:9 34:2 35:1 37:8 41:1 45:5 54:1 55:1 59:3 60:1 63:2 66:5 74:5 75:1 79:1 87:8 96:1 100:1 105:2 134:1 141:1 146:3 154:3 162:1 168:2 171:3 175:1 179:1 185:1 190:1 201:3 228:1 232:3 237:1 239:1 260:1 267:5 268:1 311:1 322:3 339:2 340:1 363:2 391:4 400:1 413:1 415:1 447:1 452:1 453:1 468:1 471:1 480:2 481:1 493:1 496:1 521:1 548:1 644:1 671:2 718:1 768:2 770:1 798:1 806:1 809:5 819:1 892:1 897:1 908:1 949:1 986:1 1028:1 1162:1 1213:1 1284:1 1349:1 1454:1 1475:1 1692:7 1708:1 1720:1 1788:1 1861:1 1916:1 1952:1 2121:1 2189:1 2269:1 2294:2 2403:1 2408:1 2483:1 2498:1 2550:1 2899:1 2953:1 2977:1 3006:1 3411:1 3470:1 3493:1 3504:1 4040:2 4234:1 4592:1 5311:1 5432:1 5465:1 5466:1 5467:2 5468:1 5469:1 5470:2 5471:1 5472:1 5473:2 5474:1 5475:1 5476:1 5477:1 137999:2 138000:1 138001:1 138008:1 138009:1 138046:1 138147:1 138150:1 138154:1 138169:1 138292:1 138453:1 138568:1 138613:1 138627:1 138664:1 138672:1 138767:1 139079:1 139124:1 139179:1 139400:1 139528:2 139555:1 139649:1 139793:1 139856:1 139991:2 140015:1 140065:1 140237:2 141083:1 141153:1 141157:1 141212:1 141215:4 141242:1 141411:1 141475:2 141539:1 141596:1 141699:1 141853:1 142469:1 143361:1 143434:1 144046:1 144458:1 144699:1 144721:1 144921:2 145299:1 145346:1 145368:1 145685:1 145771:1 145772:1 145899:1 145915:1 146067:1 146417:1 146753:1 146808:1 147042:1 147603:1 148119:1 148199:1 149021:1 149022:1 149068:1 149401:1 150035:1 150117:1 150175:1 150193:1 150535:1 152046:1 152837:1 153235:1 156274:1 159330:1 160133:1 160377:1 160623:1 160774:1 160775:1 160776:1 160777:1 160778:1 160779:1 160780:1 160781:1 160782:1 160783:1 160784:1 160785:1 160786:1 160787:1 160788:1 160789:1 160790:1 160791:1 160792:1 160793:1 160794:1 160795:1 160796:1 160797:1 160798:1 160799:1 160800:1 160801:1 160802:1 160803:1 160804:1 160805:1 160806:1 160807:1 160808:1 160809:1 160810:1 160811:1 160812:2 160813:1 160814:1 160815:1 160816:1 160817:1 160818:1 160819:1 160820:1 160821:1 160822:1 160823:1 160824:1 160825:1 160826:1 160827:1 160828:1 160829:1 160830:1 160831:1 160832:1 160833:1 160834:1 160835:1 160836:1 160837:1 160838:1 160839:1 160840:2 160841:1 160842:1 160843:1 160844:1 160845:1 160846:1 160847:1 160848:1 160849:1 160850:1 160851:1 160852:1 160853:1 160854:2 160855:1 160856:1 160857:1 160858:1 160859:2 160860:1 160861:1 160862:1 160863:1 160864:1 160865:1 160866:1 160867:1 160868:1 160869:1 160870:1 160871:1 160872:1 160873:1 160874:1 160875:1 160876:1 160877:1 160878:1 160879:1 160880:1 160881:1 160882:1 160883:1 160884:1 160885:1 160886:1 160887:1 160888:1 160889:1 160890:1 160891:1 160892:1 160893:1 160894:1 
1 1 1 1 1:4 3:1 8:2 15:1 32:3 34:1 37:5 39:2 44:3 64:1 66:4 112:1 171:1 287:1 288:1 313:1 316:1 406:1 519:1 523:1 539:1 600:1 768:2 935:1 964:1 1068:1 1374:1 1513:1 1576:1 1582:1 2124:2 2136:1 2325:1 2334:1 2449:1 2486:3 2499:1 2526:1 2725:1 3662:1 3824:2 4836:1 5123:1 5478:2 5479:1 5480:1 5481:1 5482:1 5483:1 5484:1 5485:1 5486:1 5487:1 5488:2 5489:1 5490:1 5491:1 5492:1 5493:1 5494:1 5495:1 5496:1 137986:1 138146:1 138232:1 138386:1 138647:1 139528:1 139913:1 140212:1 140260:1 140308:1 142499:1 144355:2 145745:1 145880:1 147124:1 148807:1 156877:1 160895:1 160896:2 160897:1 160898:1 160899:1 160900:1 160901:1 160902:1 160903:1 160904:1 160905:1 160906:1 160907:1 160908:1 160909:1 160910:1 160911:1 160912:1 160913:1 160914:1 160915:1 160916:1 160917:1 160918:1 160919:1 160920:1 160921:1 160922:1 160923:1 160924:1 160925:1 160926:1 160927:1 160928:1 160929:1 160930:1 160931:1 160932:1 160933:1 160934:1 160935:1 160936:1 160937:1 160938:1 160939:1 160940:1 160941:1 160942:2 160943:1 160944:1 160945:1 160946:1 160947:1 160948:1 160949:1 160950:1 160951:1 160952:1 160953:1 160954:1 160955:1 160956:1 160957:1 160958:1 
1 1 1 1 3:3 21:1 34:1 36:1 37:2 44:1 288:1 358:1 396:1 404:1 463:1 539:1 697:1 908:1 992:1 1031:1 1645:1 1668:1 2206:1 3389:1 5497:1 5498:1 5499:1 138572:1 138640:1 139522:1 139523:1 140343:1 140847:1 141168:1 142198:1 142406:1 160959:1 160960:1 160961:1 160962:1 160963:1 160964:1 160965:1 160966:1 160967:1 160968:1 160969:1 160970:1 160971:1 160972:1 160973:1 160974:1 
1 1 1 1 1:3 3:1 8:6 12:2 14:4 21:2 32:5 34:2 35:2 36:2 37:7 38:1 39:2 44:1 54:2 55:1 59:1 60:1 66:3 67:2 87:3 102:1 107:1 125:1 127:1 129:2 134:1 149:3 150:1 151:5 154:1 168:1 187:1 189:1 201:3 226:1 263:2 267:3 282:1 359:1 385:1 386:1 406:1 463:1 467:1 474:1 480:1 490:1 532:1 543:1 567:1 610:1 738:1 851:1 920:1 1088:2 1094:1 1177:1 1201:1 1292:1 1369:1 1509:1 1827:1 1985:1 2116:1 2532:1 2562:1 2705:1 2867:1 2873:1 3078:1 3130:1 3179:1 3275:1 3305:1 3357:1 3716:1 3754:1 5202:1 5277:1 5441:1 5521:1 5522:3 5523:1 5524:1 5525:1 5526:2 5527:2 5528:1 5529:2 137949:2 137952:1 138008:1 138046:1 138140:2 138147:1 138238:2 138601:1 138754:1 138996:1 139387:1 139856:1 139904:1 139949:1 140102:1 140173:1 140305:1 140676:1 140813:3 140814:2 140916:1 141184:1 141803:1 141855:1 142494:1 142721:1 143190:1 143340:1 143834:1 144254:1 144331:1 144528:1 145078:1 145079:1 145346:1 145759:1 145962:1 146531:1 147046:1 147653:1 148103:1 148117:1 148756:1 149895:2 150842:1 150847:1 151721:1 153320:1 154926:1 155243:1 156518:1 157565:1 158513:1 159724:1 161120:1 161121:1 161122:1 161123:1 161124:1 161125:1 161126:1 161127:1 161128:1 161129:1 161130:1 161131:1 161132:1 161133:1 161134:1 161135:1 161136:1 161137:1 161138:1 161139:1 161140:1 161141:1 161142:1 161143:1 161144:1 161145:1 161146:1 161147:1 161148:1 161149:1 161150:1 161151:1 161152:1 161153:1 161154:1 161155:1 161156:1 161157:1 161158:1 161159:1 161160:1 161161:1 161162:1 161163:1 161164:1 161165:1 161166:1 161167:1 161168:1 161169:1 161170:1 161171:1 161172:1 161173:1 161174:1 161175:1 161176:1 161177:1 161178:1 161179:1 161180:1 161181:1 161182:1 161183:1 161184:1 161185:1 161186:1 161187:1 161188:1 161189:1 161190:1 161191:1 161192:1 161193:1 161194:1 161195:1 161196:1 161197:1 
