svm_type c_svc
kernel_type rbf
gamma 1.70678e-005
nr_class 5
total_sv 5000
rho -0.364346 -0.5564 0.205777 0.0442524 -0.0388452 0.476304 0.122518 0.707927 0.43364 -0.0929777
label 4 2 3 5 1
nr_sv 1000 1000 1000 1000 1000
SV
1 1 1 1 1:6 2:1 3:5 8:3 18:1 31:3 32:9 34:1 35:2 36:1 37:8 41:1 44:2 45:1 55:3 58:1 60:1 66:1 70:2 71:2 74:1 92:1 93:1 97:1 98:2 99:1 100:2 101:1 102:2 103:1 104:1 105:2 106:1 107:1 108:1 109:1 110:1 111:1 112:2 113:1 114:1 115:1 116:1 117:1 118:1 119:1 120:1 121:1 122:1 123:1 124:1 125:2 126:2 127:1 128:1 129:3 130:1 131:1 132:1 133:1 134:1 135:1 136:3 137:1 138:1 139:1 140:1 141:2 142:1 143:1 144:1 145:1 146:1 147:1 148:1 149:1 150:1 151:1 152:1 153:1 154:1 155:1 156:1 157:2 158:2 159:2 160:1 161:1 162:1 163:1 164:1 165:1 166:1 167:1 168:1 169:1 170:1 171:2 172:1 173:1 174:1 175:1 176:1 177:1 178:2 179:1 180:1 181:2 182:1 183:1 184:1 185:1 186:1 187:2 188:1 189:1 190:1 191:1 192:1 193:1 194:1 195:1 196:1 197:1 198:1 199:1 200:1 201:1 202:1 203:1 204:2 205:2 206:1 207:1 208:1 209:1 
1 1 1 1 1:13 3:14 5:1 8:17 12:1 14:5 17:1 21:12 31:1 32:7 34:5 35:4 36:1 37:32 39:10 41:1 44:12 45:2 47:1 53:1 54:1 55:3 56:1 57:1 58:3 60:3 63:1 65:1 66:7 71:3 72:1 74:2 79:1 93:2 100:2 102:4 104:1 105:4 125:5 129:1 136:2 141:1 146:1 148:2 150:1 151:1 155:2 159:1 163:1 164:1 170:1 171:4 184:1 189:1 197:1 201:2 207:1 210:1 211:2 212:1 213:1 214:1 215:1 216:1 217:4 218:4 219:8 220:2 221:1 222:1 223:1 224:3 225:1 226:1 227:1 228:2 229:2 230:3 231:1 232:2 233:1 234:1 235:1 236:1 237:2 238:1 239:2 240:1 241:1 242:1 243:1 244:1 245:1 246:1 247:1 248:1 249:1 250:1 251:1 252:1 253:1 254:1 255:1 256:3 257:2 258:5 259:1 260:2 261:3 262:2 263:2 264:1 265:2 266:1 267:2 268:1 269:1 270:1 271:1 272:1 273:1 274:1 275:5 276:5 277:1 278:1 279:1 280:1 281:1 282:1 283:2 284:3 285:2 286:1 287:1 288:3 289:1 290:1 291:2 292:1 293:1 294:2 295:1 296:1 297:1 298:1 299:1 300:1 301:7 302:4 303:4 304:1 305:1 306:1 307:1 308:2 309:1 310:1 311:4 312:1 313:3 314:1 315:1 316:1 317:2 318:1 319:1 320:1 321:2 322:3 323:1 324:1 325:1 326:1 327:1 328:3 329:2 330:1 331:1 332:1 333:1 334:1 335:1 336:1 337:1 338:1 339:1 340:1 341:1 342:1 343:1 344:1 345:1 346:1 347:2 348:1 349:2 350:1 351:1 352:1 353:1 354:1 355:1 356:1 357:1 358:1 359:1 360:2 361:1 362:1 363:1 364:1 365:1 366:1 367:1 368:1 369:1 370:1 371:1 372:1 373:1 374:1 375:1 376:1 377:1 378:2 379:1 380:2 381:2 382:1 383:1 384:1 385:1 386:1 387:1 388:1 389:1 390:1 391:2 392:1 393:1 394:1 395:1 396:1 397:1 398:1 399:1 400:1 401:1 402:1 403:1 404:1 405:1 
1 1 1 1 1:4 3:1 8:4 14:3 21:2 31:1 32:3 37:6 53:1 55:1 63:1 66:4 74:1 94:1 102:1 125:1 127:1 133:1 139:1 141:1 160:1 168:1 181:1 187:1 201:1 250:1 260:1 301:1 311:2 322:1 337:1 342:2 354:1 359:1 363:1 408:1 439:1 501:1 518:1 519:1 520:1 521:1 522:1 523:1 524:1 525:1 526:1 527:1 528:1 529:1 530:1 531:1 532:1 533:1 534:1 535:1 536:1 537:1 538:1 539:1 540:1 541:1 542:1 543:1 544:1 545:1 546:1 547:1 548:1 549:1 550:1 551:1 552:1 553:1 554:1 555:1 556:1 557:1 558:1 
1 1 1 1 1:1 8:2 21:1 31:2 32:1 36:1 37:2 39:1 44:1 60:1 66:1 79:2 98:1 100:1 129:1 150:1 168:1 170:1 171:1 238:1 260:1 265:1 282:1 322:1 330:1 347:2 416:1 427:1 451:2 463:1 559:1 560:1 561:1 562:1 563:1 564:1 565:1 566:2 567:1 568:1 569:1 570:1 571:1 572:1 573:1 574:1 575:1 576:1 577:1 578:1 579:1 
1 1 1 1 1:2 8:2 13:1 31:1 32:3 37:4 39:1 43:1 44:1 53:1 55:2 60:1 66:3 67:1 74:3 76:1 79:1 87:3 100:1 107:1 125:1 133:1 159:2 168:1 192:1 260:1 279:1 288:1 334:1 339:1 458:1 463:1 480:1 523:1 534:3 539:1 554:1 560:1 568:1 569:1 578:1 580:1 581:1 582:2 583:1 584:1 585:1 586:1 587:1 588:1 589:1 590:1 591:1 592:1 593:1 594:1 595:1 596:1 597:1 598:1 599:1 600:1 601:1 602:1 
1 1 1 1 1:4 3:2 6:2 7:2 8:1 12:1 17:2 21:1 31:1 32:2 34:1 36:1 37:2 39:1 41:2 44:1 55:1 56:1 60:2 66:2 82:2 100:3 102:1 105:3 119:1 125:2 134:1 136:1 149:1 159:2 171:2 201:2 219:1 228:1 229:1 238:1 294:1 312:1 322:1 328:1 334:1 340:1 345:1 347:1 354:1 363:1 381:1 391:2 393:1 404:1 416:1 469:2 484:1 490:2 496:1 521:1 534:1 539:1 572:1 584:1 603:2 604:1 605:1 606:1 607:1 608:1 609:1 610:1 611:1 612:1 613:1 614:1 615:1 616:1 617:1 618:1 619:1 620:1 621:1 622:1 623:1 624:1 625:1 626:1 627:1 628:1 629:1 630:1 631:1 632:1 633:1 634:1 635:1 636:1 637:1 638:1 639:1 640:1 641:1 642:1 643:1 644:1 645:1 646:1 647:1 
1 1 1 1 1:4 3:2 8:4 14:1 15:1 21:3 32:8 34:2 37:3 59:1 64:1 66:4 67:1 74:4 79:1 82:1 87:4 102:1 120:1 125:4 150:2 171:2 181:1 201:1 263:1 267:1 268:1 294:1 298:1 301:1 348:1 411:1 453:1 490:2 512:1 521:1 554:1 600:1 610:1 667:3 690:1 691:1 697:1 768:1 779:1 785:1 943:1 995:1 1003:1 1018:1 1029:1 1046:1 1128:1 1129:1 1130:1 1131:1 1132:2 1133:1 1134:1 1135:2 1136:2 1137:2 1138:1 1139:1 1140:1 1141:1 1142:1 1143:1 1144:2 1145:1 1146:1 1147:1 1148:1 1149:1 1150:1 1151:1 1152:1 1153:1 1154:1 1155:1 1156:1 1157:1 1158:1 1159:1 
1 1 1 1 1:3 3:2 8:3 14:2 32:3 34:1 37:4 39:1 40:1 41:1 55:1 66:1 71:2 74:1 87:4 125:1 160:1 171:1 187:1 189:1 280:1 297:1 301:1 317:1 318:1 328:1 345:1 347:1 363:4 381:1 389:1 445:1 453:1 462:1 469:1 539:1 565:1 651:2 684:1 779:1 817:1 822:1 901:1 935:1 1032:1 1264:2 1265:1 1266:1 1267:1 1268:2 1269:2 1270:1 1271:1 1272:1 1273:1 1274:1 1275:1 1276:1 1277:1 1278:1 1279:1 1280:1 1281:1 1282:1 1283:1 1284:1 1285:1 1286:1 
1 1 1 1 1:1 3:1 8:3 21:1 32:2 34:1 35:1 36:1 37:1 39:1 56:1 74:4 82:1 100:1 125:1 168:1 189:1 239:1 267:1 336:1 374:1 389:1 391:2 393:1 445:1 485:1 509:1 595:1 801:1 823:1 882:1 973:1 1502:1 1503:1 1504:1 1505:1 1506:1 1507:1 1508:1 
1 1 1 1 1:1 3:2 8:3 12:1 21:1 31:1 32:1 34:1 35:1 37:4 38:1 39:1 44:1 55:1 66:3 71:2 74:1 79:1 105:2 112:2 124:1 125:1 129:1 146:1 153:1 165:1 170:2 187:1 207:1 259:1 260:2 318:1 340:1 363:1 365:1 412:1 418:2 477:1 575:1 578:3 649:1 675:1 725:1 733:1 765:1 817:1 1217:1 1236:1 1274:1 1513:1 1514:1 1515:1 1516:1 1517:1 1518:1 1519:1 1520:1 1521:1 1522:1 1523:1 1524:1 1525:1 1526:1 1527:1 1528:1 1529:1 1530:1 1531:1 1532:1 1533:1 1534:1 1535:1 1536:1 
1 1 1 1 1:6 8:7 17:2 21:8 31:2 32:4 34:4 37:9 38:1 39:2 40:1 41:1 44:2 45:1 54:2 55:3 56:1 60:1 66:4 71:1 72:1 74:7 79:4 87:2 96:1 102:2 105:1 125:3 127:1 128:1 129:1 133:1 146:1 150:3 155:1 164:1 171:3 180:1 185:1 201:1 207:2 219:4 226:1 244:1 258:1 294:1 298:1 300:1 309:1 311:1 323:1 330:3 345:1 363:1 391:1 427:1 451:1 456:1 463:1 469:1 496:1 521:1 535:1 539:1 553:1 569:1 591:1 600:2 626:1 646:1 684:2 701:2 722:1 779:1 804:1 807:1 851:1 908:1 959:1 961:2 962:1 1003:1 1070:1 1126:1 1260:1 1275:1 1316:1 1335:3 1372:1 1537:1 1538:1 1539:2 1540:1 1541:1 1542:1 1543:1 1544:1 1545:1 1546:1 1547:1 1548:1 1549:2 1550:1 1551:1 1552:1 1553:1 1554:1 1555:1 1556:3 1557:1 1558:1 1559:1 1560:1 1561:1 1562:2 1563:1 1564:1 
1 1 1 1 1:3 3:1 8:3 17:1 32:1 35:1 37:2 44:1 55:1 66:2 82:1 98:1 127:2 136:2 138:1 151:3 168:1 187:1 191:1 201:1 265:1 267:1 287:1 288:1 320:1 463:1 490:1 493:1 566:1 649:1 682:1 737:1 738:1 768:1 928:1 962:1 1178:2 1293:1 1353:1 1454:2 1647:2 1655:1 1656:1 1657:1 1658:1 1659:1 1660:1 1661:1 1662:1 1663:1 1664:1 1665:1 1666:1 1667:1 1668:1 
1 1 1 1 0:1 1:14 3:6 5:1 8:10 12:1 17:4 18:1 21:4 31:2 32:7 35:1 37:15 39:5 41:1 44:10 45:4 55:1 57:1 58:1 59:1 60:2 65:1 66:10 67:1 70:3 79:1 82:1 87:2 100:1 102:2 105:3 111:1 119:1 120:1 125:6 127:2 129:2 138:1 141:1 146:1 150:2 154:1 155:1 167:3 171:1 224:1 238:2 239:1 260:1 267:2 279:1 288:1 294:1 311:1 313:2 321:1 322:2 330:1 344:1 347:3 354:2 358:1 361:1 362:1 363:1 366:1 385:1 436:1 458:4 463:1 474:1 480:3 481:1 489:1 494:1 505:1 521:2 532:1 533:1 539:1 566:1 596:1 600:2 603:1 610:1 623:4 626:1 671:1 696:1 702:2 718:1 750:2 761:1 768:1 781:1 791:2 796:1 805:1 825:1 873:1 924:1 962:1 1015:2 1017:1 1036:1 1054:1 1121:1 1131:1 1134:1 1139:1 1152:1 1170:2 1201:1 1274:1 1282:1 1286:1 1295:1 1316:3 1364:2 1424:1 1513:1 1559:1 1566:1 1616:1 1618:1 1669:1 1670:1 1671:1 1672:2 1673:1 1674:1 1675:1 1676:1 1677:1 1678:1 1679:1 1680:1 1681:1 1682:1 1683:1 1684:1 1685:1 1686:1 1687:1 1688:1 1689:1 1690:1 1691:1 1692:1 1693:1 1694:3 1695:1 1696:2 1697:2 1698:1 1699:2 1700:1 1701:1 1702:1 1703:1 1704:1 1705:1 1706:1 1707:1 1708:1 1709:1 1710:1 1711:1 1712:1 1713:1 1714:1 1715:1 1716:1 1717:1 1718:1 1719:1 1720:1 1721:1 1722:1 
1 1 1 1 1:7 3:8 8:7 14:1 17:1 21:3 31:2 32:3 34:3 36:1 37:8 38:1 39:2 41:2 44:6 45:2 55:4 63:2 65:1 66:6 70:2 87:1 96:1 100:2 104:1 105:1 107:1 112:1 119:1 120:1 125:1 129:3 133:1 136:1 138:1 146:2 149:2 155:1 159:1 168:1 171:1 201:2 219:1 221:1 238:1 258:1 263:1 269:2 288:1 308:2 311:2 320:2 329:1 330:1 345:1 347:1 354:1 358:1 363:2 373:1 385:1 436:1 443:1 458:1 463:1 509:1 521:2 526:1 600:2 609:1 611:1 623:1 629:2 674:1 678:3 697:1 712:1 718:1 750:1 753:1 774:1 781:2 789:1 796:1 831:1 873:1 890:1 908:2 933:1 968:1 985:1 988:1 1038:2 1040:1 1063:1 1139:1 1199:1 1226:1 1243:3 1336:1 1392:1 1426:1 1431:1 1520:1 1675:1 1736:1 1737:2 1738:1 1739:1 1740:1 1741:1 1742:1 1743:1 1744:1 1745:1 1746:1 1747:1 1748:1 1749:1 1750:1 1751:1 1752:1 1753:1 1754:1 1755:1 1756:1 1757:1 1758:1 1759:1 1760:1 1761:1 1762:1 1763:1 1764:1 1765:1 1766:1 1767:1 1768:1 1769:1 1770:1 1771:1 1772:1 1773:1 1774:1 1775:1 1776:1 1777:1 1778:1 1779:1 1780:1 1781:1 1782:1 1783:1 1784:2 1785:1 1786:1 1787:1 1788:1 1789:1 1790:1 
1 1 1 1 1:5 3:2 8:4 17:1 21:2 31:4 32:3 34:3 36:1 37:4 44:5 45:1 55:1 56:1 63:1 66:6 87:1 100:1 102:2 105:1 111:1 121:1 125:6 134:1 149:2 150:1 171:1 219:3 238:1 258:2 263:1 265:1 288:1 292:1 313:1 322:1 347:1 349:1 354:1 356:1 359:1 363:3 400:1 403:1 404:1 416:1 469:1 480:1 490:1 535:1 539:1 554:1 563:1 578:1 597:1 600:1 603:1 619:1 647:1 681:2 718:1 726:1 751:1 752:1 814:1 822:2 868:3 894:1 1063:1 1070:1 1097:2 1170:1 1177:1 1199:1 1276:1 1287:1 1297:1 1462:1 1644:1 1671:2 1715:1 1749:1 1791:1 1792:1 1793:1 1794:1 1795:1 1796:1 1797:1 1798:1 1799:1 1800:1 1801:1 1802:1 1803:1 1804:1 1805:1 1806:1 1807:1 1808:1 1809:1 1810:1 1811:1 1812:1 1813:1 
1 1 1 1 1:1 14:1 18:1 31:1 32:2 37:3 39:1 41:1 44:2 55:1 60:1 63:1 66:1 98:1 102:1 105:1 139:1 150:1 160:1 302:1 348:1 418:1 453:1 554:1 645:1 646:1 661:1 743:1 1466:1 1647:1 1810:1 1814:1 1815:1 1816:1 1817:1 1818:1 1819:1 1820:1 1821:1 1822:1 1823:1 
1 1 1 1 1:1 8:2 17:1 21:2 31:1 32:1 37:3 38:2 39:3 41:3 44:1 70:1 74:1 79:1 93:1 125:1 129:2 150:1 151:1 201:1 207:1 321:1 339:1 416:1 490:1 604:1 609:1 631:1 645:1 646:1 678:1 727:1 733:1 768:1 912:1 1153:1 1310:1 1314:1 1752:1 1824:1 1825:1 1826:1 1827:2 1828:1 1829:1 1830:1 1831:1 1832:1 1833:1 
1 1 1 1 1:1 3:2 8:3 13:1 14:2 21:1 32:1 34:1 37:8 39:2 41:1 53:1 55:2 59:1 60:2 63:1 66:2 74:6 79:1 87:1 100:1 105:1 125:1 146:1 149:1 150:1 160:1 168:2 170:1 177:1 183:1 185:1 189:1 207:1 238:1 258:2 260:1 287:1 307:1 309:1 322:1 339:1 342:2 346:1 363:2 368:2 389:1 403:1 439:1 445:1 453:1 480:1 505:1 532:1 535:1 545:1 550:1 597:1 603:1 647:1 801:1 817:2 821:1 876:1 961:1 1017:1 1022:1 1055:1 1118:1 1139:1 1228:1 1262:1 1359:1 1505:1 1552:1 1687:1 1703:1 2055:1 2056:1 2057:1 2058:1 2059:1 2060:1 2061:1 2062:1 2063:1 2064:1 2065:1 2066:1 2067:1 2068:1 2069:1 2070:1 2071:1 2072:1 2073:1 2074:1 2075:1 2076:1 2077:1 2078:1 2079:1 2080:1 2081:1 2082:1 2083:1 2084:1 2085:1 2086:1 2087:1 2088:1 2089:1 
1 1 1 1 0:1 1:9 2:1 3:4 8:3 12:3 14:1 21:2 31:2 32:10 33:2 34:4 35:2 36:5 37:10 39:3 41:4 47:2 56:1 58:1 60:8 66:3 72:1 80:1 87:1 93:1 100:3 102:1 105:10 127:3 134:1 136:1 138:1 139:1 150:1 154:1 159:2 168:1 187:1 201:3 202:1 238:2 258:1 260:1 271:1 278:1 279:2 288:1 300:1 311:1 313:2 322:2 328:1 329:1 330:1 347:2 354:1 363:7 385:2 469:1 494:1 509:2 521:1 543:1 560:1 570:1 575:2 578:2 595:1 600:2 603:1 610:1 638:1 647:1 723:2 728:1 804:2 814:1 868:1 894:2 910:1 962:1 986:1 993:1 1022:3 1044:1 1063:1 1170:3 1177:1 1229:1 1279:1 1293:1 1323:1 1420:3 1554:1 1581:1 1642:1 1701:1 1720:1 1744:1 1782:1 1832:1 1856:2 1951:1 2090:1 2091:1 2092:1 2093:1 2094:1 2095:1 2096:2 2097:1 2098:1 2099:1 2100:1 2101:1 2102:1 2103:1 2104:1 2105:1 2106:1 2107:1 2108:1 2109:1 2110:1 2111:1 2112:1 2113:1 2114:1 2115:2 2116:1 2117:1 2118:1 2119:2 2120:1 2121:1 2122:1 2123:1 2124:1 2125:1 2126:1 2127:1 
1 1 1 1 1:6 3:4 8:5 12:1 13:1 14:2 21:2 32:4 35:1 36:1 37:8 39:3 40:1 41:1 44:5 45:2 56:1 60:1 63:2 66:6 70:1 75:1 76:1 79:1 82:2 87:2 93:1 125:1 129:1 134:1 139:1 149:1 150:1 151:1 168:1 171:1 187:1 201:1 232:1 238:1 263:2 269:1 279:1 313:2 330:1 339:1 362:1 363:1 381:2 404:1 439:1 468:1 483:1 501:1 516:1 537:1 550:1 565:1 566:2 572:1 578:1 594:1 595:1 647:1 680:1 687:1 688:1 712:1 770:1 772:1 783:1 789:1 897:1 954:1 1002:1 1017:1 1040:1 1164:1 1196:2 1207:1 1242:1 1243:1 1264:1 1267:1 1389:1 1433:1 1455:1 1592:1 1612:1 1687:1 1699:1 1755:1 1779:1 1921:1 2121:1 2144:1 2161:1 2385:1 2411:1 2456:1 2463:2 2464:1 2465:1 2466:1 2467:1 2468:1 2469:1 2470:1 2471:1 2472:1 2473:1 2474:1 2475:1 2476:1 2477:1 2478:1 2479:1 2480:1 2481:1 2482:1 2483:1 2484:1 2485:1 2486:1 
1 1 1 1 0:1 1:11 2:1 3:9 7:2 8:10 14:10 15:1 21:2 31:4 32:6 34:2 35:1 37:14 39:2 41:4 44:2 45:2 53:1 54:1 55:1 63:4 74:3 79:1 87:1 93:1 98:1 100:1 102:3 107:2 111:1 127:1 129:1 133:3 137:1 139:3 150:1 164:1 171:1 181:1 187:1 201:1 221:1 237:1 265:1 269:1 297:1 301:1 322:1 341:1 368:1 385:1 389:1 404:1 427:1 433:1 445:3 446:1 467:2 469:1 493:1 496:1 509:1 513:1 535:1 594:1 619:1 641:1 651:1 672:1 685:1 691:1 693:1 694:1 712:1 727:3 728:1 740:1 742:1 760:1 765:1 768:1 781:1 798:1 860:1 897:1 909:1 1055:1 1063:1 1070:1 1212:1 1216:1 1239:1 1260:1 1275:1 1335:1 1465:1 1524:1 1554:1 1563:1 1585:1 1587:1 1592:1 1595:1 1896:1 1946:2 1975:1 1994:1 2002:1 2069:1 2071:1 2084:1 2147:2 2155:1 2161:1 2163:1 2169:1 2259:1 2360:1 2430:1 2462:1 2468:1 2492:1 2567:2 2568:1 2569:1 2570:1 2571:1 2572:1 2573:1 2574:1 2575:1 2576:1 2577:2 2578:1 2579:1 2580:1 2581:2 2582:1 2583:1 2584:2 2585:1 2586:1 2587:1 2588:1 2589:1 2590:1 2591:1 2592:1 2593:3 2594:1 2595:2 2596:1 2597:1 2598:2 2599:1 2600:1 2601:1 2602:1 2603:1 2604:2 2605:1 2606:1 2607:1 2608:1 2609:1 2610:1 2611:1 2612:1 2613:1 2614:1 2615:1 2616:1 2617:1 2618:1 2619:1 2620:1 2621:1 2622:1 2623:1 2624:1 2625:1 2626:1 2627:1 2628:1 2629:1 2630:1 2631:1 2632:1 
1 1 1 1 1:1 21:1 32:1 37:2 39:1 41:1 44:1 55:1 125:1 151:1 267:1 279:1 363:2 411:1 749:2 897:1 1012:1 1175:1 1276:1 2669:1 2670:1 2671:2 2672:1 2673:1 2674:1 2675:1 2676:1 2677:1 2678:1 
1 1 1 1 0:1 1:6 3:6 8:12 13:1 14:2 21:4 31:1 32:2 34:4 35:1 36:1 37:9 39:1 44:1 54:1 55:3 59:1 60:2 63:1 65:1 66:5 67:1 71:7 74:6 87:1 96:1 98:1 102:1 105:1 107:1 115:2 122:1 125:2 129:1 136:1 137:1 139:2 148:1 149:1 150:4 153:1 154:2 170:2 171:1 189:1 201:1 260:1 301:1 317:1 322:2 328:1 339:1 347:1 358:1 368:1 391:1 404:1 439:1 450:1 458:1 459:2 463:1 469:1 490:1 491:1 496:2 519:1 521:1 541:1 560:1 565:2 595:1 599:1 600:1 610:1 619:1 641:1 684:1 685:1 698:1 768:2 778:1 789:1 809:2 811:1 817:1 831:1 838:1 856:1 933:1 959:1 981:2 1029:1 1045:3 1090:1 1155:1 1177:1 1199:1 1216:1 1278:4 1279:1 1293:2 1311:1 1316:2 1330:1 1369:2 1416:1 1451:1 1701:1 1761:1 1851:1 2011:1 2060:1 2262:1 2340:1 2449:1 2569:1 2611:1 2756:1 2762:1 2763:2 2764:1 2765:1 2766:1 2767:2 2768:1 2769:1 2770:1 2771:1 2772:1 2773:1 2774:1 2775:1 2776:1 2777:2 2778:2 2779:1 2780:1 2781:2 2782:2 2783:2 2784:1 2785:1 2786:1 2787:1 2788:1 2789:1 2790:1 
1 1 1 1 1:28 3:25 8:16 13:1 14:9 17:1 21:13 31:10 32:24 34:9 35:9 36:6 37:44 38:1 39:7 41:1 43:1 44:14 45:1 47:1 53:3 54:3 55:4 56:6 57:1 59:1 60:4 66:29 70:9 74:12 75:1 79:3 80:2 82:1 94:1 96:2 100:3 102:5 105:3 111:1 119:3 120:3 122:1 124:1 125:15 126:2 127:3 129:11 134:3 136:3 138:1 141:1 142:1 146:3 149:3 153:1 155:1 159:1 162:1 169:1 171:3 175:1 184:1 188:1 190:1 192:1 198:1 201:7 207:2 208:2 226:1 228:1 238:1 244:2 263:6 267:2 269:1 271:4 272:1 282:1 283:3 288:6 301:2 302:1 311:5 313:5 315:1 318:1 322:9 324:3 328:1 329:1 330:1 333:1 335:1 338:1 340:4 344:1 345:3 346:1 347:6 348:1 349:1 351:1 354:4 356:1 358:3 359:2 362:1 363:4 366:2 368:3 385:2 391:2 400:3 404:1 411:2 415:1 416:1 418:10 427:1 436:2 439:2 445:1 447:1 448:1 453:1 457:1 458:2 463:2 468:1 469:3 477:2 480:7 481:2 487:1 490:6 496:1 497:2 501:1 509:2 512:1 521:3 532:2 538:1 549:2 550:1 553:1 554:3 557:1 560:1 562:1 568:1 569:1 575:1 578:1 600:1 601:1 604:1 614:1 619:2 624:1 626:2 647:2 651:1 671:1 678:1 682:3 692:2 695:1 696:1 703:1 718:1 727:1 728:1 730:1 736:1 750:2 760:1 768:5 777:2 779:1 781:1 785:1 786:1 789:1 793:1 795:1 796:1 798:5 801:1 802:1 805:1 808:1 816:2 819:1 820:1 822:1 824:1 825:1 831:1 835:2 866:1 876:1 877:2 878:2 883:1 891:1 897:2 902:1 926:1 933:1 949:1 962:1 972:1 986:1 989:1 998:1 1002:1 1015:1 1017:2 1068:1 1070:3 1071:1 1081:2 1100:1 1134:4 1142:1 1151:1 1153:1 1162:1 1170:2 1177:2 1182:1 1196:3 1202:1 1206:1 1207:1 1223:1 1240:1 1241:1 1242:1 1275:3 1282:1 1292:1 1316:1 1334:1 1400:1 1430:1 1432:1 1451:1 1473:1 1489:1 1501:1 1504:2 1524:1 1533:3 1538:1 1545:1 1581:1 1585:1 1592:1 1596:1 1614:1 1616:1 1681:1 1683:1 1686:1 1694:1 1700:1 1701:1 1763:1 1795:1 1819:1 1871:1 1879:1 1889:1 1919:1 1962:1 1963:1 1994:1 2008:1 2013:1 2036:1 2056:1 2091:1 2163:1 2210:1 2219:1 2243:1 2247:1 2253:2 2279:1 2317:1 2323:1 2373:1 2375:1 2430:1 2432:1 2468:1 2508:2 2529:1 2535:3 2536:1 2612:1 2639:2 2645:1 2668:2 2675:1 2708:1 2710:1 2729:1 2740:1 2763:1 2771:2 2858:1 2907:1 2910:3 2926:1 2994:1 2995:1 2996:1 2997:1 2998:1 2999:2 3000:1 3001:1 3002:1 3003:1 3004:1 3005:1 3006:1 3007:1 3008:1 3009:1 3010:1 3011:1 3012:1 3013:1 3014:1 3015:1 3016:1 3017:1 3018:1 3019:1 3020:1 3021:1 3022:1 3023:1 3024:1 3025:1 3026:1 3027:1 3028:1 3029:1 3030:1 3031:1 3032:1 3033:1 3034:1 3035:2 3036:1 3037:1 3038:1 3039:1 3040:1 3041:1 3042:1 3043:1 3044:1 3045:1 3046:1 3047:1 3048:1 3049:1 3050:1 3051:1 3052:1 3053:1 3054:1 3055:2 3056:1 3057:1 3058:1 3059:1 3060:1 3061:1 3062:1 3063:1 3064:1 3065:3 3066:1 3067:1 3068:1 3069:1 3070:1 3071:1 3072:1 3073:1 3074:1 3075:1 3076:1 3077:1 3078:1 3079:1 3080:2 3081:1 3082:1 3083:1 3084:1 3085:1 3086:1 3087:1 3088:1 3089:1 3090:1 3091:1 3092:1 3093:1 3094:1 3095:1 3096:1 3097:1 3098:1 3099:1 3100:1 3101:1 3102:1 3103:1 3104:1 3105:1 3106:1 3107:1 3108:1 3109:1 3110:1 3111:1 3112:1 3113:1 3114:1 3115:1 3116:1 3117:1 3118:1 
1 1 1 1 35:1 36:1 37:1 44:1 66:3 98:1 184:1 201:1 363:1 559:2 562:1 568:1 1006:1 1196:1 1293:1 1791:1 2055:1 3205:1 3206:1 3207:1 3208:1 3209:1 3210:1 
1 1 1 1 8:2 14:1 31:1 32:3 34:1 35:1 36:1 37:2 66:1 74:3 122:1 125:1 144:1 149:1 191:1 267:1 300:1 386:1 389:1 453:1 509:1 532:1 549:1 550:1 594:1 624:1 630:2 671:1 808:1 1057:1 1334:1 1451:1 1538:1 1943:1 2727:1 3211:1 3212:1 3213:1 3214:1 3215:1 3216:1 3217:1 
1 1 1 1 1:1 8:7 12:1 14:3 15:1 21:3 32:2 37:9 41:2 44:5 45:1 55:3 63:1 66:4 70:2 72:1 87:2 120:1 121:1 125:1 129:2 150:1 171:1 201:1 238:1 244:1 363:2 404:1 418:1 439:1 458:1 479:1 480:2 549:1 565:1 583:1 595:1 596:1 600:1 603:1 645:1 681:1 683:1 702:1 712:1 873:1 1090:1 1170:2 1201:2 1283:1 1335:1 1454:1 1503:1 1616:1 1680:1 1688:2 1717:1 1763:1 1824:1 1861:1 1864:1 2053:1 2241:1 2373:1 2759:1 3073:1 3112:2 3218:1 3219:1 3220:1 3221:1 3222:1 3223:1 3224:1 3225:1 3226:1 3227:1 3228:1 
1 1 1 1 0:4 1:4 3:3 8:6 14:2 21:2 31:5 32:2 34:3 37:9 39:1 40:1 42:1 44:3 45:1 53:1 54:1 56:2 59:1 63:1 66:9 70:2 71:1 74:3 79:1 87:2 96:1 100:2 102:1 122:1 124:1 125:3 127:1 129:3 141:1 149:1 150:1 159:1 164:1 170:2 181:1 189:3 190:1 201:1 211:1 237:1 260:1 263:1 267:2 282:1 288:1 303:1 315:1 317:1 320:1 322:1 329:1 339:1 347:2 348:1 357:1 359:2 368:2 381:1 391:1 392:1 393:2 439:1 447:1 451:1 468:1 480:2 512:1 539:1 549:1 550:1 551:1 572:1 600:1 614:2 624:1 626:1 651:1 671:1 675:1 678:1 681:1 684:3 692:1 697:1 718:1 728:1 740:1 778:1 782:1 798:1 801:1 809:2 822:1 835:1 847:1 876:1 962:1 1003:1 1028:1 1059:1 1063:1 1081:1 1139:1 1237:1 1264:1 1335:1 1408:1 1503:1 1505:1 1524:1 1590:1 1709:1 1946:1 2011:1 2111:1 2290:1 2498:1 2518:1 2934:1 3060:1 3236:1 3237:1 3238:1 3239:1 3240:1 3241:1 3242:1 3243:1 3244:3 3245:1 3246:1 3247:1 3248:1 3249:1 3250:2 3251:1 3252:1 3253:1 3254:1 3255:1 3256:1 3257:1 3258:1 3259:1 3260:1 3261:1 3262:1 3263:1 3264:1 
1 1 1 1 1:3 3:1 8:2 12:1 14:4 21:1 32:2 34:3 37:6 41:1 44:3 53:1 55:4 59:1 60:1 66:1 70:1 71:1 74:2 100:1 105:1 107:1 125:1 127:3 128:1 133:1 168:1 191:1 192:1 201:1 211:1 263:2 313:1 359:1 385:1 391:1 458:1 476:1 496:1 509:2 529:1 535:1 542:1 557:1 588:1 630:1 647:1 653:1 669:1 685:1 695:1 775:2 822:1 1031:1 1061:1 1119:1 1155:1 1199:1 1243:1 1246:1 1248:1 1262:1 1274:1 1282:1 1293:1 1323:1 1512:3 1549:2 1757:1 1864:1 1885:1 1993:1 1995:1 2003:1 2074:1 2689:1 3309:1 3310:1 3311:2 3312:3 3313:1 3314:1 3315:1 3316:1 3317:1 3318:1 3319:1 3320:1 3321:1 3322:1 3323:1 
1 1 1 1 8:1 14:1 18:1 21:1 32:2 33:1 37:5 39:2 41:2 44:1 55:1 102:1 129:1 134:1 139:1 150:1 160:1 271:1 311:1 314:1 347:1 382:1 391:1 433:1 496:1 549:1 569:1 647:1 840:1 962:1 1061:1 1264:1 1334:1 1430:1 1647:1 1675:1 1687:1 1702:1 2003:1 2535:1 2873:1 3349:1 3350:1 3351:1 3352:1 3353:1 
1 1 1 1 1:3 3:3 8:5 14:2 21:2 31:1 32:6 34:2 37:4 45:1 53:1 60:1 64:1 66:2 72:1 74:4 125:2 133:2 149:1 150:1 154:1 168:1 170:1 171:2 180:1 189:1 238:1 286:1 297:1 333:1 368:1 509:1 568:1 598:1 626:1 629:1 647:1 671:1 680:1 682:1 696:1 718:1 817:2 847:1 1015:1 1054:1 1188:1 1241:1 1316:1 1451:1 1575:1 1618:1 1709:1 1710:1 1750:1 1860:1 1921:1 1942:2 2040:1 2171:1 2264:1 2340:1 2464:2 2639:1 2755:1 2763:1 3247:1 3359:1 3360:1 3361:1 3362:2 3363:1 3364:1 3365:1 
1 1 1 1 8:2 32:1 35:1 36:1 37:2 74:3 76:1 87:1 134:1 154:1 164:1 263:1 451:1 463:1 509:1 554:1 641:1 764:1 1126:1 1207:1 1260:1 1282:1 2120:1 3486:1 3487:1 3488:1 3489:1 3490:1 3491:1 
1 1 1 1 1:11 3:9 4:1 6:1 7:1 8:11 13:1 14:4 21:2 31:7 32:5 33:1 35:2 36:1 37:20 39:3 43:1 45:1 53:1 59:1 60:2 66:5 67:1 71:5 73:1 74:8 79:2 96:4 100:2 102:1 105:2 108:1 125:1 127:2 133:1 134:1 136:1 140:1 141:3 146:1 149:1 150:4 155:1 170:1 175:1 179:1 189:5 201:2 204:1 236:1 244:3 260:2 263:2 266:1 267:1 274:1 288:1 312:2 313:2 318:1 322:3 328:1 337:1 342:1 345:2 347:1 348:2 359:2 363:1 381:1 391:1 400:1 411:1 427:1 463:1 467:3 469:2 474:1 480:1 481:1 484:1 490:2 496:2 501:1 512:1 529:1 532:1 543:1 548:1 550:1 572:3 578:2 579:1 589:1 590:1 595:1 597:1 611:1 630:1 661:1 666:1 675:1 678:1 680:1 684:2 718:1 738:4 761:2 765:1 768:2 779:1 789:1 808:1 817:3 831:1 839:1 890:2 905:1 935:1 951:1 959:2 961:1 979:1 996:1 1012:1 1021:1 1023:1 1027:1 1112:1 1134:1 1141:2 1150:1 1151:1 1217:1 1237:4 1254:1 1260:1 1274:1 1316:1 1360:1 1427:1 1536:2 1591:1 1595:1 1647:2 1705:1 1709:1 1715:1 1719:1 1821:1 1935:1 1984:1 1996:1 2011:1 2026:2 2069:1 2382:1 2390:1 2408:1 2582:1 2701:1 2764:1 2880:1 3014:1 3321:1 3490:1 3492:1 3493:1 3494:3 3495:4 3496:3 3497:5 3498:1 3499:2 3500:2 3501:1 3502:2 3503:1 3504:1 3505:1 3506:1 3507:1 3508:1 3509:1 3510:1 3511:1 3512:1 3513:1 3514:1 3515:1 3516:1 3517:1 3518:1 
1 1 1 1 1:2 3:1 8:1 14:1 31:1 37:2 38:1 39:1 44:2 55:1 66:1 82:1 102:1 114:1 125:1 129:1 258:1 263:1 301:2 340:1 363:1 375:1 394:1 445:1 496:1 567:1 578:1 702:2 876:1 897:1 929:1 959:1 1274:1 1426:1 2449:1 2828:1 3127:1 3344:1 3519:1 3520:1 3521:1 3522:1 3523:1 3524:1 3525:1 3526:1 3527:1 3528:1 3529:1 
1 1 1 1 1:1 8:2 12:1 21:2 32:3 35:1 36:1 37:1 45:1 55:1 58:1 60:1 66:1 70:1 83:1 136:1 144:1 184:1 208:1 220:1 226:1 272:1 294:1 297:1 363:1 561:1 562:1 633:1 646:1 718:1 738:1 953:1 973:1 1034:1 1126:1 1127:1 1199:1 1201:1 1278:1 1316:1 1359:1 1675:1 1885:1 2201:1 3548:1 3549:1 3550:1 3551:1 3552:1 3553:1 3554:1 3555:1 3556:1 
1 1 1 1 1:1 8:3 14:1 21:3 32:3 37:1 40:1 41:4 44:3 58:1 60:1 66:2 70:2 87:1 96:1 121:1 125:1 127:1 155:2 201:2 271:2 272:1 311:1 354:1 359:1 416:1 447:1 469:2 490:1 509:3 567:1 629:1 641:1 678:1 700:1 723:1 730:1 768:1 791:1 1002:1 1015:1 1018:1 1022:2 1023:1 1027:1 1170:3 1228:1 1294:1 1451:1 1618:1 1806:1 1869:1 1996:1 2044:2 2420:1 2789:1 3850:1 3885:1 3886:1 3887:1 3888:1 
1 1 1 1 1:10 3:7 8:5 14:2 15:1 16:1 18:1 21:2 31:3 32:6 33:1 34:1 35:2 37:9 39:2 41:1 43:1 44:2 45:1 56:2 60:1 63:1 66:3 72:1 74:4 76:1 79:2 102:1 111:1 120:1 125:1 129:1 134:2 149:1 154:1 155:1 164:1 165:1 171:1 189:3 219:1 226:2 238:2 244:1 272:1 279:1 288:1 300:1 330:1 347:2 362:1 363:1 381:1 404:1 418:2 422:1 439:3 445:1 450:1 458:1 480:1 490:1 493:1 498:1 509:1 514:1 519:1 539:1 565:1 578:1 626:1 651:1 653:1 696:1 750:1 765:1 789:1 873:1 875:1 909:1 933:1 935:1 1057:1 1088:1 1119:1 1134:1 1196:1 1207:1 1275:1 1302:1 1316:1 1323:1 1681:1 1687:1 1843:1 1942:1 1945:1 2112:1 2456:1 2460:1 2655:1 2839:1 3087:1 3134:1 3239:1 3288:1 3410:1 3448:1 3847:1 3980:1 4123:1 4124:1 4125:1 4126:1 4127:1 4128:1 4129:1 4130:1 4131:1 4132:1 4133:1 4134:1 4135:1 4136:1 4137:1 4138:1 4139:1 4140:1 4141:1 4142:1 4143:1 4144:1 4145:1 4146:1 4147:1 4148:1 4149:1 4150:1 4151:1 
1 1 1 1 1:2 3:4 8:1 18:1 21:1 31:1 32:1 34:2 37:3 41:1 55:3 66:3 96:2 100:1 104:1 114:1 122:1 125:1 136:1 144:1 149:2 150:1 167:1 171:1 191:1 201:6 202:1 211:1 219:1 232:1 260:1 316:1 321:1 322:1 328:1 355:1 359:1 362:2 385:1 391:1 451:1 463:1 474:1 476:3 480:1 490:1 521:1 560:1 600:1 649:1 701:1 745:1 831:1 835:1 851:1 897:1 1003:1 1006:2 1015:1 1027:1 1034:1 1150:2 1153:1 1162:1 1179:1 1316:1 1630:1 1633:1 1634:1 1668:1 1682:1 2047:1 2675:1 3183:2 3193:1 3272:1 3410:1 3652:1 4309:2 4310:3 4311:1 4312:1 4313:1 4314:1 4315:1 4316:1 4317:1 4318:1 4319:1 
1 1 1 1 1:2 3:1 8:4 14:2 21:2 31:1 32:2 34:2 36:1 37:6 55:1 60:1 63:1 66:3 71:2 74:2 79:4 83:1 87:1 96:1 100:1 102:1 120:1 162:1 169:1 170:2 171:1 187:1 189:2 238:1 244:1 288:1 298:1 309:1 322:1 339:1 348:1 382:1 408:1 426:1 451:1 462:1 463:1 539:1 561:1 578:1 657:1 662:1 684:2 749:1 768:2 770:1 784:1 817:3 873:1 954:1 1134:2 1207:1 1291:1 1301:1 1302:1 1334:1 1338:1 1400:1 1504:1 1655:1 1681:1 2036:1 2102:1 2291:1 2362:1 2430:1 2450:1 2550:1 2763:1 2845:1 3014:1 3602:1 3795:1 4055:1 4348:1 4349:1 4350:2 4351:1 4352:1 4353:1 4354:1 4355:1 4356:1 4357:1 4358:1 4359:1 4360:1 4361:1 4362:1 
1 1 1 1 0:2 1:3 3:2 8:2 12:2 17:1 21:5 31:2 32:3 33:1 34:1 35:1 36:2 37:14 39:1 41:1 44:6 55:2 56:3 58:1 60:1 63:1 66:6 70:3 74:1 79:1 82:1 87:3 102:1 104:1 119:1 120:1 122:2 125:2 149:1 154:1 155:1 156:1 164:1 168:1 171:2 226:2 244:1 260:1 263:3 279:1 309:2 311:2 317:1 322:1 347:1 359:1 391:2 404:1 408:1 439:1 459:1 463:1 469:2 480:1 490:1 493:1 521:1 543:1 549:1 596:1 599:1 600:1 603:1 610:1 631:1 641:1 651:1 669:1 673:1 678:2 688:1 692:1 696:1 700:1 712:1 716:1 718:1 725:1 728:1 779:1 869:1 897:1 1034:2 1068:1 1134:2 1177:1 1199:3 1273:1 1274:1 1278:1 1316:1 1363:2 1422:2 1520:1 1771:1 1889:1 1923:1 1946:1 1994:1 2012:1 2052:1 2247:1 2368:4 2379:3 2535:1 3247:1 3903:1 4363:1 4364:3 4365:1 4366:1 4367:1 4368:1 
1 1 1 1 1:1 3:2 4:1 8:7 12:1 13:2 14:1 31:1 32:2 34:2 37:8 38:1 39:1 44:2 55:2 56:1 60:1 66:3 79:2 125:2 127:1 149:2 162:1 185:1 201:1 207:1 263:1 294:1 328:1 351:1 359:2 363:2 410:1 480:2 481:1 509:1 534:1 595:1 598:1 604:1 623:1 702:1 718:1 778:1 810:1 876:1 936:1 1040:1 1170:1 1227:1 1260:2 1273:2 1275:1 1454:1 1581:1 1701:1 1943:1 2070:1 2161:1 2380:1 2417:1 2475:1 2535:1 2598:1 3352:2 3474:1 3508:1 3519:1 4382:1 4383:1 4384:1 4385:1 4386:1 4387:1 4388:1 4389:1 
1 1 1 1 1:4 3:2 5:1 8:2 14:2 21:2 31:2 32:3 37:4 39:2 41:2 44:4 47:1 48:1 53:2 55:3 56:1 63:1 66:2 70:1 87:1 105:1 120:3 122:1 125:3 129:1 139:1 144:1 149:2 150:3 171:1 192:1 201:3 211:1 226:1 347:2 354:1 363:1 385:1 386:1 404:1 408:1 416:2 433:1 458:1 474:1 490:2 512:1 513:1 521:1 526:1 539:1 557:1 566:1 568:1 598:1 600:1 609:1 641:1 712:1 761:1 842:1 882:1 935:1 1018:1 1162:1 1196:1 1246:1 1314:1 1316:1 1334:1 1454:1 1504:1 1672:1 1686:1 1700:1 1704:1 1709:1 1784:1 1788:1 1995:1 2080:1 2192:1 2452:1 2636:1 3006:1 3552:1 3873:1 4469:1 4470:1 4471:1 4472:1 4473:1 4474:1 4475:1 
1 1 1 1 0:1 1:3 3:1 8:6 13:1 14:2 15:1 21:4 31:3 32:14 34:1 35:2 36:4 37:8 44:6 54:2 55:4 64:2 66:4 67:2 71:1 74:2 87:4 92:1 96:2 100:4 102:1 120:1 125:10 126:1 127:3 129:1 136:3 139:1 141:1 149:2 151:1 154:1 184:1 185:1 211:1 263:2 267:2 272:2 279:1 288:1 294:1 297:1 302:1 311:1 319:1 322:1 345:1 359:3 368:1 391:1 403:1 404:1 433:1 435:1 450:1 458:1 480:1 509:1 512:2 515:3 521:1 550:1 560:2 609:3 611:2 641:1 642:1 691:1 697:1 701:1 712:1 718:2 740:1 761:1 768:1 779:1 798:1 804:1 890:1 900:1 953:1 962:3 972:1 995:2 1092:1 1170:1 1229:1 1260:1 1301:1 1316:2 1334:1 1374:1 1504:1 1520:1 1538:1 1563:1 1581:1 1624:1 1645:1 1698:1 1701:1 1709:1 1721:1 2080:1 2112:1 2318:1 2363:1 2452:3 2467:2 2519:1 2521:2 2705:1 2771:1 3336:1 3421:1 3454:1 3468:1 3552:1 3597:1 4014:1 4384:1 4466:1 4471:1 4473:1 4550:1 4551:2 4552:2 4553:1 4554:1 4555:1 4556:1 4557:1 4558:1 4559:1 4560:1 4561:1 4562:1 4563:1 4564:1 4565:1 4566:1 4567:1 4568:1 4569:1 4570:1 4571:1 4572:1 4573:1 
1 1 1 1 6:1 8:1 37:1 55:1 70:1 125:1 155:1 201:1 458:1 534:2 601:1 672:1 728:1 2195:1 2368:1 2381:1 4588:1 
1 1 1 1 1:2 3:4 8:3 21:1 31:2 32:2 34:2 36:1 37:5 41:1 44:7 45:1 55:3 56:2 60:1 66:1 102:1 125:3 129:1 150:1 201:1 208:1 268:1 288:1 311:2 316:1 347:1 349:1 363:2 385:1 404:1 408:2 481:1 490:1 521:1 528:1 554:1 564:3 578:1 600:1 649:1 674:2 935:1 968:1 1006:1 1018:1 1032:1 1275:1 1290:1 1427:1 1684:1 1770:1 1869:1 1889:1 1994:1 2530:1 2637:1 3355:1 3357:1 3533:1 3534:2 3886:1 4666:1 4667:2 4668:1 4669:1 4670:1 
1 1 1 1 0:1 1:3 2:1 21:1 31:3 32:3 33:1 34:1 35:1 37:1 41:1 53:1 55:3 60:1 66:1 98:2 102:1 125:1 136:2 167:1 170:1 191:1 211:1 260:1 271:1 294:1 345:1 347:1 354:1 391:1 458:1 476:1 478:1 742:2 806:1 911:1 1032:1 1134:1 1334:1 1512:2 1575:1 1618:1 1864:1 2179:1 2366:1 2668:1 2689:2 3265:1 4084:1 4365:1 4694:1 4695:1 4696:1 
1 1 1 1 1:2 3:1 32:2 35:1 36:1 37:1 55:2 121:1 127:1 129:1 150:1 156:1 168:1 211:1 263:1 284:1 328:1 363:1 564:1 568:1 743:1 884:1 1316:1 1334:1 1423:1 1687:1 1862:1 2504:1 3643:1 4701:1 4702:1 
1 1 1 1 1:3 8:1 14:1 31:2 32:2 34:2 35:1 37:2 44:1 66:2 70:1 74:1 100:1 105:1 111:1 112:1 125:2 133:1 136:1 156:1 237:1 313:1 340:1 354:1 358:1 385:1 453:1 474:1 580:1 677:1 691:1 808:1 1032:1 1070:1 1186:1 1274:1 1719:1 1750:1 1791:1 2676:1 4521:1 4715:1 4716:1 4717:1 4718:1 4719:1 4720:1 4721:1 4722:1 4723:1 4724:1 
1 1 1 1 1:3 3:3 8:3 14:1 21:4 32:7 34:1 37:7 40:1 41:1 42:1 44:1 53:1 55:2 66:1 74:3 87:2 100:2 102:1 105:2 120:2 121:1 122:2 129:1 133:1 134:1 136:1 154:1 156:1 171:1 201:1 237:1 267:2 271:1 328:2 347:1 354:1 359:1 382:1 391:1 402:1 404:1 453:1 463:1 468:1 479:1 480:1 594:1 609:1 647:1 674:1 698:1 750:1 768:1 783:1 789:1 806:1 831:1 905:1 962:1 973:1 974:1 1002:1 1022:1 1068:1 1124:1 1169:1 1179:1 1208:1 1263:1 1332:1 1365:1 1369:1 1535:1 1660:1 1712:1 1864:1 2053:1 2257:1 2430:1 2786:1 2858:1 3490:1 3851:1 3926:1 4000:1 4034:1 4424:1 4850:1 4851:1 4852:1 4853:1 
1 1 1 1 1:10 3:5 8:9 13:2 14:3 18:1 21:2 31:3 34:6 36:1 37:8 38:1 44:4 53:1 55:4 56:1 59:1 60:1 63:1 66:5 74:3 75:1 87:2 96:1 102:1 107:1 115:3 120:1 125:1 127:2 134:2 136:2 137:1 146:1 150:1 151:1 171:2 181:1 204:9 219:2 260:1 263:3 272:1 288:3 301:2 310:1 321:1 322:2 328:2 330:1 334:1 359:1 362:1 371:1 410:3 411:1 421:1 451:1 459:2 469:1 474:1 476:4 495:1 554:2 560:1 575:1 597:1 622:1 626:1 661:1 662:2 690:1 700:1 712:1 740:1 765:1 776:1 816:2 820:1 866:1 873:1 878:1 968:2 1094:1 1136:1 1152:1 1167:1 1293:1 1323:1 1327:1 1335:1 1353:1 1427:2 1505:1 1591:1 1624:1 1706:2 1709:1 1720:2 1771:1 1775:1 1917:1 1966:1 2001:1 2012:1 2080:2 2161:1 2209:1 2285:1 2430:1 2449:1 2468:1 2526:1 2537:1 2632:1 2663:1 2759:1 2767:1 2885:1 3390:1 3634:1 4016:1 4250:1 4423:1 4481:1 4805:1 4814:2 4955:1 4956:1 4957:1 4958:1 4959:1 4960:1 4961:1 4962:1 4963:1 4964:4 4965:1 4966:1 4967:1 4968:1 4969:1 4970:1 4971:1 4972:1 4973:1 4974:1 4975:1 4976:1 4977:1 4978:1 4979:1 4980:1 4981:1 4982:1 4983:1 4984:1 4985:1 4986:1 4987:1 4988:1 4989:1 4990:1 4991:1 4992:1 4993:1 4994:1 4995:1 4996:1 4997:1 4998:1 4999:2 5000:1 5001:1 5002:1 5003:1 5004:1 5005:1 
1 1 1 1 0:1 1:11 3:1 8:7 13:1 14:3 31:2 32:5 34:1 35:1 36:1 37:5 39:2 44:1 45:1 47:1 55:1 66:2 71:1 72:1 74:6 79:2 87:4 98:2 100:3 102:3 107:1 122:1 125:3 149:1 150:1 154:2 170:3 187:1 189:3 267:1 274:1 297:1 301:1 311:1 322:1 328:1 363:6 389:1 391:1 411:1 421:1 439:1 445:3 448:1 458:1 493:1 521:1 554:1 563:1 591:1 594:1 595:1 597:1 609:1 624:1 626:1 662:1 684:2 742:1 765:1 779:1 787:1 801:1 817:1 847:1 873:1 885:1 899:1 920:1 935:1 946:1 959:1 1031:1 1032:1 1070:1 1130:1 1134:1 1135:1 1138:1 1154:1 1196:1 1275:1 1377:1 1503:1 1505:2 1576:1 1585:1 1616:1 1683:1 1839:1 1937:1 2008:1 2446:1 2495:1 2582:1 2771:1 2914:1 3141:1 3409:2 3648:1 3903:1 4409:1 4475:1 5109:1 5110:1 5111:1 5112:1 5113:1 5114:1 5115:1 5116:1 5117:1 5118:1 5119:1 5120:1 5121:1 5122:1 
1 1 1 1 1:1 3:1 5:1 8:1 14:1 21:2 30:1 32:1 34:1 37:3 44:2 47:1 55:2 58:1 66:3 70:1 102:1 112:1 150:1 159:2 278:1 288:1 340:1 465:1 466:1 467:1 493:1 505:1 521:1 562:1 566:1 607:1 619:1 790:1 801:1 866:1 897:3 1027:1 1029:1 1217:1 1373:1 1563:1 1844:1 1846:1 1925:1 2183:1 2375:1 2392:1 2608:1 2663:1 3409:1 3462:1 3854:1 3989:1 4036:1 4277:1 4296:1 4431:1 4603:1 5165:1 5166:1 5167:1 5168:1 5169:1 5170:1 5171:1 5172:1 5173:1 5174:1 5175:1 5176:1 5177:1 5178:1 5179:1 5180:1 5181:1 5182:1 5183:1 5184:1 5185:1 5186:1 5187:1 5188:1 5189:1 5190:1 5191:1 5192:1 5193:1 5194:1 5195:1 5196:1 5197:1 5198:1 5199:1 5200:1 5201:1 5202:1 
1 1 1 1 0:1 1:3 3:3 8:3 13:1 14:2 21:2 31:3 35:3 36:2 37:1 39:1 41:2 44:3 47:1 55:3 58:1 60:1 66:3 70:1 87:2 102:1 111:1 112:1 127:1 129:2 134:1 136:3 138:1 150:1 189:1 201:2 204:1 260:1 267:1 284:1 301:1 311:1 322:2 330:2 339:1 340:1 349:1 359:1 363:1 385:1 439:1 447:1 474:1 543:1 550:1 555:1 578:1 604:1 647:1 701:1 702:2 758:1 774:1 816:1 910:1 1022:1 1199:1 1201:1 1242:1 1260:1 1331:1 1465:1 1524:1 1563:1 1585:1 1591:1 2169:1 2278:2 2379:1 2391:1 2408:1 2566:1 2663:2 2676:1 2771:1 3293:1 3774:1 4073:1 4444:1 4670:1 4923:1 5202:1 5253:1 5254:1 5255:1 5256:1 5257:1 5258:1 5259:1 5260:1 5261:1 5262:1 5263:1 5264:1 
1 1 1 1 1:8 3:7 8:7 13:1 14:2 21:2 31:2 32:11 33:1 34:3 37:5 39:2 44:1 45:2 55:2 56:2 59:1 60:1 66:5 71:3 72:1 74:5 79:1 82:1 87:5 92:1 100:2 102:1 119:1 123:1 124:1 125:2 129:1 146:1 149:1 159:2 160:2 165:1 166:1 175:1 178:1 180:1 185:1 263:1 267:3 287:1 301:2 311:1 324:1 333:1 339:1 345:1 348:1 349:1 381:1 431:1 445:1 453:2 497:1 521:2 532:1 554:1 595:1 625:1 626:1 649:1 678:1 680:1 743:1 750:1 768:1 789:1 809:1 829:1 878:1 883:1 935:1 946:1 984:1 1021:1 1071:1 1097:1 1142:1 1143:1 1181:1 1182:1 1216:1 1228:1 1260:2 1275:1 1302:1 1336:1 1380:1 1427:1 1454:1 1528:1 1554:1 1600:1 1614:1 1647:1 1654:1 1770:1 1917:1 2187:1 2235:2 2461:1 2530:1 2599:1 2676:1 2700:1 2729:2 3010:1 3084:1 3132:1 3505:1 3735:2 3736:2 3786:1 4012:1 4083:1 4167:1 4565:1 4939:1 5204:1 5229:1 5265:1 5266:1 5267:1 5268:1 5269:1 5270:1 5271:1 5272:1 5273:3 5274:1 5275:1 5276:1 5277:1 5278:1 5279:1 5280:1 5281:1 5282:1 5283:1 5284:1 5285:1 5286:1 5287:1 5288:1 
1 1 1 1 1:4 3:1 8:1 14:1 21:3 32:3 34:1 39:1 55:1 56:1 66:2 71:1 74:2 96:1 100:1 122:1 125:2 126:1 127:1 141:2 144:1 150:2 171:2 181:1 189:1 219:1 226:1 260:1 274:1 288:1 297:1 334:1 354:1 358:1 368:1 385:1 391:1 487:1 512:1 550:1 641:3 684:1 701:1 745:1 750:1 833:1 834:1 973:1 993:1 1136:1 1244:1 1274:1 1304:1 1458:1 1475:1 1581:1 1621:1 1629:1 1677:1 1771:1 1869:1 2102:1 2112:1 2528:1 2943:1 3097:1 3261:1 4277:1 4296:1 4781:1 4950:1 5074:1 5292:1 5293:1 5294:1 5295:1 5296:1 5297:1 5298:1 5299:1 5300:1 5301:1 5302:1 5303:1 
1 1 1 1 1:1 8:6 32:1 37:2 45:2 71:2 72:1 73:1 74:2 79:1 105:2 150:1 171:1 269:1 368:1 578:1 597:1 598:1 600:1 697:1 727:1 779:1 801:1 961:1 1158:1 1547:1 1935:1 2003:1 2318:1 2411:1 3763:1 4472:1 5307:1 5308:1 
1 1 1 1 1:2 3:2 8:3 11:2 14:1 17:2 18:1 21:2 31:1 32:3 34:2 36:2 37:4 39:2 41:2 44:3 55:2 56:1 65:1 66:4 74:5 87:1 100:2 102:1 104:1 105:2 125:1 129:2 133:1 149:1 150:1 154:2 156:1 238:1 258:2 288:2 313:2 358:1 362:1 385:1 408:1 474:1 505:1 539:1 550:1 557:1 568:1 583:1 600:1 647:1 768:1 789:2 796:1 897:1 924:1 1071:1 1179:1 1238:1 1316:1 1466:1 1612:1 1876:1 1901:1 1942:1 1963:1 1981:1 2006:1 2147:2 2393:1 2906:1 3247:1 3262:1 4263:1 4291:1 5347:3 5348:1 5349:1 5350:1 5351:1 5352:1 
1 1 1 1 1:4 3:1 8:3 14:3 21:1 32:7 34:1 37:9 39:2 41:2 44:2 55:3 56:1 60:3 66:2 70:2 74:1 79:2 87:3 96:1 100:2 121:1 125:2 134:2 140:1 141:1 144:1 154:2 155:1 201:2 238:2 244:1 263:2 267:2 272:1 283:1 321:1 339:2 347:1 363:1 378:1 427:1 435:1 453:1 458:1 474:1 480:1 490:2 505:1 532:1 539:1 554:1 557:1 572:1 583:1 602:1 611:1 623:2 626:1 666:1 702:1 738:1 831:1 936:1 946:1 951:1 973:1 994:1 1094:1 1126:2 1149:1 1172:1 1208:1 1217:1 1237:1 1254:1 1286:2 1321:1 1427:1 1448:1 1505:1 1535:1 1552:1 1578:1 1710:1 1839:1 1860:1 1945:1 2040:1 2053:1 2163:2 2267:1 2375:1 2978:1 3223:1 3244:1 3403:1 3410:1 3448:1 3507:1 3850:1 4593:1 5285:1 5401:1 5402:1 5403:1 5404:1 5405:1 5406:1 5407:1 5408:1 5409:1 
1 1 1 1 0:1 1:14 3:13 5:1 8:10 14:4 15:1 17:1 21:8 31:1 32:7 34:3 35:2 37:31 39:3 41:5 44:6 47:2 54:2 55:1 57:1 58:1 59:2 60:5 63:1 66:8 71:1 74:1 79:2 82:2 83:1 87:1 95:1 96:1 98:2 105:2 119:1 120:1 122:2 125:1 127:1 129:3 131:1 133:1 134:1 136:1 146:2 149:1 150:1 159:3 168:1 175:1 180:1 185:1 201:7 208:1 218:1 219:2 225:1 228:1 238:1 258:1 260:2 263:2 265:1 272:1 288:1 301:1 305:1 307:1 311:2 322:1 325:1 328:2 336:1 343:1 345:1 359:3 363:3 365:1 366:1 381:1 391:3 403:1 408:1 462:1 469:1 485:1 490:1 494:1 497:1 509:1 521:1 541:1 548:1 550:1 554:1 560:2 578:1 641:3 646:2 653:1 701:1 703:1 718:1 740:1 793:1 804:1 816:4 822:1 833:1 866:1 878:1 897:1 908:1 964:1 1006:1 1022:1 1037:1 1066:1 1067:1 1072:1 1099:1 1110:1 1124:1 1126:1 1167:1 1170:2 1177:1 1185:1 1243:1 1283:1 1331:1 1335:1 1348:1 1427:1 1433:1 1465:1 1503:1 1585:1 1607:1 1625:1 1641:1 1656:1 1671:2 1678:1 1686:1 1701:1 1713:1 1720:2 1795:1 1950:2 2003:1 2048:1 2115:2 2139:1 2391:2 2411:1 2449:1 2459:1 2483:1 2535:1 2550:2 2665:1 2676:1 2912:1 2940:1 2991:1 3355:2 3396:1 3664:1 3666:1 3668:1 3689:1 3764:1 3847:1 4082:1 4123:1 4171:1 5410:1 5411:1 5412:5 5413:1 5414:1 5415:1 5416:1 5417:1 5418:1 5419:1 5420:1 5421:1 5422:2 5423:1 5424:1 5425:1 5426:1 5427:3 5428:1 5429:1 5430:1 5431:1 5432:1 5433:1 5434:1 5435:1 5436:1 5437:1 5438:1 5439:1 5440:1 5441:1 5442:1 5443:1 5444:1 5445:1 5446:2 5447:1 5448:1 5449:1 5450:1 5451:1 5452:1 5453:1 5454:1 5455:1 5456:1 5457:1 5458:1 5459:1 5460:2 5461:1 5462:1 5463:1 5464:1 
1 1 1 1 3:1 8:2 14:2 21:3 32:2 34:2 37:3 39:1 45:1 55:1 66:1 70:1 71:1 72:1 74:4 87:2 149:1 168:1 171:1 288:1 339:2 477:1 487:1 521:1 554:1 568:2 584:1 641:1 647:2 685:1 696:1 768:1 776:1 796:1 798:1 864:1 873:1 986:2 1032:1 1054:1 1139:1 1206:1 1212:1 1213:1 1217:1 1274:1 1329:1 1655:1 1682:1 1733:1 1862:2 1875:1 2014:1 2056:1 2343:1 2379:1 2550:1 4753:1 4949:1 5431:1 5433:1 5617:1 5618:1 5619:1 
1 1 1 1 1:1 3:2 6:1 7:1 8:5 14:3 17:1 18:1 21:1 31:1 32:1 37:7 38:1 55:1 74:2 79:1 100:1 102:1 125:1 129:1 146:1 150:2 159:1 170:1 208:1 263:1 265:2 284:1 319:1 427:1 458:2 463:1 537:1 599:1 604:1 649:1 684:1 797:1 817:1 908:1 955:1 959:1 1017:1 1134:1 1237:1 1427:1 1503:1 1621:1 1628:1 1687:1 1864:1 1945:2 1950:1 2451:1 2456:2 2568:1 2858:1 3302:1 3544:1 3757:1 3850:1 4318:1 4848:1 5003:1 5687:1 5688:1 5689:1 5690:1 5691:1 5692:1 5693:1 
1 1 1 1 1:5 3:1 8:4 14:2 21:3 32:4 37:1 55:1 58:1 60:1 64:1 66:1 74:2 79:1 87:1 98:2 100:1 102:1 125:1 159:1 160:1 258:1 291:1 311:1 316:1 335:1 342:1 363:1 390:1 391:2 447:1 560:1 596:1 602:1 728:1 909:1 1090:1 1136:1 1393:1 1454:1 1654:1 1655:1 1713:1 1832:2 2102:1 2664:1 2665:1 2895:1 3169:1 5441:1 5776:1 5777:1 
1 1 1 1 1:4 3:2 8:3 14:2 37:5 39:1 41:1 44:1 55:1 66:1 82:1 129:1 171:1 201:2 219:3 220:1 225:1 328:1 347:1 354:1 359:1 411:1 526:1 743:1 769:1 920:1 938:1 983:1 1015:1 1131:1 1134:1 1201:1 1427:1 1481:1 1656:3 1664:1 1763:1 1785:1 1908:1 2102:1 2635:1 2853:1 3639:1 4520:1 4790:1 5412:2 5439:1 5800:1 5801:1 5802:1 5803:1 5804:1 5805:1 5806:1 5807:1 5808:1 5809:1 5810:1 5811:1 
1 1 1 1 1:7 3:2 8:6 14:1 21:4 31:3 32:2 35:1 37:9 41:1 44:5 54:1 55:1 56:1 60:1 63:1 66:6 70:1 82:1 87:1 98:1 107:1 111:1 122:2 125:1 127:1 128:1 139:1 149:2 155:1 157:1 159:1 160:1 164:1 201:2 226:1 271:2 272:1 288:1 301:1 313:1 316:1 320:4 322:1 334:1 342:1 344:1 359:1 363:1 421:1 439:1 451:1 478:1 481:1 490:2 497:1 513:1 534:1 539:1 543:1 549:1 553:1 575:1 629:1 671:1 698:1 703:2 733:1 758:2 761:1 765:2 782:1 792:1 816:1 825:2 873:1 897:1 992:1 1006:1 1015:1 1021:1 1152:1 1293:1 1316:1 1427:1 1505:1 1517:1 1647:1 1661:1 1688:1 1699:1 1788:1 1923:1 1966:1 2096:1 2217:1 2223:1 2284:1 2535:1 2606:1 2640:1 2757:1 2856:1 2908:1 3122:1 3182:1 3484:1 3731:1 3893:1 4033:1 4034:1 4077:1 4155:2 4302:1 4762:2 4871:1 5085:1 5880:3 5881:2 5882:1 5883:1 5884:1 5885:1 5886:1 5887:1 5888:1 5889:1 5890:1 5891:1 5892:1 5893:1 5894:1 5895:1 5896:1 5897:1 5898:1 
1 1 1 1 0:1 1:1 3:2 8:2 21:1 32:1 33:1 35:1 36:1 37:3 38:1 39:1 41:1 44:1 56:1 66:1 67:1 70:1 87:1 105:1 129:1 155:1 201:1 263:1 267:1 311:1 322:1 347:1 349:1 362:1 386:1 462:1 463:1 481:1 560:1 578:1 653:1 697:1 718:1 750:1 789:1 1278:1 1772:1 1922:1 2318:1 2535:1 3389:1 3647:1 3670:1 4108:1 5449:1 
1 1 1 1 0:1 1:6 3:4 6:1 7:1 8:6 13:1 14:2 21:1 31:2 32:10 34:3 35:1 36:2 37:9 39:3 42:1 44:2 45:5 54:1 55:3 56:1 59:1 60:3 64:1 66:4 67:1 71:3 72:1 74:4 79:1 87:5 93:1 96:1 100:3 105:1 108:2 122:1 125:4 127:2 129:2 133:1 135:1 141:2 142:3 143:2 146:3 149:1 150:1 151:1 153:1 154:2 155:1 159:1 171:3 260:2 263:1 288:3 297:3 300:1 301:1 312:1 313:1 322:1 337:1 339:2 363:3 389:1 408:1 411:1 439:1 445:1 463:1 468:1 509:1 515:2 521:1 539:2 550:1 553:1 554:4 562:1 565:1 578:1 590:1 595:1 619:1 647:1 651:1 671:1 675:1 684:1 718:1 727:2 740:1 761:1 776:1 782:1 786:1 816:1 817:1 821:1 884:2 929:1 935:1 973:1 1022:1 1038:1 1040:1 1141:1 1152:1 1228:1 1241:1 1260:1 1301:1 1312:2 1314:1 1325:1 1332:2 1336:1 1400:1 1416:1 1427:1 1505:2 1596:1 1654:1 1658:1 1678:1 1682:1 1706:1 1750:1 1763:1 1792:1 1826:1 1896:1 1946:1 1951:1 2112:1 2296:1 2460:1 2475:1 2763:1 2771:1 3084:1 3125:1 3265:1 3337:1 3341:1 3507:2 3508:1 3643:1 3778:1 3914:1 4009:2 4083:1 4116:1 4436:1 4481:1 4667:2 4680:1 4790:1 4795:1 4871:1 5844:1 5918:1 5919:1 5920:1 5921:1 5922:1 5923:1 5924:1 5925:1 5926:1 5927:1 5928:1 5929:1 5930:1 5931:1 5932:1 5933:1 5934:1 5935:1 5936:1 5937:1 5938:1 5939:1 5940:1 5941:1 5942:1 5943:1 5944:1 5945:1 5946:2 5947:1 5948:1 
1 1 1 1 1:1 3:2 8:1 14:1 31:1 32:1 34:1 37:4 39:1 42:1 55:1 74:1 76:1 98:1 134:1 146:1 154:1 159:1 171:1 211:1 263:1 297:1 358:1 385:1 468:1 509:1 529:1 572:1 692:1 727:2 728:1 786:1 811:1 1195:1 1563:1 2514:1 3104:1 3134:1 3212:1 3245:1 3328:1 3754:1 4472:1 4976:1 5735:1 5953:1 5954:1 5955:1 5956:1 5957:1 5958:2 5959:1 5960:1 5961:1 5962:1 5963:1 5964:1 5965:1 
1 1 1 1 0:1 1:1 8:3 14:1 21:1 32:3 34:2 35:1 36:1 37:1 60:1 66:1 100:3 125:1 207:1 244:1 267:1 288:1 308:1 328:1 336:1 354:1 391:1 451:1 458:1 514:1 604:1 623:1 674:1 768:1 781:1 962:1 1185:1 1681:1 1708:1 2360:1 2423:2 2456:1 3491:1 3973:1 5002:1 5976:1 5977:1 5978:1 5979:1 5980:1 5981:1 
1 1 1 1 3:1 8:1 21:1 37:2 66:1 128:1 129:1 226:1 408:1 418:1 480:1 575:1 701:1 1036:1 1276:1 4663:1 
1 1 1 1 1:3 2:1 3:4 8:5 13:1 14:1 17:1 21:2 32:2 34:2 37:13 38:2 41:2 55:3 59:1 60:1 66:2 68:1 70:1 79:1 83:1 87:1 93:1 98:1 105:3 122:1 125:2 136:2 144:1 146:1 147:1 155:2 166:1 171:2 191:1 193:1 201:5 238:2 260:2 263:2 288:1 294:2 311:2 320:2 329:1 349:1 358:1 363:4 368:1 375:1 385:1 411:1 439:1 469:3 490:2 496:1 521:2 523:1 532:1 538:1 568:1 570:1 583:2 597:1 600:1 624:1 625:1 629:1 666:1 717:1 725:3 871:1 873:1 897:2 905:1 909:1 961:1 976:1 1006:1 1039:1 1040:1 1055:1 1063:1 1175:1 1260:1 1265:1 1430:1 1433:1 1552:1 1560:1 1640:1 1642:1 1656:1 1701:1 1709:1 1818:1 1951:1 2102:1 2373:1 2399:1 2444:1 2471:1 2641:2 2757:1 3493:2 3643:1 3678:1 3754:1 4200:1 4540:1 4667:1 4713:1 5022:1 5340:1 5857:1 5925:1 6094:1 6095:1 6096:1 6097:1 6098:1 6099:1 6100:1 6101:1 6102:1 6103:1 6104:1 6105:1 6106:1 6107:1 6108:1 6109:1 
1 1 1 1 1:4 3:2 8:7 14:1 21:3 31:2 32:2 34:1 35:1 36:2 37:4 39:4 41:1 44:6 45:2 56:1 58:1 59:1 60:5 63:1 66:4 70:1 74:1 87:1 93:1 96:1 98:3 105:3 133:1 149:2 150:1 151:1 159:1 201:3 219:2 263:2 271:1 279:1 283:1 288:1 300:1 301:1 309:1 315:1 322:1 340:1 349:1 363:2 378:1 385:2 389:1 391:1 479:1 490:1 497:1 508:1 509:1 521:1 539:1 567:1 574:1 600:1 601:1 623:1 688:1 712:1 768:1 781:1 897:1 962:1 985:1 1015:1 1027:1 1147:1 1157:1 1183:1 1254:1 1274:1 1465:1 1498:1 1501:1 1592:1 1684:1 1720:1 1782:1 1843:1 2096:1 2097:1 2169:1 2179:1 2379:3 2418:1 2450:1 2553:1 2934:1 3355:1 3409:1 3619:1 3663:1 4239:1 4875:1 5352:1 5857:1 6122:1 6123:1 6124:1 6125:1 6126:1 6127:1 6128:1 6129:1 6130:1 6131:1 6132:1 6133:1 
1 1 1 1 1:5 8:1 13:1 14:1 21:1 31:2 32:6 34:3 35:1 37:9 39:1 44:2 53:2 55:3 58:1 66:1 67:1 72:1 74:6 79:2 87:1 92:1 93:1 98:1 100:1 102:1 112:1 120:1 125:4 129:1 133:1 136:1 139:1 150:1 160:3 164:1 168:1 191:1 201:1 237:1 267:2 288:1 313:1 342:2 359:1 363:1 385:1 386:1 391:3 416:1 445:1 451:1 480:1 481:1 509:1 539:1 572:1 575:1 578:1 594:1 647:1 651:1 665:1 667:1 684:1 697:1 728:1 730:1 738:1 768:1 798:1 863:1 1017:1 1032:1 1138:1 1142:1 1162:1 1206:1 1212:1 1213:1 1334:1 1412:1 1585:1 1661:1 1675:1 1686:1 1687:1 1792:1 1946:1 2179:1 2257:1 2284:1 2423:1 2474:1 2475:1 2568:1 2593:1 2675:1 2786:1 3134:2 3245:1 3816:1 3839:1 3844:1 3979:1 4475:1 5729:1 6193:1 6194:1 6195:1 6196:2 6197:1 6198:1 6199:1 
1 1 1 0 1:1 13:1 14:2 32:1 36:1 37:1 44:1 55:1 98:1 119:1 122:1 144:1 404:1 480:1 935:1 1170:1 2056:1 3228:1 5888:1 6259:1 6260:1 6261:1 6262:1 6263:1 
1 1 1 1 1:5 3:2 8:4 13:2 21:3 31:2 32:5 34:1 37:8 39:4 41:1 44:1 45:1 55:4 60:1 63:1 66:2 71:2 74:3 100:1 102:1 104:1 125:1 126:1 127:2 131:1 149:1 162:1 166:1 171:1 181:1 189:2 193:1 201:1 226:2 228:1 267:1 271:1 288:1 309:1 332:1 348:1 359:1 363:3 378:1 389:1 403:1 404:2 439:1 445:2 453:1 467:1 469:1 479:1 490:1 493:1 496:1 521:1 562:1 567:1 568:1 578:1 591:1 594:1 598:1 611:1 614:1 666:1 680:1 696:1 698:1 702:1 733:1 768:1 781:1 826:1 831:2 929:2 953:1 962:2 1022:1 1087:1 1103:1 1185:1 1260:1 1275:2 1451:1 1458:1 1614:1 1792:1 1878:1 1951:1 2092:1 2257:1 2267:1 2395:1 2639:1 2708:1 2935:1 2938:1 3485:1 3591:1 4741:1 5476:1 5544:1 5665:1 6414:1 6415:1 6416:1 6417:1 6418:1 6419:1 6420:1 
1 1 1 1 21:1 100:1 294:1 1335:1 1919:1 2003:1 3625:1 6366:1 6421:1 
1 1 1 1 0:1 1:1 3:1 8:3 14:2 16:1 17:1 18:1 21:1 31:1 32:2 33:1 35:2 37:5 39:3 41:2 44:6 63:2 66:2 70:1 98:1 100:1 120:1 121:1 127:1 133:1 168:1 458:1 469:1 480:1 521:1 623:1 631:1 647:1 696:1 842:1 1057:1 1170:1 1196:1 1236:1 1239:1 1240:1 1451:1 1525:1 1611:1 1750:1 2128:1 2163:1 2525:1 3244:1 3251:2 3252:2 5801:1 6422:1 6423:1 6424:2 
1 1 1 1 1:1 8:2 32:1 35:1 36:1 39:2 44:3 59:1 66:1 70:1 98:2 129:1 146:1 168:1 269:1 363:1 393:1 560:1 595:1 600:1 908:1 1170:2 2853:1 3004:1 4790:1 4992:1 5283:1 5475:1 6520:1 
1 1 1 1 1:1 3:1 8:7 13:1 14:3 16:1 18:1 21:3 32:4 35:1 36:2 37:8 39:2 41:2 44:3 64:1 66:1 74:1 93:2 102:1 120:1 125:1 134:1 144:1 154:1 165:1 168:1 191:1 211:1 232:2 263:1 269:1 288:1 294:1 330:2 335:1 355:1 386:1 411:1 433:1 493:1 551:1 553:1 559:1 565:1 647:1 680:1 692:1 783:1 807:1 908:1 960:1 1121:1 1134:1 1147:1 1274:1 1276:1 1316:1 1334:1 1546:1 1819:1 1924:1 1950:1 2003:1 2014:1 2107:1 2112:1 2373:1 3329:1 3550:1 3595:1 3692:1 4619:1 4667:1 4992:1 6562:2 6563:1 6564:1 6565:1 6566:1 6567:1 6568:1 6569:1 6570:1 6571:1 6572:1 6573:1 6574:1 6575:1 6576:1 
1 1 1 1 1:9 8:2 31:4 32:2 36:2 37:3 39:1 40:1 41:1 44:1 52:1 55:4 60:2 66:4 98:1 102:1 125:1 129:1 136:1 139:1 150:1 154:1 159:2 187:1 191:1 192:1 201:1 294:1 315:1 320:2 347:2 363:1 393:1 418:1 451:1 453:1 474:1 550:1 554:1 596:1 597:1 599:1 611:1 614:1 623:1 624:1 625:1 626:1 702:1 737:2 766:1 768:1 779:1 824:1 866:1 876:1 877:1 897:2 1015:2 1329:1 1336:1 1372:1 1505:1 1616:1 1681:1 1688:2 1861:2 2060:1 2323:1 2457:1 2910:1 3041:1 3240:1 3350:1 3455:1 4075:1 4855:1 5665:1 6586:1 6587:1 6588:1 6589:1 6590:1 6591:1 6592:1 6593:1 6594:1 
1 1 1 1 34:1 102:1 151:1 197:1 201:1 671:1 1173:1 3324:1 5202:1 6630:1 6631:1 
1 1 1 1 1:8 3:12 8:9 13:1 14:1 15:1 16:1 17:1 21:5 31:2 32:2 34:2 37:14 38:1 39:2 41:4 43:1 44:3 53:1 55:1 56:2 59:1 63:1 66:3 70:1 71:1 74:2 87:1 96:2 105:1 107:1 108:7 111:1 125:2 127:1 129:1 141:1 142:2 149:2 151:1 159:2 164:1 171:2 191:1 201:3 207:1 244:1 260:2 263:1 264:1 269:1 286:1 288:1 300:1 308:1 311:1 313:1 322:1 334:1 335:1 340:1 362:1 363:4 385:1 391:1 406:1 427:1 436:1 439:1 445:1 467:6 474:1 475:1 480:1 505:1 509:1 519:1 521:1 532:1 534:4 539:1 560:1 575:1 626:1 647:2 671:1 692:2 714:1 718:1 731:1 733:1 750:1 763:1 765:1 776:1 816:1 866:1 873:1 924:1 929:1 962:1 964:1 984:1 1090:1 1121:1 1139:1 1165:1 1228:1 1242:1 1274:1 1316:1 1328:1 1334:1 1490:1 1506:1 1516:1 1757:1 1760:1 1791:1 1833:1 1864:1 1975:1 2010:1 2360:1 2440:1 2457:2 2462:1 2476:1 2493:1 2532:1 2586:2 2675:1 2770:1 2790:1 2807:1 2885:1 3087:1 3438:1 3551:1 3648:1 3753:1 3892:1 4024:1 4050:1 4384:1 4546:1 4793:1 4848:1 5002:1 5095:1 5309:1 5351:1 5447:1 5537:1 5542:1 5584:1 5587:1 6193:1 6325:2 6742:1 6743:3 6744:2 6745:1 6746:1 6747:1 6748:1 6749:1 6750:1 6751:1 6752:1 6753:1 6754:2 6755:1 6756:1 6757:1 6758:2 6759:2 6760:1 6761:1 6762:1 6763:1 6764:1 6765:1 6766:1 6767:1 6768:1 6769:1 6770:2 6771:1 6772:1 6773:1 
1 1 1 1 1:2 2:1 8:3 31:2 33:1 34:1 37:2 41:1 44:3 54:1 55:1 66:2 74:2 98:1 105:2 127:1 129:1 134:1 144:1 168:1 191:1 201:1 204:2 211:1 237:1 238:2 328:2 341:1 342:1 344:1 363:1 450:1 463:1 480:1 534:1 566:1 568:1 569:1 600:1 647:1 657:1 685:1 778:1 935:1 960:1 1427:1 1591:1 1687:1 1862:1 2526:1 3050:1 3534:1 4073:1 4163:1 4510:1 4884:1 6548:1 6751:1 6754:1 6782:1 6783:1 6784:1 6785:1 6786:1 6787:1 6788:1 
1 1 1 1 1:7 8:6 12:1 13:1 14:1 21:1 32:4 35:4 36:1 37:2 39:1 41:1 44:7 53:1 56:1 60:1 63:1 66:3 70:2 74:6 76:1 104:1 105:3 112:1 125:3 133:1 136:1 149:1 151:1 159:1 195:2 228:2 238:1 263:1 267:4 268:1 288:1 301:2 311:1 320:1 329:1 354:1 358:1 359:1 363:1 368:1 380:2 385:1 404:2 439:1 474:2 481:1 497:2 509:1 548:1 560:2 575:1 578:1 596:1 600:2 645:1 646:1 665:1 674:2 691:1 696:1 701:2 718:3 749:1 750:1 768:1 802:1 808:1 817:1 821:1 822:1 895:1 904:1 910:1 1003:1 1009:1 1020:1 1022:1 1023:2 1078:1 1167:1 1172:1 1260:1 1295:1 1316:1 1533:1 1535:1 1654:1 1701:1 1717:1 2000:1 2014:1 2919:1 3599:1 3632:1 3830:1 4034:1 4178:1 4670:1 4696:1 6095:1 6379:1 6898:1 6899:2 6900:1 6901:1 6902:2 6903:1 6904:1 6905:1 6906:1 6907:1 6908:1 
1 1 1 1 1:1 8:4 17:1 21:3 31:1 34:4 36:1 37:2 41:1 55:3 66:5 70:1 96:1 125:2 139:1 142:1 146:1 149:1 155:1 190:1 201:3 207:1 244:1 272:1 301:1 313:1 336:2 359:1 363:1 380:1 385:1 480:1 496:1 520:1 564:2 596:1 631:1 647:1 702:1 718:1 740:1 789:1 816:1 985:1 1022:1 1167:1 1169:1 1177:1 1195:1 1316:2 1335:1 1451:1 1512:3 1654:1 1686:1 1720:1 2008:1 2449:1 2458:1 3123:1 3337:1 6002:1 6133:1 6544:1 6925:1 6926:1 6927:1 6928:1 6929:1 6930:1 6931:1 6932:1 
1 1 1 1 0:2 1:9 3:2 8:10 12:3 13:2 14:3 15:1 21:3 31:4 32:6 34:4 35:2 36:1 37:10 38:1 39:2 41:2 44:8 54:1 55:2 58:1 66:4 87:1 95:1 102:1 108:5 124:1 125:5 133:1 134:1 149:2 150:4 151:1 154:1 155:1 156:1 159:1 162:1 179:1 189:1 191:1 192:1 199:1 201:5 233:1 236:1 244:1 263:1 269:2 282:1 288:2 305:1 309:1 311:1 313:1 318:1 320:2 322:2 328:2 330:1 339:1 341:2 347:2 354:1 359:2 363:2 366:1 380:5 385:4 391:4 405:1 450:1 467:10 469:1 477:1 479:1 480:2 493:1 494:1 509:1 521:2 528:1 533:3 539:2 540:2 560:1 565:1 600:2 602:1 609:1 626:1 651:2 664:1 671:1 678:1 681:1 701:1 704:1 705:1 718:2 719:1 730:1 738:1 740:3 800:3 835:1 935:2 955:1 959:2 992:1 1036:1 1068:1 1083:1 1099:2 1134:1 1177:1 1204:1 1274:1 1335:2 1353:1 1359:1 1427:1 1453:1 1454:1 1505:2 1614:1 1771:1 1784:1 1832:1 1942:1 1959:1 1984:1 2000:1 2008:1 2257:1 2529:1 2535:1 2837:1 2873:1 3027:1 3077:2 3097:1 3382:1 3633:1 3850:1 4189:1 4233:1 4447:1 4714:1 4725:1 4888:1 4974:1 5152:1 5440:1 5711:1 6548:1 6968:1 6969:1 6970:1 6971:1 6972:1 6973:1 6974:1 6975:1 6976:4 6977:1 6978:1 6979:1 6980:1 6981:1 6982:1 6983:1 6984:1 6985:1 
1 1 1 1 1:3 3:1 8:1 17:1 21:2 31:1 32:2 34:1 36:1 37:4 39:2 55:2 56:1 66:6 74:3 79:1 87:4 93:1 96:1 102:1 125:3 129:2 148:1 154:1 164:2 168:1 170:1 171:1 181:1 190:1 267:4 271:1 301:1 309:1 311:2 322:1 329:1 330:1 359:1 363:1 447:1 451:3 463:1 477:1 509:1 521:1 554:2 566:1 567:1 568:2 601:1 702:1 703:1 718:2 750:1 802:1 808:1 820:1 933:1 1015:1 1100:1 1134:1 1196:1 1300:1 1454:1 1658:1 1694:1 1712:1 1719:1 1825:1 1839:2 2053:2 2115:1 2267:1 2499:1 2550:1 3304:1 3326:1 3480:1 4484:1 4549:1 5154:1 5155:1 5507:1 7131:1 7132:1 7133:1 7134:1 7135:1 7136:1 7137:1 7138:1 
1 1 1 1 1:3 8:3 14:1 21:1 32:1 35:1 36:1 37:1 45:1 55:1 66:1 70:1 74:1 98:1 105:1 112:1 127:1 151:1 171:2 184:1 258:1 322:2 330:1 340:1 359:1 481:1 598:1 801:1 838:1 908:1 1017:2 1138:1 1199:1 1201:1 1276:1 1299:1 1316:1 1581:1 1709:1 2060:1 2156:3 2468:1 2630:1 2763:1 2765:1 3265:2 3449:1 5116:1 5796:1 7159:1 7160:1 7161:1 7162:1 7163:1 7164:1 7165:1 7166:1 
1 1 1 1 1:3 3:2 8:8 12:1 13:1 14:3 21:2 31:1 32:2 34:1 35:1 36:2 37:4 39:3 44:6 45:1 55:1 56:1 58:1 60:2 66:2 87:1 96:1 100:1 105:1 125:2 133:1 136:2 139:3 150:2 151:1 154:1 159:1 181:1 192:1 201:1 301:2 302:1 310:1 318:1 320:1 322:1 330:1 348:1 354:1 363:2 385:2 404:1 453:1 458:1 474:1 480:1 490:1 554:1 592:1 600:1 629:1 683:1 702:1 725:2 768:1 935:1 985:1 994:1 1032:1 1036:1 1099:1 1275:1 1279:2 1311:1 1624:1 1630:2 1642:1 1692:1 1772:2 1827:1 1914:1 2027:1 2071:1 2163:1 2419:1 2433:1 3493:1 4009:1 4085:1 4430:1 4663:1 4942:1 4957:1 5002:1 5350:1 5953:1 6127:1 6422:1 7169:1 7170:1 7171:1 7172:1 7173:1 7174:1 7175:1 7176:1 7177:1 7178:1 7179:1 7180:1 7181:1 
1 1 1 1 1:1 8:1 16:1 31:1 34:1 36:1 37:2 44:2 66:1 100:1 120:1 150:1 162:1 171:1 263:1 363:2 439:1 496:1 673:1 674:1 712:1 725:1 738:1 750:1 995:1 1013:1 1058:1 1283:1 1416:1 1988:1 2457:1 2535:1 3265:1 3345:1 3508:1 3838:1 4942:2 7237:1 7238:1 7239:1 
1 1 1 1 0:2 1:17 3:11 8:17 13:1 14:6 21:5 31:7 32:8 34:2 35:2 37:18 39:2 41:1 44:3 46:1 47:1 55:5 60:2 63:1 65:2 66:8 67:2 70:1 71:1 74:8 76:1 79:3 87:4 93:1 102:1 107:1 111:1 112:1 121:1 125:3 129:1 133:1 141:1 144:2 146:1 150:1 153:2 161:1 164:1 170:1 171:2 189:2 201:2 238:2 243:1 260:2 263:4 271:1 279:1 285:1 288:2 294:1 300:1 307:1 309:1 311:1 316:1 326:1 330:1 335:1 354:1 362:1 363:2 366:1 381:2 382:1 393:1 416:1 439:2 451:1 453:1 458:2 459:1 463:1 481:1 490:1 494:1 495:1 501:1 506:1 509:2 516:1 521:1 539:1 550:2 565:3 578:1 588:1 597:1 616:1 626:1 646:1 647:1 671:2 675:3 684:2 692:1 712:1 716:1 745:1 765:1 768:2 778:2 781:1 788:1 801:1 817:1 823:1 873:1 878:1 880:1 884:1 905:1 908:2 909:2 933:1 961:1 962:2 964:1 1054:1 1057:1 1090:1 1139:1 1153:1 1170:1 1196:3 1199:1 1239:1 1260:1 1262:1 1264:2 1294:1 1310:1 1316:1 1364:1 1372:1 1412:2 1484:1 1503:1 1505:2 1528:1 1538:2 1621:1 1658:1 1708:1 1709:1 1749:1 1770:1 1833:1 1875:2 1919:1 1970:1 1994:1 2004:1 2012:1 2047:1 2155:1 2257:1 2375:1 2390:1 2584:1 2640:1 2786:1 2813:1 2836:1 2858:1 2887:1 3032:1 3053:2 3084:1 3091:1 3164:1 3212:1 3246:1 3316:1 3486:1 3488:1 3493:1 3513:1 3521:1 3522:1 3549:1 3627:1 3723:1 3757:1 3887:1 3900:1 4038:1 4083:2 4084:1 4158:1 4457:1 4475:1 4663:1 4667:1 4793:1 4861:1 5002:1 5204:1 5233:1 5318:1 5404:1 5706:1 5728:1 5742:1 5743:1 5776:1 5959:1 6096:2 6114:1 6632:1 7036:1 7171:1 7287:2 7288:1 7289:1 7290:1 7291:1 7292:1 7293:1 7294:1 7295:1 7296:1 7297:1 7298:1 7299:1 7300:1 7301:1 7302:1 7303:1 7304:1 7305:1 7306:1 7307:1 7308:1 7309:1 7310:1 7311:1 7312:1 7313:1 7314:1 7315:1 7316:1 7317:1 7318:1 7319:1 7320:1 7321:1 7322:1 7323:1 7324:1 7325:1 7326:1 7327:1 7328:1 
1 1 1 1 0:2 1:3 3:1 8:4 14:1 21:4 31:1 32:6 35:2 36:2 37:11 38:4 39:4 41:1 44:5 45:5 53:1 55:3 60:2 66:1 67:1 70:1 74:3 79:2 102:3 105:1 107:1 119:1 125:4 129:2 150:3 159:1 187:1 191:1 208:2 219:1 238:1 260:1 263:1 267:1 287:1 288:1 338:1 340:1 342:1 349:1 359:2 363:1 391:1 458:3 462:1 490:1 494:1 520:3 539:1 553:1 554:1 560:2 569:1 601:1 602:1 603:1 682:2 804:1 962:1 990:1 1020:1 1054:1 1149:1 1162:1 1207:1 1247:1 1275:1 1313:1 1331:1 1353:1 1359:1 1427:1 1430:1 1512:3 1518:1 1520:1 1624:1 1658:1 1661:1 1760:1 1771:1 1782:1 2163:1 2373:1 2483:1 3122:1 3131:1 3156:1 3638:2 3947:1 4095:1 4959:1 5121:1 5850:1 6089:2 7391:2 7392:1 7393:1 7394:1 7395:1 7396:1 7397:1 
1 1 1 1 1:2 3:1 8:2 12:1 15:1 32:3 34:4 35:1 36:1 37:2 41:3 43:1 44:1 55:1 56:1 58:3 59:1 65:1 66:2 102:1 105:1 122:1 125:1 127:3 136:1 146:1 149:2 150:3 154:1 155:1 160:3 162:1 201:1 294:1 300:1 322:1 328:1 340:4 342:1 363:1 404:1 408:2 467:2 600:1 629:1 721:1 722:1 739:1 821:1 1201:1 1239:1 1276:1 1427:1 1453:1 1647:3 1706:1 1719:1 7405:1 7406:1 
1 1 1 1 1:2 3:1 8:3 14:1 18:2 32:4 34:2 35:1 36:2 37:2 38:1 39:2 44:2 45:1 55:3 63:1 66:3 74:2 79:2 97:1 100:1 105:1 120:1 129:1 136:3 149:2 150:2 171:1 362:1 366:1 509:1 523:1 539:1 574:1 595:1 598:1 600:1 631:1 662:1 678:1 682:1 701:1 845:1 903:1 909:1 1094:1 1134:1 1266:1 1422:2 1701:1 1742:1 1784:1 1864:1 2056:1 2179:1 2253:1 2418:1 2450:1 2535:1 2934:1 3179:1 3228:1 3265:1 3603:1 4141:1 4794:1 7473:1 7474:1 7475:1 7476:1 7477:1 7478:1 7479:1 7480:1 
1 1 1 1 0:2 1:31 3:23 12:2 14:2 21:10 31:4 32:22 34:15 35:6 36:1 37:53 38:3 39:2 41:4 43:1 44:8 45:3 47:1 54:1 55:4 56:3 57:1 58:3 59:2 60:7 63:3 65:3 66:16 68:1 71:5 73:3 74:10 79:3 80:1 87:2 93:1 96:1 98:1 100:2 102:4 105:6 108:1 111:1 112:1 117:1 119:1 120:5 122:1 124:2 125:16 127:12 128:1 129:5 133:2 134:5 136:1 138:4 139:1 141:1 146:2 149:1 150:5 154:3 155:1 159:5 166:2 167:1 168:1 170:7 171:1 177:1 181:1 185:1 189:8 191:1 197:1 198:1 201:3 211:7 236:1 237:1 238:3 239:2 243:1 244:1 256:1 262:1 263:3 267:2 268:2 269:3 271:1 274:1 280:1 283:1 284:3 288:4 294:2 300:1 301:3 304:1 309:1 311:1 313:2 317:1 318:1 322:7 324:2 328:6 330:4 336:1 339:2 342:1 345:1 348:1 358:1 359:1 363:6 366:1 368:8 371:1 386:1 403:1 404:2 411:2 440:5 443:1 445:3 447:1 448:2 451:3 453:1 462:2 467:2 469:2 474:3 475:1 480:1 481:1 485:1 487:2 493:3 501:2 505:1 509:2 512:1 521:4 538:1 539:2 545:1 550:2 553:3 554:2 555:2 560:1 564:1 565:1 569:1 572:2 575:1 594:1 597:1 598:1 603:2 604:2 611:1 619:2 624:1 625:1 628:1 629:1 631:1 641:2 646:3 651:1 661:1 666:1 669:1 671:1 675:2 677:1 678:1 683:1 684:3 697:2 702:1 712:2 716:1 718:4 730:5 731:1 740:4 745:1 749:4 750:1 757:1 760:1 768:2 779:1 792:1 796:1 798:1 801:8 802:2 804:4 807:1 808:1 809:3 817:3 820:1 821:1 823:1 840:1 863:1 897:1 954:1 962:1 981:1 984:1 1015:2 1055:1 1057:4 1065:1 1068:1 1070:2 1134:2 1136:2 1139:4 1147:1 1170:1 1188:1 1201:1 1207:2 1213:1 1226:1 1228:1 1229:1 1236:1 1242:2 1243:1 1244:1 1264:1 1271:1 1273:1 1275:2 1301:1 1304:4 1314:2 1323:1 1331:2 1335:2 1346:1 1349:1 1372:1 1416:1 1426:1 1454:1 1463:2 1503:2 1524:1 1551:1 1552:1 1563:1 1581:1 1605:1 1624:2 1628:3 1630:1 1654:1 1694:1 1699:3 1731:1 1742:1 1760:2 1771:2 1831:1 1832:2 1854:3 1896:1 1951:1 1962:1 1978:1 1994:2 1999:1 2021:1 2025:3 2036:1 2162:1 2163:1 2230:1 2243:1 2255:1 2390:1 2413:2 2451:1 2496:1 2503:1 2582:1 2632:2 2639:1 2641:1 2698:2 2700:1 2724:3 2728:1 2755:1 2759:1 2763:6 2786:1 2837:1 2983:2 3027:1 3035:1 3134:1 3138:1 3147:1 3238:2 3239:1 3248:2 3268:1 3275:1 3283:1 3305:1 3314:1 3316:2 3318:1 3451:1 3540:1 3716:2 3779:1 3782:1 3830:1 3850:1 3854:1 4008:1 4074:1 4082:1 4142:2 4153:1 4156:1 4233:1 4270:1 4294:1 4300:2 4354:1 4403:4 4444:1 4690:1 4699:1 4855:3 4984:1 4995:1 5004:1 5023:1 5350:10 5793:1 5969:1 6194:1 6353:1 6663:1 6790:1 6805:1 6963:1 7042:1 7395:2 7453:1 7481:1 7482:2 7483:1 7484:1 7485:1 7486:1 7487:1 7488:12 7489:1 7490:1 7491:1 7492:1 7493:1 7494:2 7495:1 7496:1 7497:1 7498:1 7499:1 7500:1 7501:1 7502:1 7503:1 7504:1 7505:1 7506:1 7507:1 7508:1 7509:1 7510:1 7511:2 7512:1 7513:1 7514:1 7515:1 7516:1 7517:1 7518:1 7519:1 7520:1 7521:1 7522:1 7523:1 7524:1 7525:1 7526:1 7527:1 7528:1 7529:1 
1 1 1 1 3:2 36:1 41:1 44:1 47:1 55:1 66:1 102:1 136:1 146:1 170:1 244:1 258:2 336:1 366:1 559:1 567:1 600:1 933:1 4142:1 5533:1 7541:1 
1 1 1 1 1:2 3:2 8:3 14:1 21:1 31:1 32:4 34:5 37:4 38:1 39:1 60:1 74:3 79:2 87:1 96:1 98:1 125:1 142:2 143:1 168:1 171:1 179:1 301:1 328:1 381:1 406:1 439:1 445:1 469:1 490:1 501:1 526:1 532:1 604:1 702:1 727:1 728:1 735:1 743:1 761:1 951:1 1038:1 1149:1 1242:1 1243:1 1313:1 1427:1 1619:1 2069:1 2318:1 2520:1 2608:1 2640:1 2774:1 3318:1 3505:1 3979:1 4236:1 4667:1 4793:1 6067:1 6761:1 7545:1 7546:1 7547:1 7548:1 7549:1 7550:1 7551:1 7552:1 
1 1 1 1 3:1 21:1 37:2 44:1 47:1 55:1 56:1 60:1 66:1 100:1 102:1 128:2 129:3 150:1 159:1 171:2 233:1 313:1 328:1 339:1 366:1 408:1 479:2 490:1 702:1 777:2 842:1 1223:1 1242:1 1422:1 1875:1 1967:1 2239:1 2483:1 3741:1 4033:1 6522:1 7553:1 7554:1 7555:1 7556:1 7557:1 7558:1 7559:1 7560:1 7561:1 7562:1 
1 1 1 1 1:1 3:1 8:1 14:1 31:1 32:1 37:5 44:2 59:1 66:1 87:2 102:1 108:2 121:1 127:2 129:1 144:1 146:1 150:1 312:1 341:1 404:1 521:1 539:1 559:1 600:1 623:1 684:1 1015:1 1236:1 1273:1 1621:2 1672:1 1709:1 2075:1 2399:1 2452:1 2934:1 5953:1 6985:1 7096:1 7574:1 7575:1 7576:1 
1 1 1 1 1:1 3:3 8:1 14:1 15:1 21:1 32:1 37:6 38:1 41:1 55:1 56:1 58:1 60:2 66:2 70:1 74:2 87:1 96:1 125:2 141:1 154:1 201:3 228:1 238:1 279:1 294:1 328:1 341:2 351:1 368:1 400:2 410:1 445:1 447:2 476:1 521:1 528:1 575:1 639:2 730:1 750:2 771:1 831:1 851:1 986:1 1022:1 1036:1 1069:1 1151:1 1153:1 1178:2 1335:1 1369:1 1505:1 1616:1 1660:1 1989:1 1993:1 2111:1 2419:1 2725:1 3355:2 3526:1 4348:1 4851:1 5559:1 5784:2 6096:1 6932:1 6963:1 7248:1 7593:1 7594:3 7595:1 7596:1 7597:1 
1 1 1 1 1:2 8:2 12:1 14:1 31:1 32:1 37:3 39:1 44:3 102:1 107:2 112:1 120:1 125:2 134:1 201:1 278:1 363:1 451:1 480:1 641:1 767:1 798:1 935:1 1275:1 1292:1 1493:1 1660:1 1733:1 2479:1 2529:1 3302:2 3347:1 3539:1 3844:1 4372:1 4772:1 4816:1 4847:1 4851:1 5288:1 6586:1 7598:1 7599:1 7600:1 7601:1 7602:1 7603:1 
1 1 1 0 1:2 8:2 31:1 32:2 34:1 36:1 37:1 39:1 44:2 53:1 55:2 98:1 141:1 150:2 151:1 238:1 347:1 363:1 404:1 475:1 534:1 564:1 590:1 594:1 595:1 972:1 1183:1 1427:1 1430:1 1628:1 3591:1 3619:1 4793:1 5544:1 5587:1 5734:1 6123:1 7365:1 10300:1 18680:1 
1 1 1 1 1:3 8:4 14:1 18:1 31:1 32:2 36:1 37:3 39:1 43:1 44:2 53:1 55:2 59:1 63:1 66:1 71:1 74:3 87:2 98:1 100:1 102:1 125:1 155:1 164:1 168:1 288:1 363:1 404:1 458:1 463:1 467:1 532:1 534:1 554:1 578:1 594:1 728:1 810:2 873:1 875:1 1275:1 1316:1 1465:1 1687:1 2169:1 3162:1 4942:1 5531:1 8671:1 18211:1 18697:1 
1 1 1 1 1:11 3:4 8:11 14:5 17:2 21:2 31:1 32:11 33:1 34:3 35:2 36:1 37:17 39:2 40:1 41:1 55:1 56:1 60:3 66:9 73:1 74:8 79:3 82:1 83:1 84:1 87:9 98:1 100:4 102:1 105:1 108:3 125:4 129:2 134:1 141:1 143:1 150:3 154:1 155:1 156:1 159:1 171:1 187:1 189:5 201:4 238:2 263:6 267:1 269:2 272:1 294:1 311:1 313:3 317:1 321:1 322:2 328:1 340:3 345:1 347:1 354:2 359:2 363:1 411:1 439:1 445:2 451:2 453:1 458:5 469:2 474:2 480:1 481:1 490:2 496:1 509:2 526:1 536:2 549:1 557:1 563:1 568:2 575:1 585:1 598:1 600:2 609:1 621:1 647:1 662:1 663:1 666:1 667:2 671:1 684:1 701:1 727:4 730:1 758:1 781:2 798:1 817:1 822:1 833:1 905:1 984:1 989:1 1029:1 1126:1 1147:1 1177:2 1179:1 1185:1 1239:1 1274:1 1366:1 1369:1 1448:1 1475:1 1503:1 1520:1 1630:1 1654:1 1690:1 1703:1 1704:1 1919:1 1942:1 1966:1 1996:1 2006:1 2025:1 2053:1 2116:1 2163:2 2319:1 2360:1 2417:1 2440:1 2521:2 2539:1 2598:1 2674:1 2676:1 2701:1 2730:2 2760:1 3147:1 3217:1 3448:1 3452:1 3490:1 3526:1 3734:1 3904:2 3948:1 3980:1 4016:1 4076:1 4171:1 4399:1 4640:1 4723:1 4734:1 4919:1 5309:1 5537:1 5935:1 5989:1 6237:2 6256:3 6445:1 6926:1 7130:1 7316:1 7527:1 7563:1 7622:1 7717:1 7726:1 7843:1 8216:1 8382:1 8438:1 9011:1 9310:1 9537:3 9915:1 9972:1 10883:1 11129:1 11478:1 12221:1 12380:1 12911:1 14282:1 14467:1 15006:1 15756:1 15855:2 16710:1 17315:1 18548:1 18698:1 18699:1 18700:1 18701:2 18702:1 18703:1 18704:1 18705:1 18706:1 18707:1 18708:1 18709:2 18710:1 18711:1 18712:1 18713:1 18714:1 
1 1 1 1 1:2 3:2 8:2 21:1 31:1 32:1 34:1 35:1 37:5 39:2 41:1 44:1 53:1 66:1 70:1 71:1 79:1 87:1 100:1 122:1 150:1 153:1 154:1 160:4 162:1 211:1 288:1 321:1 386:1 405:1 519:1 520:1 532:1 534:1 578:1 704:1 705:1 718:1 742:1 972:1 1081:1 1638:1 1833:1 2003:2 2318:1 2417:1 2637:1 3245:1 14288:1 
1 1 1 1 1:1 3:1 21:2 31:1 35:1 36:1 37:5 38:1 41:1 44:1 54:1 55:1 60:1 65:1 66:3 70:1 98:1 119:1 136:2 191:1 201:1 207:1 267:1 311:1 313:1 316:1 328:1 363:1 405:1 484:1 554:1 563:1 570:1 575:1 600:2 629:1 647:1 751:1 752:1 1006:1 1034:1 1134:1 1616:1 1773:1 2419:1 2488:1 2630:1 2705:1 7288:1 8835:1 13584:2 15520:1 16195:1 18750:1 
1 1 1 1 1:1 3:1 8:1 17:1 21:1 32:1 34:1 35:1 37:1 39:1 44:2 55:1 66:1 82:1 127:1 129:1 155:1 168:1 208:1 267:1 345:1 363:1 479:1 509:1 566:1 568:1 703:1 816:1 820:1 1027:1 1034:1 1170:1 1427:1 1683:2 1813:1 2676:1 2698:1 3421:1 3823:1 6115:1 18767:1 
1 1 1 1 1:5 3:1 8:5 13:1 14:1 32:3 34:1 36:1 37:4 39:1 41:1 44:3 45:1 55:1 58:1 59:1 66:2 98:2 100:1 113:1 125:2 131:1 136:1 151:1 258:1 311:1 316:1 335:1 404:1 421:1 467:1 596:1 600:1 622:1 749:3 760:1 764:1 890:1 980:1 982:1 1006:1 1207:2 1335:1 1427:1 1433:1 1629:1 1654:1 1950:1 1968:1 2026:1 2640:1 2686:1 2687:1 3026:1 3068:1 3619:1 3652:1 4868:1 4992:1 6301:1 7352:1 9674:1 9892:1 11838:1 14146:1 18768:1 18769:1 18770:1 
1 1 1 1 3:1 8:1 14:1 31:1 37:1 44:1 98:1 117:1 127:1 137:1 187:1 232:1 260:1 288:1 458:1 575:1 578:1 585:1 743:1 954:1 1149:1 1267:1 1278:4 1709:1 2188:1 2189:3 3228:1 3368:2 4296:1 4564:1 4665:1 4743:1 5931:1 7087:1 11963:1 15232:1 18776:1 
1 1 1 1 8:3 31:2 32:1 37:2 39:1 41:1 44:4 56:1 65:1 66:4 100:1 125:1 144:1 149:2 153:1 154:1 219:1 258:1 265:1 267:1 282:1 288:2 311:1 329:1 347:1 363:1 389:1 416:1 436:1 453:1 463:1 481:1 509:1 646:1 647:1 649:1 678:1 691:1 701:1 750:1 904:1 905:1 908:1 1005:1 1027:1 1054:1 1090:1 1246:1 1276:1 1316:1 1454:1 1832:1 2596:1 2639:1 2676:1 6286:1 6365:1 9566:1 18777:1 
1 1 1 1 1:5 3:1 8:2 14:1 18:1 21:1 32:2 35:1 36:1 37:6 39:1 41:1 44:4 55:3 59:1 60:2 74:1 93:1 96:1 98:2 100:1 105:1 120:1 125:3 141:1 150:1 154:1 171:1 177:1 180:1 187:1 189:2 201:2 258:1 263:1 272:1 284:1 336:1 382:1 386:1 404:1 411:1 490:2 539:2 600:2 672:3 684:1 701:1 718:2 738:1 740:1 768:1 789:1 798:1 816:1 817:1 847:1 863:1 935:1 953:1 1201:1 1334:1 1503:1 1524:1 1791:1 1950:1 1984:1 2056:1 2312:1 2433:1 2596:1 3123:1 3970:1 4485:2 4663:1 4913:1 4921:1 4972:1 4976:1 5098:1 5200:1 5397:1 5441:1 5838:1 6179:1 6817:1 8686:1 11148:1 12004:1 12982:1 13014:1 18782:1 18783:1 18784:1 18785:1 
1 1 1 1 7:1 8:3 31:1 53:1 54:1 55:1 66:2 79:1 102:1 125:1 134:1 164:1 192:1 198:1 285:1 458:1 521:1 532:1 568:1 641:1 647:1 740:1 1563:1 1709:1 2040:1 2163:1 2422:1 2675:1 3241:1 3314:1 6096:1 8867:1 11035:1 18786:1 18787:1 18788:1 18789:1 18790:1 18791:1 
1 1 1 1 8:1 93:1 129:1 1153:1 2576:1 4790:1 11975:1 18797:1 18798:1 
1 1 1 0 1:4 8:1 14:2 36:1 44:1 55:1 60:1 66:1 105:1 265:1 521:2 559:1 567:2 570:1 638:1 646:1 786:1 810:1 868:1 1097:1 1671:1 1687:1 1832:1 2118:1 2448:1 15264:1 
1 1 1 1 1:1 3:2 8:4 14:1 31:1 32:7 34:3 35:1 36:2 37:9 38:1 39:1 45:1 54:1 55:2 59:1 60:2 66:6 67:1 70:2 74:4 79:2 80:1 87:2 93:2 100:1 102:1 105:1 112:1 120:3 125:5 127:2 129:2 134:4 146:1 149:1 150:1 154:1 159:2 160:1 162:1 171:1 189:2 201:4 207:2 224:1 232:1 263:2 279:1 288:1 315:1 322:1 334:1 340:1 341:1 342:2 345:2 346:1 347:1 359:2 363:2 378:1 385:2 439:1 451:1 458:1 468:1 469:1 474:1 478:1 485:1 490:2 496:1 513:1 521:1 534:1 575:2 588:1 600:1 609:1 647:2 671:1 691:1 736:1 758:1 769:1 783:1 798:1 800:1 806:1 897:2 905:1 962:1 1034:1 1043:1 1070:1 1126:1 1293:1 1307:1 1538:1 1661:1 1708:1 1757:1 1760:1 1942:1 1993:2 1994:1 2048:1 2639:1 2740:1 2786:1 2803:1 2917:1 3021:1 3155:1 3338:1 3381:1 3552:1 3648:1 3780:1 4102:1 4933:1 4950:1 5005:1 5984:1 6554:1 7418:1 7807:1 7860:1 9806:1 12419:1 13839:1 14698:1 18802:1 18803:1 18804:1 18805:1 18806:1 18807:1 18808:1 
1 1 1 1 0:1 1:3 8:2 13:1 14:1 17:1 44:1 56:2 63:1 102:1 120:1 122:1 125:2 139:1 146:1 171:1 191:1 238:1 302:1 339:1 347:1 443:1 445:1 480:1 485:1 539:1 651:1 702:1 749:1 768:1 1057:1 1170:1 1172:1 1254:1 1274:1 1319:1 1331:1 1334:1 1416:1 1686:1 1772:1 2052:1 2417:1 2533:1 3493:1 5309:1 6817:2 18821:1 18822:1 18823:1 
1 1 1 1 0:1 1:5 3:1 7:2 8:8 14:3 17:1 18:1 21:4 31:2 32:12 34:2 35:1 36:1 37:14 38:1 39:2 43:1 54:1 55:2 59:1 63:1 66:5 67:2 70:1 71:1 72:1 74:10 79:1 92:1 96:2 98:1 100:4 102:1 107:2 125:7 127:1 129:2 133:1 134:1 141:1 149:4 150:1 154:1 162:1 164:1 168:1 169:2 171:4 177:1 180:2 181:1 184:1 187:2 201:1 238:2 244:1 263:1 283:1 288:1 322:1 328:2 330:1 345:1 346:1 358:2 359:1 363:2 385:2 391:1 402:1 463:1 466:1 467:1 475:1 477:1 479:1 487:1 509:2 550:1 566:1 575:2 578:1 582:1 595:1 600:1 638:1 661:1 675:1 678:2 684:1 696:1 697:2 716:1 729:1 738:1 768:1 935:1 961:1 972:1 1063:1 1070:1 1139:1 1151:1 1155:1 1170:1 1174:1 1200:1 1239:2 1274:1 1331:1 1412:1 1520:1 1621:1 1749:1 1771:1 1831:1 1839:1 1951:1 1994:1 2027:1 2071:1 2112:1 2392:1 2407:1 2532:1 2640:1 2660:1 2755:1 2764:1 3479:1 3495:1 3500:1 3549:1 3619:1 3653:1 3654:1 3932:1 4038:1 4613:1 4947:1 5150:1 6097:1 7614:1 9044:1 9145:1 9192:1 9807:1 10317:1 10534:1 10629:1 10938:1 11052:1 18843:1 18844:1 18845:1 18846:1 
1 1 1 1 1:1 3:1 21:1 35:1 36:1 37:3 41:1 55:1 66:1 100:1 150:1 204:1 322:1 362:1 390:1 391:1 600:1 703:1 718:1 1428:1 1587:1 1713:1 1917:2 3356:1 18847:1 18848:1 
1 1 1 1 0:1 1:3 3:2 8:4 12:1 13:1 15:1 21:4 31:1 32:10 33:2 34:2 35:1 36:2 37:4 38:1 39:1 43:1 44:1 53:1 60:1 66:7 70:1 74:2 98:1 119:2 120:1 125:6 134:1 138:1 149:5 155:1 156:1 159:1 171:1 191:1 201:1 211:1 279:1 282:1 288:1 313:1 339:1 347:1 348:1 359:1 385:1 386:1 391:1 402:1 453:1 463:1 493:1 526:1 567:1 574:1 589:3 603:1 610:1 646:1 702:1 749:3 771:1 886:1 897:1 962:1 986:1 992:1 1227:1 1229:1 1334:1 1419:1 1427:1 1538:1 1563:1 1943:1 1975:1 1989:1 2029:1 2056:1 2143:1 2267:1 2409:1 2549:1 2582:1 2635:1 2660:1 2779:1 2879:2 3012:1 3169:1 3507:1 3643:1 4155:1 4628:2 6989:1 7108:1 7883:1 8873:1 10200:1 13588:1 14782:1 15573:1 18887:1 
1 1 1 1 1:2 3:1 8:1 32:1 35:1 36:1 37:2 39:1 40:1 41:2 44:2 70:1 98:1 100:1 105:1 129:1 151:1 287:1 646:1 701:1 745:1 1772:1 18905:1 18906:1 18907:1 
1 1 1 1 0:2 1:3 3:4 8:8 13:1 14:1 17:2 21:1 31:2 32:11 33:1 34:3 37:11 39:3 53:1 55:4 58:1 63:1 66:6 70:1 71:3 72:1 74:4 79:6 87:3 93:1 102:2 112:1 125:2 129:3 133:2 136:1 138:1 139:1 141:1 146:1 147:3 148:1 149:2 150:1 156:1 159:1 164:1 170:2 171:1 179:1 181:2 182:1 189:1 191:1 201:2 237:2 260:1 263:1 269:1 271:2 272:1 283:1 294:1 301:2 311:1 322:1 339:2 347:1 358:2 363:3 368:1 381:1 385:1 391:1 414:1 433:2 439:1 453:1 463:1 468:1 474:1 480:2 487:1 490:1 493:2 494:1 496:1 535:2 539:2 543:1 572:1 575:1 579:1 589:1 594:1 597:1 604:1 609:1 610:2 616:1 624:1 626:2 646:2 678:1 691:1 717:1 718:1 727:1 743:1 767:1 798:2 809:2 817:1 866:1 876:1 962:1 973:1 995:2 1015:2 1017:1 1020:1 1029:1 1057:1 1060:1 1226:1 1239:1 1240:1 1260:1 1273:1 1275:1 1300:1 1334:1 1416:2 1505:2 1510:1 1628:1 1648:1 1675:1 1686:1 1704:1 1757:1 1962:1 1978:1 1997:1 2069:1 2241:1 2446:1 2470:1 2492:1 2535:1 2566:1 2763:1 2861:1 3261:1 3329:1 3351:1 3550:2 3757:1 4426:1 4667:2 4699:1 4746:1 4814:1 4957:1 5111:1 5309:1 5311:1 5796:1 6548:1 6798:1 6898:1 7563:1 7997:1 9205:1 9211:2 9537:1 10583:1 11318:1 12753:1 12865:1 14063:1 15636:1 18908:1 18909:1 18910:1 
1 1 1 1 1:2 3:3 8:9 21:1 31:3 32:3 34:2 37:9 39:1 40:1 41:4 44:1 53:1 55:5 56:1 59:1 60:1 66:4 67:2 74:1 87:1 93:1 100:2 105:3 120:1 125:1 127:2 129:1 136:1 146:2 149:4 150:1 154:1 159:2 162:1 171:2 191:1 192:3 201:5 207:1 260:1 267:4 271:1 288:2 320:1 339:2 345:1 347:3 354:2 359:4 380:2 385:2 453:2 469:1 480:4 497:1 532:1 539:2 567:1 575:1 583:1 600:1 609:1 623:1 624:1 629:1 631:1 641:1 646:1 665:1 669:1 718:1 791:1 806:1 821:1 822:2 829:1 834:1 836:1 897:1 902:1 993:1 1022:1 1029:1 1068:1 1090:1 1147:1 1170:4 1228:1 1254:2 1286:1 1416:2 1427:1 1452:1 1454:1 1512:1 1563:2 1861:1 1917:1 1994:1 1996:1 2247:1 2385:1 2399:1 2891:1 2910:1 2934:1 3262:1 3272:1 3350:1 3355:1 3413:1 3480:1 3685:1 3952:1 4111:2 4206:1 4806:1 4896:1 4923:1 4973:1 5854:1 7138:1 8115:1 8599:1 8769:1 8921:1 10062:1 10552:1 10628:1 10745:1 11146:1 11573:1 12352:1 14509:1 14889:1 18552:1 18922:1 18923:1 18924:1 18925:1 18926:1 18927:1 18928:1 18929:1 18930:1 18931:1 18932:1 
1 1 1 1 1:3 3:1 8:6 14:3 17:1 31:1 32:3 34:2 37:7 44:6 54:2 58:1 66:3 67:1 79:1 100:3 102:4 105:1 110:1 125:3 136:1 139:1 141:1 150:1 159:1 171:2 201:3 263:1 322:2 340:1 347:2 362:1 363:2 451:1 458:4 476:3 480:1 539:1 543:1 626:1 662:1 678:1 702:2 718:2 723:1 727:2 739:1 761:1 781:1 831:1 897:1 930:1 1032:1 1109:1 1139:1 1316:2 1364:1 1448:1 1720:1 2052:1 2243:1 2458:1 2519:1 2663:2 3980:1 4084:2 4412:1 4957:1 5162:1 5685:1 5731:1 6929:1 7553:1 8062:1 9036:1 9148:1 9448:1 10020:1 12074:1 14359:1 16538:1 18940:1 18941:1 18942:1 18943:1 18944:1 
1 1 1 1 0:1 1:1 3:1 8:3 14:4 32:3 37:9 44:1 55:1 56:1 64:1 66:2 74:1 87:3 100:1 125:2 169:1 171:2 189:1 219:1 232:1 267:1 301:2 311:1 334:1 343:1 363:1 381:1 385:1 391:1 406:1 414:1 427:1 447:1 460:1 579:1 619:1 646:1 662:1 687:1 702:1 718:1 791:1 817:1 840:1 862:1 885:1 1034:1 1139:1 1142:1 1180:1 1301:1 1340:1 1416:1 1424:1 1432:1 2001:1 2055:1 2248:1 2419:1 2432:1 2446:1 2658:1 2754:1 3493:1 3505:1 3872:1 4472:1 4831:1 5096:1 5595:1 5673:1 5681:1 5905:1 6215:1 6374:1 6692:1 6999:1 7151:1 7264:1 7929:1 8010:1 8209:1 8954:1 9673:1 10682:2 11480:1 14770:1 14862:1 16108:1 17108:1 18109:1 18955:2 18956:2 18957:1 18958:1 18959:2 18960:1 18961:1 18962:1 18963:1 18964:1 
1 1 1 1 3:1 8:3 35:1 36:1 37:5 39:1 41:1 45:2 66:1 67:1 74:2 96:1 128:1 134:1 162:1 171:1 279:1 391:1 415:1 453:1 463:1 538:1 595:1 600:1 624:1 649:1 988:1 1127:1 1178:1 1581:1 1862:1 1885:1 2156:1 2553:1 2720:1 2771:1 10841:1 15307:1 19000:1 19001:1 
1 1 1 1 1:2 8:2 14:1 17:1 32:3 37:4 39:1 41:1 45:2 53:1 55:2 66:2 71:1 74:2 79:1 87:2 96:1 100:1 125:2 127:1 136:1 141:2 146:2 148:1 150:4 154:1 159:1 168:1 170:1 171:1 189:1 228:2 258:2 301:1 363:1 381:1 453:1 466:1 493:1 497:1 521:1 565:1 578:1 626:1 630:1 682:1 779:1 789:1 817:1 833:1 993:1 1069:1 1229:1 1448:1 1505:2 1563:1 1600:1 1616:1 1967:1 2362:1 2483:1 2515:1 2526:1 2569:1 2676:1 2926:1 3130:1 3265:1 3565:1 3772:1 4083:1 5515:1 7817:1 8656:1 11394:1 13716:1 18932:1 19004:1 19005:1 19006:1 19007:1 19008:1 19009:1 19010:1 19011:1 19012:1 19013:1 
1 1 1 1 1:2 3:1 8:2 31:1 32:1 37:4 39:1 41:1 70:1 102:1 122:1 150:1 363:2 480:1 623:1 683:1 691:1 738:1 822:1 876:1 959:1 1129:2 1170:1 1304:1 2360:1 2475:1 2598:1 2640:1 3080:1 4302:1 4553:1 4697:1 4829:1 6088:1 12586:1 
1 1 1 1 1:2 8:2 32:5 37:4 39:1 55:1 70:1 74:3 79:2 87:1 125:3 127:1 133:1 149:1 150:1 297:1 313:1 363:1 416:1 551:1 568:1 641:1 666:1 749:2 768:1 929:1 973:1 1208:1 1242:1 1507:2 1508:2 1566:1 1618:1 1935:1 4076:1 4121:1 5653:1 7101:1 7838:1 19034:1 
1 1 1 1 1:4 3:2 6:1 7:1 8:4 13:1 14:3 21:1 31:1 32:5 34:4 35:3 37:7 39:2 41:1 43:4 45:1 60:3 66:5 67:1 74:3 79:1 82:1 105:1 125:4 127:3 129:3 134:2 146:1 149:1 168:1 171:1 201:1 260:1 267:1 269:1 321:1 322:1 339:1 347:1 363:4 391:1 445:1 451:1 481:1 535:1 543:1 560:2 572:2 579:1 580:1 599:1 620:2 677:1 681:1 702:1 768:1 792:1 810:1 857:1 897:1 920:1 959:1 992:1 1029:1 1058:1 1152:1 1228:1 1242:1 1246:1 1680:2 1694:1 1705:1 1763:1 1791:1 1819:1 1978:1 2060:1 2370:1 2478:1 2631:1 2640:1 2645:2 2827:2 2876:1 3126:1 3326:1 3824:5 4218:1 4584:1 4699:1 5121:1 5767:1 5934:2 5946:3 6023:1 6594:1 6774:1 6898:1 6932:1 6968:1 7127:1 7296:1 7353:1 8134:1 9523:1 10134:1 10227:1 11275:1 15204:1 18780:1 19047:1 19048:1 19049:1 19050:1 19051:1 19052:1 19053:1 19054:1 19055:1 19056:1 19057:1 19058:1 
1 1 1 1 1:5 2:1 3:3 8:3 14:2 17:1 18:1 31:2 32:5 34:1 35:2 36:1 37:7 39:1 44:2 45:2 54:1 66:3 72:1 74:2 82:1 87:3 100:1 102:1 111:1 125:2 127:1 141:1 150:2 154:3 168:1 173:1 180:1 181:1 237:1 238:1 271:2 298:1 309:1 311:1 322:2 336:1 339:3 362:1 368:1 389:1 402:1 404:1 462:1 463:1 467:2 474:1 480:1 600:1 638:1 647:1 650:1 671:1 684:1 696:1 727:1 731:1 776:1 814:1 817:1 882:1 886:1 935:1 943:1 973:1 976:1 1126:1 1170:1 1201:1 1226:1 1243:1 1248:1 1260:1 1340:2 1436:1 1585:2 1729:2 1962:1 2096:2 2291:1 2786:1 2873:1 3097:1 3315:1 3318:1 3448:1 3490:1 3587:1 3695:2 3758:1 3764:1 4950:1 6083:1 6304:1 7047:1 8038:2 9187:1 9270:1 13480:1 19067:1 19068:1 
1 1 1 1 55:1 150:1 559:1 568:1 742:1 821:1 884:1 1701:1 1782:1 
1 1 1 1 1:4 8:6 16:1 17:2 21:2 32:1 35:1 37:5 38:1 39:1 41:1 44:2 55:1 66:2 96:1 100:1 105:1 129:1 150:1 164:1 191:1 201:2 238:2 263:1 354:1 480:2 481:1 490:2 521:1 566:1 568:3 578:1 583:1 594:1 641:1 718:1 728:1 731:1 750:1 776:1 821:1 842:1 897:1 931:1 959:1 986:1 1170:2 1173:1 1316:1 1427:1 1535:1 1630:1 1715:1 1760:1 1784:1 1861:1 1962:1 2040:2 2668:1 2934:1 2994:1 3314:1 3361:1 4076:2 4392:1 4592:2 6198:1 6336:1 6933:1 8093:1 12892:1 14832:1 
1 1 1 1 55:1 74:1 146:1 263:1 968:2 1121:1 1129:1 1290:1 
1 1 1 1 8:1 17:1 32:1 37:2 39:1 41:1 53:1 70:1 79:1 122:1 150:1 271:1 272:1 575:1 631:1 723:1 727:1 765:1 1207:1 1640:1 2948:1 3970:1 4802:1 5882:1 11418:1 19108:1 
1 1 1 1 1:7 3:8 8:11 13:1 14:2 21:3 31:1 32:2 33:1 34:1 35:2 36:2 37:9 39:2 44:1 45:3 53:1 54:2 55:1 63:2 66:4 71:2 74:8 76:1 79:1 87:1 93:2 96:3 100:1 102:1 107:1 114:1 125:2 127:1 129:1 133:2 141:2 150:1 154:2 164:2 170:1 171:1 179:1 189:1 190:1 191:1 211:2 219:1 253:1 260:1 288:2 320:1 322:2 347:1 348:1 359:1 404:1 413:1 427:1 449:1 458:1 459:1 467:1 476:2 480:1 481:1 490:1 540:1 544:1 549:1 588:2 594:1 624:1 645:1 668:1 675:1 684:4 696:1 715:1 721:1 728:1 750:2 753:1 767:1 779:1 789:1 791:1 794:1 801:1 822:1 833:1 926:1 935:1 984:1 986:1 1040:1 1134:3 1136:2 1153:1 1185:1 1207:1 1228:1 1241:1 1242:1 1246:1 1275:1 1292:2 1311:1 1334:3 1424:1 1427:1 1493:1 1506:2 1563:1 1624:2 1709:1 1712:1 1750:1 1791:1 1904:1 1976:1 2115:1 2285:1 2492:1 2763:1 2765:1 2910:1 3050:2 3256:1 3261:1 3314:1 3609:1 4019:2 4034:1 4319:1 4660:1 5209:1 5221:1 6116:1 6123:1 6839:1 7721:1 8244:1 8850:1 9104:1 9149:1 10527:1 10540:1 12239:1 12717:1 12912:1 15082:1 16011:1 16699:1 19109:1 19110:1 19111:1 19112:1 19113:1 19114:1 19115:1 19116:1 19117:1 19118:1 
1 1 1 1 1:1 3:3 8:8 14:1 21:2 31:2 32:4 34:5 35:1 37:6 39:2 45:2 54:1 55:1 60:1 66:1 71:1 72:1 74:4 83:1 87:2 96:1 105:1 125:2 127:1 129:1 144:1 150:1 159:2 160:1 168:1 238:1 244:1 267:1 337:1 348:1 368:1 404:1 411:1 445:1 467:1 468:2 521:2 543:1 554:1 579:1 616:1 651:1 819:1 1134:1 1136:1 1188:1 1305:1 1419:1 1423:1 1507:1 1508:1 1687:1 1747:1 1925:1 2004:1 2151:1 2399:1 2530:1 2656:1 2676:1 3002:1 3004:1 3141:1 3410:1 3679:1 3982:1 4947:1 5301:1 5587:1 5793:1 5960:1 5964:1 6336:1 6471:1 7314:1 8005:1 9761:1 9782:1 10538:1 13680:1 13852:1 15597:1 18846:1 19122:1 19123:1 19124:1 19125:1 
1 1 1 1 1:1 21:1 32:1 34:1 35:1 36:1 37:1 44:1 53:1 66:1 70:1 95:1 102:1 120:1 150:1 151:1 320:1 347:1 366:1 520:1 521:1 629:1 641:1 721:1 722:1 768:1 776:1 814:1 847:1 1022:1 1151:1 1246:1 1276:1 1756:1 2676:1 2946:1 3084:1 3355:1 3591:1 13266:1 
1 1 1 1 1:10 3:10 8:10 14:3 15:2 16:1 17:1 21:9 31:3 32:4 34:8 35:7 36:4 37:21 38:4 41:4 44:13 45:1 54:2 56:2 58:1 59:4 60:3 66:15 67:1 70:1 74:2 76:2 79:2 80:1 93:1 96:1 98:2 100:2 102:7 105:6 107:1 112:1 113:1 114:2 121:2 122:1 124:1 125:5 127:3 129:5 136:12 146:1 149:1 150:11 159:1 168:1 171:5 184:1 185:1 187:1 201:14 224:1 238:1 260:1 263:7 266:1 267:2 268:3 280:1 288:3 300:1 307:1 311:5 312:1 313:1 320:1 321:1 328:1 340:1 345:1 347:2 354:2 359:4 362:1 363:1 378:1 380:1 385:1 391:4 404:1 406:2 408:2 411:2 421:1 451:1 463:1 469:2 480:3 490:3 496:1 504:1 505:2 521:3 534:3 535:1 543:2 554:1 566:1 575:4 598:1 600:1 603:2 611:1 619:1 623:2 630:1 647:1 662:1 678:1 701:1 702:1 703:1 719:1 731:1 738:2 750:3 751:1 752:1 765:1 767:1 768:3 769:2 772:1 778:1 779:3 798:2 808:1 837:1 866:1 908:1 910:2 929:1 953:1 984:1 992:1 995:3 1022:2 1036:1 1070:1 1090:1 1130:1 1143:1 1172:1 1201:1 1236:1 1316:1 1372:1 1393:1 1416:1 1435:1 1448:2 1454:2 1458:1 1466:4 1510:1 1524:3 1535:1 1575:1 1616:2 1631:1 1645:2 1671:5 1675:1 1701:1 1708:1 1711:1 1732:1 1740:1 1743:1 1744:1 1901:2 1922:1 1978:1 2098:1 2102:1 2116:1 2207:1 2375:1 2378:1 2450:1 2519:3 2706:1 2812:1 2853:1 2876:1 2889:2 2934:2 3041:1 3148:1 3173:1 3212:1 3329:2 3390:1 3438:1 3544:1 3615:1 3688:1 3739:1 3771:1 3821:6 3850:2 4121:1 4430:1 5081:1 5136:1 5393:1 5649:1 5650:1 5731:3 5732:1 6023:1 6094:1 6106:1 6407:1 6624:1 6773:1 6865:1 7357:1 8004:1 8059:1 8076:1 8086:1 8545:3 8559:1 8716:3 8885:1 9205:1 10042:1 10204:2 11222:1 12455:1 12586:1 13892:1 13894:1 14119:1 14249:1 14533:1 15571:4 17026:3 17583:1 19146:1 19147:1 19148:1 19149:1 19150:1 19151:1 19152:1 
1 1 1 1 0:2 1:5 3:5 8:6 14:4 17:1 18:1 21:6 31:1 32:7 34:4 37:16 44:5 55:1 60:2 63:1 66:6 70:5 74:2 87:2 93:1 96:1 100:1 102:2 104:2 105:1 114:1 120:1 122:1 125:1 134:1 144:1 150:3 154:2 155:1 159:3 192:1 207:1 208:1 226:1 232:1 238:1 244:1 260:1 263:1 282:2 288:2 294:1 300:1 301:2 311:2 313:1 322:1 325:1 328:1 329:1 330:1 339:1 345:1 347:2 349:1 354:2 358:1 363:1 385:1 421:1 427:1 458:4 463:1 467:1 469:1 476:1 480:2 490:2 513:2 521:1 562:1 568:1 579:1 583:2 600:1 604:1 610:1 619:1 623:2 626:1 647:1 683:1 701:1 703:1 712:1 725:1 727:1 728:2 740:1 750:2 768:1 791:1 896:1 897:1 908:2 935:1 938:1 989:1 1006:2 1016:1 1022:2 1027:1 1036:1 1156:1 1168:1 1170:1 1201:1 1229:1 1260:1 1278:2 1283:2 1301:1 1422:2 1442:1 1454:1 1535:1 1706:1 1743:1 1919:2 2001:1 2163:1 2317:1 2395:1 2759:1 2779:1 2952:1 3007:1 3355:1 3696:1 3729:1 3772:2 3869:1 3920:1 3952:1 3974:1 4033:1 4263:1 4380:1 4415:1 4607:1 5165:1 5267:1 5539:1 6075:1 6629:1 11557:1 11759:1 12107:1 15525:1 17682:1 17683:1 19175:1 19176:1 19177:1 19178:1 19179:1 19180:1 19181:1 19182:1 
1 1 1 1 1:1 3:1 8:1 13:2 14:1 31:3 32:1 34:1 37:2 39:3 40:1 43:1 44:2 45:1 55:1 66:1 67:1 70:1 74:1 100:1 125:1 136:1 166:1 201:2 269:1 284:1 288:1 301:2 339:1 344:1 347:2 348:1 359:1 404:1 408:1 439:1 512:2 539:1 554:1 563:1 727:1 728:1 730:1 782:1 897:1 905:1 908:1 935:1 959:1 1057:1 1136:1 1412:1 1704:1 1709:1 1720:1 1864:1 1950:1 1973:1 2056:1 2161:1 2934:1 3134:1 3140:1 3613:1 3899:1 4121:1 4208:1 5004:2 5597:1 6064:1 6133:1 10972:1 12254:1 15408:1 19187:2 
1 1 1 1 1:3 3:5 8:2 21:2 37:3 39:3 41:1 44:4 58:1 59:1 60:1 66:1 93:2 96:1 100:1 122:1 125:1 129:1 150:1 160:1 168:1 201:2 263:2 265:1 322:1 324:1 342:1 480:1 481:1 529:1 550:4 555:1 647:1 648:1 659:1 702:1 718:1 783:1 816:2 831:1 835:1 897:1 935:1 1134:1 1239:1 1316:1 1372:1 1427:1 1465:1 1630:1 1647:1 1682:1 1763:1 2422:1 3484:1 3892:1 4300:1 6117:1 11298:1 11734:1 
1 1 1 1 1:10 3:12 8:7 13:1 14:4 18:1 21:2 31:3 32:8 33:2 36:1 37:19 39:5 44:1 55:2 58:1 63:4 66:3 70:1 71:2 74:13 79:4 87:1 93:2 96:1 100:1 102:1 104:1 105:3 108:1 120:2 122:1 125:5 127:1 129:4 139:1 141:2 150:3 154:1 160:1 164:1 175:1 181:1 189:2 191:3 207:1 211:1 226:1 260:3 263:2 274:2 279:1 288:1 294:1 311:2 322:1 327:1 328:1 330:1 340:1 342:3 348:3 359:2 363:2 385:1 389:1 404:1 416:1 431:1 433:1 448:1 459:1 462:1 505:1 515:2 543:1 560:1 561:1 578:1 583:1 599:1 625:1 641:1 646:1 682:7 684:1 718:1 739:1 740:2 749:3 750:2 760:1 764:1 768:1 769:1 779:2 781:1 791:1 801:1 811:1 831:2 833:1 875:1 885:1 911:1 920:1 929:1 961:1 973:1 986:1 1054:1 1059:1 1090:1 1134:2 1141:1 1154:1 1195:2 1208:1 1248:1 1307:1 1316:3 1334:1 1427:1 1500:1 1513:1 1528:1 1538:1 1552:1 1563:1 1603:1 1625:1 1687:1 1742:1 1747:1 1962:1 1975:1 1994:1 2026:2 2084:1 2210:1 2219:1 2259:1 2444:1 2450:1 2598:1 2861:1 2902:1 2906:1 2910:1 3026:1 3052:3 3247:1 3261:1 3314:1 3409:1 3452:1 3491:1 3862:1 3883:1 4162:1 4208:2 4921:1 5211:1 5340:1 5649:1 6179:1 6607:1 6997:1 10779:1 10790:1 12949:1 13417:1 16688:1 19205:1 19206:1 19207:1 19208:1 19209:1 
1 1 1 1 1:2 3:1 8:4 13:2 37:1 39:1 60:1 66:1 70:1 71:2 73:1 74:1 98:1 149:1 170:1 193:1 311:1 322:1 478:1 509:1 582:1 594:1 595:1 779:1 806:1 931:1 1709:1 2450:1 3076:1 3865:2 5542:1 5728:1 7264:1 8683:1 11511:1 15649:1 19210:1 
1 1 1 1 1:2 3:2 8:6 12:1 16:1 18:1 21:4 31:1 32:8 34:2 35:2 37:10 39:3 41:1 43:1 44:5 45:2 53:2 54:1 55:3 56:5 61:1 64:2 66:6 67:1 102:3 150:2 177:1 208:1 238:1 263:1 288:1 301:1 311:1 317:1 347:2 348:2 363:2 391:2 405:1 445:1 463:1 477:1 572:1 595:1 598:1 616:2 647:1 651:1 680:2 697:1 797:1 816:1 821:3 866:1 908:1 935:1 973:1 974:1 991:1 1059:1 1242:1 1275:1 1430:1 1475:3 1502:1 1563:1 1616:1 1658:1 1771:1 1839:1 2248:1 2432:2 2656:1 2725:1 2897:2 3008:1 3330:2 3331:1 3471:2 3516:1 3643:1 3757:1 3830:1 4102:1 4218:1 4543:1 4613:1 4892:1 5463:1 7036:1 7114:1 7897:1 8006:1 9100:2 9504:1 9910:3 10336:1 10523:2 10524:2 12298:1 12654:1 13636:1 13637:2 19211:2 19212:2 19213:1 19214:1 19215:2 19216:1 19217:1 19218:1 
1 1 1 1 1:5 2:1 3:6 8:6 13:1 21:2 32:11 33:1 34:1 35:1 36:1 37:14 38:1 39:3 44:3 55:2 60:1 63:1 64:1 66:2 74:5 79:2 83:1 87:3 92:1 102:2 107:3 125:1 127:1 139:1 141:1 154:1 155:1 160:3 172:1 187:2 224:1 263:1 267:2 282:1 283:1 311:1 322:1 359:1 363:1 372:1 385:1 402:1 404:1 413:1 451:2 453:1 490:1 509:1 521:1 539:1 625:1 678:1 728:1 750:1 768:2 795:1 896:2 899:1 910:1 953:1 990:1 1045:1 1064:1 1126:1 1131:1 1269:1 1275:1 1301:1 1312:1 1491:1 1538:1 1628:1 1694:1 1745:1 1862:1 2102:1 2170:1 2418:1 2477:1 2532:1 2729:1 3084:1 3218:1 3382:1 3573:1 3859:1 4077:1 4351:2 4372:1 4415:1 4431:1 4629:1 4762:1 4795:1 4806:1 4829:1 4831:1 5070:1 6150:1 6319:1 6320:1 6374:1 6887:1 7129:1 8172:1 8369:1 9913:1 10615:1 11400:1 13834:1 16073:1 17266:1 17881:1 18572:1 18926:1 19219:1 19220:1 19221:1 19222:1 19223:1 19224:1 19225:1 19226:1 
1 1 1 1 1:1 3:2 8:1 13:1 21:2 31:2 32:3 35:2 36:1 37:6 38:1 39:1 43:1 44:1 53:1 56:2 66:4 70:2 76:1 87:1 96:3 102:1 105:1 106:1 124:1 125:1 127:1 151:1 171:2 185:1 191:2 204:5 211:1 287:1 294:1 302:2 311:1 322:1 345:1 359:1 363:2 521:2 539:1 560:1 567:1 600:1 681:2 700:1 703:1 779:1 816:1 897:1 910:1 976:1 986:1 1027:1 1034:1 1056:1 1070:1 1109:1 1162:1 1170:1 1374:1 1454:1 1519:1 1563:1 1683:1 1686:1 2478:1 2518:1 2812:1 2855:1 2934:1 3283:1 3591:1 3850:1 4008:1 5203:1 6014:1 8004:1 14834:1 18689:1 19228:1 19229:1 
1 1 1 1 1:2 8:1 12:1 32:1 36:1 44:1 47:1 55:2 58:1 70:2 82:1 98:1 112:1 144:2 228:1 238:1 279:1 404:1 433:1 458:1 535:1 566:1 816:1 905:1 948:1 958:1 1359:1 1593:1 1658:1 1713:1 1924:1 3138:1 4667:2 4745:1 8849:1 
1 1 1 1 1:1 3:1 8:3 14:2 32:1 66:2 87:1 98:1 224:1 267:1 269:1 288:1 347:1 358:1 463:1 519:1 537:1 561:1 562:1 646:1 743:1 751:1 752:1 786:1 789:1 824:1 1126:1 1274:1 1687:1 2116:1 2492:1 3193:1 4757:1 6217:1 12329:1 13739:1 19298:1 
1 1 1 1 3:1 8:2 18:1 32:2 35:1 36:2 37:2 44:1 55:1 66:1 74:1 79:1 93:1 129:1 133:1 136:1 149:1 156:1 201:1 260:2 263:1 359:1 458:1 490:1 521:2 559:1 716:1 1015:2 1274:1 2504:1 5229:1 5615:1 13584:1 
1 1 1 1 1:1 3:1 8:5 13:1 14:1 32:1 35:1 37:6 39:2 44:1 66:2 74:1 92:1 93:1 141:1 144:1 146:1 170:1 171:1 175:1 187:1 226:1 263:2 269:1 284:1 309:1 311:1 316:1 332:1 391:1 393:1 415:1 750:1 768:1 809:1 817:3 854:1 862:1 891:1 897:1 1006:1 1057:1 1143:1 1188:1 1191:1 1196:1 1244:1 1369:1 1416:1 1455:1 1615:1 1709:1 1782:1 1950:1 2015:1 2493:1 2639:1 3559:1 3758:1 4790:1 4942:1 5613:1 5793:1 6847:1 7862:1 12374:1 12842:1 16192:1 17432:1 19325:1 
1 1 1 1 8:2 12:1 31:1 32:1 35:1 37:6 39:1 41:1 44:1 55:2 87:1 93:1 95:1 107:1 108:1 136:1 142:1 150:1 159:2 187:1 224:1 260:1 271:1 330:1 363:1 391:1 469:1 534:1 564:2 575:1 696:1 738:1 765:1 866:1 989:1 1170:1 1239:1 1331:1 1642:1 1661:1 1948:1 1994:1 2113:1 3544:1 3643:1 3653:1 4814:1 5085:1 5880:1 9594:1 9818:1 14916:1 
1 1 1 0 1:4 3:1 8:2 32:1 33:1 39:1 44:2 45:1 55:1 63:1 127:1 149:1 150:1 159:1 160:1 192:1 330:1 385:1 467:1 480:1 534:1 568:1 776:1 902:1 1275:1 1630:1 2360:1 2786:1 4663:1 
1 1 1 1 3:3 8:2 12:1 14:1 21:2 31:2 32:4 34:1 35:2 37:2 44:2 54:1 55:1 56:2 58:1 60:1 63:1 66:1 74:2 79:1 87:3 96:1 100:1 105:1 125:2 127:2 128:1 129:3 138:1 164:1 168:1 192:1 228:1 237:1 260:1 301:1 322:1 357:1 363:1 370:1 404:1 458:1 521:1 550:1 554:1 575:1 624:1 625:1 647:1 702:1 718:2 731:1 1126:1 1201:1 1260:1 1311:1 1331:1 1334:1 1336:1 1427:1 1436:1 1513:1 1563:1 1679:1 1694:1 1782:1 1787:1 1818:1 1861:1 1864:1 2161:1 2307:1 2656:1 2757:1 4291:1 4366:1 4412:1 4688:1 5431:1 5510:1 6331:1 6554:1 6816:1 7734:1 8027:1 8745:1 14265:1 17738:1 19346:5 19347:2 19348:1 19349:1 19350:1 19351:1 19352:1 19353:1 
1 1 1 1 0:1 1:1 8:5 14:2 31:1 32:1 37:5 39:2 44:1 53:1 54:1 55:1 70:1 71:2 74:2 87:1 98:2 122:1 125:1 133:1 150:2 156:1 160:1 164:1 171:1 197:2 198:2 201:2 282:1 336:1 342:2 347:1 385:1 451:1 453:1 458:1 463:1 490:1 491:1 494:1 497:1 521:1 565:1 572:1 624:1 651:1 740:2 767:1 817:1 959:1 995:1 1015:1 1147:1 1154:1 1254:2 1316:1 1335:1 1575:1 1596:1 1647:1 1663:1 1719:1 1832:1 3155:1 3179:1 3319:1 3752:1 3855:1 4592:1 4647:1 5774:1 5857:1 5992:1 8561:1 9326:1 9684:2 10729:1 11649:1 11734:1 12555:1 19359:1 19360:1 19361:1 
0 1 1 1 8:2 44:1 45:1 98:1 129:1 168:1 559:1 595:1 649:1 890:1 6089:1 
1 1 1 1 1:1 14:1 31:1 37:2 41:1 44:2 66:1 87:3 98:1 122:1 150:1 204:1 267:1 272:1 358:1 417:1 481:1 645:1 646:1 735:1 749:1 768:2 798:1 953:1 984:1 1002:1 1018:1 1059:1 1170:1 1372:1 1675:1 1975:1 2677:1 2926:1 3758:1 7025:1 10212:1 17079:1 17217:1 18207:1 19378:1 
1 1 1 1 1:4 2:1 3:2 8:3 14:1 17:2 21:2 31:1 32:6 34:1 35:3 36:3 37:3 39:1 44:2 45:1 58:1 59:1 60:1 66:1 67:1 74:4 79:4 87:1 98:1 100:3 104:3 125:2 126:2 127:1 141:1 149:1 155:1 191:1 201:1 238:1 260:2 263:1 265:1 267:1 272:1 301:1 311:1 313:1 325:1 328:1 334:1 362:1 363:1 391:1 408:1 418:4 441:1 442:2 451:1 458:2 463:1 466:1 468:1 475:1 476:1 485:1 604:2 609:1 625:1 631:1 697:1 725:1 750:1 910:1 962:1 989:1 990:1 1002:1 1027:1 1170:1 1177:1 1300:1 1323:1 1585:1 1587:1 1616:1 1701:1 1791:1 1922:1 1960:1 1985:1 2442:1 2639:1 3080:1 3162:1 3388:1 3689:1 4077:1 4131:1 4268:1 4475:1 4696:1 4743:1 5110:1 5320:1 5473:1 5755:1 6083:1 6508:1 8300:1 10977:1 14917:1 19379:1 
1 1 1 1 14:1 32:1 35:1 37:1 44:1 56:1 136:1 139:1 363:1 385:1 427:1 480:1 560:1 723:1 10025:1 10062:1 
1 1 1 1 1:5 3:2 8:8 14:3 16:1 31:2 32:4 37:11 38:1 39:3 44:1 45:2 53:4 55:1 60:1 66:2 74:7 79:3 82:1 87:2 96:1 98:1 102:1 105:3 112:1 119:1 125:3 127:2 129:1 133:1 150:3 170:1 171:2 181:1 185:1 260:1 263:2 288:1 309:1 313:3 339:1 359:1 363:2 439:1 466:1 474:1 490:1 509:2 541:1 550:1 554:1 575:1 578:1 585:1 600:1 641:2 650:1 697:1 702:1 812:1 817:1 890:1 908:1 928:1 933:2 935:1 984:1 1036:1 1260:1 1314:2 1565:1 1771:1 1897:1 2139:1 2318:1 2429:1 2701:1 2755:1 3394:1 3678:2 3757:3 4077:1 4194:1 5121:1 5265:1 5309:1 6621:1 6847:1 6905:1 8199:1 9345:2 9593:1 11019:1 11333:1 14082:1 14910:1 15855:1 16600:1 18250:2 19447:1 19448:1 19449:1 19450:2 19451:1 19452:1 19453:1 19454:1 
1 1 1 1 1:2 8:2 13:1 21:1 31:1 37:1 44:2 55:1 58:1 60:1 66:1 149:1 258:1 265:1 301:1 341:1 349:1 363:1 402:1 411:1 435:1 553:1 678:1 768:1 810:1 896:1 933:1 1010:1 1200:1 1695:1 2036:1 2318:1 2656:1 2675:1 2689:1 2774:1 4829:1 4992:1 5280:1 5531:1 6123:1 8433:1 12874:1 14053:1 19459:1 19460:1 
1 1 1 1 0:1 1:8 3:4 8:5 14:1 17:1 21:5 31:2 32:8 34:1 35:1 36:4 37:2 44:2 45:2 53:1 55:2 56:1 59:1 60:1 63:1 66:7 70:1 71:1 74:8 75:1 87:3 96:1 102:2 104:1 105:1 125:3 127:2 133:1 141:1 149:1 150:1 154:2 159:1 160:3 164:2 171:3 173:1 185:1 191:1 238:1 260:1 283:2 288:2 301:2 303:1 309:1 311:1 313:1 315:1 320:1 322:2 329:2 345:1 354:1 363:3 385:1 404:1 405:1 445:1 453:2 463:2 469:1 474:2 481:1 490:1 509:3 539:2 543:1 553:1 559:1 572:1 600:1 630:1 641:1 645:1 646:4 700:1 712:1 714:1 811:1 821:1 840:1 876:1 935:1 968:1 1015:1 1022:1 1023:1 1032:1 1068:1 1070:1 1081:1 1207:1 1276:1 1300:1 1315:1 1316:1 1323:1 1334:1 1359:1 1366:1 1563:1 1661:1 1683:1 1704:1 1717:1 1733:1 1746:1 1871:1 1896:1 1962:1 1989:2 1997:1 2053:1 2056:1 2419:1 2432:1 2451:1 2724:1 2890:1 3162:1 3219:2 3670:1 3740:1 4297:1 4521:1 4653:1 4748:1 5295:1 5952:1 6083:1 6480:1 6548:1 7241:1 7606:1 8027:1 10097:1 10111:2 10112:1 13328:1 16692:1 19470:1 19471:1 19472:1 19473:2 19474:1 19475:1 19476:1 
1 1 1 1 1:1 8:1 14:1 21:2 31:1 32:1 36:1 37:3 38:1 39:2 41:1 44:4 55:1 56:1 60:2 64:1 66:2 67:2 70:3 102:1 125:1 129:1 138:1 149:1 150:2 154:1 157:1 158:1 162:1 185:1 201:1 204:1 207:1 287:1 301:1 404:1 416:1 421:1 480:1 490:1 494:1 509:1 603:1 624:1 662:1 718:1 768:1 816:1 835:1 897:2 1170:1 1178:2 1683:1 1704:1 2053:1 2417:1 2601:1 3302:1 5801:1 6692:1 18152:2 19478:1 19479:1 19480:1 19481:1 19482:1 
1 1 1 1 1:1 32:1 36:1 37:2 41:1 44:1 45:1 55:3 65:1 66:1 125:1 150:1 154:1 201:2 263:1 330:2 480:1 490:1 559:1 595:1 765:1 772:1 789:1 873:1 1207:1 3288:1 7788:1 7863:1 7864:1 15593:1 19536:1 
1 1 1 1 0:2 1:6 3:6 8:6 12:1 14:1 17:4 18:4 21:1 31:1 32:11 33:1 34:1 37:12 38:1 41:1 44:1 55:1 56:1 58:1 59:1 66:1 67:1 74:1 76:2 79:1 87:2 93:1 100:1 108:1 127:1 135:1 136:1 140:1 150:1 151:1 154:2 171:1 238:1 244:1 263:1 271:1 288:2 297:1 313:1 347:1 362:2 366:1 380:1 403:1 404:1 433:1 437:1 457:1 458:2 467:1 469:1 474:2 476:2 479:1 496:1 539:1 559:1 567:1 603:2 604:2 623:1 688:1 697:3 749:2 768:1 770:1 838:1 909:1 1036:1 1068:2 1139:1 1168:1 1278:1 1298:1 1709:1 1832:1 2003:1 2143:1 2399:1 2475:1 2492:1 2536:1 2895:1 2918:1 3006:1 3609:1 3677:1 3772:1 4415:1 5060:1 5385:1 5954:1 6095:1 6552:1 7207:1 9116:1 11394:1 12761:1 19560:1 19561:1 19562:1 19563:1 19564:1 
1 1 1 1 1:3 2:1 3:3 8:5 12:1 21:1 31:1 32:3 35:1 36:1 37:6 38:1 39:1 41:1 44:3 45:1 53:1 55:2 56:1 60:1 66:1 102:1 105:1 127:1 136:1 195:3 238:1 267:1 268:1 272:1 311:2 343:1 354:1 365:1 380:1 385:1 404:1 408:1 480:2 490:1 565:1 594:1 595:1 749:3 764:1 768:1 798:1 810:1 931:1 933:1 983:1 1034:1 1167:1 1424:1 1432:1 1981:1 2094:1 2596:1 2995:1 2999:2 3080:1 3172:1 3817:1 3956:1 4182:1 8067:1 8086:1 12171:1 12574:1 12575:1 19595:1 19596:1 19597:1 19598:1 19599:1 19600:1 19601:1 
1 1 1 1 1:1 3:2 8:5 14:1 21:1 32:1 37:4 41:1 44:2 45:1 55:2 56:1 63:1 66:2 67:1 70:1 83:1 87:1 98:1 129:2 154:1 224:1 226:1 238:1 263:1 322:1 329:1 343:1 347:1 408:1 494:1 571:1 578:1 600:2 811:1 824:1 834:1 866:1 884:1 897:1 954:1 1110:1 1134:1 1524:1 1672:3 1683:1 1819:1 2060:1 2861:1 3072:1 3171:1 3464:1 3677:1 3989:1 5921:1 9716:1 10961:1 11466:1 17563:1 17712:1 19453:1 19602:1 
1 1 1 1 1:6 3:1 5:1 8:10 12:1 17:3 18:1 21:3 31:2 37:8 38:2 39:1 41:2 44:2 53:1 54:1 55:1 58:2 59:1 60:1 63:1 66:1 70:1 74:1 79:1 82:1 84:1 98:3 104:1 105:1 142:1 143:1 144:1 185:1 238:2 257:1 258:1 265:1 282:1 288:1 322:1 330:1 334:1 347:1 349:1 416:1 439:1 453:1 463:1 476:1 566:1 591:1 631:1 661:1 678:1 680:1 683:1 750:1 779:1 807:1 811:1 835:1 839:2 866:1 883:1 976:1 989:1 996:1 1143:1 1246:1 1257:1 1260:1 1265:1 1287:1 1353:1 1396:1 1418:1 1430:1 1616:1 1647:1 1701:1 1828:1 1856:1 1946:1 1950:1 2102:1 2122:1 2373:1 2411:1 2460:1 2492:1 2674:1 3162:1 3179:1 3293:1 3619:1 3636:1 3779:1 4019:1 4328:1 4357:1 4424:1 4667:1 4956:1 6622:1 7144:1 7494:1 7995:2 8027:1 8178:1 8672:1 9802:1 9943:1 9958:1 11090:1 14244:1 19606:2 19607:1 19608:1 19609:1 
1 1 1 1 21:1 258:1 363:1 484:1 633:1 1276:1 1316:1 1671:1 8209:1 9375:1 
1 1 1 1 0:1 1:2 3:5 8:1 14:1 17:1 31:2 32:4 34:2 36:1 37:3 45:2 47:1 53:2 54:1 63:2 66:3 74:4 79:5 98:1 100:1 102:1 106:1 112:2 125:4 126:1 127:1 138:1 146:2 149:1 150:1 156:1 185:1 197:3 201:2 204:1 263:2 271:1 272:1 273:1 274:2 282:1 311:1 322:1 349:1 359:1 378:1 391:1 456:1 509:1 519:1 521:2 575:1 600:1 626:2 641:1 718:1 727:2 728:1 822:1 824:1 831:1 862:1 929:1 973:1 979:1 1099:2 1196:1 1207:1 1267:1 1519:1 1630:1 1809:1 1861:1 1864:1 1881:1 1896:1 1908:1 1997:1 2021:1 2476:1 2538:1 3134:1 3239:1 3247:1 3520:1 3550:1 3913:1 4487:1 4665:1 4802:1 5385:1 5964:1 7036:1 7400:1 8954:1 13774:1 18956:1 19619:1 19620:3 19621:1 
1 1 1 1 1:1 3:3 8:5 15:1 21:1 32:2 35:1 36:1 37:6 40:1 56:3 63:1 66:5 70:1 74:1 79:2 87:1 93:1 114:1 134:1 136:1 137:1 146:1 168:1 171:2 201:2 226:1 263:1 308:1 322:1 389:1 402:1 408:1 413:1 554:1 559:1 568:1 583:1 596:1 647:1 691:1 767:1 779:1 785:1 1029:1 1061:1 1063:1 1226:1 1243:1 1462:1 1504:1 2265:1 2422:1 2460:1 2541:1 2737:1 3318:1 4083:1 4472:1 4893:1 5007:1 5587:1 5954:2 6001:1 6488:1 6995:1 7015:1 7699:1 9523:1 10246:1 13405:1 14118:1 15228:1 19630:1 19631:1 19632:1 19633:1 19634:1 19635:2 19636:1 
1 1 1 1 1:4 3:1 8:4 32:6 33:1 34:1 37:5 39:2 41:1 43:1 44:2 55:2 59:1 60:2 64:1 66:2 74:7 79:2 93:1 102:1 111:1 120:1 122:1 125:5 127:1 129:1 141:2 150:3 159:1 160:3 201:1 258:2 260:2 263:1 269:1 279:1 288:2 291:1 303:1 347:1 363:1 413:1 451:1 463:1 477:1 490:1 513:2 536:1 580:1 684:1 692:2 718:1 727:1 811:1 831:1 882:1 884:1 890:1 908:1 984:1 1199:1 1310:1 1316:1 1332:1 1335:1 1506:1 1668:1 1942:1 1994:1 2063:1 2112:1 2118:1 2290:1 2318:1 2640:1 2713:1 2940:1 2997:1 3820:1 4155:1 4719:1 5486:1 5858:1 7262:1 9537:1 10332:1 10931:1 11322:1 12145:2 19538:1 19662:1 19663:1 19664:1 19665:1 19666:1 19667:1 19668:1 19669:1 19670:1 19671:1 19672:1 
1 1 1 1 1:5 8:5 14:5 18:1 31:2 32:5 34:2 37:7 39:2 44:2 45:3 54:1 63:2 66:2 71:2 74:5 79:2 87:1 98:3 102:1 125:3 127:1 129:1 133:1 139:1 141:3 150:1 168:1 180:1 187:1 189:1 263:2 269:1 288:1 301:1 378:1 411:1 439:1 453:1 475:1 523:1 572:1 575:1 588:1 599:1 646:1 666:1 684:3 689:1 696:1 718:1 776:1 808:1 817:1 823:1 885:1 909:1 973:1 981:2 1012:1 1017:1 1025:1 1147:1 1151:1 1155:1 1244:1 1274:1 1316:2 1331:1 1369:1 1706:1 1791:1 1925:1 1926:1 1942:1 1950:1 1951:1 1978:1 2069:1 2104:1 2151:1 2475:1 2492:2 2630:1 2645:1 3295:3 3302:1 3795:1 4924:1 7468:1 9529:1 10309:1 12415:1 13720:1 14803:1 17119:1 19685:1 
1 1 1 1 1:1 3:3 5:1 8:1 14:1 31:2 32:2 35:1 37:7 39:3 44:1 55:4 56:1 67:1 71:1 74:2 97:1 108:1 122:1 124:1 125:1 127:2 129:1 150:3 171:1 238:1 263:1 274:2 324:1 391:1 411:1 463:1 509:1 521:1 553:1 575:1 600:1 603:1 604:1 629:1 701:1 768:1 811:1 1016:1 1054:1 1134:2 1196:1 1275:2 1422:1 1503:1 1621:1 1645:1 1709:1 1711:1 2189:1 2318:1 2521:1 3694:1 3713:3 3732:1 3849:1 4190:1 4464:1 6562:1 6653:1 7483:1 9880:1 11651:1 15155:1 16723:1 17361:1 19686:1 19687:1 19688:1 
1 1 1 1 1:1 3:1 8:3 14:1 17:2 18:1 32:1 37:4 39:3 41:1 44:3 53:1 60:1 66:2 87:1 98:1 150:1 208:1 238:2 269:1 344:1 534:1 539:1 540:1 550:1 568:1 583:1 589:1 641:1 703:1 716:1 738:1 793:1 810:1 1040:1 1147:1 1170:1 1177:1 1283:1 1316:1 1465:1 1501:1 1614:1 1656:1 1712:1 2036:1 2192:1 2418:1 2676:1 3025:1 3970:1 4158:1 6123:1 8141:1 8843:1 9767:1 12791:1 19699:1 
1 1 1 1 0:1 1:2 34:1 58:1 93:1 105:1 133:1 263:1 340:1 469:1 559:1 1060:1 1196:1 1427:1 1719:1 1828:1 3679:1 3980:1 4083:1 5225:1 8379:1 
1 1 1 1 1:1 8:7 21:1 32:4 37:6 45:1 47:1 55:1 56:1 60:1 66:2 70:1 74:4 79:4 87:2 96:1 100:1 141:1 144:1 150:2 153:1 155:1 189:4 197:1 288:1 329:1 348:1 362:1 404:1 451:1 457:1 485:1 505:1 509:1 543:1 554:1 588:1 614:1 626:1 629:1 646:1 684:1 733:1 750:1 768:1 822:1 853:1 929:1 973:1 1027:1 1197:1 1255:1 1305:1 1313:1 1364:1 1505:1 1539:1 1624:1 1781:1 1974:1 2143:1 2163:1 2503:1 2906:1 3219:1 3261:1 3314:1 3448:1 3490:1 3753:1 3754:1 5810:1 5954:1 8078:1 8417:1 13017:2 16262:1 18219:1 19705:1 19706:1 19707:1 
1 1 1 1 0:1 1:2 3:5 8:4 14:2 17:1 21:6 31:2 32:6 34:5 35:2 36:3 37:15 39:1 44:7 46:1 53:1 54:2 55:1 60:1 63:1 66:3 70:1 73:1 79:1 87:3 98:1 119:1 125:1 127:2 129:2 134:1 149:1 150:1 151:1 155:1 162:1 168:1 171:1 180:1 185:1 194:1 201:1 244:1 263:1 272:2 288:1 310:1 312:1 315:1 320:1 321:1 322:1 328:1 330:1 339:1 341:1 359:2 363:3 404:1 406:2 410:1 490:2 493:1 509:3 521:1 532:1 539:2 554:1 559:2 560:1 647:1 681:1 765:1 779:1 789:1 792:1 798:1 839:1 878:1 885:1 897:2 908:3 962:1 1013:1 1036:1 1060:1 1068:1 1082:1 1141:1 1170:1 1177:1 1181:1 1260:1 1293:1 1295:1 1319:1 1448:1 1786:1 2053:1 2170:1 2179:1 2239:1 2496:1 2518:1 2533:1 2676:1 3002:1 3140:1 3210:1 3357:1 3410:2 3784:1 3833:1 3850:1 3948:1 4193:1 4559:1 4598:1 4980:1 5455:1 5769:1 5804:1 5805:1 5824:1 6563:1 6671:1 6927:1 7064:1 7147:1 7159:1 7582:1 8354:1 8369:1 8615:1 12004:1 13473:1 13622:1 16825:3 17010:1 18796:1 19717:1 19718:2 19719:2 19720:1 19721:1 19722:1 19723:1 19724:1 19725:1 19726:1 
1 1 1 1 1:7 3:5 8:7 14:2 31:3 32:7 34:4 35:1 37:6 39:2 44:2 55:2 66:5 68:1 70:1 74:4 79:1 82:1 87:2 96:1 100:3 102:1 112:1 125:4 133:1 134:2 136:1 141:1 144:1 146:2 148:1 151:1 154:1 159:1 169:1 170:1 171:2 187:1 189:2 201:1 219:1 231:2 237:1 238:1 260:2 268:1 269:1 272:1 279:1 288:2 328:1 339:1 345:3 347:1 363:4 366:1 391:1 427:1 453:1 462:1 463:1 469:2 490:1 505:1 521:1 554:1 565:1 567:1 573:1 590:1 631:1 671:1 682:1 684:1 696:1 703:2 749:1 767:1 785:1 794:1 798:1 804:1 807:1 817:1 824:1 825:1 838:1 873:1 885:1 896:1 908:2 946:1 1016:1 1070:1 1190:1 1196:1 1241:1 1295:1 1316:2 1366:1 1424:1 1426:1 1614:1 1706:1 1831:1 1950:3 2026:1 2053:1 2663:2 2763:1 2767:1 2871:1 3247:2 3451:1 3733:1 4009:1 4217:1 4355:1 4410:1 4840:1 5000:1 5023:1 5441:1 5696:1 5725:1 6616:1 7275:1 7715:1 8090:1 8264:1 8687:1 9104:1 9776:1 10042:1 10693:1 10771:1 10780:1 11050:1 11139:1 11561:1 12428:1 12446:1 12827:1 13129:1 13594:1 14202:1 15714:1 17054:1 18281:1 19733:1 19734:1 19735:1 19736:1 19737:1 19738:1 19739:1 19740:1 19741:1 19742:1 
1 1 1 1 1:1 37:1 39:2 44:1 55:1 60:1 74:1 102:1 133:1 238:1 490:1 509:1 541:1 554:1 597:1 598:1 1057:1 1230:1 1231:1 5007:1 12808:1 19783:1 
1 1 1 1 1:2 8:3 14:3 15:1 37:3 39:1 44:1 53:1 55:1 58:1 66:1 67:1 96:1 98:1 100:1 105:2 129:2 144:1 156:1 201:5 260:1 288:2 320:1 347:1 363:1 385:1 453:1 469:1 476:1 480:3 490:2 493:1 507:1 521:1 560:1 600:2 614:1 637:1 687:1 696:1 701:2 702:1 743:1 808:1 897:1 902:1 943:1 945:1 1177:1 1179:1 1223:1 1273:1 1351:1 1493:1 1708:1 1742:1 1854:1 1864:1 1950:1 2290:1 3097:1 3585:1 3889:1 3894:1 4155:1 4204:1 4845:1 5557:1 10628:1 11285:1 12344:1 13775:1 
