svm_type c_svc
kernel_type rbf
gamma 7.16949e-005
nr_class 5
total_sv 500
rho -0.256044 -0.048615 -0.12758 0.30866 0.128068 -0.240475 0.139534 -0.261621 0.127388 0.296401
label 5 4 2 3 1
nr_sv 100 100 100 100 100
SV
1 1 1 1 0:1 1:1 2:1 3:1 4:2 5:2 6:3 7:3 8:3 9:1 10:1 11:1 12:2 13:2 14:1 15:1 16:1 17:1 18:1 19:1 20:1 21:3 22:1 23:1 24:1 25:1 26:1 27:1 28:1 29:1 30:1 31:2 32:2 33:1 34:1 35:1 36:1 37:3 38:1 39:1 40:1 41:1 42:1 43:1 44:2 45:1 46:1 47:1 48:1 49:1 50:1 51:1 52:1 53:1 54:1 55:1 56:1 57:1 58:1 59:1 60:1 61:1 62:1 63:1 64:1 65:1 66:1 67:1 68:1 
1 1 1 1 1:1 3:1 8:3 32:3 34:1 37:1 39:2 45:1 55:1 60:1 66:2 69:1 70:1 71:1 72:1 73:1 74:1 75:1 76:1 77:1 78:1 79:1 80:1 81:1 82:1 83:1 84:1 85:1 86:1 87:1 88:1 89:1 90:1 91:1 92:1 93:1 94:1 95:1 96:1 
1 1 1 1 1:1 3:2 8:3 13:2 17:1 32:4 36:1 37:3 39:1 41:3 44:5 59:1 66:5 70:3 87:1 102:1 125:2 127:1 129:1 134:1 139:2 140:2 151:1 154:1 160:1 162:1 201:1 272:1 311:1 322:1 328:3 339:1 342:2 345:1 354:1 359:1 385:2 391:1 393:1 404:1 439:1 458:1 469:1 474:1 476:1 480:1 520:1 534:2 560:1 566:1 579:1 600:1 607:1 629:1 667:1 712:1 713:1 714:1 715:1 716:1 717:1 718:1 719:1 720:1 721:1 722:2 723:1 724:2 725:1 726:1 727:1 728:1 729:1 730:1 731:1 732:1 733:1 734:1 735:2 736:1 737:1 738:1 739:1 740:1 741:1 742:1 743:1 744:1 
1 1 1 1 1:4 3:4 8:5 21:1 35:2 36:1 37:9 39:1 44:2 60:1 66:2 83:1 87:1 93:1 102:1 107:1 125:3 127:1 133:1 134:1 149:1 185:1 201:2 224:1 244:1 288:4 322:1 349:1 363:2 403:2 466:1 480:3 504:1 539:2 553:2 641:1 745:1 746:1 747:1 748:1 749:6 750:1 751:1 752:1 753:1 754:1 755:1 756:2 757:1 758:1 759:1 760:1 761:1 762:1 763:1 764:1 765:1 766:1 767:1 768:1 769:1 770:1 771:1 772:1 773:1 774:1 775:1 776:2 777:1 778:1 779:1 780:1 781:1 782:1 
1 1 1 1 1:4 3:3 8:5 13:1 15:1 17:1 21:1 31:2 32:10 33:2 34:3 35:3 36:1 37:12 39:1 44:3 45:1 47:1 55:4 56:1 58:1 59:1 60:4 66:6 71:1 74:5 84:1 87:2 92:1 96:1 100:1 102:1 105:1 114:1 122:1 125:2 127:1 150:1 153:1 154:1 159:1 167:1 168:1 171:1 187:1 189:1 191:2 201:1 219:2 226:1 238:1 263:1 267:1 288:1 300:1 301:2 311:1 312:1 319:1 339:1 358:1 359:1 386:1 388:1 405:1 453:2 463:2 469:2 488:1 519:1 523:1 534:1 538:1 545:1 548:1 560:1 572:1 583:1 595:1 600:1 614:1 653:1 682:1 691:1 704:1 714:1 721:1 722:1 733:1 784:1 791:1 814:1 822:1 849:1 850:1 851:1 852:1 853:1 854:1 855:1 856:1 857:1 858:1 859:1 860:1 861:1 862:1 863:1 864:1 865:1 866:1 867:1 868:1 869:1 870:1 871:1 872:1 873:1 874:1 875:1 876:1 877:1 878:1 879:1 880:1 881:1 882:1 883:1 884:1 885:1 886:1 887:1 888:1 889:1 890:1 891:1 892:1 893:1 894:1 895:1 896:1 897:1 898:1 899:1 900:1 901:1 902:1 903:1 904:1 905:1 906:1 907:1 908:2 909:1 
1 1 1 1 1:4 3:8 8:9 12:1 17:1 21:3 31:1 32:2 34:7 35:2 37:11 38:2 39:4 41:1 44:1 52:1 55:5 56:2 60:2 66:7 74:3 76:1 87:2 95:1 96:3 100:1 102:4 104:1 110:1 119:1 125:3 134:1 136:2 141:1 146:1 150:1 153:1 159:2 162:1 175:1 201:4 204:1 238:4 263:3 272:1 279:1 288:3 294:1 301:2 313:1 322:3 328:1 336:1 339:3 358:5 359:1 363:2 366:1 380:1 391:1 406:1 415:1 437:1 439:1 469:1 470:1 481:1 490:1 496:2 503:1 509:2 521:2 539:1 554:2 570:1 575:1 600:1 603:1 604:2 624:1 629:1 646:2 647:3 703:1 743:1 770:1 776:1 778:1 802:1 823:1 833:1 865:1 897:2 904:1 908:1 929:1 938:1 1018:1 1023:2 1036:1 1037:1 1038:1 1039:1 1040:1 1041:1 1042:1 1043:1 1044:1 1045:1 1046:1 1047:1 1048:1 1049:1 1050:1 1051:1 1052:1 1053:1 1054:1 1055:1 1056:1 1057:1 1058:2 1059:1 1060:1 1061:1 1062:1 1063:1 1064:1 1065:1 1066:1 1067:1 1068:1 1069:4 1070:1 1071:1 1072:2 1073:1 1074:1 1075:1 1076:1 1077:1 1078:1 1079:1 1080:1 1081:1 1082:2 1083:1 1084:1 1085:1 1086:1 1087:1 1088:2 1089:1 1090:1 1091:1 1092:1 1093:1 1094:1 1095:1 1096:1 1097:1 1098:1 1099:1 1100:2 1101:1 1102:1 1103:1 1104:1 1105:1 1106:1 1107:1 1108:1 1109:1 1110:1 1111:1 1112:1 1113:1 1114:1 1115:1 1116:1 1117:1 1118:1 1119:1 1120:1 1121:1 1122:1 1123:1 1124:1 1125:1 1126:1 1127:1 
1 1 1 1 1:2 5:1 6:2 7:2 8:1 32:3 34:3 35:1 37:4 39:1 41:2 44:1 55:3 58:1 59:1 66:5 70:1 74:1 83:1 87:1 99:1 100:2 127:3 133:1 138:1 141:1 146:1 170:1 171:1 201:5 217:1 241:1 263:2 301:1 336:1 366:1 411:1 534:1 600:1 618:1 718:1 778:1 866:1 902:1 962:2 973:1 1022:2 1023:1 1060:1 1091:1 1160:1 1161:1 1162:2 1163:1 1164:1 1165:1 1166:1 1167:1 1168:1 1169:1 1170:1 1171:1 1172:1 1173:1 1174:2 1175:1 1176:1 1177:1 1178:1 1179:1 
1 1 1 1 1:1 3:2 8:6 14:2 21:1 32:4 34:3 35:1 36:1 37:7 39:3 44:1 55:2 56:1 60:3 66:7 70:1 71:3 74:5 79:2 87:1 107:1 125:2 126:1 129:2 150:1 153:1 155:1 160:1 170:3 171:2 260:1 263:1 264:1 269:1 288:1 309:1 329:1 359:1 403:1 411:1 433:1 439:2 445:3 458:1 474:1 520:1 521:1 534:4 561:1 568:1 572:1 582:1 624:2 661:1 684:2 768:1 798:1 817:2 854:1 981:1 1003:1 1024:1 1212:1 1213:1 1214:1 1215:1 1216:1 1217:1 1218:2 1219:1 1220:1 1221:1 1222:1 1223:1 1224:1 1225:1 1226:2 1227:1 1228:1 1229:1 1230:1 1231:1 1232:1 1233:1 1234:1 1235:1 1236:1 1237:1 1238:1 1239:1 1240:1 1241:1 1242:1 1243:1 1244:1 1245:1 1246:1 1247:1 1248:1 
1 1 1 1 1:1 8:2 31:1 32:3 34:1 37:5 39:1 44:1 64:1 66:2 74:2 79:1 112:1 133:1 171:1 175:1 201:1 211:1 236:1 439:1 462:1 509:1 554:1 583:1 624:1 647:1 733:1 901:1 968:1 994:1 1126:1 1201:1 1249:2 1250:1 1251:1 1252:1 1253:1 1254:1 1255:1 1256:1 1257:1 1258:1 1259:1 1260:1 1261:1 1262:1 1263:1 
1 1 1 1 1:2 3:1 8:5 32:3 37:6 39:3 41:2 44:3 53:1 55:2 60:1 73:1 74:1 79:1 100:1 129:1 134:1 144:1 150:3 168:1 171:1 201:1 265:1 267:1 268:1 282:1 288:1 301:1 302:1 303:1 339:1 415:2 439:1 462:1 463:1 578:1 597:1 768:1 807:1 847:1 899:1 908:1 924:1 981:1 1029:1 1242:1 1565:1 1566:1 1567:1 1568:1 1569:1 1570:1 1571:1 1572:1 1573:1 1574:1 1575:1 1576:1 1577:1 1578:1 
1 1 1 1 0:1 1:4 3:2 8:3 31:1 32:2 34:1 37:1 41:1 44:2 45:1 57:2 58:1 60:1 66:1 70:1 105:1 119:1 120:2 154:2 164:1 171:1 184:1 208:1 267:1 311:1 324:1 340:1 359:2 360:1 416:1 469:1 521:1 594:1 595:1 697:1 891:1 931:2 969:1 1026:1 1031:1 1130:1 1579:1 1580:1 1581:1 1582:1 1583:1 1584:1 1585:1 1586:2 1587:1 1588:1 1589:1 1590:1 1591:1 1592:1 1593:1 1594:1 1595:1 1596:1 1597:1 1598:1 1599:1 1600:1 1601:1 
1 1 1 1 8:1 21:1 70:1 358:1 559:1 804:1 1177:1 1188:1 1435:1 1627:1 1628:1 1629:1 1630:1 1631:1 
1 1 1 1 1:2 3:3 8:2 21:1 31:1 37:3 38:1 39:1 40:1 41:1 44:1 56:1 66:1 96:2 100:1 133:1 157:1 158:1 160:1 201:1 272:1 330:1 349:1 363:1 391:1 453:1 480:1 494:1 505:1 512:1 532:1 641:1 737:2 897:1 990:1 1055:1 1644:1 1645:1 1646:1 1647:2 1648:1 1649:1 1650:1 1651:1 1652:1 1653:1 1654:1 
1 1 1 1 1:2 3:1 13:1 14:1 32:1 37:1 66:1 67:1 134:1 154:1 201:2 731:1 1060:1 1220:1 1275:1 1723:2 1724:3 1725:1 1726:1 1727:1 1728:1 1729:1 1730:1 1731:1 1732:1 1733:1 1734:1 1735:1 
1 1 1 1 1:7 2:1 3:7 8:8 13:1 14:3 16:1 17:1 32:11 33:1 34:2 35:2 36:2 37:14 39:1 43:1 44:2 55:1 60:1 63:1 64:1 65:1 66:4 72:1 74:9 79:2 87:1 93:1 98:1 102:1 107:1 112:1 125:2 127:4 129:1 133:1 149:2 150:2 159:1 164:1 168:2 201:2 219:1 238:1 244:1 263:1 279:1 297:1 309:1 311:1 313:1 319:1 320:1 339:1 363:1 404:1 408:1 458:1 467:1 468:1 479:2 481:1 485:1 490:1 497:1 512:1 521:1 550:1 554:2 568:1 572:3 575:1 578:1 592:1 595:1 600:2 626:3 651:1 676:1 715:1 716:1 721:1 722:1 730:1 731:1 742:1 768:1 779:1 792:1 798:1 816:1 819:1 822:1 823:1 847:1 890:1 897:3 929:1 933:1 962:1 988:1 1031:1 1134:1 1136:1 1155:1 1237:1 1295:1 1325:1 1427:2 1819:1 1919:1 1920:4 1921:3 1922:1 1923:1 1924:3 1925:1 1926:1 1927:1 1928:1 1929:1 1930:1 1931:1 1932:1 1933:1 1934:1 1935:1 1936:1 1937:1 1938:1 1939:1 1940:1 1941:1 1942:1 1943:1 1944:1 1945:1 1946:1 1947:1 1948:1 1949:1 1950:2 1951:1 1952:1 1953:1 1954:1 
1 1 1 1 8:1 14:1 21:1 32:1 37:3 39:1 44:1 66:1 70:1 129:1 162:1 190:1 330:1 363:2 459:1 549:1 672:1 678:1 702:1 1134:1 1977:1 2184:1 2185:1 2186:1 2187:1 2188:1 2189:1 2190:1 2191:1 2192:1 2193:1 2194:1 2195:1 
1 1 1 1 1:2 14:1 32:2 34:1 60:1 82:1 84:1 87:1 102:1 301:1 545:1 657:1 798:1 910:1 1295:1 1353:1 1500:2 2230:1 2231:1 2232:1 2233:1 2234:1 2235:1 2236:1 2237:1 2238:1 2239:1 
1 1 1 1 1:1 8:3 14:1 15:1 21:1 31:1 32:5 35:2 36:1 37:2 39:1 44:1 55:1 66:1 74:1 96:1 98:2 100:1 125:1 133:1 141:1 149:1 154:1 162:1 166:1 201:2 260:1 311:1 313:2 376:1 385:1 469:1 490:1 779:1 789:1 833:1 1045:1 1139:1 1172:1 1207:1 1451:1 1454:1 1475:1 1543:1 1563:1 1630:1 1645:1 2268:1 2269:1 2270:1 2271:1 2272:1 2273:1 2274:1 2275:1 2276:1 2277:1 2278:1 2279:1 2280:1 2281:1 2282:1 2283:1 2284:1 2285:1 2286:1 2287:1 2288:1 2289:1 
1 1 1 1 3:1 8:2 31:1 32:4 37:3 41:1 47:1 55:1 59:1 70:2 98:1 109:1 120:2 129:1 155:2 208:1 316:1 359:1 418:1 458:1 467:1 554:1 564:1 568:2 588:1 683:1 725:1 1006:1 1242:1 1566:1 1628:1 1860:1 2003:1 2359:1 2360:1 2361:1 2362:1 2363:1 2364:1 
1 1 1 1 1:1 8:2 21:1 31:1 32:3 35:2 36:2 37:4 55:2 66:3 76:1 268:1 279:1 294:1 322:1 554:1 600:1 683:2 835:1 910:1 940:1 1006:1 1034:1 1260:1 1348:1 2183:1 2423:3 2424:1 2425:1 2426:1 2427:1 2428:1 2429:1 
1 1 1 0.8500186962399704 53:1 284:1 559:1 1513:1 2510:1 2511:1 
1 1 1 1 0:3 1:2 3:1 8:3 13:1 17:1 21:2 32:7 37:8 44:1 55:2 56:1 60:1 66:2 100:1 125:1 129:1 151:2 154:2 162:1 184:1 204:1 207:1 208:1 238:1 283:1 301:1 312:1 339:1 380:1 386:1 391:1 463:1 480:1 490:1 509:1 519:1 554:1 564:1 600:1 608:1 623:1 641:1 667:1 671:1 718:1 744:1 798:1 1015:1 1068:1 1072:1 1081:1 1099:2 1139:1 1170:2 1188:1 1194:1 1201:1 1228:1 1334:1 1512:1 1519:1 1618:1 1628:1 1632:1 1694:1 1706:1 1861:1 2523:2 2524:1 2525:1 2526:1 2527:1 2528:1 2529:1 2530:1 2531:1 2532:1 2533:1 2534:1 2535:1 2536:1 2537:1 2538:1 2539:1 
1 1 1 0.3145342391333451 225:1 753:1 1243:1 1776:1 2540:1 2541:1 2542:1 2543:1 2544:1 2545:1 2546:1 2547:1 2548:1 
1 1 1 1 1:1 3:1 8:5 12:1 14:1 21:2 31:1 32:2 35:2 36:2 37:9 39:3 44:2 60:1 63:1 66:2 100:3 102:1 105:1 111:1 119:1 125:1 129:1 141:1 159:1 166:1 171:1 188:1 201:2 226:1 232:1 241:1 274:1 283:1 301:1 309:1 317:1 347:1 358:1 385:1 391:2 406:1 411:1 451:1 480:2 481:1 521:1 538:1 562:1 594:1 595:1 614:1 624:1 626:1 670:1 672:1 683:1 684:1 702:1 718:1 730:1 749:2 750:1 760:1 778:1 789:1 795:1 804:1 810:1 824:1 842:1 897:1 985:1 992:2 1059:1 1092:1 1282:1 1316:1 1427:2 1454:1 1502:1 1630:1 1691:1 1711:1 1719:1 1757:1 1864:1 2115:1 2375:1 2408:1 2549:1 2550:1 2551:1 2552:1 2553:1 2554:1 2555:1 2556:1 2557:1 2558:1 2559:1 2560:1 2561:1 2562:1 2563:1 2564:1 2565:1 2566:1 
1 1 1 1 1:4 3:2 6:1 7:1 8:2 14:2 21:2 31:1 35:1 36:3 37:4 45:1 54:1 55:2 56:1 60:2 66:4 83:1 87:1 98:1 122:1 150:2 169:1 190:1 198:1 204:4 241:1 283:1 288:1 315:1 322:1 339:1 345:1 393:1 406:1 416:1 451:1 490:1 521:1 560:1 594:1 598:1 618:1 740:1 816:1 910:1 943:1 992:1 1168:1 1170:1 1185:1 1260:1 1335:2 1503:1 1535:1 1539:1 1686:1 1876:1 2390:1 2526:1 2550:1 2636:1 2637:1 2638:1 2639:1 2640:1 2641:1 2642:1 2643:1 2644:1 2645:1 2646:1 2647:1 2648:1 2649:1 
1 1 1 1 1:2 3:3 8:2 14:3 21:3 31:2 32:4 33:1 34:1 36:1 37:7 38:1 39:4 41:1 44:4 53:2 56:2 60:2 63:1 66:1 70:1 73:1 74:2 79:1 93:1 96:1 105:1 114:1 127:1 133:1 150:1 171:1 226:1 228:1 258:2 262:1 263:2 330:1 334:1 363:1 385:1 408:1 451:1 453:1 490:1 517:1 623:1 662:1 703:1 816:1 833:3 837:1 866:2 962:1 1018:1 1126:1 1147:1 1152:1 1170:1 1185:2 1325:1 1329:1 1424:1 1452:1 1616:1 1810:1 1832:1 1935:1 1997:1 2026:1 2122:1 2318:1 2372:1 2526:1 2537:1 2650:1 2651:2 2652:1 2653:1 2654:1 2655:1 2656:1 2657:1 2658:1 2659:1 2660:1 2661:1 2662:1 2663:1 2664:1 2665:1 2666:1 2667:1 2668:1 
1 1 1 1 1:1 21:1 31:1 37:1 38:1 70:1 82:1 83:1 238:1 578:1 750:1 2696:1 
1 1 1 1 1:4 8:3 14:2 32:3 37:2 39:1 41:1 44:3 45:1 55:3 60:2 66:3 96:1 98:1 100:1 102:1 112:1 125:2 127:1 134:1 151:1 201:3 238:1 279:1 288:1 311:2 322:1 329:1 363:1 386:1 436:1 480:1 496:1 505:1 600:1 644:1 683:1 703:1 793:1 835:1 905:1 1015:1 1069:1 1316:1 1329:1 1424:1 1680:1 1835:1 1836:1 1837:2 1858:1 2437:1 2481:1 2791:1 2792:1 2793:3 2794:2 2795:1 2796:1 2797:1 2798:1 2799:1 2800:1 2801:1 2802:1 2803:1 2804:1 2805:1 
1 1 1 1 1:2 3:1 8:2 14:1 21:1 32:2 34:1 37:4 58:1 60:1 66:3 87:2 105:3 113:1 133:1 136:1 151:1 159:2 201:1 260:1 271:1 346:1 381:1 385:1 402:1 403:1 538:1 608:1 616:1 696:1 768:1 833:1 842:1 897:1 964:1 1173:1 1228:1 1366:1 1429:1 1628:1 1760:1 2086:1 2249:1 2363:1 2390:1 2553:1 2641:1 2806:1 2807:1 2808:1 2809:1 2810:1 2811:1 2812:1 2813:1 2814:1 2815:1 2816:1 2817:1 2818:1 2819:1 2820:1 2821:1 2822:1 2823:1 2824:1 2825:1 2826:1 2827:1 
1 1 1 1 8:1 1271:1 2893:1 2894:1 2895:1 2896:1 2897:1 
1 1 1 1 1:3 3:1 8:2 21:2 27:1 32:2 37:1 44:1 55:1 56:1 60:1 70:2 98:1 120:1 125:1 149:1 154:1 171:1 232:1 288:1 300:1 308:1 393:1 480:1 487:1 646:2 678:1 683:1 737:1 743:1 807:1 962:1 980:1 1037:1 1119:1 1170:1 1228:2 1646:1 1671:1 1687:1 1735:2 1878:1 2533:1 2765:1 2893:1 2937:1 2938:1 2939:1 2940:1 2941:1 2942:1 2943:1 2944:1 
1 1 1 1 0:1 1:8 3:5 8:5 12:1 17:1 21:4 32:4 35:1 36:1 37:7 39:1 44:2 45:2 55:3 58:1 59:2 60:1 63:1 66:4 70:1 74:1 82:1 93:1 98:1 105:2 112:1 121:1 122:1 125:2 127:2 136:1 150:1 151:1 159:1 164:1 171:2 201:2 259:1 260:1 263:2 265:1 267:1 272:2 282:1 284:1 301:1 313:1 324:1 347:1 348:1 362:1 366:1 391:2 408:1 462:1 463:3 469:1 566:1 594:1 599:1 626:1 641:1 665:1 750:1 783:1 792:1 840:1 863:1 867:1 897:1 929:1 962:1 1043:1 1045:1 1078:1 1119:1 1121:1 1139:1 1148:1 1177:1 1276:1 1416:1 1455:1 1466:1 1475:1 1656:1 1758:1 1774:1 1860:1 1861:1 1992:1 2207:1 2279:1 2526:1 2592:1 2603:1 2706:1 2858:1 3002:1 3144:1 3145:1 3146:1 3147:1 3148:1 3149:1 3150:1 3151:1 3152:1 3153:1 3154:1 3155:1 3156:1 3157:1 3158:1 3159:1 3160:1 3161:1 3162:1 3163:1 3164:1 3165:1 3166:1 3167:1 3168:2 3169:1 
1 1 1 1 0:1 1:2 8:3 21:1 32:1 39:2 41:1 44:3 45:1 66:1 70:1 121:1 129:1 134:1 171:1 272:1 418:2 439:1 520:1 594:1 595:1 600:1 701:1 725:1 909:1 995:1 1228:1 1374:1 1416:1 1455:1 1590:1 1763:1 1994:1 2179:1 2399:1 2422:1 2764:1 2881:1 3004:1 3170:1 3171:1 3172:1 3173:1 
1 1 1 1 1:3 8:9 14:4 21:1 32:2 34:1 35:1 37:7 39:2 41:3 44:4 53:1 54:3 55:2 56:1 59:1 71:1 98:1 100:1 102:1 105:1 113:1 115:1 121:1 133:1 139:1 144:2 151:1 156:1 159:1 162:1 171:1 191:1 201:3 226:1 272:1 311:1 320:1 345:1 347:1 385:1 406:1 439:1 469:1 480:1 490:2 494:1 497:1 549:1 567:1 575:1 578:1 595:1 647:1 649:1 728:1 776:1 793:1 821:1 824:1 896:1 959:1 1044:1 1170:1 1223:1 1278:1 1315:1 1536:1 1596:1 1675:1 1773:1 1873:1 1943:1 1983:1 2057:1 2084:1 2179:1 2279:1 2296:1 2533:1 2638:1 2686:1 2687:1 3286:1 3287:1 3288:1 3289:1 3290:1 3291:1 3292:1 3293:1 3294:1 3295:1 3296:1 3297:1 3298:1 3299:1 3300:1 3301:1 3302:1 3303:1 3304:1 3305:1 3306:1 3307:1 3308:1 
1 1 1 1 8:1 38:1 39:1 60:1 98:1 105:1 121:1 146:1 162:1 594:1 651:1 750:1 1687:1 2328:1 2530:1 3381:1 3382:1 
1 1 1 1 1:2 3:3 21:1 31:2 32:2 37:4 38:1 44:2 60:1 66:2 100:1 105:1 120:1 125:1 134:1 150:1 159:1 171:1 191:1 201:1 211:1 260:1 263:1 288:1 330:1 363:1 366:1 386:1 406:1 416:1 469:1 519:1 539:1 554:1 610:1 625:1 629:1 671:1 725:1 749:1 793:1 873:1 1056:1 1068:2 1316:1 1353:1 1409:1 1416:1 2052:1 2081:1 2375:1 2430:1 2558:1 2582:1 2635:1 2999:1 3015:1 3441:1 3442:1 3443:1 3444:1 3445:1 3446:1 3447:1 3448:1 3449:1 3450:1 3451:1 3452:1 3453:1 3454:1 3455:1 3456:1 3457:1 3458:1 3459:1 3460:1 3461:1 3462:1 3463:1 
1 1 1 1 0:1 2:1 6:3 7:3 8:1 14:2 31:2 32:7 34:1 37:2 39:1 44:1 55:1 60:1 74:3 87:2 93:1 100:1 112:1 122:1 125:2 127:1 146:1 232:1 294:1 301:1 322:1 347:1 363:1 386:1 416:1 468:1 484:1 493:1 521:1 610:2 621:1 646:1 650:1 682:1 685:1 718:1 959:1 1034:1 1124:1 1177:1 1236:1 1260:1 1294:1 1316:1 1363:1 1369:1 1538:1 1713:1 1804:1 2025:2 2203:2 2596:1 3464:1 3465:1 3466:3 3467:3 3468:1 3469:1 3470:1 3471:2 3472:1 3473:1 3474:1 3475:1 3476:1 3477:1 3478:1 3479:1 3480:1 3481:1 3482:1 3483:1 3484:1 3485:1 
1 1 1 1 8:1 31:1 37:1 44:2 96:1 125:1 129:1 168:1 204:1 600:1 1070:1 1276:1 1520:1 2163:1 3530:1 3531:1 3532:1 
1 1 1 1 1:4 3:3 8:6 12:1 14:2 21:1 34:3 37:4 39:2 44:1 55:2 59:1 66:1 70:1 71:1 74:2 79:1 100:1 102:1 119:1 125:2 189:1 226:1 237:1 263:1 284:1 288:1 295:1 322:2 328:1 355:1 406:1 521:1 539:1 603:1 614:1 796:1 815:1 816:1 821:1 910:1 959:1 1016:1 1020:1 1153:1 1418:1 1454:1 1502:2 1528:1 1757:1 1773:1 1843:1 2094:1 2134:1 2187:2 2275:1 2392:1 2658:1 2768:1 2952:1 3113:1 3125:1 3140:1 3211:1 3440:1 3557:1 3558:1 3559:1 3560:1 3561:1 3562:1 3563:1 3564:1 3565:1 3566:1 3567:1 3568:1 3569:1 3570:1 3571:1 3572:1 3573:1 3574:1 3575:1 3576:1 3577:1 3578:1 3579:2 3580:1 3581:1 3582:1 3583:1 3584:1 
1 1 1 1 1:3 3:1 6:3 7:3 8:3 17:1 18:1 21:1 31:2 32:4 34:2 35:1 36:2 37:2 39:1 53:1 55:2 66:2 70:1 71:1 87:1 100:2 102:1 104:1 134:1 141:1 150:4 201:2 238:2 272:1 283:1 288:1 311:1 321:1 328:1 354:1 391:1 487:1 554:1 560:1 600:1 618:3 662:1 671:1 701:1 840:1 890:1 1028:1 1112:1 1126:1 1168:1 1177:1 1430:1 1523:1 1535:1 1630:1 1681:1 2440:1 2504:1 2526:1 3127:1 3341:1 3471:1 3598:1 3599:1 3600:1 3601:1 3602:1 3603:1 3604:1 3605:1 3606:1 3607:1 3608:1 3609:1 
1 1 1 1 8:3 21:2 32:2 34:1 37:3 41:1 43:1 44:1 55:1 59:1 60:1 66:2 70:1 83:1 125:2 151:1 155:1 187:1 201:2 226:1 228:1 238:1 272:1 329:1 363:1 467:1 534:1 629:1 702:1 897:1 1351:1 1427:1 1861:1 2934:1 3610:1 3611:1 3612:1 3613:1 
1 1 1 1 0:3 1:11 3:11 5:1 6:1 7:1 8:14 14:4 15:1 17:1 21:4 31:3 32:6 34:7 35:1 36:4 37:16 38:1 39:8 41:2 44:12 45:1 53:2 54:1 55:10 58:2 59:1 60:4 64:1 66:9 70:1 79:3 82:1 87:1 98:3 100:3 102:2 103:1 105:9 107:1 111:1 120:1 122:3 125:3 127:1 129:3 134:1 136:5 142:1 146:2 149:2 150:7 151:1 154:1 159:1 162:1 167:1 168:1 171:2 185:2 193:1 199:1 201:1 207:1 208:2 217:1 218:1 219:2 244:1 258:4 260:6 263:1 265:3 267:1 294:2 311:2 313:3 316:1 318:1 322:1 324:1 330:2 336:2 341:1 342:1 347:4 354:2 358:1 363:2 365:1 366:1 380:2 385:2 394:2 402:2 403:1 404:1 410:1 411:1 414:1 416:1 436:1 439:1 450:1 451:1 458:1 469:3 480:1 485:2 490:2 492:1 496:5 509:1 521:2 535:1 539:1 543:2 553:1 575:1 579:1 585:1 594:1 595:1 600:2 603:1 609:2 619:2 623:2 641:1 645:3 646:3 647:2 675:1 683:1 712:1 716:1 718:1 787:1 798:1 800:2 804:1 816:1 825:1 833:1 856:1 857:1 884:1 897:3 904:1 929:1 931:1 933:2 983:1 993:1 1015:1 1020:1 1036:1 1037:1 1068:1 1119:1 1134:4 1185:1 1200:1 1243:1 1248:1 1262:1 1269:1 1275:1 1315:1 1432:1 1452:1 1528:1 1616:1 1645:1 1647:1 1661:2 1671:2 1686:1 1775:1 1791:1 1825:1 1946:1 1950:1 1994:1 2001:1 2052:1 2080:1 2118:1 2139:1 2192:1 2265:1 2405:1 2433:1 2475:1 2532:1 2533:2 2535:1 2701:1 2754:1 2757:1 2841:1 2861:2 2881:1 2938:1 2948:1 3127:1 3134:1 3219:2 3223:2 3238:1 3293:1 3394:1 3471:1 3614:1 3615:1 3616:1 3617:1 3618:1 3619:1 3620:1 3621:1 3622:1 3623:1 3624:1 3625:1 3626:1 3627:1 3628:1 3629:1 3630:1 3631:1 3632:1 3633:1 3634:1 3635:1 3636:1 3637:1 3638:1 3639:2 3640:1 3641:1 3642:1 3643:1 3644:1 3645:1 3646:1 3647:1 3648:1 3649:1 3650:1 3651:1 3652:1 3653:1 3654:1 3655:1 3656:1 3657:1 3658:1 3659:1 3660:1 3661:1 3662:1 3663:1 3664:1 3665:1 3666:1 3667:1 3668:1 3669:1 3670:1 3671:1 3672:1 3673:1 3674:1 3675:1 3676:1 3677:1 3678:2 3679:1 3680:1 3681:1 3682:1 3683:1 3684:1 3685:1 3686:1 3687:1 3688:1 3689:1 3690:1 3691:1 3692:1 3693:1 3694:1 
1 1 1 1 1:5 8:5 21:2 31:1 32:1 36:1 37:4 44:5 54:1 55:2 66:3 70:1 87:1 96:1 100:1 115:1 125:5 129:1 150:2 153:1 154:1 159:3 171:1 189:1 201:2 204:2 219:1 244:1 269:1 309:1 311:1 315:1 322:1 385:2 450:1 474:1 480:3 490:1 548:1 564:1 600:1 624:1 700:1 712:1 835:1 962:1 1018:1 1143:1 1195:1 1275:1 1428:1 1448:1 1517:1 1628:2 2073:1 2168:1 2243:1 2423:1 2454:1 2550:1 3569:1 3774:1 3775:1 3776:1 3777:1 3778:1 3779:2 3780:1 3781:1 3782:1 3783:1 
1 1 1 1 1:3 3:3 8:3 15:1 17:1 21:1 31:1 32:4 34:1 35:1 36:1 37:5 38:1 43:1 44:1 55:1 66:2 70:1 79:1 86:1 87:2 129:1 141:1 144:2 146:2 154:3 164:1 238:1 283:1 294:1 317:1 322:1 325:1 330:1 340:1 347:1 363:1 368:1 391:1 568:1 671:1 731:1 735:1 798:1 808:1 981:1 1134:2 1214:1 1393:1 1433:1 1505:2 1687:1 2763:1 2769:1 3006:1 3201:1 3503:1 3689:1 3764:1 3865:1 3866:1 3867:1 3868:1 3869:1 3870:1 3871:1 3872:1 3873:1 3874:1 3875:1 3876:1 3877:1 3878:1 
1 1 1 1 1:2 3:6 8:2 17:1 21:1 35:1 36:1 37:1 41:1 54:1 55:2 56:1 70:2 83:1 87:1 98:2 102:1 127:2 129:1 133:1 146:1 167:1 201:1 238:1 322:1 329:1 354:1 362:1 701:1 712:1 1162:1 1395:1 1687:1 1861:1 2057:1 2452:1 3272:1 3817:1 3970:1 3971:1 3972:1 3973:1 3974:1 3975:1 3976:1 3977:1 
1 1 1 1 1:7 3:3 8:10 21:7 31:2 32:11 34:4 35:2 36:1 37:13 38:1 39:1 44:2 53:2 54:1 55:5 56:3 58:1 59:1 60:1 63:1 66:6 67:1 70:2 71:3 74:5 79:4 82:1 87:2 93:1 98:1 100:2 102:3 104:1 125:2 126:1 133:1 141:1 146:1 164:1 170:1 171:1 189:3 190:2 201:1 219:1 228:1 237:1 244:1 258:1 263:2 272:1 273:1 283:1 288:1 294:1 301:1 309:1 311:1 317:1 328:1 329:1 336:2 345:1 354:1 362:1 363:2 366:1 368:2 386:1 391:1 404:1 408:1 415:1 445:2 453:1 463:1 474:1 489:1 493:1 503:1 521:1 526:1 539:1 549:1 557:1 565:1 580:1 583:1 604:1 609:1 614:1 624:1 625:1 626:1 646:2 647:1 684:2 750:2 760:1 761:1 764:1 765:1 768:1 813:1 817:2 854:1 910:2 924:1 929:1 959:1 1017:1 1038:1 1054:1 1058:2 1068:1 1071:1 1126:3 1130:1 1131:1 1139:1 1150:1 1170:1 1185:1 1217:1 1228:2 1248:1 1275:1 1321:1 1335:2 1338:1 1416:1 1629:2 1654:1 1683:1 1701:1 1942:1 1948:1 2143:1 2253:1 2413:1 2446:1 2449:1 2520:3 2533:1 2763:1 2919:1 3087:1 3281:1 3410:2 3587:1 3619:1 3679:1 3745:3 3902:1 3985:1 3986:1 3987:1 3988:1 3989:1 3990:1 3991:1 3992:1 3993:1 3994:1 3995:2 3996:1 3997:1 3998:1 3999:1 4000:1 4001:1 4002:1 4003:1 4004:1 4005:2 4006:1 4007:1 4008:1 4009:1 4010:1 4011:1 4012:1 4013:1 4014:1 4015:1 4016:1 4017:1 
1 1 1 1 1:4 3:4 8:6 13:2 14:4 17:1 21:3 31:1 32:6 34:4 35:4 36:3 37:16 38:3 39:4 43:1 44:1 53:1 54:1 55:6 59:1 60:1 65:3 66:7 71:1 74:5 79:4 80:1 82:1 83:1 87:1 92:1 93:1 102:1 105:1 125:2 127:1 129:1 134:2 136:3 138:1 144:2 146:2 159:1 160:2 162:1 164:2 221:1 237:1 238:1 260:1 283:1 287:1 301:1 312:1 349:1 363:3 381:1 391:1 448:1 453:1 463:1 474:1 481:1 521:3 532:1 539:1 541:1 543:1 550:1 553:2 566:1 568:1 569:1 571:1 572:1 600:2 604:1 623:1 662:1 681:1 683:1 684:1 687:1 702:1 742:5 765:1 768:1 810:1 817:1 825:1 882:1 929:1 938:1 962:1 1002:1 1057:1 1059:1 1094:1 1126:1 1135:1 1153:1 1170:1 1196:1 1275:2 1336:1 1432:1 1503:1 1533:1 1687:1 1756:1 1760:1 1772:1 1775:1 1818:1 1894:1 1942:1 2069:1 2091:1 2115:1 2201:1 2225:1 2407:1 2421:1 2432:1 2639:1 2640:1 2837:1 3010:1 3068:1 3126:1 3179:1 3247:1 3411:1 3494:1 3528:1 3587:1 3761:1 3866:1 4024:1 4086:1 4087:1 4088:1 4089:1 4090:1 4091:1 4092:1 4093:1 4094:1 4095:3 4096:1 4097:2 4098:1 4099:1 4100:1 4101:1 4102:1 4103:1 4104:1 4105:1 4106:1 4107:1 4108:1 4109:1 4110:1 4111:1 4112:1 4113:1 4114:1 4115:1 4116:1 4117:1 4118:1 4119:1 4120:1 4121:1 4122:1 
1 1 1 1 14:1 31:1 36:1 66:1 127:1 154:1 171:1 354:1 359:1 575:1 1435:1 1668:1 2047:1 4152:1 4153:1 
1 1 1 1 0:2 1:3 3:3 8:7 13:1 14:3 21:1 32:6 33:1 34:1 37:9 38:1 39:2 41:1 44:2 55:1 60:1 66:3 87:1 98:1 102:1 105:3 120:2 124:1 125:3 127:1 129:1 134:1 151:1 153:1 154:1 159:2 171:2 184:1 191:1 197:1 207:1 228:1 263:1 269:1 271:2 282:1 301:3 302:1 311:1 316:1 322:1 339:2 358:1 363:1 385:1 386:2 402:1 452:1 463:1 469:2 481:1 493:1 496:1 540:1 542:1 563:1 583:1 600:1 647:1 657:1 665:1 685:1 703:1 712:1 713:1 738:1 761:1 764:1 768:1 772:1 811:1 815:1 890:1 908:2 995:1 1006:1 1036:1 1088:1 1260:1 1292:1 1325:1 1334:1 1427:1 1454:1 1455:1 1523:1 1576:1 1742:1 1861:1 2008:1 2185:1 2363:1 2455:1 2550:1 2640:1 2676:1 2763:1 2803:1 2825:1 3283:1 3496:1 3591:1 3706:1 3772:1 3853:1 4145:2 4147:1 4320:1 4321:1 4322:1 4323:1 4324:1 4325:1 4326:1 4327:1 4328:1 4329:1 4330:1 4331:1 4332:1 4333:1 4334:1 4335:1 4336:1 4337:1 4338:1 4339:1 
1 1 1 1 0:1 1:1 15:1 21:2 31:1 32:3 34:2 44:1 60:2 63:1 66:3 96:1 100:1 105:1 149:1 150:1 171:1 260:1 283:1 288:1 313:1 339:1 347:1 439:1 480:1 528:1 539:1 641:1 703:1 717:1 1170:1 1177:1 1364:1 1686:1 2053:1 2423:1 3886:1 4255:1 4340:1 4341:1 4342:1 4343:1 4344:1 
1 1 1 1 1:1 8:2 13:1 14:1 32:3 36:1 37:2 39:1 44:1 45:1 55:2 63:1 70:1 74:2 121:1 127:1 129:2 144:1 150:1 171:1 259:1 260:2 267:2 288:1 301:1 329:1 398:1 404:1 521:1 578:1 595:1 649:1 908:1 1018:1 1182:1 1276:1 1323:1 1424:1 1944:1 1951:1 2148:1 2165:1 2230:1 2433:1 2752:1 2792:1 3881:1 4109:1 4345:1 4346:1 4347:1 
1 1 1 1 1:5 3:5 8:8 12:3 21:5 31:1 32:1 34:1 35:1 37:12 38:2 39:3 41:3 44:5 45:2 53:1 55:1 56:3 58:1 63:1 66:5 70:1 76:1 100:1 102:1 105:1 117:1 125:3 127:2 134:1 136:1 150:2 151:1 184:1 189:3 191:1 204:2 220:1 260:2 263:1 300:1 301:1 339:1 345:3 349:1 359:2 363:2 380:1 391:2 392:1 393:1 469:1 475:1 476:1 478:1 480:1 497:2 498:2 509:4 532:1 534:1 539:2 551:1 569:1 578:1 593:1 619:1 647:1 682:1 691:1 728:1 765:1 768:1 781:1 792:1 798:1 816:1 817:1 835:1 866:1 873:1 897:1 935:2 962:1 988:1 1016:1 1022:1 1031:1 1100:1 1136:1 1139:1 1279:1 1304:1 1537:1 1851:2 1857:2 1958:1 2002:1 2026:1 2050:1 2192:1 2397:1 2519:1 2663:1 2676:1 2815:1 2926:1 3148:1 3281:1 3572:1 3673:1 3814:1 4153:1 4412:1 4413:1 4414:1 4415:1 4416:2 4417:1 4418:1 4419:1 4420:1 4421:1 4422:1 4423:1 4424:2 4425:1 4426:1 4427:1 4428:1 4429:1 4430:1 4431:1 4432:1 4433:1 4434:1 4435:1 4436:1 4437:1 4438:1 4439:1 4440:1 4441:1 4442:1 4443:1 4444:1 4445:1 
1 1 1 1 1:4 3:3 8:9 14:2 17:2 18:1 21:5 32:9 33:1 34:6 37:4 44:1 55:3 59:1 60:4 64:1 65:1 66:10 74:2 75:1 80:1 83:2 86:1 87:5 100:1 102:1 104:1 111:1 127:2 141:1 149:1 154:2 156:1 171:2 175:1 181:1 184:1 187:1 189:1 201:1 211:1 232:1 233:2 237:1 238:1 267:4 268:1 311:1 329:1 349:1 364:1 365:1 386:1 389:1 453:1 463:1 468:1 469:2 480:2 497:1 503:1 521:2 530:1 600:2 629:1 630:1 638:1 703:1 743:1 789:2 796:1 804:1 806:1 809:1 835:1 866:1 876:1 897:1 1038:1 1068:1 1119:2 1185:1 1275:1 1283:1 1335:1 1353:1 1360:1 1364:1 1444:1 1686:1 1994:1 2052:1 2102:2 2250:1 2289:1 2305:1 2343:1 2413:2 2432:1 2599:1 2745:1 2750:7 2832:1 2844:1 2948:4 2954:2 2972:1 2988:1 3305:1 3313:1 3678:1 3956:1 4040:1 4155:1 4446:4 4447:2 4448:1 4449:1 4450:1 4451:1 4452:1 4453:1 4454:2 4455:2 4456:1 4457:1 4458:1 4459:1 4460:1 4461:1 4462:1 4463:1 4464:1 4465:1 4466:1 4467:1 4468:1 
1 1 1 1 1:2 8:1 21:1 36:1 44:1 55:1 66:2 71:1 105:2 127:1 134:1 146:2 159:1 189:1 237:1 263:1 480:1 521:1 530:1 567:1 647:1 662:1 809:1 897:1 1075:1 1240:1 1760:1 2324:1 2652:1 3011:1 3141:1 3548:1 4254:1 4507:1 4508:1 4509:1 4510:1 4511:1 4512:1 4513:1 4514:1 4515:1 4516:1 4517:1 
1 1 1 1 1:3 3:8 8:8 21:1 31:2 32:8 33:1 34:7 35:1 37:14 39:1 41:2 44:9 59:1 60:1 64:2 66:4 76:2 82:1 87:2 96:4 102:3 125:9 127:2 129:3 133:1 134:1 138:1 150:1 153:1 154:2 156:1 201:2 272:1 300:1 302:1 309:1 310:1 311:2 322:2 328:2 334:1 339:1 340:1 358:1 359:1 363:1 380:1 385:1 391:3 403:1 418:2 421:1 442:1 463:1 479:1 480:2 505:1 509:2 515:2 521:3 532:1 572:1 585:1 600:1 602:1 603:1 623:1 631:1 647:1 667:1 672:1 681:1 688:1 718:1 727:1 733:1 798:2 878:1 887:1 897:2 929:2 937:1 954:1 962:2 992:2 1068:1 1081:1 1134:1 1170:1 1204:2 1207:1 1283:1 1301:1 1331:1 1493:1 1686:1 1694:1 1923:1 1985:1 2239:1 2299:1 2529:2 2550:1 2934:1 2937:1 3007:1 3085:1 3261:1 3685:1 3980:1 4522:1 4523:1 4524:2 4525:1 4526:1 4527:1 4528:1 4529:1 4530:1 4531:1 4532:1 4533:1 4534:1 4535:1 4536:1 
1 1 1 1 1:2 3:1 8:2 21:1 35:1 36:1 37:3 38:2 41:1 44:3 55:1 98:3 168:1 258:1 263:1 342:1 380:1 559:1 562:1 624:1 791:1 821:1 1170:1 1246:1 1694:1 1815:1 1950:1 2733:1 3670:1 4208:1 4581:1 4582:1 4583:1 4584:1 4585:1 4586:1 4587:1 
1 1 1 1 1:1 3:1 8:1 21:2 32:1 37:4 38:1 44:1 96:1 100:1 125:1 136:1 159:1 201:1 207:1 233:1 349:1 474:1 575:1 589:1 718:1 749:1 764:1 904:1 935:1 1034:1 1195:1 1830:1 2526:1 2934:1 3507:1 4121:1 4697:1 4698:1 4699:1 4700:1 
1 1 1 1 1:3 3:2 8:3 12:1 16:1 31:1 32:1 36:1 37:4 39:1 41:1 44:1 66:1 70:1 76:1 87:1 100:1 104:1 105:2 125:1 168:1 201:1 303:1 311:2 339:1 347:2 348:1 354:1 362:1 363:1 386:1 413:1 415:1 439:1 443:1 469:1 539:1 549:1 595:1 600:1 603:1 675:1 708:1 718:2 720:1 775:1 789:1 897:1 916:1 986:1 996:1 1170:3 1204:1 1325:1 1535:1 1558:1 1921:1 2025:1 2028:1 2113:1 2481:1 2714:1 2876:1 3293:1 3303:1 3314:1 3348:1 4412:1 4703:1 4704:1 4705:1 4706:1 4707:1 4708:1 4709:1 4710:1 4711:1 
1 1 1 0.0289040536933876 2286:1 2287:1 4743:1 4744:1 
1 1 1 1 0:1 1:4 3:5 8:2 14:1 32:1 34:1 36:3 37:5 39:1 41:1 44:4 45:1 60:1 66:6 70:1 79:1 100:1 108:1 125:1 151:1 159:5 162:1 171:1 184:1 201:4 303:1 305:1 310:1 332:1 342:1 345:1 347:1 359:1 363:1 391:1 439:1 469:1 489:1 490:1 493:1 494:1 521:1 539:1 578:1 600:1 611:1 631:1 702:2 712:1 718:1 751:2 752:2 798:2 817:1 831:1 908:1 945:1 983:1 1059:1 1138:1 1179:1 1292:1 1295:1 1647:1 1661:1 1708:1 1943:1 2026:1 2536:1 2637:1 3741:1 3817:1 3823:1 4808:2 4809:1 4810:1 4811:2 4812:2 4813:2 4814:1 4815:1 4816:1 
1 1 1 1 1:5 3:2 8:6 14:1 21:2 31:1 32:5 34:1 35:2 37:2 44:2 55:4 56:1 58:2 60:3 64:1 66:4 75:1 82:1 87:2 100:2 105:1 112:1 133:3 146:1 150:1 167:1 177:1 184:2 201:3 225:1 238:1 267:1 272:1 300:1 309:1 311:2 339:1 340:1 345:1 391:1 400:2 404:1 407:2 453:1 488:1 519:1 539:2 575:1 594:1 651:1 662:1 671:1 678:1 796:1 822:1 831:1 897:2 908:1 1088:1 1119:1 1162:1 1170:1 1389:1 1433:1 1454:1 1455:1 1671:1 1687:1 1818:1 1837:1 1858:1 1901:1 1910:1 1952:1 2026:1 2135:1 2207:1 2343:1 2450:1 2740:1 2765:1 2802:1 3176:1 3452:1 4780:1 4817:1 4818:1 4819:1 4820:1 4821:2 4822:1 4823:1 4824:1 4825:1 4826:1 4827:1 4828:1 4829:1 4830:1 4831:1 4832:1 4833:1 4834:1 4835:1 4836:1 4837:1 4838:1 4839:1 4840:1 4841:1 
1 1 1 1 1:2 8:3 14:2 32:1 36:1 37:2 45:1 55:1 56:1 66:1 70:1 74:1 79:1 87:1 127:1 150:1 168:1 187:1 189:2 363:1 391:1 497:1 518:1 520:1 595:1 650:1 684:1 733:1 810:1 1185:1 1412:1 1616:1 1628:2 1839:1 1952:1 3643:1 4829:1 4949:1 4950:1 4951:1 4952:1 4953:1 4954:1 
1 1 1 1 1:2 3:3 8:4 14:2 21:3 32:3 35:1 36:2 37:2 44:2 56:1 65:1 66:4 79:2 87:1 125:2 133:3 134:1 136:1 146:1 149:3 164:1 171:2 189:4 263:1 288:1 289:1 313:1 317:1 319:1 339:1 345:1 349:1 359:1 404:2 431:1 447:2 451:1 469:1 494:1 521:1 554:2 569:1 618:1 631:1 647:2 673:3 680:1 684:1 750:1 798:2 817:1 831:1 847:1 866:1 890:1 995:1 1022:1 1068:1 1090:1 1135:1 1170:1 1201:1 1207:1 1254:1 1338:1 1416:1 1427:1 1435:1 1445:1 1454:1 1475:1 1505:1 1645:1 1755:2 1773:1 2026:1 2239:1 2375:1 2687:1 2823:1 2952:1 3006:1 3069:1 3234:2 4254:1 4780:1 4823:1 5010:1 5011:1 5012:1 5013:1 5014:1 5015:1 5016:1 5017:1 5018:1 5019:1 5020:1 5021:1 5022:1 5023:1 
1 1 1 1 0:2 1:7 3:6 8:5 12:1 14:2 21:2 31:4 32:7 33:1 34:3 35:2 37:15 41:3 47:1 55:4 56:1 59:1 60:1 64:1 66:3 74:4 87:1 93:1 96:2 100:2 102:1 125:2 127:2 129:1 134:3 145:1 154:4 159:1 170:1 179:1 181:1 184:1 189:1 201:1 204:1 226:1 263:1 267:1 274:1 301:1 307:2 311:1 313:1 317:1 319:1 322:1 347:3 356:1 359:1 363:3 371:1 380:1 451:1 463:1 466:1 469:1 474:1 478:1 479:1 480:1 485:2 490:1 496:1 521:2 560:1 567:1 603:1 626:1 646:1 647:2 649:1 671:1 672:2 731:1 740:1 768:1 771:1 789:1 790:1 796:1 804:1 810:1 821:1 833:2 847:1 908:1 929:1 986:2 1013:1 1029:1 1057:1 1058:2 1085:1 1096:1 1134:1 1152:1 1158:1 1177:1 1189:1 1212:1 1213:1 1297:1 1342:1 1494:1 1645:1 1750:1 1856:2 1861:1 2011:2 2043:2 2048:1 2115:1 2668:1 2672:1 2725:1 2773:1 3076:1 3479:1 3701:1 3824:1 4102:1 4277:1 4573:1 4779:1 5024:1 5025:1 5026:1 5027:1 5028:1 5029:1 5030:1 5031:1 5032:1 5033:1 5034:1 5035:1 5036:1 5037:1 5038:1 5039:1 5040:2 5041:1 5042:1 5043:1 5044:2 5045:1 5046:2 5047:1 5048:1 5049:1 5050:1 5051:1 5052:1 5053:1 5054:1 5055:1 5056:1 5057:1 5058:1 5059:1 5060:1 5061:1 5062:1 
1 1 1 1 3:3 12:1 17:1 35:1 36:1 37:5 55:2 56:1 59:1 63:1 66:1 87:1 92:1 93:1 100:1 119:1 125:1 127:1 134:1 150:1 171:1 244:1 263:2 267:1 272:1 288:1 301:1 313:1 344:1 359:1 363:1 370:1 410:2 478:1 479:1 521:1 539:1 604:1 647:1 681:1 682:1 683:1 816:1 1036:1 1088:1 1201:1 1239:1 1520:1 1661:1 1771:1 1796:1 2786:1 3891:1 5082:1 5083:1 5084:1 5085:1 5086:1 5087:1 5088:1 5089:1 5090:1 5091:1 5092:1 
1 1 1 1 1:6 3:4 8:6 13:2 14:1 17:2 21:2 31:2 32:8 33:2 34:4 35:3 36:7 37:5 39:3 44:3 47:1 54:1 55:1 56:1 60:1 66:7 76:1 79:1 87:1 96:2 98:3 100:2 102:4 117:1 124:1 125:2 127:6 129:1 136:1 149:2 150:1 155:2 171:1 201:5 207:1 208:1 273:1 313:1 320:1 322:2 336:3 347:2 354:2 358:1 359:1 366:2 385:1 408:3 418:2 427:1 453:1 459:1 463:2 474:2 476:1 494:1 507:1 534:1 567:1 570:1 578:1 609:2 624:1 629:2 647:1 660:2 696:1 701:1 712:1 718:1 730:1 750:1 768:1 816:1 823:1 897:2 959:1 1000:1 1007:1 1015:1 1070:1 1081:1 1100:1 1177:1 1207:1 1430:1 1454:1 1611:1 1616:1 1654:1 1713:1 1861:1 2012:1 2116:1 2147:1 2161:1 2422:1 2973:2 3273:1 3368:1 3370:1 3380:1 3520:1 4044:1 4145:1 4344:1 4718:1 4816:1 5154:1 5155:1 5156:1 5157:1 5158:1 5159:1 5160:1 5161:1 5162:1 5163:1 5164:1 
1 1 1 1 1:5 8:9 14:1 18:1 21:2 31:1 32:9 34:2 35:1 37:8 41:1 45:5 54:1 55:1 59:3 60:1 63:2 66:5 74:5 75:1 79:1 87:8 96:1 100:1 105:2 134:1 141:1 146:3 154:3 162:1 168:2 171:3 175:1 179:1 185:1 190:1 201:3 228:1 232:3 237:1 239:1 260:1 267:5 268:1 311:1 322:3 339:2 340:1 363:2 391:4 400:1 413:1 415:1 447:1 452:1 453:1 468:1 471:1 480:2 481:1 493:1 496:1 521:1 548:1 644:1 671:2 718:1 768:2 770:1 798:1 806:1 809:5 819:1 892:1 897:1 908:1 949:1 986:1 1028:1 1162:1 1213:1 1284:1 1349:1 1454:1 1475:1 1692:7 1708:1 1720:1 1788:1 1861:1 1916:1 1952:1 2121:1 2189:1 2269:1 2294:2 2403:1 2408:1 2483:1 2498:1 2550:1 2899:1 2953:1 2977:1 3006:1 3411:1 3470:1 3493:1 3504:1 4040:2 4234:1 4592:1 5311:1 5432:1 5465:1 5466:1 5467:2 5468:1 5469:1 5470:2 5471:1 5472:1 5473:2 5474:1 5475:1 5476:1 5477:1 
1 1 1 1 1:4 3:1 8:2 15:1 32:3 34:1 37:5 39:2 44:3 64:1 66:4 112:1 171:1 287:1 288:1 313:1 316:1 406:1 519:1 523:1 539:1 600:1 768:2 935:1 964:1 1068:1 1374:1 1513:1 1576:1 1582:1 2124:2 2136:1 2325:1 2334:1 2449:1 2486:3 2499:1 2526:1 2725:1 3662:1 3824:2 4836:1 5123:1 5478:2 5479:1 5480:1 5481:1 5482:1 5483:1 5484:1 5485:1 5486:1 5487:1 5488:2 5489:1 5490:1 5491:1 5492:1 5493:1 5494:1 5495:1 5496:1 
1 1 1 1 3:3 21:1 34:1 36:1 37:2 44:1 288:1 358:1 396:1 404:1 463:1 539:1 697:1 908:1 992:1 1031:1 1645:1 1668:1 2206:1 3389:1 5497:1 5498:1 5499:1 
1 1 1 1 1:3 3:1 8:6 12:2 14:4 21:2 32:5 34:2 35:2 36:2 37:7 38:1 39:2 44:1 54:2 55:1 59:1 60:1 66:3 67:2 87:3 102:1 107:1 125:1 127:1 129:2 134:1 149:3 150:1 151:5 154:1 168:1 187:1 189:1 201:3 226:1 263:2 267:3 282:1 359:1 385:1 386:1 406:1 463:1 467:1 474:1 480:1 490:1 532:1 543:1 567:1 610:1 738:1 851:1 920:1 1088:2 1094:1 1177:1 1201:1 1292:1 1369:1 1509:1 1827:1 1985:1 2116:1 2532:1 2562:1 2705:1 2867:1 2873:1 3078:1 3130:1 3179:1 3275:1 3305:1 3357:1 3716:1 3754:1 5202:1 5277:1 5441:1 5521:1 5522:3 5523:1 5524:1 5525:1 5526:2 5527:2 5528:1 5529:2 
1 1 1 1 1:4 3:2 8:5 12:1 14:3 21:2 32:3 34:1 35:2 36:2 37:2 39:1 41:1 44:2 55:2 56:1 58:1 60:2 66:4 74:1 79:1 83:1 100:1 102:1 105:1 125:1 136:2 146:1 187:1 201:2 211:1 238:1 279:1 288:2 311:1 322:1 336:2 345:1 354:1 366:1 404:1 407:1 408:1 411:1 509:1 565:1 578:1 621:1 693:1 702:1 718:1 751:1 752:1 804:1 807:1 817:1 821:1 831:1 920:1 973:1 1100:1 1141:1 1369:1 1423:3 1427:1 1552:1 1595:1 1606:1 1628:5 1642:1 1655:1 1671:1 1694:1 2029:1 2052:1 2412:1 2532:1 2599:1 2660:1 2690:1 2846:1 3004:1 3026:1 3268:2 3382:1 3846:1 4225:1 4313:1 4562:1 5123:1 5429:1 5526:1 5563:1 5564:1 5565:1 5566:1 5567:1 5568:1 5569:1 5570:1 5571:1 5572:1 5573:1 5574:1 
1 1 1 1 0:1 1:3 3:4 5:1 8:5 14:1 17:1 21:1 34:2 36:1 37:8 38:2 39:1 55:1 56:2 60:1 74:2 79:1 102:1 105:4 112:1 125:1 134:1 185:1 201:2 207:1 258:1 260:1 268:1 285:1 288:1 313:1 328:1 339:1 342:3 345:1 347:2 349:1 354:2 363:1 380:1 404:2 421:1 463:1 469:1 539:1 572:2 580:1 604:1 619:1 645:1 646:1 701:1 820:1 859:2 929:1 955:1 1060:1 1069:1 1074:1 1126:1 1226:1 1273:2 1365:1 1647:2 1687:1 1731:1 1749:1 1806:1 1856:1 1994:1 2227:1 2290:1 2318:2 3358:1 3754:1 4624:1 4725:1 4779:2 5200:1 5575:1 5576:1 5577:1 5578:1 5579:1 5580:2 5581:1 5582:1 5583:1 5584:1 5585:1 5586:1 5587:1 5588:1 5589:1 
1 1 1 1 1:1 37:1 38:1 44:1 63:1 133:1 385:1 599:1 779:1 824:1 1094:1 2243:1 3653:1 3741:1 4121:1 5631:1 5632:1 5633:1 5634:1 5635:1 5636:1 
1 1 1 1 1:3 8:4 14:1 31:1 32:3 34:3 36:2 37:7 39:1 44:1 46:1 55:1 61:1 66:3 67:2 87:1 100:1 105:1 121:1 125:1 136:1 150:1 151:1 156:1 159:1 171:1 201:1 263:1 271:1 288:1 310:1 311:2 320:1 321:1 329:1 340:1 354:2 402:1 406:1 469:1 474:1 490:2 539:1 598:1 600:1 625:1 703:1 712:1 743:1 745:1 876:1 1015:1 1157:1 1201:1 1213:1 1426:1 1628:1 1671:1 1757:1 1761:1 1861:1 2192:1 2375:1 2405:1 2807:1 3280:1 3330:1 3331:2 3476:1 3502:1 3518:1 3851:1 3870:1 5121:1 5694:1 5695:1 5696:1 5697:1 5698:1 
1 1 1 1 1:26 3:12 8:25 13:3 14:21 17:2 21:4 31:6 32:15 34:11 35:6 37:27 38:1 39:7 42:1 43:1 44:2 45:3 46:2 47:1 54:1 55:10 56:4 57:1 58:1 59:1 60:2 63:2 66:10 68:1 70:1 71:6 73:1 74:27 76:1 79:6 87:1 93:3 94:1 98:1 99:1 100:4 102:2 105:1 112:1 125:9 129:1 133:2 134:2 136:3 137:1 139:1 141:1 144:2 146:1 148:1 150:5 153:1 154:2 159:3 162:2 165:1 168:3 170:2 171:2 175:1 177:1 189:8 191:1 193:1 197:1 201:1 238:2 241:1 244:1 258:1 267:2 268:1 271:2 272:3 283:1 284:3 288:2 297:1 301:2 313:1 317:1 322:4 328:2 330:2 339:2 345:1 348:1 359:4 363:3 368:2 380:1 381:4 382:2 391:2 393:1 404:1 411:1 413:1 415:1 433:2 437:1 439:1 445:1 451:2 463:1 468:2 469:1 475:2 481:1 485:1 494:1 496:1 503:1 509:5 515:1 521:1 539:3 550:1 551:1 553:1 554:1 560:1 565:1 572:2 575:1 589:1 591:1 592:1 598:2 600:2 608:1 626:4 641:1 646:1 647:3 651:1 653:1 671:2 675:1 682:1 684:7 697:1 712:1 718:1 722:1 725:1 735:1 738:2 742:1 750:1 761:1 765:1 770:1 781:1 785:1 789:1 792:1 796:1 806:1 809:1 811:1 817:7 835:1 873:1 878:1 902:4 908:2 929:1 933:3 964:1 973:5 984:1 986:1 989:3 1029:2 1056:1 1057:2 1061:1 1081:1 1092:1 1130:1 1147:1 1177:2 1196:4 1214:1 1228:1 1239:2 1240:1 1244:1 1248:1 1264:3 1273:1 1275:1 1312:1 1313:2 1316:2 1334:1 1350:1 1412:1 1427:1 1436:1 1444:2 1503:2 1513:1 1518:1 1543:2 1551:1 1552:1 1559:1 1563:4 1581:1 1596:3 1616:1 1642:1 1683:1 1705:1 1709:1 1742:1 1875:1 1896:1 1947:1 1950:5 1951:1 1968:1 1984:1 1985:1 2011:2 2021:1 2069:1 2073:1 2111:1 2117:1 2121:1 2122:1 2170:1 2192:3 2284:1 2409:2 2430:1 2459:1 2474:1 2483:1 2499:1 2519:1 2520:1 2582:2 2596:1 2640:1 2660:1 2665:2 2698:1 2730:1 2830:1 2853:1 2858:1 2861:1 2895:1 3062:1 3066:1 3068:1 3087:1 3169:1 3193:1 3200:1 3300:1 3326:1 3480:1 3508:1 3612:1 3625:1 3830:1 3855:1 3866:1 3900:1 4009:1 4024:1 4046:1 4084:1 4101:1 4182:2 4208:2 4276:1 4519:2 4536:1 4565:1 4585:1 4592:2 4690:1 4699:1 4726:1 4755:1 4846:1 4896:1 4942:1 5155:1 5225:2 5299:1 5418:1 5441:3 5553:1 5584:1 5704:1 5705:1 5706:2 5707:1 5708:1 5709:1 5710:2 5711:1 5712:1 5713:1 5714:1 5715:1 5716:1 5717:1 5718:4 5719:1 5720:1 5721:1 5722:1 5723:1 5724:1 5725:1 5726:2 5727:1 5728:1 5729:1 5730:1 5731:1 5732:1 5733:1 5734:1 5735:1 5736:1 5737:2 5738:1 5739:2 5740:2 5741:1 5742:2 5743:2 5744:1 5745:1 5746:1 5747:1 5748:1 5749:1 5750:1 5751:1 5752:1 5753:1 5754:1 5755:1 5756:1 5757:1 5758:1 5759:1 5760:1 5761:1 5762:1 5763:1 5764:1 5765:1 5766:1 5767:1 5768:2 5769:1 5770:1 5771:1 5772:1 5773:1 
1 1 1 1 1:2 8:2 41:1 45:1 55:1 58:2 60:1 149:1 191:1 330:1 539:1 568:1 596:1 1147:2 1706:1 1782:1 2012:1 2137:1 2360:1 2535:1 3123:1 3172:1 5774:2 5775:1 
1 1 1 1 0:1 1:2 3:2 8:3 14:1 31:1 32:1 37:1 44:3 45:1 55:1 56:1 63:1 66:3 87:2 96:1 171:2 197:2 201:2 237:1 238:1 267:1 288:1 301:1 328:1 339:1 359:1 363:1 380:1 391:1 403:1 404:1 439:1 453:3 462:1 480:1 497:1 521:1 609:1 789:1 816:1 835:1 886:1 974:1 1054:1 1139:1 1200:1 1329:1 1353:1 1563:1 1885:1 1978:1 2269:1 2285:1 2378:1 2743:2 2948:4 4185:1 4192:1 4314:1 5085:2 5786:1 5824:1 5825:1 5826:1 5827:1 5828:2 5829:1 5830:1 5831:1 5832:1 5833:1 5834:1 5835:1 5836:1 5837:1 
1 1 1 1 1:4 3:3 8:1 21:2 32:2 34:1 36:1 37:4 38:1 56:1 102:1 125:2 128:1 139:1 146:1 156:1 160:1 283:1 288:1 402:1 404:1 421:1 481:1 513:1 534:3 610:1 702:1 703:1 715:1 721:2 722:2 844:1 905:1 953:1 992:1 1236:2 1275:2 1448:1 1708:1 1729:1 2290:1 2532:1 3245:1 5838:1 5839:1 5840:1 
1 1 1 1 1:2 3:4 8:6 13:1 17:2 21:1 34:1 37:10 38:1 39:1 41:1 44:3 45:1 55:1 56:2 60:2 66:2 67:2 79:1 100:1 105:2 107:1 125:4 136:1 150:1 154:1 185:1 201:2 244:1 272:1 322:1 330:1 340:1 347:1 354:1 359:1 380:1 391:1 404:1 458:1 481:1 496:1 521:1 534:1 572:1 585:1 588:1 589:1 604:1 629:1 683:1 738:1 761:1 777:1 789:1 831:1 1019:1 1081:1 1170:3 1274:1 1275:1 1359:1 1427:1 1618:1 1640:1 1657:1 1734:1 1973:1 2120:1 2423:1 2908:1 3222:1 3302:1 3591:1 4121:1 4812:1 4814:1 4829:1 4957:1 5110:1 5162:1 5558:1 5848:1 5849:1 5850:1 5851:1 5852:1 5853:1 5854:1 5855:1 5856:1 5857:1 
1 1 1 1 1:3 3:2 8:1 21:1 31:1 37:1 125:1 129:1 150:1 201:1 224:1 288:1 362:1 385:1 408:1 480:1 556:1 601:1 650:1 1088:1 3879:1 5160:1 5899:2 5900:1 5901:1 5902:1 
1 1 1 1 1:1 3:2 8:2 12:1 14:1 21:3 34:1 36:2 37:7 38:1 44:3 55:5 56:1 65:1 66:3 83:1 87:1 100:2 149:1 154:1 156:1 159:1 187:1 201:1 238:1 282:1 294:1 347:1 362:1 363:1 366:1 391:1 404:1 406:1 451:2 480:1 490:1 539:1 604:2 610:1 624:1 630:1 641:1 647:1 696:1 701:1 737:1 750:1 838:1 897:1 993:1 1006:1 1027:1 1094:1 1162:1 1170:1 1207:1 1331:1 1336:1 1372:1 1541:1 1556:2 1616:1 1681:1 1683:1 1686:1 1839:4 1862:1 1896:1 1919:1 1962:1 2102:1 2172:1 2395:1 2537:1 2934:1 3795:1 4000:1 4024:1 4031:1 4054:1 4875:1 5982:2 5983:1 5984:1 5985:1 5986:1 5987:1 5988:1 5989:1 5990:1 5991:1 5992:1 5993:1 5994:1 5995:1 5996:1 
1 1 1 1 1:1 3:1 8:1 12:1 14:1 16:1 17:1 32:1 34:1 35:1 36:1 37:6 39:1 41:1 44:3 56:1 58:1 66:4 67:1 73:1 87:1 93:1 105:2 127:1 129:1 137:1 153:1 156:1 162:2 168:1 201:3 238:2 271:1 272:1 359:1 404:1 453:1 458:1 459:1 505:1 509:1 513:1 519:1 539:1 610:1 624:1 626:1 629:1 718:1 727:1 770:1 831:1 1068:1 1134:2 1177:1 1196:1 1331:1 1427:1 1501:1 1621:1 1672:1 1697:1 1719:1 2163:1 2267:1 2375:1 2450:1 2456:1 2550:1 2607:1 2786:1 3004:1 3356:1 3741:1 5202:1 6012:1 6013:1 6014:1 6015:1 6016:1 6017:1 6018:1 
1 1 1 1 0:1 1:9 3:2 6:2 7:2 8:8 14:1 15:1 16:1 17:1 21:3 31:1 32:13 35:1 36:1 37:2 39:1 44:1 54:1 55:3 57:1 59:1 60:1 63:1 66:7 74:7 79:3 87:2 102:1 120:4 125:1 127:1 144:1 146:2 154:1 171:3 181:1 193:1 207:1 208:1 237:1 244:1 263:1 279:2 285:1 288:1 294:1 301:1 308:1 316:1 347:1 359:1 363:2 391:3 393:1 406:1 411:1 453:1 463:1 468:1 474:2 480:1 481:1 485:1 490:2 496:1 509:1 532:1 539:2 550:1 560:1 574:2 608:2 616:4 617:3 618:1 624:1 625:2 626:1 636:1 641:1 647:1 662:1 682:1 696:1 730:1 731:1 745:1 765:1 796:1 823:1 909:1 989:2 992:2 1006:1 1080:1 1094:1 1152:1 1170:1 1173:1 1204:1 1236:1 1262:1 1283:1 1329:1 1336:1 1353:1 1596:1 1642:1 1861:1 2001:1 2102:1 2151:1 2190:1 2209:1 2284:1 2424:1 2435:1 2529:1 2536:1 2566:1 2648:1 2720:1 3097:1 3343:1 3364:1 3450:1 3584:1 3607:1 3608:1 3786:1 3829:1 3990:1 4085:1 4412:1 4538:1 4871:1 5650:1 6020:1 6029:1 6030:1 6031:1 6032:1 6033:1 6034:1 6035:1 6036:1 6037:1 6038:1 6039:1 6040:1 6041:1 6042:1 6043:1 6044:1 6045:1 6046:1 6047:1 6048:1 6049:1 6050:1 6051:1 6052:1 6053:1 6054:1 
1 1 1 1 1:1 8:3 12:1 21:1 31:1 32:2 34:2 35:1 37:3 39:2 41:1 44:3 45:1 53:1 55:2 56:1 66:2 70:1 74:1 87:1 96:1 105:1 121:1 125:1 127:1 149:1 151:1 201:1 224:2 238:1 263:2 265:1 311:1 315:1 319:1 329:1 339:1 363:1 391:1 414:1 439:1 490:1 509:1 554:1 568:1 594:1 629:1 641:1 683:1 712:1 866:1 910:1 931:1 1003:1 1059:1 1138:2 1177:1 1430:1 1475:2 1675:1 1701:1 1761:1 2036:1 2449:1 2526:1 2759:1 3733:1 4344:1 4553:1 5044:1 6085:1 6086:1 6087:1 
1 1 1 1 8:3 34:1 55:1 98:1 159:1 336:1 359:1 366:1 583:1 610:1 651:1 670:1 701:1 882:1 994:1 1022:1 1290:1 1705:1 2031:2 2832:1 3211:1 3338:1 3355:1 6004:1 6088:2 6089:1 6090:1 6091:1 
1 1 1 1 1:1 3:2 8:1 14:1 32:1 35:1 36:1 37:3 41:1 44:3 55:3 64:1 80:2 83:1 87:3 93:1 100:1 102:1 105:1 112:1 155:1 187:1 189:1 201:4 224:1 239:1 244:1 263:1 288:1 322:1 328:1 345:1 358:1 385:2 404:2 407:1 413:1 463:1 469:1 481:1 505:1 539:1 600:1 786:1 808:1 943:1 995:1 1015:1 1038:5 1156:1 1291:1 1363:1 1374:1 1462:1 1506:1 1632:1 1861:1 2948:3 2973:2 3327:1 3964:1 4020:1 4034:1 4277:1 4921:1 5476:1 6134:1 6135:2 6136:1 6137:2 6138:1 6139:1 6140:1 6141:1 6142:1 6143:1 6144:1 6145:1 6146:1 
1 1 1 1 1:8 3:4 8:4 13:1 14:4 21:1 32:4 37:3 39:1 44:1 63:1 66:1 71:2 72:1 74:2 79:1 107:1 125:1 149:1 168:1 178:1 180:1 260:1 297:1 322:1 363:1 366:1 398:1 453:1 475:1 526:1 543:1 567:1 591:1 595:1 609:1 646:1 682:1 683:1 684:1 742:1 753:1 786:1 787:1 933:1 935:1 961:1 962:1 973:1 1177:1 1273:1 1515:1 1687:1 2549:1 2582:1 2910:1 4257:1 5111:1 5137:1 5236:1 5890:1 6200:1 6201:1 6202:1 6203:1 6204:1 6205:1 6206:1 6207:2 6208:1 6209:1 6210:1 6211:1 6212:1 6213:1 6214:1 6215:1 6216:1 6217:1 6218:1 6219:1 6220:1 6221:1 
1 1 1 1 1:1 3:1 8:2 14:2 31:1 32:2 34:1 35:1 37:6 44:1 66:2 71:2 74:2 87:1 136:2 149:1 150:1 154:1 164:1 167:1 168:1 267:1 301:1 303:1 363:1 521:1 539:1 683:1 707:1 768:1 789:1 819:2 1170:1 1348:2 1369:1 1418:1 1590:1 2039:1 2078:1 2107:1 2172:1 2173:1 2271:1 2296:1 2553:1 3838:1 4415:1 6085:1 6222:1 6223:1 6224:1 6225:1 6226:1 6227:1 6228:1 6229:1 6230:1 6231:1 6232:1 6233:1 6234:1 6235:1 
1 1 1 1 1:2 3:3 8:12 13:2 14:1 21:8 32:10 33:1 34:2 35:2 36:1 37:16 39:1 41:3 55:4 56:1 58:1 60:3 66:8 71:1 74:6 79:1 87:1 96:2 98:1 102:1 105:3 111:2 112:1 124:1 127:2 133:1 136:1 138:2 141:1 146:1 154:1 171:6 177:1 189:1 193:1 195:1 197:1 201:2 233:1 237:1 260:2 263:1 267:3 271:1 283:1 288:1 294:1 301:1 309:3 311:1 313:2 317:2 322:1 324:1 328:1 329:2 343:1 358:2 363:1 385:1 389:1 391:1 439:1 445:1 448:2 451:1 463:1 512:1 538:1 539:2 554:1 557:1 560:2 574:1 589:1 614:1 624:1 651:2 662:1 683:2 684:2 702:1 718:3 749:3 750:2 768:1 770:1 779:2 789:1 795:1 823:1 854:1 883:1 897:1 905:1 941:1 962:1 981:2 1002:1 1003:1 1018:1 1029:1 1044:1 1100:1 1119:2 1121:1 1126:1 1139:1 1195:1 1201:1 1237:1 1241:1 1260:1 1273:1 1364:1 1424:1 1427:1 1463:1 1528:1 1644:1 1654:2 1744:1 2126:1 2135:2 2143:1 2148:1 2183:1 2408:1 2414:1 2428:1 2449:1 2552:1 2701:1 2749:1 2752:1 2815:1 2858:1 3452:1 3520:1 3545:1 3619:1 3774:1 4127:1 4234:1 4437:1 4793:2 4845:1 5224:1 5524:1 5605:2 5710:1 5767:1 5990:1 6236:1 6237:1 6238:1 6239:1 6240:1 6241:1 6242:1 6243:1 6244:1 6245:1 6246:1 6247:1 6248:1 6249:1 6250:1 6251:1 6252:1 6253:1 6254:1 6255:1 6256:1 6257:1 6258:1 
1 1 1 1 21:1 36:1 37:1 44:1 87:1 121:1 129:1 168:1 322:1 354:1 404:1 712:1 807:1 1236:1 1242:1 1566:1 6264:1 
1 1 1 1 1:3 3:4 8:3 12:1 21:1 32:1 34:1 37:5 39:1 44:1 55:1 58:1 60:1 63:1 93:1 96:1 97:1 106:1 125:1 136:1 150:1 201:1 263:1 265:2 279:1 380:1 414:1 469:1 521:1 647:1 831:1 835:1 908:1 910:2 933:1 1055:1 1068:1 1125:1 1155:1 1162:1 1199:1 1248:1 1365:1 1475:1 1498:1 1788:1 2234:3 2449:1 2686:1 3283:1 4475:1 4829:1 5044:1 5542:1 6273:1 6274:1 6275:1 6276:1 6277:1 6278:1 6279:1 6280:1 
1 1 1 1 1:2 8:1 32:1 34:2 37:2 45:1 55:3 60:1 82:1 87:2 263:1 267:1 313:1 359:1 363:1 385:2 414:1 451:1 567:1 792:1 962:1 1003:1 1057:1 1088:1 1228:1 1454:1 1630:1 1901:1 3176:1 4052:2 4254:1 5018:1 5806:1 6353:1 6354:1 
1 1 1 1 1:2 3:1 8:3 21:2 31:1 37:8 38:1 44:1 55:1 66:1 70:1 74:1 96:1 100:1 125:2 168:1 187:1 191:1 192:1 197:1 201:2 204:2 211:1 263:1 285:1 307:1 329:1 345:1 358:1 363:1 391:1 416:1 463:1 505:1 524:2 548:1 557:1 600:3 638:1 645:2 646:1 674:2 687:1 718:1 740:1 946:1 1068:1 1090:1 1117:1 1139:1 1167:2 1335:1 1448:1 1554:1 1563:1 1774:1 1861:2 1862:1 1951:5 1994:1 2102:2 2137:1 2163:1 2211:1 2366:1 2526:1 2568:1 2668:1 2716:1 3255:1 3314:1 3355:1 3448:1 4016:2 4162:1 4259:1 4647:1 4663:1 4753:1 5244:1 5540:1 5824:1 6178:1 6199:1 6364:1 6365:1 6366:2 6367:1 6368:1 6369:1 6370:1 6371:1 6372:1 6373:1 6374:1 6375:1 6376:1 6377:1 6378:1 6379:1 6380:1 6381:1 6382:1 6383:1 6384:1 6385:1 6386:1 6387:1 6388:1 6389:1 6390:1 6391:1 6392:1 6393:1 6394:1 6395:2 6396:2 6397:1 
1 1 1 1 8:5 17:2 21:1 32:1 37:3 39:1 44:4 66:1 79:3 87:1 100:1 125:1 129:1 150:1 154:2 166:1 168:1 180:1 263:1 317:1 359:1 363:1 439:1 467:1 508:2 619:1 712:1 718:1 749:1 785:1 817:1 933:1 1068:1 1505:1 1675:1 2257:1 2764:1 2917:1 3256:1 6398:1 6399:1 6400:1 6401:1 6402:1 6403:1 6404:1 6405:1 6406:1 6407:1 
1 1 1 1 1:3 3:1 8:2 14:1 21:2 32:4 34:1 35:2 37:3 39:3 44:2 45:1 55:1 58:1 59:1 60:2 63:1 66:7 70:2 74:4 79:1 87:3 96:1 98:1 146:2 168:1 192:1 267:2 280:1 283:1 288:1 311:2 322:1 348:1 363:1 368:1 381:1 411:1 431:1 464:1 465:1 469:1 488:1 496:1 521:1 594:1 718:2 768:1 770:1 779:1 792:1 796:1 806:1 847:1 931:1 1037:1 1063:1 1158:1 1182:1 1283:1 1538:1 1589:1 1630:1 1690:1 1708:1 1757:1 1853:1 2011:1 2081:1 2124:1 2187:1 2262:1 2316:1 2343:1 2450:1 2743:1 2745:1 2746:2 2848:1 3920:1 3970:1 3985:1 4495:1 5312:1 5642:1 6425:1 6426:1 6427:1 6428:1 6429:1 6430:1 6431:1 6432:1 6433:1 6434:1 6435:1 
1 1 1 1 1:3 3:2 8:1 18:1 21:2 32:8 34:1 37:5 39:1 41:1 44:3 60:1 63:1 66:4 70:1 102:1 104:1 105:1 127:1 150:1 155:1 177:1 184:1 185:1 233:1 322:2 463:1 487:1 490:1 501:1 529:1 545:1 549:1 554:1 575:1 596:1 647:1 671:1 718:1 751:1 752:1 776:1 929:1 933:1 962:1 995:1 1015:1 1222:1 1283:1 1335:1 1412:1 1581:1 1621:3 1712:1 1771:1 2116:1 2255:1 2449:1 2599:1 2926:1 3415:1 4219:1 4668:1 5150:1 5223:1 6123:2 6521:1 6522:1 6523:1 6524:1 6525:1 
1 1 1 1 1:7 3:1 8:4 14:3 21:3 32:16 34:6 35:1 37:8 38:1 39:1 44:2 45:3 55:3 58:1 60:1 64:1 66:8 68:1 71:1 74:5 79:2 86:1 87:4 93:1 96:1 105:1 120:3 125:1 127:2 149:1 150:1 154:1 177:1 184:1 190:1 233:1 244:1 263:1 267:3 268:1 271:1 272:1 301:1 307:1 311:2 312:1 328:1 340:2 358:1 359:2 363:1 366:1 406:1 411:1 416:1 451:1 480:1 490:1 493:2 505:1 521:1 535:1 548:1 549:1 551:1 554:1 557:1 560:1 570:1 578:1 600:1 603:1 604:1 623:1 626:1 649:1 679:1 680:1 718:1 733:2 768:1 771:1 789:1 804:1 806:1 897:1 908:1 924:1 945:1 959:1 962:1 1030:1 1036:1 1038:1 1045:1 1094:1 1126:1 1147:2 1162:1 1185:1 1206:1 1207:1 1242:1 1316:1 1329:1 1374:1 1510:1 1556:4 1617:1 1839:1 1982:1 1994:1 2170:1 2599:1 2640:1 2675:1 2954:1 3011:1 3130:3 3405:1 3504:1 4022:1 4024:3 4054:1 4447:1 4479:1 4593:1 4629:1 4755:1 5311:1 6325:1 6595:3 6596:1 6597:1 6598:2 6599:1 6600:1 6601:2 
1 1 1 1 1:6 3:4 8:8 14:1 15:1 21:2 31:1 32:6 34:2 37:6 39:1 44:3 55:1 58:1 60:3 66:6 70:1 71:1 74:1 82:1 86:1 87:4 93:1 95:1 98:1 100:2 102:1 105:2 112:3 125:2 127:1 141:1 149:1 154:2 164:1 168:1 171:4 181:2 201:2 238:1 263:2 267:3 300:1 301:2 317:1 321:1 322:1 324:1 328:3 359:1 362:1 363:1 368:1 386:1 403:1 404:1 462:1 463:1 480:2 490:3 521:1 565:2 566:2 572:1 575:2 583:1 625:1 666:1 671:1 678:1 681:1 730:2 750:1 809:1 816:1 821:1 842:1 882:1 897:1 929:1 933:1 953:1 994:1 1017:1 1027:1 1034:1 1063:1 1100:1 1200:1 1201:1 1248:1 1416:1 1589:1 1712:1 1717:1 1770:2 1861:1 2499:1 2550:1 2754:1 2763:1 2768:1 2786:1 2988:1 3275:1 3283:4 3412:1 4455:1 4647:1 4656:2 5023:1 5494:1 5515:1 5834:1 6632:1 6633:1 6634:2 6635:1 6636:1 6637:1 6638:1 
1 1 1 1 1:1 8:4 12:1 14:1 32:2 35:2 36:1 37:2 44:1 66:1 67:1 87:1 133:1 151:1 279:1 288:1 391:1 439:1 523:1 602:1 684:1 712:1 768:1 897:1 954:1 981:1 1081:1 1207:1 1282:1 1694:1 2053:1 2494:1 2495:1 2530:1 3845:1 3906:2 5183:1 6022:1 6664:1 6665:1 6666:1 6667:1 6668:1 
1 1 1 1 1:6 3:8 6:1 7:1 8:7 15:1 16:2 21:2 32:2 34:2 37:7 43:2 44:1 55:2 56:3 60:3 66:3 100:2 102:1 124:1 125:3 127:1 134:2 136:2 201:1 208:1 263:1 288:1 301:1 322:1 328:1 336:1 347:3 349:1 354:2 363:1 385:3 400:1 436:1 443:1 453:1 462:1 478:1 490:1 505:2 512:1 548:1 572:1 647:1 651:1 683:1 778:1 789:1 814:1 824:2 897:1 904:1 905:1 929:2 1046:1 1081:1 1084:1 1172:1 1286:1 1475:1 1535:1 1671:1 1705:1 1854:2 1915:1 1921:1 2093:1 2107:1 2284:1 2390:2 2420:2 2493:1 2557:1 2701:1 3182:1 3261:1 3364:1 3612:1 4084:1 4846:1 4968:1 5604:2 6145:1 6150:1 6585:1 6674:1 6675:1 6676:1 6677:1 6678:1 6679:1 6680:1 6681:1 6682:1 6683:1 6684:1 6685:1 6686:1 6687:1 6688:1 6689:1 6690:1 6691:1 6692:1 6693:1 6694:1 6695:1 6696:1 6697:1 6698:1 6699:1 
-1 1 1 1 1:6 2:1 3:5 8:3 18:1 31:3 32:9 34:1 35:2 36:1 37:8 41:1 44:2 45:1 55:3 58:1 60:1 66:1 70:2 71:2 74:1 92:1 93:1 97:1 98:2 99:1 100:2 101:1 102:2 103:1 104:1 105:2 106:1 107:1 108:1 109:1 110:1 111:1 112:2 113:1 114:1 115:1 116:1 117:1 118:1 119:1 120:1 121:1 122:1 123:1 124:1 125:2 126:2 127:1 128:1 129:3 130:1 131:1 132:1 133:1 134:1 135:1 136:3 137:1 138:1 139:1 140:1 141:2 142:1 143:1 144:1 145:1 146:1 147:1 148:1 149:1 150:1 151:1 152:1 153:1 154:1 155:1 156:1 157:2 158:2 159:2 160:1 161:1 162:1 163:1 164:1 165:1 166:1 167:1 168:1 169:1 170:1 171:2 172:1 173:1 174:1 175:1 176:1 177:1 178:2 179:1 180:1 181:2 182:1 183:1 184:1 185:1 186:1 187:2 188:1 189:1 190:1 191:1 192:1 193:1 194:1 195:1 196:1 197:1 198:1 199:1 200:1 201:1 202:1 203:1 204:2 205:2 206:1 207:1 208:1 209:1 
-1 1 1 1 1:13 3:14 5:1 8:17 12:1 14:5 17:1 21:12 31:1 32:7 34:5 35:4 36:1 37:32 39:10 41:1 44:12 45:2 47:1 53:1 54:1 55:3 56:1 57:1 58:3 60:3 63:1 65:1 66:7 71:3 72:1 74:2 79:1 93:2 100:2 102:4 104:1 105:4 125:5 129:1 136:2 141:1 146:1 148:2 150:1 151:1 155:2 159:1 163:1 164:1 170:1 171:4 184:1 189:1 197:1 201:2 207:1 210:1 211:2 212:1 213:1 214:1 215:1 216:1 217:4 218:4 219:8 220:2 221:1 222:1 223:1 224:3 225:1 226:1 227:1 228:2 229:2 230:3 231:1 232:2 233:1 234:1 235:1 236:1 237:2 238:1 239:2 240:1 241:1 242:1 243:1 244:1 245:1 246:1 247:1 248:1 249:1 250:1 251:1 252:1 253:1 254:1 255:1 256:3 257:2 258:5 259:1 260:2 261:3 262:2 263:2 264:1 265:2 266:1 267:2 268:1 269:1 270:1 271:1 272:1 273:1 274:1 275:5 276:5 277:1 278:1 279:1 280:1 281:1 282:1 283:2 284:3 285:2 286:1 287:1 288:3 289:1 290:1 291:2 292:1 293:1 294:2 295:1 296:1 297:1 298:1 299:1 300:1 301:7 302:4 303:4 304:1 305:1 306:1 307:1 308:2 309:1 310:1 311:4 312:1 313:3 314:1 315:1 316:1 317:2 318:1 319:1 320:1 321:2 322:3 323:1 324:1 325:1 326:1 327:1 328:3 329:2 330:1 331:1 332:1 333:1 334:1 335:1 336:1 337:1 338:1 339:1 340:1 341:1 342:1 343:1 344:1 345:1 346:1 347:2 348:1 349:2 350:1 351:1 352:1 353:1 354:1 355:1 356:1 357:1 358:1 359:1 360:2 361:1 362:1 363:1 364:1 365:1 366:1 367:1 368:1 369:1 370:1 371:1 372:1 373:1 374:1 375:1 376:1 377:1 378:2 379:1 380:2 381:2 382:1 383:1 384:1 385:1 386:1 387:1 388:1 389:1 390:1 391:2 392:1 393:1 394:1 395:1 396:1 397:1 398:1 399:1 400:1 401:1 402:1 403:1 404:1 405:1 
-1 1 1 1 1:4 3:1 8:4 14:3 21:2 31:1 32:3 37:6 53:1 55:1 63:1 66:4 74:1 94:1 102:1 125:1 127:1 133:1 139:1 141:1 160:1 168:1 181:1 187:1 201:1 250:1 260:1 301:1 311:2 322:1 337:1 342:2 354:1 359:1 363:1 408:1 439:1 501:1 518:1 519:1 520:1 521:1 522:1 523:1 524:1 525:1 526:1 527:1 528:1 529:1 530:1 531:1 532:1 533:1 534:1 535:1 536:1 537:1 538:1 539:1 540:1 541:1 542:1 543:1 544:1 545:1 546:1 547:1 548:1 549:1 550:1 551:1 552:1 553:1 554:1 555:1 556:1 557:1 558:1 
-1 1 1 1 1:1 8:2 21:1 31:2 32:1 36:1 37:2 39:1 44:1 60:1 66:1 79:2 98:1 100:1 129:1 150:1 168:1 170:1 171:1 238:1 260:1 265:1 282:1 322:1 330:1 347:2 416:1 427:1 451:2 463:1 559:1 560:1 561:1 562:1 563:1 564:1 565:1 566:2 567:1 568:1 569:1 570:1 571:1 572:1 573:1 574:1 575:1 576:1 577:1 578:1 579:1 
-1 1 1 1 1:2 8:2 13:1 31:1 32:3 37:4 39:1 43:1 44:1 53:1 55:2 60:1 66:3 67:1 74:3 76:1 79:1 87:3 100:1 107:1 125:1 133:1 159:2 168:1 192:1 260:1 279:1 288:1 334:1 339:1 458:1 463:1 480:1 523:1 534:3 539:1 554:1 560:1 568:1 569:1 578:1 580:1 581:1 582:2 583:1 584:1 585:1 586:1 587:1 588:1 589:1 590:1 591:1 592:1 593:1 594:1 595:1 596:1 597:1 598:1 599:1 600:1 601:1 602:1 
-1 1 1 1 1:4 3:2 6:2 7:2 8:1 12:1 17:2 21:1 31:1 32:2 34:1 36:1 37:2 39:1 41:2 44:1 55:1 56:1 60:2 66:2 82:2 100:3 102:1 105:3 119:1 125:2 134:1 136:1 149:1 159:2 171:2 201:2 219:1 228:1 229:1 238:1 294:1 312:1 322:1 328:1 334:1 340:1 345:1 347:1 354:1 363:1 381:1 391:2 393:1 404:1 416:1 469:2 484:1 490:2 496:1 521:1 534:1 539:1 572:1 584:1 603:2 604:1 605:1 606:1 607:1 608:1 609:1 610:1 611:1 612:1 613:1 614:1 615:1 616:1 617:1 618:1 619:1 620:1 621:1 622:1 623:1 624:1 625:1 626:1 627:1 628:1 629:1 630:1 631:1 632:1 633:1 634:1 635:1 636:1 637:1 638:1 639:1 640:1 641:1 642:1 643:1 644:1 645:1 646:1 647:1 
-1 1 1 1 1:2 3:2 8:4 14:1 17:3 21:1 31:2 32:1 33:1 34:5 35:1 37:6 38:1 39:3 41:4 44:3 55:4 66:6 75:1 82:1 83:1 96:2 105:1 111:1 119:1 125:1 154:1 155:1 168:1 201:1 208:1 260:2 262:1 271:1 287:1 288:2 300:1 302:1 322:1 324:1 328:1 329:2 363:5 366:1 469:1 480:2 490:1 493:1 583:1 595:1 626:1 641:1 700:1 847:1 882:1 910:1 911:1 912:1 913:1 914:1 915:1 916:1 917:3 918:1 919:2 920:1 921:1 922:1 923:1 924:1 925:1 926:1 927:1 928:1 929:1 930:1 931:1 932:1 933:1 934:2 935:1 936:1 937:1 938:1 939:1 940:1 941:1 942:1 943:1 944:1 945:1 946:1 947:1 948:1 949:1 950:1 951:1 
-1 1 1 1 1:4 3:2 8:4 14:1 15:1 21:3 32:8 34:2 37:3 59:1 64:1 66:4 67:1 74:4 79:1 82:1 87:4 102:1 120:1 125:4 150:2 171:2 181:1 201:1 263:1 267:1 268:1 294:1 298:1 301:1 348:1 411:1 453:1 490:2 512:1 521:1 554:1 600:1 610:1 667:3 690:1 691:1 697:1 768:1 779:1 785:1 943:1 995:1 1003:1 1018:1 1029:1 1046:1 1128:1 1129:1 1130:1 1131:1 1132:2 1133:1 1134:1 1135:2 1136:2 1137:2 1138:1 1139:1 1140:1 1141:1 1142:1 1143:1 1144:2 1145:1 1146:1 1147:1 1148:1 1149:1 1150:1 1151:1 1152:1 1153:1 1154:1 1155:1 1156:1 1157:1 1158:1 1159:1 
-1 1 1 1 1:3 8:6 14:1 21:1 32:5 34:1 36:1 37:4 44:2 55:1 66:1 70:3 74:4 75:1 111:1 125:1 135:1 151:1 181:1 251:1 267:1 288:2 301:2 336:1 346:1 359:1 363:1 404:1 463:1 497:1 549:1 551:1 554:1 557:1 572:1 641:1 785:1 790:1 822:1 827:1 829:1 837:1 908:1 1018:1 1029:1 1058:1 1074:1 1080:1 1141:1 1180:1 1181:1 1182:1 1183:1 1184:1 1185:1 1186:1 1187:1 1188:1 1189:1 1190:1 1191:1 1192:1 1193:1 
-1 1 1 1 1:3 3:2 8:3 14:2 32:3 34:1 37:4 39:1 40:1 41:1 55:1 66:1 71:2 74:1 87:4 125:1 160:1 171:1 187:1 189:1 280:1 297:1 301:1 317:1 318:1 328:1 345:1 347:1 363:4 381:1 389:1 445:1 453:1 462:1 469:1 539:1 565:1 651:2 684:1 779:1 817:1 822:1 901:1 935:1 1032:1 1264:2 1265:1 1266:1 1267:1 1268:2 1269:2 1270:1 1271:1 1272:1 1273:1 1274:1 1275:1 1276:1 1277:1 1278:1 1279:1 1280:1 1281:1 1282:1 1283:1 1284:1 1285:1 1286:1 
-1 1 1 1 1:1 3:1 14:1 98:1 265:1 594:1 913:1 931:1 1276:1 1434:1 1435:1 1436:1 1437:1 
-1 1 1 1 1:1 3:1 8:3 21:1 32:2 34:1 35:1 36:1 37:1 39:1 56:1 74:4 82:1 100:1 125:1 168:1 189:1 239:1 267:1 336:1 374:1 389:1 391:2 393:1 445:1 485:1 509:1 595:1 801:1 823:1 882:1 973:1 1502:1 1503:1 1504:1 1505:1 1506:1 1507:1 1508:1 
-1 1 1 1 1:1 3:2 8:3 12:1 21:1 31:1 32:1 34:1 35:1 37:4 38:1 39:1 44:1 55:1 66:3 71:2 74:1 79:1 105:2 112:2 124:1 125:1 129:1 146:1 153:1 165:1 170:2 187:1 207:1 259:1 260:2 318:1 340:1 363:1 365:1 412:1 418:2 477:1 575:1 578:3 649:1 675:1 725:1 733:1 765:1 817:1 1217:1 1236:1 1274:1 1513:1 1514:1 1515:1 1516:1 1517:1 1518:1 1519:1 1520:1 1521:1 1522:1 1523:1 1524:1 1525:1 1526:1 1527:1 1528:1 1529:1 1530:1 1531:1 1532:1 1533:1 1534:1 1535:1 1536:1 
-1 1 1 1 1:6 8:7 17:2 21:8 31:2 32:4 34:4 37:9 38:1 39:2 40:1 41:1 44:2 45:1 54:2 55:3 56:1 60:1 66:4 71:1 72:1 74:7 79:4 87:2 96:1 102:2 105:1 125:3 127:1 128:1 129:1 133:1 146:1 150:3 155:1 164:1 171:3 180:1 185:1 201:1 207:2 219:4 226:1 244:1 258:1 294:1 298:1 300:1 309:1 311:1 323:1 330:3 345:1 363:1 391:1 427:1 451:1 456:1 463:1 469:1 496:1 521:1 535:1 539:1 553:1 569:1 591:1 600:2 626:1 646:1 684:2 701:2 722:1 779:1 804:1 807:1 851:1 908:1 959:1 961:2 962:1 1003:1 1070:1 1126:1 1260:1 1275:1 1316:1 1335:3 1372:1 1537:1 1538:1 1539:2 1540:1 1541:1 1542:1 1543:1 1544:1 1545:1 1546:1 1547:1 1548:1 1549:2 1550:1 1551:1 1552:1 1553:1 1554:1 1555:1 1556:3 1557:1 1558:1 1559:1 1560:1 1561:1 1562:2 1563:1 1564:1 
-1 1 1 1 37:1 269:1 349:1 363:1 521:1 646:1 824:1 
-1 1 1 1 1:5 2:1 3:2 8:1 32:4 35:2 37:3 39:1 44:2 55:1 64:2 66:4 70:1 71:1 74:1 82:1 96:1 102:1 120:1 121:2 129:1 136:2 138:1 141:1 144:1 150:1 156:1 171:4 172:1 201:2 208:1 226:1 263:2 282:1 288:1 300:1 313:1 321:1 329:1 339:1 359:1 362:1 389:1 414:1 447:1 474:1 490:1 549:1 561:1 562:1 641:1 647:1 822:1 897:1 930:1 1018:1 1027:1 1034:2 1162:1 1167:1 1168:1 1199:1 1444:1 1608:2 1609:2 1610:1 1611:1 1612:1 1613:1 1614:1 1615:1 1616:1 1617:1 
-1 1 1 1 1:3 3:1 8:3 17:1 32:1 35:1 37:2 44:1 55:1 66:2 82:1 98:1 127:2 136:2 138:1 151:3 168:1 187:1 191:1 201:1 265:1 267:1 287:1 288:1 320:1 463:1 490:1 493:1 566:1 649:1 682:1 737:1 738:1 768:1 928:1 962:1 1178:2 1293:1 1353:1 1454:2 1647:2 1655:1 1656:1 1657:1 1658:1 1659:1 1660:1 1661:1 1662:1 1663:1 1664:1 1665:1 1666:1 1667:1 1668:1 
-1 1 1 1 0:1 1:14 3:6 5:1 8:10 12:1 17:4 18:1 21:4 31:2 32:7 35:1 37:15 39:5 41:1 44:10 45:4 55:1 57:1 58:1 59:1 60:2 65:1 66:10 67:1 70:3 79:1 82:1 87:2 100:1 102:2 105:3 111:1 119:1 120:1 125:6 127:2 129:2 138:1 141:1 146:1 150:2 154:1 155:1 167:3 171:1 224:1 238:2 239:1 260:1 267:2 279:1 288:1 294:1 311:1 313:2 321:1 322:2 330:1 344:1 347:3 354:2 358:1 361:1 362:1 363:1 366:1 385:1 436:1 458:4 463:1 474:1 480:3 481:1 489:1 494:1 505:1 521:2 532:1 533:1 539:1 566:1 596:1 600:2 603:1 610:1 623:4 626:1 671:1 696:1 702:2 718:1 750:2 761:1 768:1 781:1 791:2 796:1 805:1 825:1 873:1 924:1 962:1 1015:2 1017:1 1036:1 1054:1 1121:1 1131:1 1134:1 1139:1 1152:1 1170:2 1201:1 1274:1 1282:1 1286:1 1295:1 1316:3 1364:2 1424:1 1513:1 1559:1 1566:1 1616:1 1618:1 1669:1 1670:1 1671:1 1672:2 1673:1 1674:1 1675:1 1676:1 1677:1 1678:1 1679:1 1680:1 1681:1 1682:1 1683:1 1684:1 1685:1 1686:1 1687:1 1688:1 1689:1 1690:1 1691:1 1692:1 1693:1 1694:3 1695:1 1696:2 1697:2 1698:1 1699:2 1700:1 1701:1 1702:1 1703:1 1704:1 1705:1 1706:1 1707:1 1708:1 1709:1 1710:1 1711:1 1712:1 1713:1 1714:1 1715:1 1716:1 1717:1 1718:1 1719:1 1720:1 1721:1 1722:1 
-1 1 1 1 1:7 3:8 8:7 14:1 17:1 21:3 31:2 32:3 34:3 36:1 37:8 38:1 39:2 41:2 44:6 45:2 55:4 63:2 65:1 66:6 70:2 87:1 96:1 100:2 104:1 105:1 107:1 112:1 119:1 120:1 125:1 129:3 133:1 136:1 138:1 146:2 149:2 155:1 159:1 168:1 171:1 201:2 219:1 221:1 238:1 258:1 263:1 269:2 288:1 308:2 311:2 320:2 329:1 330:1 345:1 347:1 354:1 358:1 363:2 373:1 385:1 436:1 443:1 458:1 463:1 509:1 521:2 526:1 600:2 609:1 611:1 623:1 629:2 674:1 678:3 697:1 712:1 718:1 750:1 753:1 774:1 781:2 789:1 796:1 831:1 873:1 890:1 908:2 933:1 968:1 985:1 988:1 1038:2 1040:1 1063:1 1139:1 1199:1 1226:1 1243:3 1336:1 1392:1 1426:1 1431:1 1520:1 1675:1 1736:1 1737:2 1738:1 1739:1 1740:1 1741:1 1742:1 1743:1 1744:1 1745:1 1746:1 1747:1 1748:1 1749:1 1750:1 1751:1 1752:1 1753:1 1754:1 1755:1 1756:1 1757:1 1758:1 1759:1 1760:1 1761:1 1762:1 1763:1 1764:1 1765:1 1766:1 1767:1 1768:1 1769:1 1770:1 1771:1 1772:1 1773:1 1774:1 1775:1 1776:1 1777:1 1778:1 1779:1 1780:1 1781:1 1782:1 1783:1 1784:2 1785:1 1786:1 1787:1 1788:1 1789:1 1790:1 
-1 1 1 1 1:5 3:2 8:4 17:1 21:2 31:4 32:3 34:3 36:1 37:4 44:5 45:1 55:1 56:1 63:1 66:6 87:1 100:1 102:2 105:1 111:1 121:1 125:6 134:1 149:2 150:1 171:1 219:3 238:1 258:2 263:1 265:1 288:1 292:1 313:1 322:1 347:1 349:1 354:1 356:1 359:1 363:3 400:1 403:1 404:1 416:1 469:1 480:1 490:1 535:1 539:1 554:1 563:1 578:1 597:1 600:1 603:1 619:1 647:1 681:2 718:1 726:1 751:1 752:1 814:1 822:2 868:3 894:1 1063:1 1070:1 1097:2 1170:1 1177:1 1199:1 1276:1 1287:1 1297:1 1462:1 1644:1 1671:2 1715:1 1749:1 1791:1 1792:1 1793:1 1794:1 1795:1 1796:1 1797:1 1798:1 1799:1 1800:1 1801:1 1802:1 1803:1 1804:1 1805:1 1806:1 1807:1 1808:1 1809:1 1810:1 1811:1 1812:1 1813:1 
-1 1 1 1 1:1 14:1 18:1 31:1 32:2 37:3 39:1 41:1 44:2 55:1 60:1 63:1 66:1 98:1 102:1 105:1 139:1 150:1 160:1 302:1 348:1 418:1 453:1 554:1 645:1 646:1 661:1 743:1 1466:1 1647:1 1810:1 1814:1 1815:1 1816:1 1817:1 1818:1 1819:1 1820:1 1821:1 1822:1 1823:1 
-1 1 1 1 1:1 8:2 17:1 21:2 31:1 32:1 37:3 38:2 39:3 41:3 44:1 70:1 74:1 79:1 93:1 125:1 129:2 150:1 151:1 201:1 207:1 321:1 339:1 416:1 490:1 604:1 609:1 631:1 645:1 646:1 678:1 727:1 733:1 768:1 912:1 1153:1 1310:1 1314:1 1752:1 1824:1 1825:1 1826:1 1827:2 1828:1 1829:1 1830:1 1831:1 1832:1 1833:1 
-1 1 1 1 0:1 1:7 2:1 3:5 8:6 14:1 17:3 21:2 31:2 32:3 37:9 39:1 41:2 44:3 45:3 55:2 60:1 63:1 66:5 67:1 70:1 74:2 96:1 100:2 102:2 105:2 125:2 127:1 134:1 138:1 150:1 159:1 167:1 171:2 185:1 187:1 226:1 238:3 260:1 282:1 311:1 313:2 329:1 346:1 347:1 348:1 359:1 362:1 363:1 429:1 494:1 501:1 515:1 528:1 548:1 683:1 696:1 750:1 790:1 797:1 822:1 896:1 908:1 1002:1 1172:1 1198:1 1286:1 1302:1 1316:1 1353:1 1359:1 1554:1 1712:1 1717:1 1760:1 1774:3 1834:2 1835:2 1836:2 1837:3 1838:1 1839:1 1840:1 1841:1 1842:1 1843:2 1844:1 1845:1 1846:1 1847:1 1848:1 1849:1 1850:1 1851:1 1852:1 1853:1 1854:1 1855:1 1856:1 1857:1 1858:1 1859:1 1860:1 1861:1 1862:1 1863:1 1864:1 1865:1 1866:1 1867:1 1868:1 1869:1 1870:1 1871:1 1872:1 1873:1 1874:1 
-1 1 1 1 1:3 3:3 8:2 21:2 31:3 32:4 34:1 35:1 37:6 39:1 41:1 44:2 45:1 56:1 59:1 66:3 67:1 70:2 71:1 74:1 79:1 82:2 83:1 96:1 100:1 102:2 105:1 114:1 121:1 125:1 150:2 185:1 192:1 201:1 232:1 238:1 260:1 265:2 267:2 273:1 301:1 311:2 348:1 366:1 378:1 386:1 391:2 400:1 439:1 453:1 575:1 582:1 594:1 599:1 789:1 806:1 816:2 823:1 931:1 938:1 973:1 1056:1 1135:1 1271:1 1293:1 1461:1 1535:1 1581:1 1645:1 1861:1 1864:1 1895:1 1896:1 1897:1 1898:1 1899:1 1900:1 1901:1 1902:1 1903:1 1904:1 1905:1 1906:1 1907:1 1908:1 1909:1 1910:1 1911:1 1912:1 1913:1 1914:1 1915:1 1916:1 1917:1 1918:1 
-1 1 1 1 1:1 3:1 8:1 13:1 14:1 15:1 16:1 31:1 32:1 36:1 39:1 41:1 44:2 55:1 59:1 60:1 63:1 71:1 74:1 79:1 105:1 122:1 125:1 127:1 134:1 144:1 300:1 404:1 775:1 815:1 1170:1 1228:1 1276:1 1312:1 1503:1 2024:1 2025:1 2026:1 2027:1 2028:1 2029:1 2030:1 2031:1 
-1 1 1 1 1:1 3:2 8:3 13:1 14:2 21:1 32:1 34:1 37:8 39:2 41:1 53:1 55:2 59:1 60:2 63:1 66:2 74:6 79:1 87:1 100:1 105:1 125:1 146:1 149:1 150:1 160:1 168:2 170:1 177:1 183:1 185:1 189:1 207:1 238:1 258:2 260:1 287:1 307:1 309:1 322:1 339:1 342:2 346:1 363:2 368:2 389:1 403:1 439:1 445:1 453:1 480:1 505:1 532:1 535:1 545:1 550:1 597:1 603:1 647:1 801:1 817:2 821:1 876:1 961:1 1017:1 1022:1 1055:1 1118:1 1139:1 1228:1 1262:1 1359:1 1505:1 1552:1 1687:1 1703:1 2055:1 2056:1 2057:1 2058:1 2059:1 2060:1 2061:1 2062:1 2063:1 2064:1 2065:1 2066:1 2067:1 2068:1 2069:1 2070:1 2071:1 2072:1 2073:1 2074:1 2075:1 2076:1 2077:1 2078:1 2079:1 2080:1 2081:1 2082:1 2083:1 2084:1 2085:1 2086:1 2087:1 2088:1 2089:1 
-1 1 1 1 0:1 1:9 2:1 3:4 8:3 12:3 14:1 21:2 31:2 32:10 33:2 34:4 35:2 36:5 37:10 39:3 41:4 47:2 56:1 58:1 60:8 66:3 72:1 80:1 87:1 93:1 100:3 102:1 105:10 127:3 134:1 136:1 138:1 139:1 150:1 154:1 159:2 168:1 187:1 201:3 202:1 238:2 258:1 260:1 271:1 278:1 279:2 288:1 300:1 311:1 313:2 322:2 328:1 329:1 330:1 347:2 354:1 363:7 385:2 469:1 494:1 509:2 521:1 543:1 560:1 570:1 575:2 578:2 595:1 600:2 603:1 610:1 638:1 647:1 723:2 728:1 804:2 814:1 868:1 894:2 910:1 962:1 986:1 993:1 1022:3 1044:1 1063:1 1170:3 1177:1 1229:1 1279:1 1293:1 1323:1 1420:3 1554:1 1581:1 1642:1 1701:1 1720:1 1744:1 1782:1 1832:1 1856:2 1951:1 2090:1 2091:1 2092:1 2093:1 2094:1 2095:1 2096:2 2097:1 2098:1 2099:1 2100:1 2101:1 2102:1 2103:1 2104:1 2105:1 2106:1 2107:1 2108:1 2109:1 2110:1 2111:1 2112:1 2113:1 2114:1 2115:2 2116:1 2117:1 2118:1 2119:2 2120:1 2121:1 2122:1 2123:1 2124:1 2125:1 2126:1 2127:1 
-1 1 1 1 0:2 1:1 3:3 8:2 12:2 14:1 21:2 28:1 32:5 33:1 34:1 37:5 39:1 53:1 55:1 66:4 70:1 74:1 87:2 105:1 120:2 125:1 127:2 134:1 136:1 141:1 149:1 150:1 156:1 260:1 311:1 347:1 354:1 391:1 439:1 452:1 463:1 469:1 539:1 567:1 600:1 718:1 728:1 905:1 946:1 953:1 973:1 1081:1 1172:1 1248:1 1335:1 1336:1 1539:1 1563:1 1645:1 1715:1 2196:1 2197:1 2198:1 2199:1 2200:1 2201:1 2202:1 2203:1 2204:1 2205:1 2206:1 2207:1 2208:1 2209:1 2210:2 2211:1 2212:1 2213:1 2214:1 2215:1 2216:1 2217:1 2218:1 2219:1 2220:1 2221:1 2222:1 2223:1 2224:1 2225:1 2226:1 2227:1 2228:1 2229:1 
-1 1 1 1 0:1 1:4 3:2 8:8 14:2 21:2 32:8 37:7 44:2 45:2 55:2 56:1 60:1 63:1 65:1 66:4 70:1 74:4 87:2 92:1 105:1 121:1 125:1 133:1 164:1 171:1 177:1 189:1 190:1 232:1 237:1 267:2 271:2 272:1 288:1 294:1 300:1 311:1 312:1 363:1 384:1 445:1 447:1 481:1 488:1 496:1 521:1 554:2 579:1 580:1 583:2 599:1 718:2 730:1 740:1 783:1 913:3 929:1 1119:1 1121:1 1207:1 1302:1 1402:1 1434:1 1437:1 1454:1 1473:1 1563:1 1720:1 2171:1 2296:1 2396:1 2397:1 2398:3 2399:1 2400:1 2401:1 2402:1 2403:1 2404:1 2405:2 2406:1 2407:1 2408:1 2409:1 2410:1 2411:1 2412:1 2413:1 2414:1 2415:1 2416:1 2417:1 2418:1 2419:2 2420:2 2421:1 2422:1 
-1 1 1 1 1:6 3:4 8:5 12:1 13:1 14:2 21:2 32:4 35:1 36:1 37:8 39:3 40:1 41:1 44:5 45:2 56:1 60:1 63:2 66:6 70:1 75:1 76:1 79:1 82:2 87:2 93:1 125:1 129:1 134:1 139:1 149:1 150:1 151:1 168:1 171:1 187:1 201:1 232:1 238:1 263:2 269:1 279:1 313:2 330:1 339:1 362:1 363:1 381:2 404:1 439:1 468:1 483:1 501:1 516:1 537:1 550:1 565:1 566:2 572:1 578:1 594:1 595:1 647:1 680:1 687:1 688:1 712:1 770:1 772:1 783:1 789:1 897:1 954:1 1002:1 1017:1 1040:1 1164:1 1196:2 1207:1 1242:1 1243:1 1264:1 1267:1 1389:1 1433:1 1455:1 1592:1 1612:1 1687:1 1699:1 1755:1 1779:1 1921:1 2121:1 2144:1 2161:1 2385:1 2411:1 2456:1 2463:2 2464:1 2465:1 2466:1 2467:1 2468:1 2469:1 2470:1 2471:1 2472:1 2473:1 2474:1 2475:1 2476:1 2477:1 2478:1 2479:1 2480:1 2481:1 2482:1 2483:1 2484:1 2485:1 2486:1 
-1 1 1 1 0:1 1:11 2:1 3:9 7:2 8:10 14:10 15:1 21:2 31:4 32:6 34:2 35:1 37:14 39:2 41:4 44:2 45:2 53:1 54:1 55:1 63:4 74:3 79:1 87:1 93:1 98:1 100:1 102:3 107:2 111:1 127:1 129:1 133:3 137:1 139:3 150:1 164:1 171:1 181:1 187:1 201:1 221:1 237:1 265:1 269:1 297:1 301:1 322:1 341:1 368:1 385:1 389:1 404:1 427:1 433:1 445:3 446:1 467:2 469:1 493:1 496:1 509:1 513:1 535:1 594:1 619:1 641:1 651:1 672:1 685:1 691:1 693:1 694:1 712:1 727:3 728:1 740:1 742:1 760:1 765:1 768:1 781:1 798:1 860:1 897:1 909:1 1055:1 1063:1 1070:1 1212:1 1216:1 1239:1 1260:1 1275:1 1335:1 1465:1 1524:1 1554:1 1563:1 1585:1 1587:1 1592:1 1595:1 1896:1 1946:2 1975:1 1994:1 2002:1 2069:1 2071:1 2084:1 2147:2 2155:1 2161:1 2163:1 2169:1 2259:1 2360:1 2430:1 2462:1 2468:1 2492:1 2567:2 2568:1 2569:1 2570:1 2571:1 2572:1 2573:1 2574:1 2575:1 2576:1 2577:2 2578:1 2579:1 2580:1 2581:2 2582:1 2583:1 2584:2 2585:1 2586:1 2587:1 2588:1 2589:1 2590:1 2591:1 2592:1 2593:3 2594:1 2595:2 2596:1 2597:1 2598:2 2599:1 2600:1 2601:1 2602:1 2603:1 2604:2 2605:1 2606:1 2607:1 2608:1 2609:1 2610:1 2611:1 2612:1 2613:1 2614:1 2615:1 2616:1 2617:1 2618:1 2619:1 2620:1 2621:1 2622:1 2623:1 2624:1 2625:1 2626:1 2627:1 2628:1 2629:1 2630:1 2631:1 2632:1 
-1 1 1 1 1:1 21:1 32:1 37:2 39:1 41:1 44:1 55:1 125:1 151:1 267:1 279:1 363:2 411:1 749:2 897:1 1012:1 1175:1 1276:1 2669:1 2670:1 2671:2 2672:1 2673:1 2674:1 2675:1 2676:1 2677:1 2678:1 
-1 1 1 1 0:1 1:6 3:6 8:12 13:1 14:2 21:4 31:1 32:2 34:4 35:1 36:1 37:9 39:1 44:1 54:1 55:3 59:1 60:2 63:1 65:1 66:5 67:1 71:7 74:6 87:1 96:1 98:1 102:1 105:1 107:1 115:2 122:1 125:2 129:1 136:1 137:1 139:2 148:1 149:1 150:4 153:1 154:2 170:2 171:1 189:1 201:1 260:1 301:1 317:1 322:2 328:1 339:1 347:1 358:1 368:1 391:1 404:1 439:1 450:1 458:1 459:2 463:1 469:1 490:1 491:1 496:2 519:1 521:1 541:1 560:1 565:2 595:1 599:1 600:1 610:1 619:1 641:1 684:1 685:1 698:1 768:2 778:1 789:1 809:2 811:1 817:1 831:1 838:1 856:1 933:1 959:1 981:2 1029:1 1045:3 1090:1 1155:1 1177:1 1199:1 1216:1 1278:4 1279:1 1293:2 1311:1 1316:2 1330:1 1369:2 1416:1 1451:1 1701:1 1761:1 1851:1 2011:1 2060:1 2262:1 2340:1 2449:1 2569:1 2611:1 2756:1 2762:1 2763:2 2764:1 2765:1 2766:1 2767:2 2768:1 2769:1 2770:1 2771:1 2772:1 2773:1 2774:1 2775:1 2776:1 2777:2 2778:2 2779:1 2780:1 2781:2 2782:2 2783:2 2784:1 2785:1 2786:1 2787:1 2788:1 2789:1 2790:1 
-1 1 1 1 1:2 3:3 8:2 15:1 31:1 36:1 37:1 44:2 55:1 58:1 60:2 66:1 87:2 98:1 100:1 104:1 105:3 120:1 149:1 259:1 263:2 265:2 279:1 303:1 319:1 359:1 404:1 405:1 469:1 572:1 594:1 600:1 609:1 671:1 712:1 931:1 946:2 988:1 1036:1 1485:1 1797:1 2275:1 2898:2 2899:1 2900:1 2901:1 
-1 1 1 1 1:28 3:25 8:16 13:1 14:9 17:1 21:13 31:10 32:24 34:9 35:9 36:6 37:44 38:1 39:7 41:1 43:1 44:14 45:1 47:1 53:3 54:3 55:4 56:6 57:1 59:1 60:4 66:29 70:9 74:12 75:1 79:3 80:2 82:1 94:1 96:2 100:3 102:5 105:3 111:1 119:3 120:3 122:1 124:1 125:15 126:2 127:3 129:11 134:3 136:3 138:1 141:1 142:1 146:3 149:3 153:1 155:1 159:1 162:1 169:1 171:3 175:1 184:1 188:1 190:1 192:1 198:1 201:7 207:2 208:2 226:1 228:1 238:1 244:2 263:6 267:2 269:1 271:4 272:1 282:1 283:3 288:6 301:2 302:1 311:5 313:5 315:1 318:1 322:9 324:3 328:1 329:1 330:1 333:1 335:1 338:1 340:4 344:1 345:3 346:1 347:6 348:1 349:1 351:1 354:4 356:1 358:3 359:2 362:1 363:4 366:2 368:3 385:2 391:2 400:3 404:1 411:2 415:1 416:1 418:10 427:1 436:2 439:2 445:1 447:1 448:1 453:1 457:1 458:2 463:2 468:1 469:3 477:2 480:7 481:2 487:1 490:6 496:1 497:2 501:1 509:2 512:1 521:3 532:2 538:1 549:2 550:1 553:1 554:3 557:1 560:1 562:1 568:1 569:1 575:1 578:1 600:1 601:1 604:1 614:1 619:2 624:1 626:2 647:2 651:1 671:1 678:1 682:3 692:2 695:1 696:1 703:1 718:1 727:1 728:1 730:1 736:1 750:2 760:1 768:5 777:2 779:1 781:1 785:1 786:1 789:1 793:1 795:1 796:1 798:5 801:1 802:1 805:1 808:1 816:2 819:1 820:1 822:1 824:1 825:1 831:1 835:2 866:1 876:1 877:2 878:2 883:1 891:1 897:2 902:1 926:1 933:1 949:1 962:1 972:1 986:1 989:1 998:1 1002:1 1015:1 1017:2 1068:1 1070:3 1071:1 1081:2 1100:1 1134:4 1142:1 1151:1 1153:1 1162:1 1170:2 1177:2 1182:1 1196:3 1202:1 1206:1 1207:1 1223:1 1240:1 1241:1 1242:1 1275:3 1282:1 1292:1 1316:1 1334:1 1400:1 1430:1 1432:1 1451:1 1473:1 1489:1 1501:1 1504:2 1524:1 1533:3 1538:1 1545:1 1581:1 1585:1 1592:1 1596:1 1614:1 1616:1 1681:1 1683:1 1686:1 1694:1 1700:1 1701:1 1763:1 1795:1 1819:1 1871:1 1879:1 1889:1 1919:1 1962:1 1963:1 1994:1 2008:1 2013:1 2036:1 2056:1 2091:1 2163:1 2210:1 2219:1 2243:1 2247:1 2253:2 2279:1 2317:1 2323:1 2373:1 2375:1 2430:1 2432:1 2468:1 2508:2 2529:1 2535:3 2536:1 2612:1 2639:2 2645:1 2668:2 2675:1 2708:1 2710:1 2729:1 2740:1 2763:1 2771:2 2858:1 2907:1 2910:3 2926:1 2994:1 2995:1 2996:1 2997:1 2998:1 2999:2 3000:1 3001:1 3002:1 3003:1 3004:1 3005:1 3006:1 3007:1 3008:1 3009:1 3010:1 3011:1 3012:1 3013:1 3014:1 3015:1 3016:1 3017:1 3018:1 3019:1 3020:1 3021:1 3022:1 3023:1 3024:1 3025:1 3026:1 3027:1 3028:1 3029:1 3030:1 3031:1 3032:1 3033:1 3034:1 3035:2 3036:1 3037:1 3038:1 3039:1 3040:1 3041:1 3042:1 3043:1 3044:1 3045:1 3046:1 3047:1 3048:1 3049:1 3050:1 3051:1 3052:1 3053:1 3054:1 3055:2 3056:1 3057:1 3058:1 3059:1 3060:1 3061:1 3062:1 3063:1 3064:1 3065:3 3066:1 3067:1 3068:1 3069:1 3070:1 3071:1 3072:1 3073:1 3074:1 3075:1 3076:1 3077:1 3078:1 3079:1 3080:2 3081:1 3082:1 3083:1 3084:1 3085:1 3086:1 3087:1 3088:1 3089:1 3090:1 3091:1 3092:1 3093:1 3094:1 3095:1 3096:1 3097:1 3098:1 3099:1 3100:1 3101:1 3102:1 3103:1 3104:1 3105:1 3106:1 3107:1 3108:1 3109:1 3110:1 3111:1 3112:1 3113:1 3114:1 3115:1 3116:1 3117:1 3118:1 
-1 1 1 1 35:1 36:1 37:1 44:1 66:3 98:1 184:1 201:1 363:1 559:2 562:1 568:1 1006:1 1196:1 1293:1 1791:1 2055:1 3205:1 3206:1 3207:1 3208:1 3209:1 3210:1 
-1 1 1 1 8:2 14:1 31:1 32:3 34:1 35:1 36:1 37:2 66:1 74:3 122:1 125:1 144:1 149:1 191:1 267:1 300:1 386:1 389:1 453:1 509:1 532:1 549:1 550:1 594:1 624:1 630:2 671:1 808:1 1057:1 1334:1 1451:1 1538:1 1943:1 2727:1 3211:1 3212:1 3213:1 3214:1 3215:1 3216:1 3217:1 
-1 1 1 1 1:1 8:7 12:1 14:3 15:1 21:3 32:2 37:9 41:2 44:5 45:1 55:3 63:1 66:4 70:2 72:1 87:2 120:1 121:1 125:1 129:2 150:1 171:1 201:1 238:1 244:1 363:2 404:1 418:1 439:1 458:1 479:1 480:2 549:1 565:1 583:1 595:1 596:1 600:1 603:1 645:1 681:1 683:1 702:1 712:1 873:1 1090:1 1170:2 1201:2 1283:1 1335:1 1454:1 1503:1 1616:1 1680:1 1688:2 1717:1 1763:1 1824:1 1861:1 1864:1 2053:1 2241:1 2373:1 2759:1 3073:1 3112:2 3218:1 3219:1 3220:1 3221:1 3222:1 3223:1 3224:1 3225:1 3226:1 3227:1 3228:1 
-1 1 1 1 0:4 1:4 3:3 8:6 14:2 21:2 31:5 32:2 34:3 37:9 39:1 40:1 42:1 44:3 45:1 53:1 54:1 56:2 59:1 63:1 66:9 70:2 71:1 74:3 79:1 87:2 96:1 100:2 102:1 122:1 124:1 125:3 127:1 129:3 141:1 149:1 150:1 159:1 164:1 170:2 181:1 189:3 190:1 201:1 211:1 237:1 260:1 263:1 267:2 282:1 288:1 303:1 315:1 317:1 320:1 322:1 329:1 339:1 347:2 348:1 357:1 359:2 368:2 381:1 391:1 392:1 393:2 439:1 447:1 451:1 468:1 480:2 512:1 539:1 549:1 550:1 551:1 572:1 600:1 614:2 624:1 626:1 651:1 671:1 675:1 678:1 681:1 684:3 692:1 697:1 718:1 728:1 740:1 778:1 782:1 798:1 801:1 809:2 822:1 835:1 847:1 876:1 962:1 1003:1 1028:1 1059:1 1063:1 1081:1 1139:1 1237:1 1264:1 1335:1 1408:1 1503:1 1505:1 1524:1 1590:1 1709:1 1946:1 2011:1 2111:1 2290:1 2498:1 2518:1 2934:1 3060:1 3236:1 3237:1 3238:1 3239:1 3240:1 3241:1 3242:1 3243:1 3244:3 3245:1 3246:1 3247:1 3248:1 3249:1 3250:2 3251:1 3252:1 3253:1 3254:1 3255:1 3256:1 3257:1 3258:1 3259:1 3260:1 3261:1 3262:1 3263:1 3264:1 
-1 1 1 1 1:4 3:2 8:6 12:1 21:2 31:2 32:3 37:9 38:1 44:3 55:1 56:1 60:1 63:1 66:6 70:1 96:1 100:4 102:1 105:1 122:1 125:1 138:1 159:1 201:3 228:1 291:1 309:1 315:1 347:2 359:1 363:1 385:1 469:1 480:1 490:1 538:1 539:1 554:1 556:1 575:1 610:1 624:2 647:1 674:1 691:2 750:2 776:1 804:1 807:1 876:1 897:2 932:1 992:1 1015:1 1125:1 1170:1 1177:1 1316:1 1363:1 1427:1 1452:1 1628:3 1652:1 1819:1 1837:1 2053:1 2176:1 2441:1 2449:1 2675:1 2676:1 2832:1 3265:1 3266:1 3267:1 3268:1 3269:1 3270:1 3271:1 3272:1 3273:1 3274:1 3275:1 3276:1 3277:1 
-1 1 1 1 12:2 21:1 32:1 34:1 44:1 55:1 66:3 125:1 146:1 175:1 224:1 228:1 251:1 329:1 439:1 596:1 712:1 856:1 866:2 1036:1 1090:1 1170:1 1359:1 1454:1 1616:2 2422:1 2449:1 2535:1 3278:2 3279:2 3280:1 3281:1 3282:1 3283:1 3284:1 3285:1 
-1 1 1 1 1:3 3:1 8:2 12:1 14:4 21:1 32:2 34:3 37:6 41:1 44:3 53:1 55:4 59:1 60:1 66:1 70:1 71:1 74:2 100:1 105:1 107:1 125:1 127:3 128:1 133:1 168:1 191:1 192:1 201:1 211:1 263:2 313:1 359:1 385:1 391:1 458:1 476:1 496:1 509:2 529:1 535:1 542:1 557:1 588:1 630:1 647:1 653:1 669:1 685:1 695:1 775:2 822:1 1031:1 1061:1 1119:1 1155:1 1199:1 1243:1 1246:1 1248:1 1262:1 1274:1 1282:1 1293:1 1323:1 1512:3 1549:2 1757:1 1864:1 1885:1 1993:1 1995:1 2003:1 2074:1 2689:1 3309:1 3310:1 3311:2 3312:3 3313:1 3314:1 3315:1 3316:1 3317:1 3318:1 3319:1 3320:1 3321:1 3322:1 3323:1 
-1 1 1 1 8:1 14:1 18:1 21:1 32:2 33:1 37:5 39:2 41:2 44:1 55:1 102:1 129:1 134:1 139:1 150:1 160:1 271:1 311:1 314:1 347:1 382:1 391:1 433:1 496:1 549:1 569:1 647:1 840:1 962:1 1061:1 1264:1 1334:1 1430:1 1647:1 1675:1 1687:1 1702:1 2003:1 2535:1 2873:1 3349:1 3350:1 3351:1 3352:1 3353:1 
-1 1 1 1 1:1 3:1 8:4 32:1 35:1 36:1 37:2 66:1 70:1 98:1 151:1 265:1 308:1 315:1 521:1 583:1 678:1 718:1 796:1 804:1 901:1 993:1 1170:1 1316:1 1782:1 2665:1 3125:1 3354:1 3355:1 3356:1 3357:1 3358:1 
-1 1 1 1 1:3 3:3 8:5 14:2 21:2 31:1 32:6 34:2 37:4 45:1 53:1 60:1 64:1 66:2 72:1 74:4 125:2 133:2 149:1 150:1 154:1 168:1 170:1 171:2 180:1 189:1 238:1 286:1 297:1 333:1 368:1 509:1 568:1 598:1 626:1 629:1 647:1 671:1 680:1 682:1 696:1 718:1 817:2 847:1 1015:1 1054:1 1188:1 1241:1 1316:1 1451:1 1575:1 1618:1 1709:1 1710:1 1750:1 1860:1 1921:1 1942:2 2040:1 2171:1 2264:1 2340:1 2464:2 2639:1 2755:1 2763:1 3247:1 3359:1 3360:1 3361:1 3362:2 3363:1 3364:1 3365:1 
-1 1 1 1 8:2 32:1 35:1 36:1 37:2 74:3 76:1 87:1 134:1 154:1 164:1 263:1 451:1 463:1 509:1 554:1 641:1 764:1 1126:1 1207:1 1260:1 1282:1 2120:1 3486:1 3487:1 3488:1 3489:1 3490:1 3491:1 
-1 1 1 1 1:11 3:9 4:1 6:1 7:1 8:11 13:1 14:4 21:2 31:7 32:5 33:1 35:2 36:1 37:20 39:3 43:1 45:1 53:1 59:1 60:2 66:5 67:1 71:5 73:1 74:8 79:2 96:4 100:2 102:1 105:2 108:1 125:1 127:2 133:1 134:1 136:1 140:1 141:3 146:1 149:1 150:4 155:1 170:1 175:1 179:1 189:5 201:2 204:1 236:1 244:3 260:2 263:2 266:1 267:1 274:1 288:1 312:2 313:2 318:1 322:3 328:1 337:1 342:1 345:2 347:1 348:2 359:2 363:1 381:1 391:1 400:1 411:1 427:1 463:1 467:3 469:2 474:1 480:1 481:1 484:1 490:2 496:2 501:1 512:1 529:1 532:1 543:1 548:1 550:1 572:3 578:2 579:1 589:1 590:1 595:1 597:1 611:1 630:1 661:1 666:1 675:1 678:1 680:1 684:2 718:1 738:4 761:2 765:1 768:2 779:1 789:1 808:1 817:3 831:1 839:1 890:2 905:1 935:1 951:1 959:2 961:1 979:1 996:1 1012:1 1021:1 1023:1 1027:1 1112:1 1134:1 1141:2 1150:1 1151:1 1217:1 1237:4 1254:1 1260:1 1274:1 1316:1 1360:1 1427:1 1536:2 1591:1 1595:1 1647:2 1705:1 1709:1 1715:1 1719:1 1821:1 1935:1 1984:1 1996:1 2011:1 2026:2 2069:1 2382:1 2390:1 2408:1 2582:1 2701:1 2764:1 2880:1 3014:1 3321:1 3490:1 3492:1 3493:1 3494:3 3495:4 3496:3 3497:5 3498:1 3499:2 3500:2 3501:1 3502:2 3503:1 3504:1 3505:1 3506:1 3507:1 3508:1 3509:1 3510:1 3511:1 3512:1 3513:1 3514:1 3515:1 3516:1 3517:1 3518:1 
-1 1 1 1 1:2 3:1 8:1 14:1 31:1 37:2 38:1 39:1 44:2 55:1 66:1 82:1 102:1 114:1 125:1 129:1 258:1 263:1 301:2 340:1 363:1 375:1 394:1 445:1 496:1 567:1 578:1 702:2 876:1 897:1 929:1 959:1 1274:1 1426:1 2449:1 2828:1 3127:1 3344:1 3519:1 3520:1 3521:1 3522:1 3523:1 3524:1 3525:1 3526:1 3527:1 3528:1 3529:1 
-1 1 1 1 1:1 8:2 12:1 21:2 32:3 35:1 36:1 37:1 45:1 55:1 58:1 60:1 66:1 70:1 83:1 136:1 144:1 184:1 208:1 220:1 226:1 272:1 294:1 297:1 363:1 561:1 562:1 633:1 646:1 718:1 738:1 953:1 973:1 1034:1 1126:1 1127:1 1199:1 1201:1 1278:1 1316:1 1359:1 1675:1 1885:1 2201:1 3548:1 3549:1 3550:1 3551:1 3552:1 3553:1 3554:1 3555:1 3556:1 
-1 1 1 1 1:3 3:2 8:1 21:2 31:1 32:1 36:2 37:5 39:2 41:1 44:2 56:1 63:1 66:2 79:1 87:1 96:2 105:1 111:1 120:1 122:1 125:1 141:1 149:1 150:1 219:1 226:1 267:1 301:1 439:1 505:1 567:1 649:1 683:1 718:1 789:1 996:1 998:1 1005:1 1099:1 1141:1 1316:1 1843:1 1962:1 1994:1 2145:1 3247:1 3562:1 3801:1 3802:1 3803:1 3804:1 3805:1 3806:1 3807:1 3808:1 3809:1 
-1 1 1 1 1:1 8:3 14:1 21:3 32:3 37:1 40:1 41:4 44:3 58:1 60:1 66:2 70:2 87:1 96:1 121:1 125:1 127:1 155:2 201:2 271:2 272:1 311:1 354:1 359:1 416:1 447:1 469:2 490:1 509:3 567:1 629:1 641:1 678:1 700:1 723:1 730:1 768:1 791:1 1002:1 1015:1 1018:1 1022:2 1023:1 1027:1 1170:3 1228:1 1294:1 1451:1 1618:1 1806:1 1869:1 1996:1 2044:2 2420:1 2789:1 3850:1 3885:1 3886:1 3887:1 3888:1 
-1 1 1 1 0:1 1:6 3:3 8:6 14:6 21:4 31:4 32:16 34:4 35:1 37:15 39:1 44:2 55:4 58:1 59:1 60:5 63:1 66:5 74:6 79:1 87:5 96:1 100:3 102:1 112:1 120:3 125:3 127:1 135:1 136:1 141:2 146:2 149:3 154:1 155:1 156:1 159:1 164:1 168:1 170:1 171:4 177:3 181:3 187:3 189:1 201:2 226:1 239:1 260:1 263:1 267:3 282:1 287:1 288:1 308:1 322:1 328:3 345:1 351:1 359:1 366:3 368:3 379:1 380:1 391:1 426:1 447:2 449:1 466:3 480:1 490:1 509:1 515:1 539:1 554:1 595:1 610:1 630:1 671:1 682:2 708:1 750:1 771:3 778:1 789:1 790:2 806:1 808:2 817:2 831:1 838:1 840:1 897:2 1070:1 1126:1 1153:1 1177:1 1201:1 1208:1 1232:1 1233:1 1283:1 1298:1 1348:1 1364:3 1380:1 1505:2 1510:1 1539:1 1581:3 1681:4 1686:1 1692:2 1771:1 1845:1 1861:1 1867:1 1942:1 1943:1 2044:1 2060:1 2296:1 2310:1 2316:2 2411:1 2413:2 2493:1 2700:1 2806:1 2861:1 2875:1 2952:1 2954:1 3012:1 3047:1 3110:1 3182:3 3217:1 3462:1 3643:1 3670:1 3851:1 3919:5 3920:3 3921:1 3922:1 3923:1 3924:1 3925:4 3926:1 3927:1 3928:1 3929:2 3930:1 3931:1 3932:1 3933:1 3934:1 3935:1 3936:1 3937:1 3938:1 3939:1 3940:3 3941:4 3942:1 3943:1 3944:1 3945:1 3946:1 3947:1 3948:1 3949:1 3950:1 3951:1 3952:1 3953:1 3954:1 3955:1 3956:1 3957:1 3958:1 3959:1 3960:1 3961:1 3962:1 3963:1 3964:1 3965:1 3966:1 3967:1 3968:1 3969:1 
-1 1 1 1 1:10 3:7 8:5 14:2 15:1 16:1 18:1 21:2 31:3 32:6 33:1 34:1 35:2 37:9 39:2 41:1 43:1 44:2 45:1 56:2 60:1 63:1 66:3 72:1 74:4 76:1 79:2 102:1 111:1 120:1 125:1 129:1 134:2 149:1 154:1 155:1 164:1 165:1 171:1 189:3 219:1 226:2 238:2 244:1 272:1 279:1 288:1 300:1 330:1 347:2 362:1 363:1 381:1 404:1 418:2 422:1 439:3 445:1 450:1 458:1 480:1 490:1 493:1 498:1 509:1 514:1 519:1 539:1 565:1 578:1 626:1 651:1 653:1 696:1 750:1 765:1 789:1 873:1 875:1 909:1 933:1 935:1 1057:1 1088:1 1119:1 1134:1 1196:1 1207:1 1275:1 1302:1 1316:1 1323:1 1681:1 1687:1 1843:1 1942:1 1945:1 2112:1 2456:1 2460:1 2655:1 2839:1 3087:1 3134:1 3239:1 3288:1 3410:1 3448:1 3847:1 3980:1 4123:1 4124:1 4125:1 4126:1 4127:1 4128:1 4129:1 4130:1 4131:1 4132:1 4133:1 4134:1 4135:1 4136:1 4137:1 4138:1 4139:1 4140:1 4141:1 4142:1 4143:1 4144:1 4145:1 4146:1 4147:1 4148:1 4149:1 4150:1 4151:1 
-1 1 1 1 1:10 3:3 8:7 14:2 21:3 31:3 32:11 33:1 34:1 35:4 37:6 38:1 39:1 44:1 55:2 60:1 63:1 66:3 67:1 73:2 74:1 82:1 83:1 84:1 87:2 93:1 96:1 100:1 102:1 112:2 120:1 125:2 141:1 151:1 154:1 159:1 181:1 201:3 224:1 260:3 267:1 268:1 269:1 288:1 294:2 301:1 328:1 354:1 362:1 363:2 372:1 380:1 385:1 469:2 480:1 485:1 521:1 567:2 578:1 583:1 609:1 610:1 666:1 737:1 768:2 810:1 822:1 823:1 831:1 882:1 885:1 897:1 933:1 958:1 1000:1 1013:1 1015:1 1017:1 1038:1 1043:1 1057:1 1155:2 1273:1 1297:1 1403:1 1426:1 1454:1 1869:1 2032:2 2033:1 2136:2 2142:1 2423:1 2451:1 2676:2 3006:1 3123:1 3217:1 3344:1 3410:1 3446:1 3485:1 3528:1 3688:1 3952:1 4089:1 4242:1 4243:1 4244:1 4245:1 4246:1 4247:1 4248:1 4249:1 4250:1 4251:1 4252:1 4253:1 4254:1 4255:1 4256:1 4257:1 4258:1 4259:1 4260:1 4261:1 4262:1 4263:1 4264:1 4265:1 4266:1 4267:1 4268:2 4269:1 4270:1 4271:2 4272:1 4273:1 4274:1 4275:1 4276:1 4277:1 
-1 1 1 1 1:3 3:2 12:1 21:3 32:1 35:1 37:4 39:1 41:1 44:1 60:2 83:1 102:1 121:1 127:1 133:1 134:1 204:1 207:1 313:1 324:1 328:1 339:1 380:1 404:1 647:1 678:1 750:1 795:1 924:1 935:1 1475:2 1563:1 1685:1 1711:1 1860:1 1901:1 4297:1 4298:1 
-1 1 1 1 1:2 3:4 8:1 18:1 21:1 31:1 32:1 34:2 37:3 41:1 55:3 66:3 96:2 100:1 104:1 114:1 122:1 125:1 136:1 144:1 149:2 150:1 167:1 171:1 191:1 201:6 202:1 211:1 219:1 232:1 260:1 316:1 321:1 322:1 328:1 355:1 359:1 362:2 385:1 391:1 451:1 463:1 474:1 476:3 480:1 490:1 521:1 560:1 600:1 649:1 701:1 745:1 831:1 835:1 851:1 897:1 1003:1 1006:2 1015:1 1027:1 1034:1 1150:2 1153:1 1162:1 1179:1 1316:1 1630:1 1633:1 1634:1 1668:1 1682:1 2047:1 2675:1 3183:2 3193:1 3272:1 3410:1 3652:1 4309:2 4310:3 4311:1 4312:1 4313:1 4314:1 4315:1 4316:1 4317:1 4318:1 4319:1 
-1 1 1 1 1:2 3:1 8:4 14:2 21:2 31:1 32:2 34:2 36:1 37:6 55:1 60:1 63:1 66:3 71:2 74:2 79:4 83:1 87:1 96:1 100:1 102:1 120:1 162:1 169:1 170:2 171:1 187:1 189:2 238:1 244:1 288:1 298:1 309:1 322:1 339:1 348:1 382:1 408:1 426:1 451:1 462:1 463:1 539:1 561:1 578:1 657:1 662:1 684:2 749:1 768:2 770:1 784:1 817:3 873:1 954:1 1134:2 1207:1 1291:1 1301:1 1302:1 1334:1 1338:1 1400:1 1504:1 1655:1 1681:1 2036:1 2102:1 2291:1 2362:1 2430:1 2450:1 2550:1 2763:1 2845:1 3014:1 3602:1 3795:1 4055:1 4348:1 4349:1 4350:2 4351:1 4352:1 4353:1 4354:1 4355:1 4356:1 4357:1 4358:1 4359:1 4360:1 4361:1 4362:1 
-1 1 1 1 0:2 1:3 3:2 8:2 12:2 17:1 21:5 31:2 32:3 33:1 34:1 35:1 36:2 37:14 39:1 41:1 44:6 55:2 56:3 58:1 60:1 63:1 66:6 70:3 74:1 79:1 82:1 87:3 102:1 104:1 119:1 120:1 122:2 125:2 149:1 154:1 155:1 156:1 164:1 168:1 171:2 226:2 244:1 260:1 263:3 279:1 309:2 311:2 317:1 322:1 347:1 359:1 391:2 404:1 408:1 439:1 459:1 463:1 469:2 480:1 490:1 493:1 521:1 543:1 549:1 596:1 599:1 600:1 603:1 610:1 631:1 641:1 651:1 669:1 673:1 678:2 688:1 692:1 696:1 700:1 712:1 716:1 718:1 725:1 728:1 779:1 869:1 897:1 1034:2 1068:1 1134:2 1177:1 1199:3 1273:1 1274:1 1278:1 1316:1 1363:2 1422:2 1520:1 1771:1 1889:1 1923:1 1946:1 1994:1 2012:1 2052:1 2247:1 2368:4 2379:3 2535:1 3247:1 3903:1 4363:1 4364:3 4365:1 4366:1 4367:1 4368:1 
-1 1 1 1 1:1 3:2 4:1 8:7 12:1 13:2 14:1 31:1 32:2 34:2 37:8 38:1 39:1 44:2 55:2 56:1 60:1 66:3 79:2 125:2 127:1 149:2 162:1 185:1 201:1 207:1 263:1 294:1 328:1 351:1 359:2 363:2 410:1 480:2 481:1 509:1 534:1 595:1 598:1 604:1 623:1 702:1 718:1 778:1 810:1 876:1 936:1 1040:1 1170:1 1227:1 1260:2 1273:2 1275:1 1454:1 1581:1 1701:1 1943:1 2070:1 2161:1 2380:1 2417:1 2475:1 2535:1 2598:1 3352:2 3474:1 3508:1 3519:1 4382:1 4383:1 4384:1 4385:1 4386:1 4387:1 4388:1 4389:1 
-1 1 1 1 1:4 3:2 5:1 8:2 14:2 21:2 31:2 32:3 37:4 39:2 41:2 44:4 47:1 48:1 53:2 55:3 56:1 63:1 66:2 70:1 87:1 105:1 120:3 122:1 125:3 129:1 139:1 144:1 149:2 150:3 171:1 192:1 201:3 211:1 226:1 347:2 354:1 363:1 385:1 386:1 404:1 408:1 416:2 433:1 458:1 474:1 490:2 512:1 513:1 521:1 526:1 539:1 557:1 566:1 568:1 598:1 600:1 609:1 641:1 712:1 761:1 842:1 882:1 935:1 1018:1 1162:1 1196:1 1246:1 1314:1 1316:1 1334:1 1454:1 1504:1 1672:1 1686:1 1700:1 1704:1 1709:1 1784:1 1788:1 1995:1 2080:1 2192:1 2452:1 2636:1 3006:1 3552:1 3873:1 4469:1 4470:1 4471:1 4472:1 4473:1 4474:1 4475:1 
-1 1 1 1 0:1 1:4 3:2 8:11 17:2 21:2 31:2 32:4 36:1 37:3 39:2 41:2 44:3 45:1 49:2 55:1 59:1 64:1 66:2 67:1 70:2 71:3 72:1 79:3 100:1 102:1 105:2 121:1 125:1 134:2 136:1 150:1 159:1 167:1 171:1 238:1 274:1 282:1 285:1 288:2 301:2 311:2 313:1 328:2 358:1 363:1 391:1 411:1 439:1 463:2 475:1 485:1 490:1 493:2 519:1 553:1 560:1 594:1 595:1 616:1 684:1 725:1 798:1 908:2 931:1 1031:1 1138:1 1180:1 1188:1 1444:1 1513:1 1538:1 1539:1 1585:1 1595:1 1628:1 1682:1 1862:1 1951:1 2001:1 2023:1 2075:1 2343:1 2535:1 2861:1 2862:1 2947:3 3329:2 3410:1 3913:1 4357:1 4537:1 4538:1 4539:2 4540:1 4541:1 4542:1 4543:1 4544:1 4545:1 4546:1 4547:1 4548:1 4549:1 
-1 1 1 1 0:1 1:3 3:1 8:6 13:1 14:2 15:1 21:4 31:3 32:14 34:1 35:2 36:4 37:8 44:6 54:2 55:4 64:2 66:4 67:2 71:1 74:2 87:4 92:1 96:2 100:4 102:1 120:1 125:10 126:1 127:3 129:1 136:3 139:1 141:1 149:2 151:1 154:1 184:1 185:1 211:1 263:2 267:2 272:2 279:1 288:1 294:1 297:1 302:1 311:1 319:1 322:1 345:1 359:3 368:1 391:1 403:1 404:1 433:1 435:1 450:1 458:1 480:1 509:1 512:2 515:3 521:1 550:1 560:2 609:3 611:2 641:1 642:1 691:1 697:1 701:1 712:1 718:2 740:1 761:1 768:1 779:1 798:1 804:1 890:1 900:1 953:1 962:3 972:1 995:2 1092:1 1170:1 1229:1 1260:1 1301:1 1316:2 1334:1 1374:1 1504:1 1520:1 1538:1 1563:1 1581:1 1624:1 1645:1 1698:1 1701:1 1709:1 1721:1 2080:1 2112:1 2318:1 2363:1 2452:3 2467:2 2519:1 2521:2 2705:1 2771:1 3336:1 3421:1 3454:1 3468:1 3552:1 3597:1 4014:1 4384:1 4466:1 4471:1 4473:1 4550:1 4551:2 4552:2 4553:1 4554:1 4555:1 4556:1 4557:1 4558:1 4559:1 4560:1 4561:1 4562:1 4563:1 4564:1 4565:1 4566:1 4567:1 4568:1 4569:1 4570:1 4571:1 4572:1 4573:1 
-1 1 1 1 6:1 8:1 37:1 55:1 70:1 125:1 155:1 201:1 458:1 534:2 601:1 672:1 728:1 2195:1 2368:1 2381:1 4588:1 
-1 1 1 1 1:6 3:3 8:3 14:2 17:1 21:2 31:1 32:5 34:1 37:7 39:1 41:3 44:2 55:5 60:2 63:1 66:6 71:1 80:1 84:1 93:1 96:5 98:1 100:1 102:1 104:1 105:2 120:4 121:1 122:1 125:1 150:1 156:2 159:2 171:1 192:1 201:7 229:1 237:1 238:2 269:1 301:3 311:1 312:2 329:1 334:1 347:1 354:1 359:1 408:1 421:1 480:1 496:1 497:1 532:1 552:1 569:1 598:1 600:1 623:1 629:1 630:1 631:1 647:1 703:1 718:1 740:1 743:1 750:1 767:1 768:1 776:1 792:1 794:1 816:1 835:2 866:1 905:1 910:2 951:1 962:1 1017:1 1018:1 1060:1 1063:1 1068:1 1139:2 1177:3 1295:1 1316:1 1372:1 1374:1 1418:1 1435:1 1454:4 1456:1 1465:1 1474:1 1539:1 1563:1 1645:2 1896:1 2026:1 2033:1 2113:1 2170:1 2275:2 2290:1 2364:1 2395:1 2759:1 2995:1 2997:1 3247:1 3283:1 3908:1 4635:1 4636:1 4637:1 4638:5 4639:1 4640:1 4641:1 4642:1 4643:1 4644:1 4645:1 4646:1 4647:3 4648:1 4649:1 4650:1 4651:1 4652:1 4653:1 4654:1 4655:1 4656:1 4657:1 
-1 1 1 1 1:2 3:4 8:3 21:1 31:2 32:2 34:2 36:1 37:5 41:1 44:7 45:1 55:3 56:2 60:1 66:1 102:1 125:3 129:1 150:1 201:1 208:1 268:1 288:1 311:2 316:1 347:1 349:1 363:2 385:1 404:1 408:2 481:1 490:1 521:1 528:1 554:1 564:3 578:1 600:1 649:1 674:2 935:1 968:1 1006:1 1018:1 1032:1 1275:1 1290:1 1427:1 1684:1 1770:1 1869:1 1889:1 1994:1 2530:1 2637:1 3355:1 3357:1 3533:1 3534:2 3886:1 4666:1 4667:2 4668:1 4669:1 4670:1 
-1 1 1 1 0:1 1:3 2:1 21:1 31:3 32:3 33:1 34:1 35:1 37:1 41:1 53:1 55:3 60:1 66:1 98:2 102:1 125:1 136:2 167:1 170:1 191:1 211:1 260:1 271:1 294:1 345:1 347:1 354:1 391:1 458:1 476:1 478:1 742:2 806:1 911:1 1032:1 1134:1 1334:1 1512:2 1575:1 1618:1 1864:1 2179:1 2366:1 2668:1 2689:2 3265:1 4084:1 4365:1 4694:1 4695:1 4696:1 
-1 1 1 1 1:2 3:1 32:2 35:1 36:1 37:1 55:2 121:1 127:1 129:1 150:1 156:1 168:1 211:1 263:1 284:1 328:1 363:1 564:1 568:1 743:1 884:1 1316:1 1334:1 1423:1 1687:1 1862:1 2504:1 3643:1 4701:1 4702:1 
-1 1 1 1 1:3 2:1 3:2 8:1 31:2 32:5 41:2 44:1 58:1 60:1 64:1 66:2 100:1 105:2 136:4 159:2 201:1 271:1 288:1 313:1 328:1 359:2 363:2 378:1 385:1 475:2 480:1 496:1 541:1 623:1 651:2 904:1 908:1 929:1 935:2 951:1 1412:1 1976:1 2457:1 2526:1 3330:2 3331:1 3480:1 4073:1 4390:1 4543:2 4712:1 4713:1 4714:1 
-1 1 1 1 1:3 8:1 14:1 31:2 32:2 34:2 35:1 37:2 44:1 66:2 70:1 74:1 100:1 105:1 111:1 112:1 125:2 133:1 136:1 156:1 237:1 313:1 340:1 354:1 358:1 385:1 453:1 474:1 580:1 677:1 691:1 808:1 1032:1 1070:1 1186:1 1274:1 1719:1 1750:1 1791:1 2676:1 4521:1 4715:1 4716:1 4717:1 4718:1 4719:1 4720:1 4721:1 4722:1 4723:1 4724:1 
-1 1 1 1 1:1 3:1 8:1 21:2 31:1 32:3 34:2 35:1 36:1 37:7 38:1 44:2 55:1 56:1 79:1 87:1 98:1 125:1 141:1 171:1 201:1 207:1 226:1 236:1 238:1 240:1 263:2 272:1 285:1 313:2 322:3 336:1 345:1 348:1 354:2 385:1 405:1 468:1 490:1 562:1 603:1 684:1 712:1 790:1 842:1 883:1 982:1 1008:2 1078:1 1126:1 1606:1 1683:1 1831:1 2044:1 2438:1 2906:1 3337:1 4725:1 4726:1 4727:1 4728:1 4729:1 4730:1 4731:1 4732:1 4733:1 4734:1 4735:1 4736:1 
-1 1 1 1 1:3 13:1 31:1 37:1 39:2 41:1 44:3 60:1 66:1 96:1 105:1 283:1 288:1 298:1 385:1 616:1 617:1 618:1 767:1 779:1 833:1 904:1 992:1 1037:1 1055:1 1057:1 1314:1 2097:1 2461:1 4737:1 4738:1 4739:1 4740:1 4741:1 4742:1 
-1 1 1 1 1:3 3:3 8:3 14:1 21:4 32:7 34:1 37:7 40:1 41:1 42:1 44:1 53:1 55:2 66:1 74:3 87:2 100:2 102:1 105:2 120:2 121:1 122:2 129:1 133:1 134:1 136:1 154:1 156:1 171:1 201:1 237:1 267:2 271:1 328:2 347:1 354:1 359:1 382:1 391:1 402:1 404:1 453:1 463:1 468:1 479:1 480:1 594:1 609:1 647:1 674:1 698:1 750:1 768:1 783:1 789:1 806:1 831:1 905:1 962:1 973:1 974:1 1002:1 1022:1 1068:1 1124:1 1169:1 1179:1 1208:1 1263:1 1332:1 1365:1 1369:1 1535:1 1660:1 1712:1 1864:1 2053:1 2257:1 2430:1 2786:1 2858:1 3490:1 3851:1 3926:1 4000:1 4034:1 4424:1 4850:1 4851:1 4852:1 4853:1 
-1 1 1 1 1:1 3:1 8:2 12:5 16:1 18:1 21:1 31:1 32:2 33:1 34:3 35:1 36:1 37:6 38:1 43:2 44:2 45:2 54:1 60:1 66:1 76:1 93:1 96:2 127:2 201:1 207:1 232:1 267:1 288:1 311:1 313:2 321:1 347:1 365:1 368:3 480:1 485:1 496:1 509:1 543:1 575:1 681:1 718:1 792:1 798:1 807:1 809:1 816:1 897:1 969:1 1056:1 1316:1 1430:1 1444:2 1581:1 1635:2 1636:2 1797:1 2025:1 2116:1 2837:1 3180:1 3243:1 3396:1 3545:1 3612:2 3689:1 4412:2 4463:1 4510:1 4887:1 4888:1 4889:1 4890:1 4891:1 4892:1 4893:1 4894:1 4895:1 4896:1 4897:1 4898:1 4899:1 4900:1 
-1 1 1 1 1:10 3:5 8:9 13:2 14:3 18:1 21:2 31:3 34:6 36:1 37:8 38:1 44:4 53:1 55:4 56:1 59:1 60:1 63:1 66:5 74:3 75:1 87:2 96:1 102:1 107:1 115:3 120:1 125:1 127:2 134:2 136:2 137:1 146:1 150:1 151:1 171:2 181:1 204:9 219:2 260:1 263:3 272:1 288:3 301:2 310:1 321:1 322:2 328:2 330:1 334:1 359:1 362:1 371:1 410:3 411:1 421:1 451:1 459:2 469:1 474:1 476:4 495:1 554:2 560:1 575:1 597:1 622:1 626:1 661:1 662:2 690:1 700:1 712:1 740:1 765:1 776:1 816:2 820:1 866:1 873:1 878:1 968:2 1094:1 1136:1 1152:1 1167:1 1293:1 1323:1 1327:1 1335:1 1353:1 1427:2 1505:1 1591:1 1624:1 1706:2 1709:1 1720:2 1771:1 1775:1 1917:1 1966:1 2001:1 2012:1 2080:2 2161:1 2209:1 2285:1 2430:1 2449:1 2468:1 2526:1 2537:1 2632:1 2663:1 2759:1 2767:1 2885:1 3390:1 3634:1 4016:1 4250:1 4423:1 4481:1 4805:1 4814:2 4955:1 4956:1 4957:1 4958:1 4959:1 4960:1 4961:1 4962:1 4963:1 4964:4 4965:1 4966:1 4967:1 4968:1 4969:1 4970:1 4971:1 4972:1 4973:1 4974:1 4975:1 4976:1 4977:1 4978:1 4979:1 4980:1 4981:1 4982:1 4983:1 4984:1 4985:1 4986:1 4987:1 4988:1 4989:1 4990:1 4991:1 4992:1 4993:1 4994:1 4995:1 4996:1 4997:1 4998:1 4999:2 5000:1 5001:1 5002:1 5003:1 5004:1 5005:1 
-1 1 1 1 0:1 1:11 3:1 8:7 13:1 14:3 31:2 32:5 34:1 35:1 36:1 37:5 39:2 44:1 45:1 47:1 55:1 66:2 71:1 72:1 74:6 79:2 87:4 98:2 100:3 102:3 107:1 122:1 125:3 149:1 150:1 154:2 170:3 187:1 189:3 267:1 274:1 297:1 301:1 311:1 322:1 328:1 363:6 389:1 391:1 411:1 421:1 439:1 445:3 448:1 458:1 493:1 521:1 554:1 563:1 591:1 594:1 595:1 597:1 609:1 624:1 626:1 662:1 684:2 742:1 765:1 779:1 787:1 801:1 817:1 847:1 873:1 885:1 899:1 920:1 935:1 946:1 959:1 1031:1 1032:1 1070:1 1130:1 1134:1 1135:1 1138:1 1154:1 1196:1 1275:1 1377:1 1503:1 1505:2 1576:1 1585:1 1616:1 1683:1 1839:1 1937:1 2008:1 2446:1 2495:1 2582:1 2771:1 2914:1 3141:1 3409:2 3648:1 3903:1 4409:1 4475:1 5109:1 5110:1 5111:1 5112:1 5113:1 5114:1 5115:1 5116:1 5117:1 5118:1 5119:1 5120:1 5121:1 5122:1 
-1 1 1 1 1:6 3:4 8:8 14:1 21:1 31:4 32:10 35:3 36:1 37:5 44:4 45:1 54:1 55:5 56:2 58:1 59:1 60:3 65:1 66:7 71:1 74:4 79:1 83:1 87:5 93:2 96:4 98:1 100:2 102:2 104:2 105:1 120:1 125:4 127:2 133:2 134:1 136:5 141:1 151:1 159:1 201:1 223:1 239:1 260:1 263:8 269:1 271:2 281:1 284:1 288:4 302:1 311:1 359:3 363:1 385:1 404:1 447:1 451:1 469:1 490:1 505:1 569:2 578:1 671:1 712:1 730:1 750:1 760:1 796:2 810:1 822:1 835:1 873:1 876:1 900:1 929:1 930:1 973:1 983:1 1054:1 1059:1 1068:1 1069:2 1094:1 1126:1 1242:1 1260:1 1286:1 1389:1 1400:1 1412:1 1454:1 1469:1 1475:1 1505:1 1692:1 1709:1 1760:1 1771:1 1843:2 1901:1 2026:1 2149:1 2234:1 2413:1 2698:1 2729:1 2812:1 2994:1 3021:1 3167:1 3528:1 3678:1 3989:1 4151:1 4254:2 4311:1 4663:1 4845:1 4973:1 5123:1 5124:1 5125:1 5126:1 5127:1 5128:1 5129:1 5130:1 5131:1 5132:1 5133:1 5134:1 5135:1 5136:1 5137:1 5138:1 5139:1 5140:1 5141:1 5142:1 5143:1 5144:1 5145:1 5146:1 5147:1 5148:1 5149:1 5150:1 5151:1 5152:1 5153:1 
-1 1 1 1 1:1 3:1 5:1 8:1 14:1 21:2 30:1 32:1 34:1 37:3 44:2 47:1 55:2 58:1 66:3 70:1 102:1 112:1 150:1 159:2 278:1 288:1 340:1 465:1 466:1 467:1 493:1 505:1 521:1 562:1 566:1 607:1 619:1 790:1 801:1 866:1 897:3 1027:1 1029:1 1217:1 1373:1 1563:1 1844:1 1846:1 1925:1 2183:1 2375:1 2392:1 2608:1 2663:1 3409:1 3462:1 3854:1 3989:1 4036:1 4277:1 4296:1 4431:1 4603:1 5165:1 5166:1 5167:1 5168:1 5169:1 5170:1 5171:1 5172:1 5173:1 5174:1 5175:1 5176:1 5177:1 5178:1 5179:1 5180:1 5181:1 5182:1 5183:1 5184:1 5185:1 5186:1 5187:1 5188:1 5189:1 5190:1 5191:1 5192:1 5193:1 5194:1 5195:1 5196:1 5197:1 5198:1 5199:1 5200:1 5201:1 5202:1 
-1 1 1 1 0:1 1:3 3:3 8:3 13:1 14:2 21:2 31:3 35:3 36:2 37:1 39:1 41:2 44:3 47:1 55:3 58:1 60:1 66:3 70:1 87:2 102:1 111:1 112:1 127:1 129:2 134:1 136:3 138:1 150:1 189:1 201:2 204:1 260:1 267:1 284:1 301:1 311:1 322:2 330:2 339:1 340:1 349:1 359:1 363:1 385:1 439:1 447:1 474:1 543:1 550:1 555:1 578:1 604:1 647:1 701:1 702:2 758:1 774:1 816:1 910:1 1022:1 1199:1 1201:1 1242:1 1260:1 1331:1 1465:1 1524:1 1563:1 1585:1 1591:1 2169:1 2278:2 2379:1 2391:1 2408:1 2566:1 2663:2 2676:1 2771:1 3293:1 3774:1 4073:1 4444:1 4670:1 4923:1 5202:1 5253:1 5254:1 5255:1 5256:1 5257:1 5258:1 5259:1 5260:1 5261:1 5262:1 5263:1 5264:1 
-1 1 1 1 1:8 3:7 8:7 13:1 14:2 21:2 31:2 32:11 33:1 34:3 37:5 39:2 44:1 45:2 55:2 56:2 59:1 60:1 66:5 71:3 72:1 74:5 79:1 82:1 87:5 92:1 100:2 102:1 119:1 123:1 124:1 125:2 129:1 146:1 149:1 159:2 160:2 165:1 166:1 175:1 178:1 180:1 185:1 263:1 267:3 287:1 301:2 311:1 324:1 333:1 339:1 345:1 348:1 349:1 381:1 431:1 445:1 453:2 497:1 521:2 532:1 554:1 595:1 625:1 626:1 649:1 678:1 680:1 743:1 750:1 768:1 789:1 809:1 829:1 878:1 883:1 935:1 946:1 984:1 1021:1 1071:1 1097:1 1142:1 1143:1 1181:1 1182:1 1216:1 1228:1 1260:2 1275:1 1302:1 1336:1 1380:1 1427:1 1454:1 1528:1 1554:1 1600:1 1614:1 1647:1 1654:1 1770:1 1917:1 2187:1 2235:2 2461:1 2530:1 2599:1 2676:1 2700:1 2729:2 3010:1 3084:1 3132:1 3505:1 3735:2 3736:2 3786:1 4012:1 4083:1 4167:1 4565:1 4939:1 5204:1 5229:1 5265:1 5266:1 5267:1 5268:1 5269:1 5270:1 5271:1 5272:1 5273:3 5274:1 5275:1 5276:1 5277:1 5278:1 5279:1 5280:1 5281:1 5282:1 5283:1 5284:1 5285:1 5286:1 5287:1 5288:1 
-1 1 1 1 1:4 3:1 8:1 14:1 21:3 32:3 34:1 39:1 55:1 56:1 66:2 71:1 74:2 96:1 100:1 122:1 125:2 126:1 127:1 141:2 144:1 150:2 171:2 181:1 189:1 219:1 226:1 260:1 274:1 288:1 297:1 334:1 354:1 358:1 368:1 385:1 391:1 487:1 512:1 550:1 641:3 684:1 701:1 745:1 750:1 833:1 834:1 973:1 993:1 1136:1 1244:1 1274:1 1304:1 1458:1 1475:1 1581:1 1621:1 1629:1 1677:1 1771:1 1869:1 2102:1 2112:1 2528:1 2943:1 3097:1 3261:1 4277:1 4296:1 4781:1 4950:1 5074:1 5292:1 5293:1 5294:1 5295:1 5296:1 5297:1 5298:1 5299:1 5300:1 5301:1 5302:1 5303:1 
-1 1 1 1 1:3 8:1 31:1 36:1 39:1 41:1 44:1 45:1 55:1 58:1 59:1 66:1 70:1 98:1 159:1 201:4 288:1 328:1 385:1 386:1 404:1 443:1 480:2 509:1 594:1 595:1 624:1 662:1 842:1 897:1 931:1 1032:1 1324:1 1556:1 1628:1 1792:1 1854:1 4024:1 
-1 1 1 1 1:1 3:1 6:1 7:1 8:1 32:1 37:2 55:1 125:2 206:1 207:1 316:1 320:1 354:1 490:1 607:1 700:1 714:1 731:1 778:1 1141:1 1700:1 1860:1 2053:1 2676:1 3591:1 3772:1 4439:1 5304:1 5305:1 5306:1 
-1 1 1 1 1:1 8:6 32:1 37:2 45:2 71:2 72:1 73:1 74:2 79:1 105:2 150:1 171:1 269:1 368:1 578:1 597:1 598:1 600:1 697:1 727:1 779:1 801:1 961:1 1158:1 1547:1 1935:1 2003:1 2318:1 2411:1 3763:1 4472:1 5307:1 5308:1 
-1 1 1 1 1:2 3:2 8:3 11:2 14:1 17:2 18:1 21:2 31:1 32:3 34:2 36:2 37:4 39:2 41:2 44:3 55:2 56:1 65:1 66:4 74:5 87:1 100:2 102:1 104:1 105:2 125:1 129:2 133:1 149:1 150:1 154:2 156:1 238:1 258:2 288:2 313:2 358:1 362:1 385:1 408:1 474:1 505:1 539:1 550:1 557:1 568:1 583:1 600:1 647:1 768:1 789:2 796:1 897:1 924:1 1071:1 1179:1 1238:1 1316:1 1466:1 1612:1 1876:1 1901:1 1942:1 1963:1 1981:1 2006:1 2147:2 2393:1 2906:1 3247:1 3262:1 4263:1 4291:1 5347:3 5348:1 5349:1 5350:1 5351:1 5352:1 
-1 1 1 1 1:1 8:2 12:1 14:3 18:1 21:1 32:7 34:2 35:1 36:2 37:2 45:1 56:1 66:1 79:1 100:1 105:1 122:1 125:1 127:1 149:2 150:1 237:1 263:1 328:1 354:1 521:1 560:1 582:1 600:1 792:1 1818:1 1839:1 1919:1 1935:1 2277:1 2404:1 2599:1 2845:1 3130:1 4928:1 5381:1 5382:1 5383:1 5384:1 5385:1 5386:1 5387:1 5388:1 
-1 1 1 1 1:1 3:2 8:4 15:1 31:1 32:3 33:2 35:1 36:1 37:2 39:1 44:1 53:1 55:1 66:2 87:1 125:2 151:1 228:2 271:1 284:1 288:1 298:1 322:1 329:1 347:1 463:1 521:1 535:1 554:1 878:1 900:1 984:1 1023:1 1081:1 1336:1 1687:1 1942:1 2201:1 2221:1 2295:1 2645:1 2663:1 2686:1 2891:1 5389:1 5390:1 5391:1 5392:1 5393:1 5394:2 5395:1 5396:1 5397:1 5398:1 5399:1 5400:1 
-1 1 1 1 1:4 3:1 8:3 14:3 21:1 32:7 34:1 37:9 39:2 41:2 44:2 55:3 56:1 60:3 66:2 70:2 74:1 79:2 87:3 96:1 100:2 121:1 125:2 134:2 140:1 141:1 144:1 154:2 155:1 201:2 238:2 244:1 263:2 267:2 272:1 283:1 321:1 339:2 347:1 363:1 378:1 427:1 435:1 453:1 458:1 474:1 480:1 490:2 505:1 532:1 539:1 554:1 557:1 572:1 583:1 602:1 611:1 623:2 626:1 666:1 702:1 738:1 831:1 936:1 946:1 951:1 973:1 994:1 1094:1 1126:2 1149:1 1172:1 1208:1 1217:1 1237:1 1254:1 1286:2 1321:1 1427:1 1448:1 1505:1 1535:1 1552:1 1578:1 1710:1 1839:1 1860:1 1945:1 2040:1 2053:1 2163:2 2267:1 2375:1 2978:1 3223:1 3244:1 3403:1 3410:1 3448:1 3507:1 3850:1 4593:1 5285:1 5401:1 5402:1 5403:1 5404:1 5405:1 5406:1 5407:1 5408:1 5409:1 
