svm_type c_svc
kernel_type rbf
gamma 3.42366e-007
nr_class 5
total_sv 500
rho -0.00163099 0.000477433 0.000877738 0.0048514 0.00117967 -0.00108108 0.00218287 -0.00107783 0.00225198 0.00257525
label 5 4 2 3 1
nr_sv 100 100 100 100 100
SV
1 1 1 1 0:1 1:1 2:1 3:1 4:2 5:2 6:3 7:3 8:3 9:1 10:1 11:1 12:2 13:2 14:1 15:1 16:1 17:1 18:1 19:1 20:1 21:3 22:1 23:1 24:1 25:1 26:1 27:1 28:1 29:1 30:1 31:2 32:2 33:1 34:1 35:1 36:1 37:3 38:1 39:1 40:1 41:1 42:1 43:1 44:2 45:1 46:1 47:1 48:1 49:1 50:1 51:1 52:1 53:1 54:1 55:1 56:1 57:1 58:1 59:1 60:1 61:1 62:1 63:1 64:1 65:1 66:1 67:1 68:1 137910:1 137911:1 137912:1 137913:1 137914:2 137915:2 137916:3 137917:1 137918:1 137919:1 137920:1 137921:1 137922:1 137923:1 137924:1 137925:1 137926:1 137927:1 137928:1 137929:1 137930:1 137931:1 137932:1 137933:1 137934:1 137935:1 137936:1 137937:1 137938:1 137939:1 137940:1 137941:1 137942:1 137943:1 137944:1 137945:1 137946:1 137947:1 137948:1 137949:1 137950:1 137951:1 137952:1 137953:1 137954:1 137955:1 137956:1 137957:1 137958:1 137959:1 137960:1 137961:1 137962:1 137963:1 137964:1 137965:1 137966:1 137967:1 137968:1 137969:1 137970:1 137971:1 137972:1 137973:1 137974:1 137975:1 137976:1 137977:1 137978:1 137979:1 137980:1 137981:1 137982:1 137983:1 137984:1 137985:1 137986:1 137987:1 137988:1 137989:1 137990:1 2778374:1 2778375:1 2778376:1 2778377:1 2778378:2 2778379:2 2778380:1 2778381:1 2778382:1 2778383:1 2778384:1 2778385:1 2778386:1 2778387:1 2778388:1 2778389:1 2778390:1 2778391:1 2778392:1 2778393:1 2778394:1 2778395:1 2778396:1 2778397:1 2778398:1 2778399:1 2778400:1 2778401:1 2778402:1 2778403:1 2778404:1 2778405:1 2778406:1 2778407:1 2778408:1 2778409:1 2778410:1 2778411:1 2778412:1 2778413:1 2778414:1 2778415:1 2778416:1 2778417:1 2778418:1 2778419:1 2778420:1 2778421:1 2778422:1 2778423:1 2778424:1 2778425:1 2778426:1 2778427:1 2778428:1 2778429:1 2778430:1 2778431:1 2778432:1 2778433:1 2778434:1 2778435:1 2778436:1 2778437:1 2778438:1 2778439:1 2778440:1 2778441:1 2778442:1 2778443:1 2778444:1 2778445:1 2778446:1 2778447:1 2778448:1 2778449:1 2778450:1 2778451:1 2778452:1 2778453:1 2778454:1 2778455:1 
1 1 1 1 1:1 3:1 8:3 32:3 34:1 37:1 39:2 45:1 55:1 60:1 66:2 69:1 70:1 71:1 72:1 73:1 74:1 75:1 76:1 77:1 78:1 79:1 80:1 81:1 82:1 83:1 84:1 85:1 86:1 87:1 88:1 89:1 90:1 91:1 92:1 93:1 94:1 95:1 96:1 137991:1 137992:1 137993:1 137994:1 137995:1 137996:1 137997:1 137998:1 137999:1 138000:1 138001:1 138002:1 138003:1 138004:1 138005:1 138006:1 138007:1 138008:1 138009:1 138010:1 138011:1 138012:1 138013:1 138014:1 138015:1 138016:1 138017:1 138018:1 138019:1 138020:1 138021:1 138022:1 138023:1 138024:1 138025:1 138026:1 138027:1 138028:1 138029:1 138030:1 138031:1 138032:1 138033:1 138034:1 2778456:1 2778457:1 2778458:1 2778459:1 2778460:1 2778461:1 2778462:1 2778463:1 2778464:1 2778465:1 2778466:1 2778467:1 2778468:1 2778469:1 2778470:1 2778471:1 2778472:1 2778473:1 2778474:1 2778475:1 2778476:1 2778477:1 2778478:1 2778479:1 2778480:1 2778481:1 2778482:1 2778483:1 2778484:1 2778485:1 2778486:1 2778487:1 2778488:1 2778489:1 2778490:1 2778491:1 2778492:1 2778493:1 2778494:1 2778495:1 2778496:1 2778497:1 2778498:1 
1 1 1 1 1:1 3:2 8:3 13:2 17:1 32:4 36:1 37:3 39:1 41:3 44:5 59:1 66:5 70:3 87:1 102:1 125:2 127:1 129:1 134:1 139:2 140:2 151:1 154:1 160:1 162:1 201:1 272:1 311:1 322:1 328:3 339:1 342:2 345:1 354:1 359:1 385:2 391:1 393:1 404:1 439:1 458:1 469:1 474:1 476:1 480:1 520:1 534:2 560:1 566:1 579:1 600:1 607:1 629:1 667:1 712:1 713:1 714:1 715:1 716:1 717:1 718:1 719:1 720:1 721:1 722:2 723:1 724:2 725:1 726:1 727:1 728:1 729:1 730:1 731:1 732:1 733:1 734:1 735:2 736:1 737:1 738:1 739:1 740:1 741:1 742:1 743:1 744:1 137959:1 138098:1 138099:2 138100:1 138140:1 138206:1 138613:1 138640:1 138792:1 138899:1 138987:1 139374:1 139375:1 139376:1 139377:1 139378:1 139379:1 139380:1 139381:1 139382:1 139383:1 139384:1 139385:1 139386:1 139387:1 139388:1 139389:1 139390:1 139391:1 139392:1 139393:1 139394:1 139395:1 139396:1 139397:1 139398:1 139399:2 139400:1 139401:1 139402:1 139403:1 139404:1 139405:1 139406:1 139407:1 139408:1 139409:1 139410:1 139411:1 139412:2 139413:1 139414:1 139415:1 139416:1 139417:2 139418:1 139419:1 139420:1 139421:1 139422:1 139423:1 139424:1 139425:1 139426:1 139427:1 139428:1 139429:1 139430:1 139431:1 139432:1 139433:1 139434:1 139435:1 139436:1 139437:1 139438:1 139439:1 139440:1 139441:1 139442:1 139443:1 139444:1 139445:1 139446:1 139447:1 139448:1 139449:1 139450:1 139451:1 139452:1 139453:1 139454:1 139455:1 139456:1 139457:1 139458:1 139459:1 139460:1 139461:1 139462:1 139463:1 139464:1 139465:1 139466:1 139467:1 139468:1 139469:1 139470:1 139471:1 139472:1 139473:1 139474:1 139475:1 139476:1 139477:1 2778565:1 2778566:1 2779955:1 2779956:1 2779957:1 2779958:1 2779959:1 2779960:1 2779961:1 2779962:1 2779963:1 2779964:1 2779965:1 2779966:1 2779967:1 2779968:1 2779969:1 2779970:1 2779971:1 2779972:1 2779973:1 2779974:1 2779975:1 2779976:1 2779977:1 2779978:1 2779979:1 2779980:1 2779981:1 2779982:1 2779983:1 2779984:1 2779985:1 2779986:1 2779987:1 2779988:1 2779989:1 2779990:1 2779991:1 2779992:1 2779993:1 2779994:1 2779995:1 2779996:1 2779997:1 2779998:1 2779999:1 2780000:1 2780001:1 2780002:1 2780003:1 2780004:1 2780005:1 2780006:1 2780007:1 2780008:1 2780009:1 2780010:1 2780011:1 2780012:1 2780013:1 2780014:1 2780015:1 2780016:1 2780017:1 2780018:1 2780019:1 2780020:1 2780021:1 2780022:1 2780023:1 2780024:1 2780025:1 2780026:1 2780027:1 2780028:1 2780029:1 2780030:1 2780031:1 2780032:1 2780033:1 2780034:1 2780035:1 2780036:1 2780037:1 2780038:1 2780039:1 2780040:1 2780041:1 2780042:1 2780043:1 2780044:1 2780045:1 2780046:1 2780047:1 2780048:1 2780049:1 2780050:1 2780051:1 2780052:1 2780053:1 2780054:1 2780055:1 2780056:1 2780057:1 2780058:1 2780059:1 2780060:1 2780061:1 2780062:1 2780063:1 2780064:1 2780065:1 2780066:1 2780067:1 2780068:1 2780069:1 2780070:1 
1 1 1 1 1:4 3:4 8:5 21:1 35:2 36:1 37:9 39:1 44:2 60:1 66:2 83:1 87:1 93:1 102:1 107:1 125:3 127:1 133:1 134:1 149:1 185:1 201:2 224:1 244:1 288:4 322:1 349:1 363:2 403:2 466:1 480:3 504:1 539:2 553:2 641:1 745:1 746:1 747:1 748:1 749:6 750:1 751:1 752:1 753:1 754:1 755:1 756:2 757:1 758:1 759:1 760:1 761:1 762:1 763:1 764:1 765:1 766:1 767:1 768:1 769:1 770:1 771:1 772:1 773:1 774:1 775:1 776:2 777:1 778:1 779:1 780:1 781:1 782:1 137959:2 138046:1 138091:1 138146:1 138232:1 138243:1 138279:1 138572:1 138637:2 138820:1 138847:1 138866:1 138930:1 139400:1 139478:1 139479:1 139480:1 139481:1 139482:1 139483:1 139484:1 139485:1 139486:1 139487:1 139488:1 139489:1 139490:1 139491:1 139492:1 139493:1 139494:1 139495:1 139496:1 139497:1 139498:1 139499:1 139500:1 139501:1 139502:1 139503:1 139504:1 139505:1 139506:1 139507:1 139508:1 139509:1 139510:1 139511:1 139512:1 139513:1 139514:1 139515:1 139516:1 139517:1 139518:1 139519:1 139520:1 139521:1 139522:1 139523:1 139524:1 139525:1 139526:1 139527:1 139528:1 139529:1 139530:1 139531:1 139532:1 139533:1 139534:1 139535:1 139536:1 139537:1 139538:1 139539:1 139540:1 139541:1 139542:1 139543:1 139544:1 139545:2 139546:1 139547:1 139548:1 139549:1 139550:2 139551:1 139552:1 139553:1 139554:1 139555:1 139556:1 139557:1 139558:1 139559:1 139560:1 139561:1 139562:1 139563:1 139564:1 139565:1 139566:1 139567:1 139568:1 139569:1 139570:1 139571:1 139572:1 2779626:1 2780071:1 2780072:1 2780073:1 2780074:1 2780075:1 2780076:1 2780077:1 2780078:1 2780079:1 2780080:1 2780081:1 2780082:1 2780083:1 2780084:1 2780085:1 2780086:1 2780087:1 2780088:1 2780089:1 2780090:1 2780091:1 2780092:1 2780093:1 2780094:1 2780095:1 2780096:1 2780097:1 2780098:1 2780099:1 2780100:1 2780101:1 2780102:1 2780103:1 2780104:1 2780105:1 2780106:1 2780107:1 2780108:1 2780109:1 2780110:1 2780111:1 2780112:1 2780113:1 2780114:1 2780115:1 2780116:1 2780117:1 2780118:1 2780119:1 2780120:1 2780121:1 2780122:1 2780123:1 2780124:1 2780125:1 2780126:1 2780127:1 2780128:1 2780129:1 2780130:1 2780131:1 2780132:1 2780133:1 2780134:1 2780135:1 2780136:1 2780137:1 2780138:1 2780139:1 2780140:1 2780141:1 2780142:1 2780143:1 2780144:1 2780145:1 2780146:1 2780147:1 2780148:1 2780149:1 2780150:1 2780151:1 2780152:1 2780153:1 2780154:1 2780155:1 2780156:1 2780157:1 2780158:1 2780159:1 2780160:1 2780161:1 2780162:1 2780163:1 2780164:1 2780165:1 2780166:1 2780167:1 2780168:1 2780169:1 2780170:1 2780171:1 2780172:1 2780173:1 2780174:1 2780175:1 2780176:1 2780177:1 2780178:1 2780179:1 2780180:1 2780181:1 
1 1 1 1 1:4 3:3 8:5 13:1 15:1 17:1 21:1 31:2 32:10 33:2 34:3 35:3 36:1 37:12 39:1 44:3 45:1 47:1 55:4 56:1 58:1 59:1 60:4 66:6 71:1 74:5 84:1 87:2 92:1 96:1 100:1 102:1 105:1 114:1 122:1 125:2 127:1 150:1 153:1 154:1 159:1 167:1 168:1 171:1 187:1 189:1 191:2 201:1 219:2 226:1 238:1 263:1 267:1 288:1 300:1 301:2 311:1 312:1 319:1 339:1 358:1 359:1 386:1 388:1 405:1 453:2 463:2 469:2 488:1 519:1 523:1 534:1 538:1 545:1 548:1 560:1 572:1 583:1 595:1 600:1 614:1 653:1 682:1 691:1 704:1 714:1 721:1 722:1 733:1 784:1 791:1 814:1 822:1 849:1 850:1 851:1 852:1 853:1 854:1 855:1 856:1 857:1 858:1 859:1 860:1 861:1 862:1 863:1 864:1 865:1 866:1 867:1 868:1 869:1 870:1 871:1 872:1 873:1 874:1 875:1 876:1 877:1 878:1 879:1 880:1 881:1 882:1 883:1 884:1 885:1 886:1 887:1 888:1 889:1 890:1 891:1 892:1 893:1 894:1 895:1 896:1 897:1 898:1 899:1 900:1 901:1 902:1 903:1 904:1 905:1 906:1 907:1 908:2 909:1 137945:2 137949:1 137959:3 137994:1 137999:1 138029:1 138045:1 138061:1 138123:1 138124:1 138125:1 138145:1 138146:1 138165:1 138169:1 138232:1 138265:1 138332:1 138407:1 138415:1 138475:1 138570:1 138608:1 138609:1 138767:1 138792:2 138832:1 138847:1 138986:1 139051:1 139091:1 139170:1 139181:1 139283:1 139411:1 139412:1 139625:1 139720:2 139752:1 139753:1 139754:1 139755:1 139756:1 139757:1 139758:1 139759:1 139760:1 139761:1 139762:1 139763:1 139764:1 139765:1 139766:1 139767:1 139768:1 139769:1 139770:1 139771:1 139772:1 139773:1 139774:1 139775:1 139776:1 139777:1 139778:1 139779:1 139780:1 139781:1 139782:1 139783:1 139784:1 139785:1 139786:1 139787:1 139788:1 139789:1 139790:1 139791:1 139792:1 139793:1 139794:1 139795:1 139796:1 139797:1 139798:1 139799:1 139800:1 139801:1 139802:1 139803:1 139804:1 139805:1 139806:1 139807:1 139808:1 139809:1 139810:1 139811:1 139812:1 139813:1 139814:1 139815:1 139816:1 139817:1 139818:1 139819:1 139820:1 139821:1 139822:1 139823:1 139824:1 139825:1 139826:1 139827:1 139828:1 139829:1 139830:1 139831:1 139832:1 139833:1 139834:1 139835:1 139836:1 139837:1 139838:1 139839:1 139840:1 139841:1 139842:1 139843:1 139844:1 139845:1 139846:1 139847:1 139848:1 139849:1 139850:1 139851:1 139852:1 139853:1 139854:1 139855:1 139856:2 139857:1 139858:1 139859:1 139860:1 139861:1 139862:1 139863:1 139864:1 139865:1 139866:1 139867:1 139868:1 139869:1 139870:1 139871:1 139872:1 139873:1 139874:1 139875:1 139876:1 139877:1 139878:1 139879:1 139880:1 139881:1 139882:1 139883:1 139884:1 139885:1 139886:1 139887:1 139888:1 139889:1 139890:1 139891:1 139892:1 139893:1 139894:1 139895:1 139896:1 139897:1 139898:1 139899:1 139900:1 139901:1 139902:1 139903:1 139904:1 139905:1 139906:1 139907:1 139908:1 139909:1 139910:1 139911:1 139912:1 139913:1 139914:1 139915:2 139916:1 139917:1 139918:1 139919:1 139920:1 2778590:1 2778591:1 2779119:1 2779120:1 2779742:1 2779851:1 2779996:1 2780375:1 2780376:1 2780377:1 2780378:1 2780379:1 2780380:1 2780381:1 2780382:1 2780383:1 2780384:1 2780385:1 2780386:1 2780387:1 2780388:1 2780389:1 2780390:1 2780391:1 2780392:1 2780393:1 2780394:1 2780395:1 2780396:1 2780397:1 2780398:1 2780399:1 2780400:1 2780401:1 2780402:1 2780403:1 2780404:1 2780405:1 2780406:1 2780407:1 2780408:1 2780409:1 2780410:1 2780411:1 2780412:1 2780413:1 2780414:1 2780415:1 2780416:1 2780417:1 2780418:1 2780419:1 2780420:1 2780421:1 2780422:1 2780423:1 2780424:1 2780425:1 2780426:1 2780427:1 2780428:1 2780429:1 2780430:1 2780431:1 2780432:1 2780433:1 2780434:1 2780435:1 2780436:1 2780437:1 2780438:1 2780439:1 2780440:1 2780441:1 2780442:1 2780443:1 2780444:1 2780445:1 2780446:1 2780447:1 2780448:1 2780449:1 2780450:1 2780451:1 2780452:1 2780453:1 2780454:1 2780455:1 2780456:1 2780457:1 2780458:1 2780459:1 2780460:1 2780461:1 2780462:1 2780463:1 2780464:1 2780465:1 2780466:1 2780467:1 2780468:1 2780469:1 2780470:1 2780471:1 2780472:1 2780473:1 2780474:1 2780475:1 2780476:1 2780477:1 2780478:1 2780479:1 2780480:1 2780481:1 2780482:1 2780483:1 2780484:1 2780485:1 2780486:1 2780487:1 2780488:1 2780489:1 2780490:1 2780491:1 2780492:1 2780493:1 2780494:1 2780495:1 2780496:1 2780497:1 2780498:1 2780499:1 2780500:1 2780501:1 2780502:1 2780503:1 2780504:1 2780505:1 2780506:1 2780507:1 2780508:1 2780509:1 2780510:1 2780511:1 2780512:1 2780513:1 2780514:1 2780515:1 2780516:1 2780517:1 2780518:1 2780519:1 2780520:1 2780521:1 2780522:1 2780523:1 2780524:1 2780525:1 2780526:1 2780527:1 2780528:1 2780529:1 2780530:1 2780531:1 2780532:1 2780533:1 2780534:1 2780535:1 2780536:1 2780537:1 2780538:1 2780539:1 2780540:1 2780541:1 2780542:1 2780543:1 2780544:1 2780545:1 2780546:1 2780547:1 2780548:1 2780549:1 2780550:1 2780551:1 2780552:1 2780553:1 2780554:1 2780555:1 2780556:1 2780557:1 2780558:1 2780559:1 2780560:1 2780561:1 2780562:1 2780563:1 2780564:1 2780565:1 2780566:1 2780567:1 2780568:1 2780569:1 2780570:1 2780571:1 2780572:1 2780573:1 2780574:1 2780575:1 2780576:1 2780577:1 2780578:1 2780579:1 2780580:1 
1 1 1 1 1:4 3:8 8:9 12:1 17:1 21:3 31:1 32:2 34:7 35:2 37:11 38:2 39:4 41:1 44:1 52:1 55:5 56:2 60:2 66:7 74:3 76:1 87:2 95:1 96:3 100:1 102:4 104:1 110:1 119:1 125:3 134:1 136:2 141:1 146:1 150:1 153:1 159:2 162:1 175:1 201:4 204:1 238:4 263:3 272:1 279:1 288:3 294:1 301:2 313:1 322:3 328:1 336:1 339:3 358:5 359:1 363:2 366:1 380:1 391:1 406:1 415:1 437:1 439:1 469:1 470:1 481:1 490:1 496:2 503:1 509:2 521:2 539:1 554:2 570:1 575:1 600:1 603:1 604:2 624:1 629:1 646:2 647:3 703:1 743:1 770:1 776:1 778:1 802:1 823:1 833:1 865:1 897:2 904:1 908:1 929:1 938:1 1018:1 1023:2 1036:1 1037:1 1038:1 1039:1 1040:1 1041:1 1042:1 1043:1 1044:1 1045:1 1046:1 1047:1 1048:1 1049:1 1050:1 1051:1 1052:1 1053:1 1054:1 1055:1 1056:1 1057:1 1058:2 1059:1 1060:1 1061:1 1062:1 1063:1 1064:1 1065:1 1066:1 1067:1 1068:1 1069:4 1070:1 1071:1 1072:2 1073:1 1074:1 1075:1 1076:1 1077:1 1078:1 1079:1 1080:1 1081:1 1082:2 1083:1 1084:1 1085:1 1086:1 1087:1 1088:2 1089:1 1090:1 1091:1 1092:1 1093:1 1094:1 1095:1 1096:1 1097:1 1098:1 1099:1 1100:2 1101:1 1102:1 1103:1 1104:1 1105:1 1106:1 1107:1 1108:1 1109:1 1110:1 1111:1 1112:1 1113:1 1114:1 1115:1 1116:1 1117:1 1118:1 1119:1 1120:1 1121:1 1122:1 1123:1 1124:1 1125:1 1126:1 1127:1 137952:2 137959:2 138004:1 138008:1 138146:2 138238:1 138386:1 138415:2 138444:1 138535:1 138753:1 138832:1 138903:1 138946:1 139084:1 139109:1 139171:1 139272:2 139687:1 139715:1 139720:1 139756:1 139778:1 139796:1 139804:1 139915:1 139936:1 139998:1 140345:1 140346:1 140347:1 140348:1 140349:1 140350:1 140351:1 140352:2 140353:1 140354:1 140355:1 140356:1 140357:2 140358:1 140359:1 140360:1 140361:1 140362:1 140363:1 140364:1 140365:1 140366:1 140367:1 140368:1 140369:1 140370:1 140371:1 140372:1 140373:1 140374:1 140375:1 140376:1 140377:1 140378:1 140379:1 140380:1 140381:1 140382:1 140383:1 140384:1 140385:1 140386:1 140387:1 140388:1 140389:1 140390:1 140391:1 140392:1 140393:1 140394:1 140395:1 140396:1 140397:1 140398:1 140399:1 140400:1 140401:1 140402:1 140403:1 140404:1 140405:1 140406:1 140407:1 140408:1 140409:1 140410:1 140411:1 140412:1 140413:1 140414:1 140415:1 140416:1 140417:1 140418:1 140419:1 140420:1 140421:1 140422:1 140423:1 140424:1 140425:1 140426:1 140427:1 140428:1 140429:1 140430:1 140431:1 140432:1 140433:1 140434:1 140435:1 140436:1 140437:1 140438:1 140439:1 140440:1 140441:1 140442:1 140443:1 140444:1 140445:1 140446:1 140447:1 140448:1 140449:1 140450:1 140451:1 140452:1 140453:2 140454:1 140455:1 140456:1 140457:1 140458:1 140459:1 140460:1 140461:1 140462:1 140463:1 140464:1 140465:1 140466:1 140467:1 140468:2 140469:1 140470:1 140471:1 140472:1 140473:1 140474:1 140475:1 140476:1 140477:1 140478:1 140479:1 140480:1 140481:1 140482:1 140483:1 140484:1 140485:1 140486:1 140487:1 140488:1 140489:1 140490:1 140491:1 140492:1 140493:1 140494:1 140495:1 140496:1 140497:1 140498:1 140499:1 140500:1 140501:1 140502:1 140503:1 140504:1 140505:1 140506:1 140507:1 140508:1 140509:1 140510:1 140511:1 140512:1 140513:1 140514:1 140515:1 140516:1 140517:1 140518:1 140519:1 140520:1 140521:1 140522:1 140523:1 140524:1 140525:1 140526:2 140527:1 140528:1 140529:1 140530:1 140531:1 140532:1 140533:1 140534:1 140535:1 140536:1 140537:1 140538:1 140539:1 140540:1 140541:1 140542:1 140543:1 140544:1 140545:1 140546:1 140547:1 140548:1 140549:1 140550:1 140551:1 140552:1 140553:1 140554:1 140555:1 140556:1 140557:1 140558:1 140559:1 140560:1 140561:1 140562:1 140563:1 140564:1 140565:1 140566:1 140567:1 140568:1 140569:1 140570:1 140571:1 140572:1 140573:1 140574:1 140575:1 140576:1 140577:1 140578:1 140579:1 140580:1 140581:1 140582:1 140583:1 140584:1 140585:1 140586:1 140587:1 140588:1 140589:1 140590:1 140591:1 140592:1 140593:1 140594:1 140595:1 140596:1 140597:1 140598:1 140599:1 140600:1 2780536:1 2781076:1 2781077:1 2781078:1 2781079:1 2781080:1 2781081:1 2781082:1 2781083:1 2781084:1 2781085:1 2781086:1 2781087:1 2781088:1 2781089:1 2781090:1 2781091:1 2781092:1 2781093:1 2781094:1 2781095:1 2781096:1 2781097:1 2781098:1 2781099:1 2781100:1 2781101:1 2781102:1 2781103:1 2781104:1 2781105:1 2781106:1 2781107:1 2781108:1 2781109:1 2781110:1 2781111:1 2781112:1 2781113:1 2781114:1 2781115:1 2781116:1 2781117:1 2781118:1 2781119:1 2781120:1 2781121:1 2781122:1 2781123:1 2781124:1 2781125:1 2781126:1 2781127:1 2781128:1 2781129:1 2781130:1 2781131:1 2781132:1 2781133:1 2781134:1 2781135:1 2781136:1 2781137:1 2781138:1 2781139:1 2781140:1 2781141:1 2781142:1 2781143:1 2781144:1 2781145:1 2781146:1 2781147:1 2781148:1 2781149:1 2781150:1 2781151:1 2781152:1 2781153:1 2781154:1 2781155:1 2781156:1 2781157:1 2781158:1 2781159:1 2781160:1 2781161:1 2781162:1 2781163:1 2781164:1 2781165:1 2781166:1 2781167:1 2781168:1 2781169:1 2781170:1 2781171:1 2781172:1 2781173:1 2781174:1 2781175:1 2781176:1 2781177:1 2781178:1 2781179:1 2781180:1 2781181:1 2781182:1 2781183:1 2781184:1 2781185:1 2781186:1 2781187:1 2781188:1 2781189:1 2781190:1 2781191:1 2781192:1 2781193:1 2781194:1 2781195:1 2781196:1 2781197:1 2781198:1 2781199:1 2781200:1 2781201:1 2781202:1 2781203:1 2781204:1 2781205:1 2781206:1 2781207:1 2781208:1 2781209:1 2781210:1 2781211:1 2781212:1 2781213:1 2781214:1 2781215:1 2781216:1 2781217:1 2781218:1 2781219:1 2781220:1 2781221:1 2781222:1 2781223:1 2781224:1 2781225:1 2781226:1 2781227:1 2781228:1 2781229:1 2781230:1 2781231:1 2781232:1 2781233:1 2781234:1 2781235:1 2781236:1 2781237:1 2781238:1 2781239:1 2781240:1 2781241:1 2781242:1 2781243:1 2781244:1 2781245:1 2781246:1 2781247:1 2781248:1 2781249:1 2781250:1 2781251:1 2781252:1 2781253:1 2781254:1 2781255:1 2781256:1 2781257:1 2781258:1 2781259:1 2781260:1 2781261:1 2781262:1 2781263:1 2781264:1 2781265:1 2781266:1 2781267:1 2781268:1 2781269:1 2781270:1 2781271:1 2781272:1 2781273:1 2781274:1 2781275:1 2781276:1 2781277:1 2781278:1 2781279:1 2781280:1 2781281:1 2781282:1 2781283:1 2781284:1 2781285:1 2781286:1 2781287:1 2781288:1 2781289:1 2781290:1 2781291:1 2781292:1 2781293:1 2781294:1 2781295:1 2781296:1 2781297:1 2781298:1 2781299:1 2781300:1 2781301:1 2781302:1 2781303:1 2781304:1 2781305:1 2781306:1 2781307:1 2781308:1 2781309:1 2781310:1 2781311:1 2781312:1 2781313:1 2781314:1 2781315:1 2781316:1 2781317:1 2781318:1 2781319:1 2781320:1 2781321:1 2781322:1 2781323:1 2781324:1 2781325:1 2781326:1 2781327:1 2781328:1 2781329:1 2781330:1 2781331:1 2781332:1 2781333:1 2781334:1 2781335:1 2781336:1 2781337:1 2781338:1 2781339:1 2781340:1 2781341:1 2781342:1 2781343:1 2781344:1 2781345:1 2781346:1 2781347:1 2781348:1 2781349:1 2781350:1 2781351:1 2781352:1 2781353:1 2781354:1 2781355:1 2781356:1 2781357:1 2781358:1 2781359:1 2781360:1 2781361:1 2781362:1 2781363:1 2781364:1 2781365:1 2781366:1 2781367:1 
1 1 1 1 1:2 5:1 6:2 7:2 8:1 32:3 34:3 35:1 37:4 39:1 41:2 44:1 55:3 58:1 59:1 66:5 70:1 74:1 83:1 87:1 99:1 100:2 127:3 133:1 138:1 141:1 146:1 170:1 171:1 201:5 217:1 241:1 263:2 301:1 336:1 366:1 411:1 534:1 600:1 618:1 718:1 778:1 866:1 902:1 962:2 973:1 1022:2 1023:1 1060:1 1091:1 1160:1 1161:1 1162:2 1163:1 1164:1 1165:1 1166:1 1167:1 1168:1 1169:1 1170:1 1171:1 1172:1 1173:1 1174:2 1175:1 1176:1 1177:1 1178:1 1179:1 137916:2 137959:1 137980:1 137999:1 138091:1 138165:1 138271:1 138655:1 138971:1 139083:1 139084:1 139771:1 140212:1 140269:1 140305:1 140413:1 140705:1 140706:1 140707:1 140708:1 140709:1 140710:1 140711:1 140712:1 140713:1 140714:1 140715:1 140716:1 140717:1 140718:1 140719:1 140720:1 140721:1 140722:1 140723:1 140724:1 140725:1 140726:1 140727:1 140728:1 140729:1 140730:1 140731:1 140732:1 140733:1 140734:1 140735:1 140736:1 140737:1 140738:1 140739:1 140740:1 140741:1 140742:1 140743:1 140744:1 140745:1 140746:1 140747:1 140748:1 140749:1 140750:1 140751:1 140752:1 140753:1 140754:1 140755:1 140756:1 140757:1 140758:1 140759:1 140760:1 140761:1 140762:2 140763:1 140764:1 140765:1 140766:1 140767:1 140768:1 140769:1 140770:1 140771:1 140772:1 140773:1 140774:1 140775:1 140776:1 140777:1 140778:1 140779:1 140780:1 140781:1 140782:1 140783:1 140784:1 2779635:1 2781490:1 2781491:1 2781492:1 2781493:1 2781494:1 2781495:1 2781496:1 2781497:1 2781498:1 2781499:1 2781500:1 2781501:1 2781502:1 2781503:1 2781504:1 2781505:1 2781506:1 2781507:1 2781508:1 2781509:1 2781510:1 2781511:1 2781512:1 2781513:1 2781514:1 2781515:1 2781516:1 2781517:1 2781518:1 2781519:1 2781520:1 2781521:1 2781522:1 2781523:1 2781524:1 2781525:1 2781526:1 2781527:1 2781528:1 2781529:1 2781530:1 2781531:1 2781532:1 2781533:1 2781534:1 2781535:1 2781536:1 2781537:1 2781538:1 2781539:1 2781540:1 2781541:1 2781542:1 2781543:1 2781544:1 2781545:1 2781546:1 2781547:1 2781548:1 2781549:1 2781550:1 2781551:1 2781552:1 2781553:1 2781554:1 2781555:1 2781556:1 2781557:1 2781558:1 2781559:1 2781560:1 2781561:1 2781562:1 2781563:1 2781564:1 2781565:1 2781566:1 2781567:1 2781568:1 2781569:1 2781570:1 2781571:1 2781572:1 2781573:1 2781574:1 2781575:1 2781576:1 2781577:1 2781578:1 2781579:1 2781580:1 2781581:1 2781582:1 2781583:1 2781584:1 2781585:1 
1 1 1 1 1:1 3:2 8:6 14:2 21:1 32:4 34:3 35:1 36:1 37:7 39:3 44:1 55:2 56:1 60:3 66:7 70:1 71:3 74:5 79:2 87:1 107:1 125:2 126:1 129:2 150:1 153:1 155:1 160:1 170:3 171:2 260:1 263:1 264:1 269:1 288:1 309:1 329:1 359:1 403:1 411:1 433:1 439:2 445:3 458:1 474:1 520:1 521:1 534:4 561:1 568:1 572:1 582:1 624:2 661:1 684:2 768:1 798:1 817:2 854:1 981:1 1003:1 1024:1 1212:1 1213:1 1214:1 1215:1 1216:1 1217:1 1218:2 1219:1 1220:1 1221:1 1222:1 1223:1 1224:1 1225:1 1226:2 1227:1 1228:1 1229:1 1230:1 1231:1 1232:1 1233:1 1234:1 1235:1 1236:1 1237:1 1238:1 1239:1 1240:1 1241:1 1242:1 1243:1 1244:1 1245:1 1246:1 1247:1 1248:1 138002:1 138008:1 138146:1 138169:1 138357:1 138386:1 138415:1 138634:1 138735:1 138833:2 138931:1 138991:1 139009:1 139050:1 139181:1 139387:1 139720:1 139731:1 139772:1 139856:1 140034:1 140079:1 140127:1 140425:1 140545:1 140598:1 140634:2 140681:1 140855:2 140932:1 140933:1 140934:1 140935:1 140936:1 140937:1 140938:1 140939:1 140940:1 140941:1 140942:1 140943:1 140944:1 140945:1 140946:1 140947:1 140948:1 140949:1 140950:1 140951:1 140952:1 140953:1 140954:1 140955:1 140956:1 140957:1 140958:1 140959:1 140960:1 140961:1 140962:1 140963:1 140964:1 140965:1 140966:1 140967:1 140968:1 140969:1 140970:1 140971:1 140972:1 140973:1 140974:1 140975:1 140976:1 140977:1 140978:1 140979:1 140980:1 140981:1 140982:1 140983:1 140984:1 140985:1 140986:1 140987:1 140988:1 140989:1 140990:1 140991:1 140992:1 140993:1 140994:1 140995:1 140996:1 140997:1 140998:1 140999:1 141000:1 141001:1 141002:1 141003:1 141004:1 141005:1 141006:1 141007:1 141008:1 141009:1 141010:1 141011:1 141012:1 141013:1 141014:1 141015:1 141016:1 141017:1 141018:1 141019:1 141020:1 141021:1 141022:1 141023:1 141024:1 141025:1 141026:1 141027:1 141028:1 141029:1 141030:1 141031:1 141032:1 141033:1 141034:1 141035:1 141036:1 141037:1 141038:1 141039:1 141040:1 141041:1 141042:1 141043:1 141044:1 141045:1 141046:1 141047:1 141048:1 141049:1 141050:1 2779742:1 2780764:1 2780765:1 2781174:1 2781675:1 2781766:1 2781767:1 2781768:1 2781769:1 2781770:1 2781771:1 2781772:1 2781773:1 2781774:1 2781775:1 2781776:1 2781777:1 2781778:1 2781779:1 2781780:1 2781781:1 2781782:1 2781783:1 2781784:1 2781785:1 2781786:1 2781787:1 2781788:1 2781789:1 2781790:1 2781791:1 2781792:1 2781793:1 2781794:1 2781795:1 2781796:1 2781797:1 2781798:1 2781799:1 2781800:1 2781801:1 2781802:1 2781803:1 2781804:1 2781805:1 2781806:1 2781807:1 2781808:1 2781809:1 2781810:1 2781811:1 2781812:1 2781813:1 2781814:1 2781815:1 2781816:1 2781817:1 2781818:1 2781819:1 2781820:1 2781821:1 2781822:1 2781823:1 2781824:1 2781825:1 2781826:1 2781827:1 2781828:1 2781829:1 2781830:1 2781831:1 2781832:1 2781833:1 2781834:1 2781835:1 2781836:1 2781837:1 2781838:1 2781839:1 2781840:1 2781841:1 2781842:1 2781843:1 2781844:1 2781845:1 2781846:1 2781847:1 2781848:1 2781849:1 2781850:1 2781851:1 2781852:1 2781853:1 2781854:1 2781855:1 2781856:1 2781857:1 2781858:1 2781859:1 2781860:1 2781861:1 2781862:1 2781863:1 2781864:1 2781865:1 2781866:1 2781867:1 2781868:1 2781869:1 2781870:1 2781871:1 2781872:1 2781873:1 2781874:1 2781875:1 2781876:1 2781877:1 2781878:1 2781879:1 2781880:1 2781881:1 2781882:1 2781883:1 2781884:1 2781885:1 2781886:1 2781887:1 2781888:1 2781889:1 2781890:1 2781891:1 2781892:1 2781893:1 2781894:1 2781895:1 2781896:1 2781897:1 2781898:1 2781899:1 2781900:1 2781901:1 2781902:1 2781903:1 2781904:1 2781905:1 2781906:1 2781907:1 2781908:1 2781909:1 2781910:1 
1 1 1 1 1:1 8:2 31:1 32:3 34:1 37:5 39:1 44:1 64:1 66:2 74:2 79:1 112:1 133:1 171:1 175:1 201:1 211:1 236:1 439:1 462:1 509:1 554:1 583:1 624:1 647:1 733:1 901:1 968:1 994:1 1126:1 1201:1 1249:2 1250:1 1251:1 1252:1 1253:1 1254:1 1255:1 1256:1 1257:1 1258:1 1259:1 1260:1 1261:1 1262:1 1263:1 137959:1 138009:1 138091:1 138117:1 138235:1 138415:1 138659:1 139163:1 139164:1 139315:1 140352:1 141051:1 141052:1 141053:1 141054:1 141055:1 141056:2 141057:1 141058:1 141059:1 141060:1 141061:1 141062:1 141063:1 141064:1 141065:1 141066:1 141067:1 141068:1 141069:1 141070:1 141071:1 141072:1 141073:1 141074:1 141075:1 141076:1 141077:1 141078:1 141079:1 141080:1 141081:1 141082:1 141083:1 141084:1 141085:1 141086:1 141087:1 141088:1 141089:1 141090:1 141091:1 141092:1 141093:1 141094:1 2779723:1 2780675:1 2781911:1 2781912:1 2781913:1 2781914:1 2781915:1 2781916:1 2781917:1 2781918:1 2781919:1 2781920:1 2781921:1 2781922:1 2781923:1 2781924:1 2781925:1 2781926:1 2781927:1 2781928:1 2781929:1 2781930:1 2781931:1 2781932:1 2781933:1 2781934:1 2781935:1 2781936:1 2781937:1 2781938:1 2781939:1 2781940:1 2781941:1 2781942:1 2781943:1 2781944:1 2781945:1 2781946:1 2781947:1 2781948:1 2781949:1 2781950:1 2781951:1 2781952:1 2781953:1 2781954:1 2781955:1 2781956:1 2781957:1 2781958:1 2781959:1 2781960:1 2781961:1 2781962:1 2781963:1 
1 1 1 1 1:2 3:1 8:5 32:3 37:6 39:3 41:2 44:3 53:1 55:2 60:1 73:1 74:1 79:1 100:1 129:1 134:1 144:1 150:3 168:1 171:1 201:1 265:1 267:1 268:1 282:1 288:1 301:1 302:1 303:1 339:1 415:2 439:1 462:1 463:1 578:1 597:1 768:1 807:1 847:1 899:1 908:1 924:1 981:1 1029:1 1242:1 1565:1 1566:1 1567:1 1568:1 1569:1 1570:1 1571:1 1572:1 1573:1 1574:1 1575:1 1576:1 1577:1 1578:1 137998:1 138009:1 138107:1 138169:1 138325:1 138326:1 138332:1 138410:1 138411:1 138412:1 138996:1 139000:1 139074:1 139084:1 139625:1 139856:1 139915:1 140127:1 140320:1 140416:1 140611:1 141412:1 141654:1 141865:1 141997:1 142086:1 142090:1 142091:1 142092:1 142093:1 142094:1 142095:1 142096:1 142097:1 142098:1 142099:1 142100:1 142101:1 142102:1 142103:1 142104:1 142105:1 142106:1 142107:1 142108:1 142109:1 142110:1 142111:1 142112:1 142113:1 142114:1 142115:1 142116:1 142117:1 142118:1 142119:1 142120:1 142121:1 142122:1 142123:1 142124:1 142125:1 142126:1 142127:1 142128:1 142129:1 142130:1 142131:1 142132:1 142133:1 142134:1 142135:1 142136:1 142137:1 142138:1 142139:1 142140:1 142141:1 142142:1 142143:1 2778801:1 2778896:1 2778897:1 2783070:1 2783197:1 2783198:1 2783199:1 2783200:1 2783201:1 2783202:1 2783203:1 2783204:1 2783205:1 2783206:1 2783207:1 2783208:1 2783209:1 2783210:1 2783211:1 2783212:1 2783213:1 2783214:1 2783215:1 2783216:1 2783217:1 2783218:1 2783219:1 2783220:1 2783221:1 2783222:1 2783223:1 2783224:1 2783225:1 2783226:1 2783227:1 2783228:1 2783229:1 2783230:1 2783231:1 2783232:1 2783233:1 2783234:1 2783235:1 2783236:1 2783237:1 2783238:1 2783239:1 2783240:1 2783241:1 2783242:1 2783243:1 2783244:1 2783245:1 2783246:1 2783247:1 2783248:1 2783249:1 2783250:1 2783251:1 2783252:1 2783253:1 2783254:1 2783255:1 2783256:1 2783257:1 2783258:1 2783259:1 2783260:1 2783261:1 2783262:1 2783263:1 2783264:1 2783265:1 2783266:1 2783267:1 2783268:1 2783269:1 2783270:1 2783271:1 
1 1 1 1 0:1 1:4 3:2 8:3 31:1 32:2 34:1 37:1 41:1 44:2 45:1 57:2 58:1 60:1 66:1 70:1 105:1 119:1 120:2 154:2 164:1 171:1 184:1 208:1 267:1 311:1 324:1 340:1 359:2 360:1 416:1 469:1 521:1 594:1 595:1 697:1 891:1 931:2 969:1 1026:1 1031:1 1130:1 1579:1 1580:1 1581:1 1582:1 1583:1 1584:1 1585:1 1586:2 1587:1 1588:1 1589:1 1590:1 1591:1 1592:1 1593:1 1594:1 1595:1 1596:1 1597:1 1598:1 1599:1 1600:1 1601:1 137910:1 138070:1 138146:1 138396:1 138475:1 138655:1 138807:1 139070:1 139145:1 139199:1 139584:1 140237:1 140868:1 141190:1 141645:1 142149:1 142150:2 142151:1 142152:1 142153:1 142154:1 142155:1 142156:1 142157:1 142158:1 142159:1 142160:1 142161:1 142162:1 142163:1 142164:1 142165:1 142166:1 142167:1 142168:1 142169:1 142170:1 142171:1 142172:1 142173:1 142174:1 142175:1 142176:1 142177:1 142178:1 142179:1 142180:1 142181:1 142182:1 142183:1 142184:1 142185:1 142186:1 142187:1 142188:1 142189:1 142190:1 142191:1 142192:1 142193:1 142194:1 142195:1 142196:1 142197:1 142198:1 142199:1 142200:1 142201:1 142202:1 142203:1 142204:1 142205:1 142206:1 142207:1 142208:1 142209:1 142210:1 2783277:1 2783278:1 2783279:1 2783280:1 2783281:1 2783282:1 2783283:1 2783284:1 2783285:1 2783286:1 2783287:1 2783288:1 2783289:1 2783290:1 2783291:1 2783292:1 2783293:1 2783294:1 2783295:1 2783296:1 2783297:1 2783298:1 2783299:1 2783300:1 2783301:1 2783302:1 2783303:1 2783304:1 2783305:1 2783306:1 2783307:1 2783308:1 2783309:1 2783310:1 2783311:1 2783312:1 2783313:1 2783314:1 2783315:1 2783316:1 2783317:1 2783318:1 2783319:1 2783320:1 2783321:1 2783322:1 2783323:1 2783324:1 2783325:1 2783326:1 2783327:1 2783328:1 2783329:1 2783330:1 2783331:1 2783332:1 2783333:1 2783334:1 2783335:1 2783336:1 2783337:1 2783338:1 2783339:1 2783340:1 2783341:1 2783342:1 2783343:1 2783344:1 2783345:1 2783346:1 2783347:1 2783348:1 2783349:1 2783350:1 2783351:1 2783352:1 2783353:1 
1 1 1 1 8:1 21:1 70:1 358:1 559:1 804:1 1177:1 1188:1 1435:1 1627:1 1628:1 1629:1 1630:1 1631:1 138535:1 142362:1 142363:1 142364:1 142365:1 142366:1 142367:1 142368:1 142369:1 142370:1 142371:1 142372:1 142373:1 2783557:1 2783558:1 2783559:1 2783560:1 2783561:1 2783562:1 2783563:1 2783564:1 2783565:1 2783566:1 2783567:1 2783568:1 
1 1 1 1 1:2 3:3 8:2 21:1 31:1 37:3 38:1 39:1 40:1 41:1 44:1 56:1 66:1 96:2 100:1 133:1 157:1 158:1 160:1 201:1 272:1 330:1 349:1 363:1 391:1 453:1 480:1 494:1 505:1 512:1 532:1 641:1 737:2 897:1 990:1 1055:1 1644:1 1645:1 1646:1 1647:2 1648:1 1649:1 1650:1 1651:1 1652:1 1653:1 1654:1 137952:1 137955:1 137956:1 138091:1 138131:1 138146:1 138232:1 138748:1 138930:1 138989:1 139181:1 141262:1 142245:1 142405:1 142406:1 142407:1 142408:1 142409:1 142410:1 142411:1 142412:1 142413:1 142414:1 142415:1 142416:1 142417:1 142418:1 142419:1 142420:1 142421:1 142422:1 142423:1 142424:1 142425:1 142426:1 142427:1 142428:1 142429:1 142430:1 142431:1 142432:1 142433:1 142434:1 142435:1 142436:1 142437:1 142438:1 142439:1 142440:1 142441:1 142442:1 142443:1 142444:1 142445:1 142446:1 2778421:1 2779626:1 2779742:1 2781077:1 2783605:1 2783606:1 2783607:1 2783608:1 2783609:1 2783610:1 2783611:1 2783612:1 2783613:1 2783614:1 2783615:1 2783616:1 2783617:1 2783618:1 2783619:1 2783620:1 2783621:1 2783622:1 2783623:1 2783624:1 2783625:1 2783626:1 2783627:1 2783628:1 2783629:1 2783630:1 2783631:1 2783632:1 2783633:1 2783634:1 2783635:1 2783636:1 2783637:1 2783638:1 2783639:1 2783640:1 2783641:1 2783642:1 2783643:1 2783644:1 2783645:1 2783646:1 2783647:1 2783648:1 2783649:1 2783650:1 2783651:1 2783652:1 2783653:1 2783654:1 
1 1 1 1 1:2 3:1 13:1 14:1 32:1 37:1 66:1 67:1 134:1 154:1 201:2 731:1 1060:1 1220:1 1275:1 1723:2 1724:3 1725:1 1726:1 1727:1 1728:1 1729:1 1730:1 1731:1 1732:1 1733:1 1734:1 1735:1 137989:1 138489:1 139433:1 142723:2 142724:1 142725:1 142726:1 142727:1 142728:1 142729:1 142730:1 142731:1 142732:1 142733:1 142734:1 142735:1 142736:1 142737:1 142738:1 142739:1 142740:1 142741:1 142742:1 142743:1 142744:1 142745:1 142746:1 142747:1 142748:1 142749:1 142750:1 2784013:1 2784014:1 2784015:1 2784016:1 2784017:1 2784018:1 2784019:1 2784020:1 2784021:1 2784022:1 2784023:1 2784024:1 2784025:1 2784026:1 2784027:1 2784028:1 2784029:1 2784030:1 2784031:1 2784032:1 2784033:1 2784034:1 2784035:1 2784036:1 2784037:1 2784038:1 2784039:1 2784040:1 2784041:1 2784042:1 2784043:1 
1 1 1 1 1:7 2:1 3:7 8:8 13:1 14:3 16:1 17:1 32:11 33:1 34:2 35:2 36:2 37:14 39:1 43:1 44:2 55:1 60:1 63:1 64:1 65:1 66:4 72:1 74:9 79:2 87:1 93:1 98:1 102:1 107:1 112:1 125:2 127:4 129:1 133:1 149:2 150:2 159:1 164:1 168:2 201:2 219:1 238:1 244:1 263:1 279:1 297:1 309:1 311:1 313:1 319:1 320:1 339:1 363:1 404:1 408:1 458:1 467:1 468:1 479:2 481:1 485:1 490:1 497:1 512:1 521:1 550:1 554:2 568:1 572:3 575:1 578:1 592:1 595:1 600:2 626:3 651:1 676:1 715:1 716:1 721:1 722:1 730:1 731:1 742:1 768:1 779:1 792:1 798:1 816:1 819:1 822:1 823:1 847:1 890:1 897:3 929:1 933:1 962:1 988:1 1031:1 1134:1 1136:1 1155:1 1237:1 1295:1 1325:1 1427:2 1819:1 1919:1 1920:4 1921:3 1922:1 1923:1 1924:3 1925:1 1926:1 1927:1 1928:1 1929:1 1930:1 1931:1 1932:1 1933:1 1934:1 1935:1 1936:1 1937:1 1938:1 1939:1 1940:1 1941:1 1942:1 1943:1 1944:1 1945:1 1946:1 1947:1 1948:1 1949:1 1950:2 1951:1 1952:1 1953:1 1954:1 137912:1 137946:1 137949:1 137959:1 137985:1 137986:1 137999:1 138002:1 138009:1 138039:1 138091:1 138115:1 138117:1 138146:1 138147:2 138232:1 138265:1 138317:1 138357:1 138400:1 138401:1 138489:1 138552:1 138570:1 139013:1 139069:1 139088:2 139211:1 139288:1 139411:1 139528:1 139672:1 139720:1 139804:1 139901:1 140151:1 140211:1 140241:1 140260:1 140622:1 140634:1 140717:1 141174:1 141175:1 141176:1 141203:2 141233:1 141313:1 141374:1 141897:1 141940:1 142002:1 142198:1 142289:1 142473:1 142711:1 142922:1 143065:1 143095:1 143135:1 143404:1 143405:1 143406:1 143407:1 143408:1 143409:1 143410:1 143411:1 143412:1 143413:1 143414:1 143415:1 143416:1 143417:1 143418:1 143419:1 143420:1 143421:1 143422:1 143423:1 143424:1 143425:1 143426:1 143427:1 143428:1 143429:1 143430:1 143431:2 143432:1 143433:1 143434:1 143435:1 143436:1 143437:1 143438:1 143439:1 143440:1 143441:1 143442:1 143443:1 143444:1 143445:1 143446:1 143447:1 143448:1 143449:1 143450:1 143451:1 143452:1 143453:1 143454:2 143455:1 143456:1 143457:1 143458:1 143459:1 143460:1 143461:1 143462:1 143463:1 143464:1 143465:1 143466:1 143467:1 143468:1 143469:1 143470:1 143471:1 143472:1 143473:1 143474:1 143475:1 143476:1 143477:1 143478:1 143479:1 143480:1 143481:1 143482:1 143483:1 143484:1 143485:1 143486:1 143487:1 143488:1 143489:1 143490:1 143491:1 143492:1 143493:1 143494:1 143495:1 143496:1 143497:1 143498:1 143499:1 143500:1 143501:1 143502:1 143503:1 143504:1 143505:1 143506:1 143507:1 143508:1 143509:1 143510:1 143511:1 143512:1 143513:1 143514:1 143515:1 143516:1 143517:1 143518:1 143519:1 143520:1 143521:1 143522:1 143523:1 143524:1 143525:1 143526:1 143527:1 143528:1 143529:1 143530:1 143531:1 143532:1 143533:1 143534:1 143535:1 143536:1 143537:1 143538:1 143539:1 143540:1 143541:1 143542:1 143543:1 143544:1 143545:1 143546:1 143547:1 143548:1 143549:1 143550:1 143551:1 143552:1 143553:1 143554:1 143555:1 143556:1 143557:1 143558:1 143559:1 143560:1 143561:1 143562:1 143563:1 143564:1 143565:1 143566:1 143567:1 143568:1 143569:1 2778885:1 2779618:1 2780292:1 2780432:1 2780973:1 2781586:1 2782064:1 2782137:1 2784447:1 2784542:1 2784882:1 2784883:1 2784884:1 2784885:1 2784886:1 2784887:1 2784888:1 2784889:1 2784890:1 2784891:1 2784892:1 2784893:1 2784894:1 2784895:1 2784896:1 2784897:1 2784898:1 2784899:1 2784900:1 2784901:1 2784902:1 2784903:1 2784904:1 2784905:1 2784906:1 2784907:1 2784908:1 2784909:1 2784910:1 2784911:1 2784912:1 2784913:1 2784914:1 2784915:1 2784916:1 2784917:1 2784918:1 2784919:1 2784920:1 2784921:1 2784922:1 2784923:1 2784924:1 2784925:1 2784926:1 2784927:1 2784928:1 2784929:1 2784930:1 2784931:1 2784932:1 2784933:1 2784934:1 2784935:1 2784936:1 2784937:1 2784938:1 2784939:1 2784940:1 2784941:1 2784942:1 2784943:1 2784944:1 2784945:1 2784946:1 2784947:1 2784948:1 2784949:1 2784950:1 2784951:1 2784952:1 2784953:1 2784954:1 2784955:1 2784956:1 2784957:1 2784958:1 2784959:1 2784960:1 2784961:1 2784962:1 2784963:1 2784964:1 2784965:1 2784966:1 2784967:1 2784968:1 2784969:1 2784970:1 2784971:1 2784972:1 2784973:1 2784974:1 2784975:1 2784976:1 2784977:1 2784978:1 2784979:1 2784980:1 2784981:1 2784982:1 2784983:1 2784984:1 2784985:1 2784986:1 2784987:1 2784988:1 2784989:1 2784990:1 2784991:1 2784992:1 2784993:1 2784994:1 2784995:1 2784996:1 2784997:1 2784998:1 2784999:1 2785000:1 2785001:1 2785002:1 2785003:1 2785004:1 2785005:1 2785006:1 2785007:1 2785008:1 2785009:1 2785010:1 2785011:1 2785012:1 2785013:1 2785014:1 2785015:1 2785016:1 2785017:1 2785018:1 2785019:1 2785020:1 2785021:1 2785022:1 2785023:1 2785024:1 2785025:1 2785026:1 2785027:1 2785028:1 2785029:1 2785030:1 2785031:1 2785032:1 2785033:1 2785034:1 2785035:1 2785036:1 2785037:1 2785038:1 2785039:1 2785040:1 2785041:1 2785042:1 2785043:1 2785044:1 2785045:1 2785046:1 2785047:1 2785048:1 2785049:1 2785050:1 2785051:1 2785052:1 2785053:1 2785054:1 2785055:1 2785056:1 2785057:1 2785058:1 2785059:1 2785060:1 2785061:1 2785062:1 2785063:1 2785064:1 2785065:1 2785066:1 2785067:1 2785068:1 2785069:1 2785070:1 2785071:1 2785072:1 2785073:1 2785074:1 2785075:1 2785076:1 2785077:1 2785078:1 2785079:1 2785080:1 2785081:1 2785082:1 2785083:1 2785084:1 2785085:1 2785086:1 2785087:1 2785088:1 2785089:1 2785090:1 2785091:1 2785092:1 2785093:1 2785094:1 2785095:1 2785096:1 2785097:1 2785098:1 2785099:1 2785100:1 2785101:1 
1 1 1 1 8:1 14:1 21:1 32:1 37:3 39:1 44:1 66:1 70:1 129:1 162:1 190:1 330:1 363:2 459:1 549:1 672:1 678:1 702:1 1134:1 1977:1 2184:1 2185:1 2186:1 2187:1 2188:1 2189:1 2190:1 2191:1 2192:1 2193:1 2194:1 2195:1 138238:1 138930:2 138989:1 138990:1 138998:1 139358:1 139394:1 140129:1 142328:1 142847:1 144590:1 144591:1 144592:1 144593:1 144594:1 144595:1 144596:1 144597:1 144598:1 144599:1 144600:1 144601:1 144602:1 144603:1 144604:1 144605:1 144606:1 144607:1 144608:1 144609:1 144610:1 144611:1 144612:1 144613:1 2779534:1 2783608:1 2784160:1 2786455:1 2786456:1 2786457:1 2786458:1 2786459:1 2786460:1 2786461:1 2786462:1 2786463:1 2786464:1 2786465:1 2786466:1 2786467:1 2786468:1 2786469:1 2786470:1 2786471:1 2786472:1 2786473:1 2786474:1 2786475:1 2786476:1 2786477:1 2786478:1 2786479:1 2786480:1 2786481:1 2786482:1 2786483:1 2786484:1 2786485:1 
1 1 1 1 1:2 14:1 32:2 34:1 60:1 82:1 84:1 87:1 102:1 301:1 545:1 657:1 798:1 910:1 1295:1 1353:1 1500:2 2230:1 2231:1 2232:1 2233:1 2234:1 2235:1 2236:1 2237:1 2238:1 2239:1 138014:1 138332:1 138489:1 144128:1 144451:1 144701:1 144702:1 144703:1 144704:1 144705:1 144706:1 144707:1 144708:1 144709:1 144710:1 144711:1 144712:1 144713:1 144714:1 144715:1 144716:1 144717:1 144718:1 144719:1 144720:1 144721:1 144722:1 144723:1 144724:1 2786593:1 2786594:1 2786595:1 2786596:1 2786597:1 2786598:1 2786599:1 2786600:1 2786601:1 2786602:1 2786603:1 2786604:1 2786605:1 2786606:1 2786607:1 2786608:1 2786609:1 2786610:1 2786611:1 2786612:1 2786613:1 2786614:1 2786615:1 2786616:1 2786617:1 2786618:1 2786619:1 2786620:1 
1 1 1 1 1:1 8:3 14:1 15:1 21:1 31:1 32:5 35:2 36:1 37:2 39:1 44:1 55:1 66:1 74:1 96:1 98:2 100:1 125:1 133:1 141:1 149:1 154:1 162:1 166:1 201:2 260:1 311:1 313:2 376:1 385:1 469:1 490:1 779:1 789:1 833:1 1045:1 1139:1 1172:1 1207:1 1451:1 1454:1 1475:1 1543:1 1563:1 1630:1 1645:1 2268:1 2269:1 2270:1 2271:1 2272:1 2273:1 2274:1 2275:1 2276:1 2277:1 2278:1 2279:1 2280:1 2281:1 2282:1 2283:1 2284:1 2285:1 2286:1 2287:1 2288:1 2289:1 137945:1 137999:1 138101:1 138125:1 138162:1 138357:1 138763:1 138870:1 139171:1 139229:1 139598:1 140259:1 140916:1 141212:1 141407:1 142289:1 143043:1 143287:1 143594:1 144402:1 144841:1 144842:1 144843:1 144844:1 144845:1 144846:1 144847:1 144848:1 144849:1 144850:1 144851:1 144852:1 144853:1 144854:1 144855:1 144856:1 144857:1 144858:1 144859:1 144860:1 144861:1 144862:1 144863:1 144864:1 144865:1 144866:1 144867:1 144868:1 144869:1 144870:1 144871:1 144872:1 144873:1 144874:1 144875:1 144876:1 144877:1 144878:1 144879:1 144880:1 144881:1 144882:1 144883:1 144884:1 144885:1 144886:1 144887:1 144888:1 144889:1 144890:1 144891:1 144892:1 144893:1 144894:1 144895:1 144896:1 144897:1 144898:1 144899:1 2782109:1 2786769:1 2786770:1 2786771:1 2786772:1 2786773:1 2786774:1 2786775:1 2786776:1 2786777:1 2786778:1 2786779:1 2786780:1 2786781:1 2786782:1 2786783:1 2786784:1 2786785:1 2786786:1 2786787:1 2786788:1 2786789:1 2786790:1 2786791:1 2786792:1 2786793:1 2786794:1 2786795:1 2786796:1 2786797:1 2786798:1 2786799:1 2786800:1 2786801:1 2786802:1 2786803:1 2786804:1 2786805:1 2786806:1 2786807:1 2786808:1 2786809:1 2786810:1 2786811:1 2786812:1 2786813:1 2786814:1 2786815:1 2786816:1 2786817:1 2786818:1 2786819:1 2786820:1 2786821:1 2786822:1 2786823:1 2786824:1 2786825:1 2786826:1 2786827:1 2786828:1 2786829:1 2786830:1 2786831:1 2786832:1 2786833:1 2786834:1 2786835:1 2786836:1 2786837:1 2786838:1 2786839:1 2786840:1 2786841:1 2786842:1 2786843:1 2786844:1 2786845:1 
1 1 1 1 3:1 8:2 31:1 32:4 37:3 41:1 47:1 55:1 59:1 70:2 98:1 109:1 120:2 129:1 155:2 208:1 316:1 359:1 418:1 458:1 467:1 554:1 564:1 568:2 588:1 683:1 725:1 1006:1 1242:1 1566:1 1628:1 1860:1 2003:1 2359:1 2360:1 2361:1 2362:1 2363:1 2364:1 137945:1 138126:1 138127:2 138146:1 138216:1 139058:1 139084:1 139088:1 140099:1 140201:1 140202:1 140283:1 141525:1 142100:1 142169:1 143067:1 143199:1 144059:1 144499:1 144528:1 145165:1 145166:1 145167:1 145168:1 145169:1 145170:1 145171:1 145172:1 145173:1 145174:1 145175:1 145176:1 145177:1 145178:1 145179:1 145180:1 145181:1 145182:1 145183:1 145184:1 145185:1 145186:1 145187:1 145188:1 145189:1 145190:1 145191:1 2778593:1 2780905:1 2783305:1 2785344:1 2787165:1 2787166:1 2787167:1 2787168:1 2787169:1 2787170:1 2787171:1 2787172:1 2787173:1 2787174:1 2787175:1 2787176:1 2787177:1 2787178:1 2787179:1 2787180:1 2787181:1 2787182:1 2787183:1 2787184:1 2787185:1 2787186:1 2787187:1 2787188:1 2787189:1 2787190:1 2787191:1 2787192:1 2787193:1 2787194:1 2787195:1 2787196:1 2787197:1 2787198:1 2787199:1 2787200:1 2787201:1 2787202:1 2787203:1 2787204:1 2787205:1 2787206:1 2787207:1 
1 1 1 1 1:1 8:2 21:1 31:1 32:3 35:2 36:2 37:4 55:2 66:3 76:1 268:1 279:1 294:1 322:1 554:1 600:1 683:2 835:1 910:1 940:1 1006:1 1034:1 1260:1 1348:1 2183:1 2423:3 2424:1 2425:1 2426:1 2427:1 2428:1 2429:1 137949:2 138004:1 138360:1 138985:1 139084:2 139555:1 139856:1 140200:1 140201:1 140209:1 140210:1 140211:1 140212:1 141812:1 144589:1 145445:1 145469:2 145470:1 145471:1 145472:1 145473:1 145474:1 145475:1 145476:1 145477:1 145478:1 145479:1 145480:1 145481:1 145482:1 145483:1 145484:1 145485:1 145486:1 145487:1 145488:1 145489:1 145490:1 145491:1 145492:1 145493:1 145494:1 145495:1 2780904:1 2780914:1 2780916:1 2781097:1 2787575:1 2787576:1 2787577:1 2787578:1 2787579:1 2787580:1 2787581:1 2787582:1 2787583:1 2787584:1 2787585:1 2787586:1 2787587:1 2787588:1 2787589:1 2787590:1 2787591:1 2787592:1 2787593:1 2787594:1 2787595:1 2787596:1 2787597:1 2787598:1 2787599:1 2787600:1 2787601:1 2787602:1 2787603:1 2787604:1 2787605:1 2787606:1 2787607:1 2787608:1 2787609:1 2787610:1 2787611:1 2787612:1 2787613:1 2787614:1 2787615:1 
1 1 1 1 53:1 284:1 559:1 1513:1 2510:1 2511:1 145926:1 145927:1 145928:1 145929:1 145930:1 2788233:1 2788234:1 2788235:1 2788236:1 
1 1 1 1 0:3 1:2 3:1 8:3 13:1 17:1 21:2 32:7 37:8 44:1 55:2 56:1 60:1 66:2 100:1 125:1 129:1 151:2 154:2 162:1 184:1 204:1 207:1 208:1 238:1 283:1 301:1 312:1 339:1 380:1 386:1 391:1 463:1 480:1 490:1 509:1 519:1 554:1 564:1 600:1 608:1 623:1 641:1 667:1 671:1 718:1 744:1 798:1 1015:1 1068:1 1072:1 1081:1 1099:2 1139:1 1170:2 1188:1 1194:1 1201:1 1228:1 1334:1 1512:1 1519:1 1618:1 1628:1 1632:1 1694:1 1706:1 1861:1 2523:2 2524:1 2525:1 2526:1 2527:1 2528:1 2529:1 2530:1 2531:1 2532:1 2533:1 2534:1 2535:1 2536:1 2537:1 2538:1 2539:1 138140:1 138146:1 138165:1 138238:1 138986:1 139053:1 139088:1 139181:1 139344:1 139380:1 139400:1 139830:1 139991:1 140053:1 140211:1 140453:1 140742:1 140813:2 140814:2 141475:1 141893:1 141921:1 142337:1 142375:1 142568:1 142646:1 144528:1 145609:1 145964:1 145965:1 145966:1 145967:1 145968:1 145969:1 145970:1 145971:1 145972:1 145973:1 145974:1 145975:1 145976:1 145977:1 145978:1 145979:1 145980:1 145981:1 145982:1 145983:1 145984:1 145985:1 145986:1 145987:1 145988:1 145989:1 145990:1 145991:1 145992:1 145993:1 145994:1 145995:1 145996:1 145997:1 145998:1 145999:1 146000:1 146001:1 146002:1 146003:1 146004:1 146005:1 146006:1 146007:1 146008:1 146009:1 146010:1 146011:1 146012:1 146013:1 146014:1 146015:1 146016:1 146017:1 146018:1 146019:1 146020:1 146021:1 146022:1 146023:1 146024:1 146025:1 146026:1 146027:1 146028:1 146029:1 146030:1 146031:1 146032:1 146033:1 146034:1 146035:1 146036:1 146037:1 146038:1 146039:1 146040:1 146041:1 146042:1 146043:1 2779742:1 2781626:2 2784329:1 2788279:1 2788280:1 2788281:1 2788282:1 2788283:1 2788284:1 2788285:1 2788286:1 2788287:1 2788288:1 2788289:1 2788290:1 2788291:1 2788292:1 2788293:1 2788294:1 2788295:1 2788296:1 2788297:1 2788298:1 2788299:1 2788300:1 2788301:1 2788302:1 2788303:1 2788304:1 2788305:1 2788306:1 2788307:1 2788308:1 2788309:1 2788310:1 2788311:1 2788312:1 2788313:1 2788314:1 2788315:1 2788316:1 2788317:1 2788318:1 2788319:1 2788320:1 2788321:1 2788322:1 2788323:1 2788324:1 2788325:1 2788326:1 2788327:1 2788328:1 2788329:1 2788330:1 2788331:1 2788332:1 2788333:1 2788334:1 2788335:1 2788336:1 2788337:1 2788338:1 2788339:1 2788340:1 2788341:1 2788342:1 2788343:1 2788344:1 2788345:1 2788346:1 2788347:1 2788348:1 2788349:1 2788350:1 2788351:1 2788352:1 2788353:1 2788354:1 2788355:1 2788356:1 2788357:1 2788358:1 2788359:1 2788360:1 2788361:1 2788362:1 2788363:1 2788364:1 2788365:1 2788366:1 2788367:1 2788368:1 2788369:1 2788370:1 2788371:1 2788372:1 2788373:1 2788374:1 2788375:1 2788376:1 2788377:1 2788378:1 2788379:1 2788380:1 2788381:1 2788382:1 2788383:1 
1 1 1 1 225:1 753:1 1243:1 1776:1 2540:1 2541:1 2542:1 2543:1 2544:1 2545:1 2546:1 2547:1 2548:1 146044:1 146045:1 146046:1 146047:1 146048:1 146049:1 146050:1 146051:1 146052:1 146053:1 146054:1 146055:1 2788384:1 2788385:1 2788386:1 2788387:1 2788388:1 2788389:1 2788390:1 2788391:1 2788392:1 2788393:1 2788394:1 
1 1 1 1 1:1 3:1 8:5 12:1 14:1 21:2 31:1 32:2 35:2 36:2 37:9 39:3 44:2 60:1 63:1 66:2 100:3 102:1 105:1 111:1 119:1 125:1 129:1 141:1 159:1 166:1 171:1 188:1 201:2 226:1 232:1 241:1 274:1 283:1 301:1 309:1 317:1 347:1 358:1 385:1 391:2 406:1 411:1 451:1 480:2 481:1 521:1 538:1 562:1 594:1 595:1 614:1 624:1 626:1 670:1 672:1 683:1 684:1 702:1 718:1 730:1 749:2 750:1 760:1 778:1 789:1 795:1 804:1 810:1 824:1 842:1 897:1 985:1 992:2 1059:1 1092:1 1282:1 1316:1 1427:2 1454:1 1502:1 1630:1 1691:1 1711:1 1719:1 1757:1 1864:1 2115:1 2375:1 2408:1 2549:1 2550:1 2551:1 2552:1 2553:1 2554:1 2555:1 2556:1 2557:1 2558:1 2559:1 2560:1 2561:1 2562:1 2563:1 2564:1 2565:1 2566:1 137949:2 137950:1 137951:1 138146:1 138162:1 138169:1 138187:1 138188:1 138271:1 138292:1 138332:1 138357:1 138613:1 138870:1 139067:1 139400:1 139487:1 139610:1 139886:1 140169:1 140238:1 140890:1 141280:1 141328:1 141699:1 141971:1 142300:1 143798:1 143806:1 143922:1 144732:1 144849:1 145428:1 145637:1 145853:1 146056:1 146057:1 146058:1 146059:1 146060:1 146061:1 146062:1 146063:1 146064:1 146065:1 146066:1 146067:1 146068:1 146069:1 146070:1 146071:1 146072:1 146073:1 146074:1 146075:1 146076:1 146077:1 146078:1 146079:1 146080:1 146081:1 146082:1 146083:1 146084:1 146085:1 146086:1 146087:1 146088:1 146089:1 146090:1 146091:1 146092:1 146093:1 146094:1 146095:1 146096:1 146097:1 146098:1 146099:1 146100:1 146101:1 146102:1 146103:1 146104:1 146105:1 146106:1 146107:1 146108:1 146109:1 146110:1 146111:1 146112:1 146113:1 146114:1 146115:1 146116:1 146117:1 146118:1 146119:1 146120:1 146121:1 146122:1 146123:1 146124:1 146125:1 146126:1 146127:1 146128:1 146129:1 146130:1 146131:1 146132:1 146133:1 146134:1 146135:1 146136:1 146137:1 146138:1 146139:1 146140:1 146141:1 146142:1 146143:1 146144:1 146145:1 146146:1 146147:1 146148:1 146149:1 146150:1 146151:1 146152:1 146153:1 146154:1 2778414:1 2778415:1 2778656:1 2780947:1 2788395:1 2788396:1 2788397:1 2788398:1 2788399:1 2788400:1 2788401:1 2788402:1 2788403:1 2788404:1 2788405:1 2788406:1 2788407:1 2788408:1 2788409:1 2788410:1 2788411:1 2788412:1 2788413:1 2788414:1 2788415:1 2788416:1 2788417:1 2788418:1 2788419:1 2788420:1 2788421:1 2788422:1 2788423:1 2788424:1 2788425:1 2788426:1 2788427:1 2788428:1 2788429:1 2788430:1 2788431:1 2788432:1 2788433:1 2788434:1 2788435:1 2788436:1 2788437:1 2788438:1 2788439:1 2788440:1 2788441:1 2788442:1 2788443:1 2788444:1 2788445:1 2788446:1 2788447:1 2788448:1 2788449:1 2788450:1 2788451:1 2788452:1 2788453:1 2788454:1 2788455:1 2788456:1 2788457:1 2788458:1 2788459:1 2788460:1 2788461:1 2788462:1 2788463:1 2788464:1 2788465:1 2788466:1 2788467:1 2788468:1 2788469:1 2788470:1 2788471:1 2788472:1 2788473:1 2788474:1 2788475:1 2788476:1 2788477:1 2788478:1 2788479:1 2788480:1 2788481:1 2788482:1 2788483:1 2788484:1 2788485:1 2788486:1 2788487:1 2788488:1 2788489:1 2788490:1 2788491:1 2788492:1 2788493:1 2788494:1 2788495:1 2788496:1 2788497:1 2788498:1 2788499:1 2788500:1 2788501:1 2788502:1 2788503:1 2788504:1 2788505:1 2788506:1 2788507:1 2788508:1 2788509:1 2788510:1 2788511:1 2788512:1 2788513:1 2788514:1 2788515:1 2788516:1 2788517:1 2788518:1 2788519:1 2788520:1 2788521:1 2788522:1 2788523:1 2788524:1 
1 1 1 1 1:4 3:2 6:1 7:1 8:2 14:2 21:2 31:1 35:1 36:3 37:4 45:1 54:1 55:2 56:1 60:2 66:4 83:1 87:1 98:1 122:1 150:2 169:1 190:1 198:1 204:4 241:1 283:1 288:1 315:1 322:1 339:1 345:1 393:1 406:1 416:1 451:1 490:1 521:1 560:1 594:1 598:1 618:1 740:1 816:1 910:1 943:1 992:1 1168:1 1170:1 1185:1 1260:1 1335:2 1503:1 1535:1 1539:1 1686:1 1876:1 2390:1 2526:1 2550:1 2636:1 2637:1 2638:1 2639:1 2640:1 2641:1 2642:1 2643:1 2644:1 2645:1 2646:1 2647:1 2648:1 2649:1 137916:1 137949:1 138002:1 138046:1 138357:1 138386:1 138489:1 138529:1 138647:1 138986:1 138987:1 139029:1 139075:1 139132:1 139480:1 139524:1 140210:1 140743:1 141847:1 141963:1 141964:1 143113:1 143295:1 143733:1 144426:1 145326:1 145327:1 146030:1 146066:1 146067:1 146068:1 146189:1 146405:1 146406:1 146407:1 146408:1 146409:1 146410:1 146411:1 146412:1 146413:1 146414:1 146415:1 146416:1 146417:1 146418:1 146419:1 146420:1 146421:1 146422:1 146423:1 146424:1 146425:2 146426:1 146427:1 146428:1 146429:1 146430:1 146431:1 146432:1 146433:1 146434:1 146435:1 146436:1 146437:1 146438:1 146439:1 146440:1 146441:1 146442:1 146443:1 146444:1 146445:1 146446:1 146447:1 146448:1 146449:1 146450:1 146451:1 146452:1 146453:1 146454:1 146455:1 146456:1 146457:1 146458:1 146459:1 146460:1 146461:1 146462:1 146463:1 146464:1 146465:1 146466:1 146467:1 2779531:1 2779688:1 2786028:1 2787382:1 2787383:1 2788088:1 2788365:1 2788408:1 2788409:1 2788847:1 2788848:1 2788849:1 2788850:1 2788851:1 2788852:1 2788853:1 2788854:1 2788855:1 2788856:1 2788857:1 2788858:1 2788859:1 2788860:1 2788861:1 2788862:1 2788863:1 2788864:1 2788865:1 2788866:1 2788867:1 2788868:1 2788869:1 2788870:1 2788871:1 2788872:1 2788873:1 2788874:1 2788875:1 2788876:1 2788877:1 2788878:1 2788879:1 2788880:1 2788881:1 2788882:1 2788883:1 2788884:1 2788885:1 2788886:1 2788887:1 2788888:1 2788889:1 2788890:1 2788891:1 2788892:1 2788893:1 2788894:1 2788895:1 2788896:1 2788897:1 2788898:1 2788899:1 2788900:1 2788901:1 2788902:1 2788903:1 2788904:1 2788905:1 2788906:1 2788907:1 2788908:1 2788909:1 2788910:1 2788911:1 2788912:1 2788913:1 2788914:1 2788915:1 2788916:1 2788917:1 2788918:1 2788919:1 2788920:1 2788921:1 2788922:1 2788923:1 2788924:1 2788925:1 2788926:1 2788927:1 2788928:1 2788929:1 2788930:1 2788931:1 2788932:1 
1 1 1 1 1:2 3:3 8:2 14:3 21:3 31:2 32:4 33:1 34:1 36:1 37:7 38:1 39:4 41:1 44:4 53:2 56:2 60:2 63:1 66:1 70:1 73:1 74:2 79:1 93:1 96:1 105:1 114:1 127:1 133:1 150:1 171:1 226:1 228:1 258:2 262:1 263:2 330:1 334:1 363:1 385:1 408:1 451:1 453:1 490:1 517:1 623:1 662:1 703:1 816:1 833:3 837:1 866:2 962:1 1018:1 1126:1 1147:1 1152:1 1170:1 1185:2 1325:1 1329:1 1424:1 1452:1 1616:1 1810:1 1832:1 1935:1 1997:1 2026:1 2122:1 2318:1 2372:1 2526:1 2537:1 2650:1 2651:2 2652:1 2653:1 2654:1 2655:1 2656:1 2657:1 2658:1 2659:1 2660:1 2661:1 2662:1 2663:1 2664:1 2665:1 2666:1 2667:1 2668:1 137952:1 138008:1 138009:1 138045:1 138061:1 138091:1 138146:1 138169:1 138238:1 138317:1 138357:1 138572:1 138713:1 138729:1 138813:1 138914:1 139162:1 139181:1 139283:1 139395:1 139681:1 140061:1 140247:1 140742:1 141320:1 141611:1 141612:1 141691:1 143095:1 143190:1 144350:1 144852:2 145022:1 145215:1 145363:1 145381:1 146468:1 146469:1 146470:1 146471:1 146472:1 146473:1 146474:1 146475:1 146476:1 146477:1 146478:1 146479:1 146480:1 146481:1 146482:1 146483:1 146484:1 146485:1 146486:1 146487:1 146488:1 146489:1 146490:1 146491:1 146492:1 146493:1 146494:1 146495:1 146496:1 146497:1 146498:1 146499:1 146500:1 146501:1 146502:1 146503:1 146504:1 146505:1 146506:1 146507:1 146508:1 146509:1 146510:1 146511:1 146512:1 146513:1 146514:1 146515:1 146516:1 146517:1 146518:1 146519:1 146520:1 146521:1 146522:1 146523:1 146524:1 146525:1 146526:1 146527:1 146528:1 146529:1 146530:1 146531:1 146532:1 146533:1 146534:1 146535:1 146536:1 146537:1 146538:1 146539:1 146540:1 146541:1 146542:1 146543:1 146544:1 146545:1 146546:1 146547:1 146548:1 146549:1 146550:1 146551:1 146552:1 146553:1 146554:1 146555:1 146556:1 146557:1 146558:1 2779451:1 2779742:1 2779851:1 2782597:1 2782691:1 2784607:1 2784982:1 2786783:1 2788933:1 2788934:1 2788935:1 2788936:1 2788937:1 2788938:1 2788939:1 2788940:1 2788941:1 2788942:1 2788943:1 2788944:1 2788945:1 2788946:1 2788947:1 2788948:1 2788949:1 2788950:1 2788951:1 2788952:1 2788953:1 2788954:1 2788955:1 2788956:1 2788957:1 2788958:1 2788959:1 2788960:1 2788961:1 2788962:1 2788963:1 2788964:1 2788965:1 2788966:1 2788967:1 2788968:1 2788969:1 2788970:1 2788971:1 2788972:1 2788973:1 2788974:1 2788975:1 2788976:1 2788977:1 2788978:1 2788979:1 2788980:1 2788981:1 2788982:1 2788983:1 2788984:1 2788985:1 2788986:1 2788987:1 2788988:1 2788989:1 2788990:1 2788991:1 2788992:1 2788993:1 2788994:1 2788995:1 2788996:1 2788997:1 2788998:1 2788999:1 2789000:1 2789001:1 2789002:1 2789003:1 2789004:1 2789005:1 2789006:1 2789007:1 2789008:1 2789009:1 2789010:1 2789011:1 2789012:1 2789013:1 2789014:1 2789015:1 2789016:1 2789017:1 2789018:1 2789019:1 2789020:1 2789021:1 2789022:1 2789023:1 2789024:1 2789025:1 2789026:1 2789027:1 2789028:1 2789029:1 2789030:1 2789031:1 2789032:1 2789033:1 2789034:1 2789035:1 2789036:1 2789037:1 2789038:1 2789039:1 2789040:1 2789041:1 2789042:1 2789043:1 2789044:1 2789045:1 2789046:1 2789047:1 2789048:1 2789049:1 2789050:1 2789051:1 
1 1 1 1 1:1 21:1 31:1 37:1 38:1 70:1 82:1 83:1 238:1 578:1 750:1 2696:1 137952:1 138014:1 138015:1 138360:1 143325:1 143326:1 146661:1 146662:1 146663:1 146664:1 146665:1 2778479:1 2784777:1 2789187:1 2789188:1 2789189:1 2789190:1 2789191:1 2789192:1 2789193:1 2789194:1 
1 1 1 1 1:4 8:3 14:2 32:3 37:2 39:1 41:1 44:3 45:1 55:3 60:2 66:3 96:1 98:1 100:1 102:1 112:1 125:2 127:1 134:1 151:1 201:3 238:1 279:1 288:1 311:2 322:1 329:1 363:1 386:1 436:1 480:1 496:1 505:1 600:1 644:1 683:1 703:1 793:1 835:1 905:1 1015:1 1069:1 1316:1 1329:1 1424:1 1680:1 1835:1 1836:1 1837:2 1858:1 2437:1 2481:1 2791:1 2792:1 2793:3 2794:2 2795:1 2796:1 2797:1 2798:1 2799:1 2800:1 2801:1 2802:1 2803:1 2804:1 2805:1 138232:1 138332:1 138601:1 138695:1 138696:1 139013:1 139272:1 139457:1 139545:1 139904:1 139919:1 140034:1 140320:1 140468:1 140676:1 140813:1 141812:1 142289:1 142395:1 142444:1 142623:1 142757:1 143148:1 143168:1 143257:1 145784:1 145858:1 147140:1 147141:1 147142:1 147143:1 147144:1 147145:1 147146:1 147147:1 147148:1 147149:1 147150:1 147151:1 147152:1 147153:1 147154:1 147155:1 147156:1 147157:1 147158:1 147159:1 147160:1 147161:1 147162:1 147163:1 147164:1 147165:1 147166:1 147167:1 147168:1 147169:1 147170:1 147171:1 147172:1 147173:1 147174:1 147175:1 147176:1 147177:1 147178:1 147179:1 147180:1 147181:1 147182:1 147183:1 147184:1 147185:1 147186:1 147187:1 147188:1 147189:1 147190:1 147191:1 147192:1 147193:1 147194:1 147195:1 147196:1 147197:1 147198:1 147199:1 147200:1 147201:1 147202:1 147203:1 2779214:1 2784798:1 2784799:1 2784975:1 2788107:1 2789832:1 2789833:1 2789834:1 2789835:1 2789836:1 2789837:1 2789838:1 2789839:1 2789840:1 2789841:1 2789842:1 2789843:1 2789844:1 2789845:1 2789846:1 2789847:1 2789848:1 2789849:1 2789850:1 2789851:1 2789852:1 2789853:1 2789854:1 2789855:1 2789856:1 2789857:1 2789858:1 2789859:1 2789860:1 2789861:1 2789862:1 2789863:1 2789864:1 2789865:1 2789866:1 2789867:1 2789868:1 2789869:1 2789870:1 2789871:1 2789872:1 2789873:1 2789874:1 2789875:1 2789876:1 2789877:1 2789878:1 2789879:1 2789880:1 2789881:1 2789882:1 2789883:1 2789884:1 2789885:1 2789886:1 2789887:1 2789888:1 2789889:1 2789890:1 2789891:1 2789892:1 2789893:1 2789894:1 2789895:1 2789896:1 2789897:1 2789898:1 2789899:1 2789900:1 2789901:1 2789902:1 2789903:1 2789904:1 2789905:1 2789906:1 2789907:1 2789908:1 2789909:1 2789910:1 2789911:1 2789912:1 2789913:1 2789914:1 2789915:1 2789916:1 
1 1 1 1 1:2 3:1 8:2 14:1 21:1 32:2 34:1 37:4 58:1 60:1 66:3 87:2 105:3 113:1 133:1 136:1 151:1 159:2 201:1 260:1 271:1 346:1 381:1 385:1 402:1 403:1 538:1 608:1 616:1 696:1 768:1 833:1 842:1 897:1 964:1 1173:1 1228:1 1366:1 1429:1 1628:1 1760:1 2086:1 2249:1 2363:1 2390:1 2553:1 2641:1 2806:1 2807:1 2808:1 2809:1 2810:1 2811:1 2812:1 2813:1 2814:1 2815:1 2816:1 2817:1 2818:1 2819:1 2820:1 2821:1 2822:1 2823:1 2824:1 2825:1 2826:1 2827:1 138002:1 138046:1 138057:1 138870:1 138912:1 139528:1 139886:1 140758:1 140813:1 140854:1 141803:1 142047:1 143210:1 143230:1 144179:1 144852:1 145311:1 146099:1 147204:1 147205:1 147206:1 147207:1 147208:1 147209:1 147210:1 147211:1 147212:1 147213:1 147214:1 147215:1 147216:1 147217:1 147218:1 147219:1 147220:1 147221:1 147222:1 147223:1 147224:1 147225:1 147226:1 147227:1 147228:1 147229:1 147230:1 147231:1 147232:1 147233:1 147234:1 147235:1 147236:1 147237:1 147238:1 147239:1 147240:1 147241:1 147242:1 147243:1 147244:1 147245:1 147246:1 147247:1 147248:1 147249:1 147250:1 147251:1 147252:1 147253:1 147254:1 147255:1 147256:1 147257:1 147258:1 147259:1 147260:1 147261:1 147262:1 147263:1 147264:1 147265:1 2788088:1 2788454:1 2789917:1 2789918:1 2789919:1 2789920:1 2789921:1 2789922:1 2789923:1 2789924:1 2789925:1 2789926:1 2789927:1 2789928:1 2789929:1 2789930:1 2789931:1 2789932:1 2789933:1 2789934:1 2789935:1 2789936:1 2789937:1 2789938:1 2789939:1 2789940:1 2789941:1 2789942:1 2789943:1 2789944:1 2789945:1 2789946:1 2789947:1 2789948:1 2789949:1 2789950:1 2789951:1 2789952:1 2789953:1 2789954:1 2789955:1 2789956:1 2789957:1 2789958:1 2789959:1 2789960:1 2789961:1 2789962:1 2789963:1 2789964:1 2789965:1 2789966:1 2789967:1 2789968:1 2789969:1 2789970:1 2789971:1 2789972:1 2789973:1 2789974:1 2789975:1 2789976:1 2789977:1 2789978:1 2789979:1 2789980:1 2789981:1 2789982:1 2789983:1 2789984:1 2789985:1 2789986:1 2789987:1 2789988:1 2789989:1 2789990:1 2789991:1 2789992:1 2789993:1 
1 1 1 1 8:1 1271:1 2893:1 2894:1 2895:1 2896:1 2897:1 147591:1 147592:1 147593:1 147594:1 147595:1 147596:1 2790440:1 2790441:1 2790442:1 2790443:1 2790444:1 
1 1 1 1 1:3 3:1 8:2 21:2 27:1 32:2 37:1 44:1 55:1 56:1 60:1 70:2 98:1 120:1 125:1 149:1 154:1 171:1 232:1 288:1 300:1 308:1 393:1 480:1 487:1 646:2 678:1 683:1 737:1 743:1 807:1 962:1 980:1 1037:1 1119:1 1170:1 1228:2 1646:1 1671:1 1687:1 1735:2 1878:1 2533:1 2765:1 2893:1 2937:1 2938:1 2939:1 2940:1 2941:1 2942:1 2943:1 2944:1 138046:1 138128:1 138165:1 138407:1 139013:1 139283:1 140320:1 141847:1 142412:1 142413:1 142818:1 143199:1 143404:1 145999:1 147754:1 147795:1 147796:1 147797:1 147798:1 147799:1 147800:1 147801:1 147802:1 147803:1 147804:1 147805:1 147806:1 147807:1 147808:1 147809:1 147810:1 147811:1 147812:1 147813:1 147814:1 147815:1 147816:1 147817:1 147818:1 147819:1 147820:1 147821:1 147822:1 147823:1 147824:1 147825:1 147826:1 147827:1 147828:1 147829:1 147830:1 147831:1 147832:1 147833:1 147834:1 147835:1 147836:1 147837:1 147838:1 147839:1 147840:1 2783614:1 2790451:1 2790719:1 2790720:1 2790721:1 2790722:1 2790723:1 2790724:1 2790725:1 2790726:1 2790727:1 2790728:1 2790729:1 2790730:1 2790731:1 2790732:1 2790733:1 2790734:1 2790735:1 2790736:1 2790737:1 2790738:1 2790739:1 2790740:1 2790741:1 2790742:1 2790743:1 2790744:1 2790745:1 2790746:1 2790747:1 2790748:1 2790749:1 2790750:1 2790751:1 2790752:1 2790753:1 2790754:1 2790755:1 2790756:1 2790757:1 2790758:1 2790759:1 2790760:1 2790761:1 2790762:1 2790763:1 2790764:1 2790765:1 2790766:1 2790767:1 2790768:1 2790769:1 2790770:1 2790771:1 2790772:1 2790773:1 2790774:1 2790775:1 2790776:1 
1 1 1 1 0:1 1:8 3:5 8:5 12:1 17:1 21:4 32:4 35:1 36:1 37:7 39:1 44:2 45:2 55:3 58:1 59:2 60:1 63:1 66:4 70:1 74:1 82:1 93:1 98:1 105:2 112:1 121:1 122:1 125:2 127:2 136:1 150:1 151:1 159:1 164:1 171:2 201:2 259:1 260:1 263:2 265:1 267:1 272:2 282:1 284:1 301:1 313:1 324:1 347:1 348:1 362:1 366:1 391:2 408:1 462:1 463:3 469:1 566:1 594:1 599:1 626:1 641:1 665:1 750:1 783:1 792:1 840:1 863:1 867:1 897:1 929:1 962:1 1043:1 1045:1 1078:1 1119:1 1121:1 1139:1 1148:1 1177:1 1276:1 1416:1 1455:1 1466:1 1475:1 1656:1 1758:1 1774:1 1860:1 1861:1 1992:1 2207:1 2279:1 2526:1 2592:1 2603:1 2706:1 2858:1 3002:1 3144:1 3145:1 3146:1 3147:1 3148:1 3149:1 3150:1 3151:1 3152:1 3153:1 3154:1 3155:1 3156:1 3157:1 3158:1 3159:1 3160:1 3161:1 3162:1 3163:1 3164:1 3165:1 3166:1 3167:1 3168:2 3169:1 137949:1 137962:1 137980:1 137999:1 138014:1 138045:1 138146:1 138165:2 138238:2 138317:1 138321:1 138372:1 138435:1 138546:1 138547:1 138780:1 138996:1 139067:1 139084:1 139793:1 139799:1 139856:1 139940:1 140060:1 140061:1 140222:1 140750:1 140798:1 140813:1 140814:1 141147:1 141593:1 141700:1 141854:1 142497:1 142573:1 142931:1 142932:1 142940:1 143363:1 143908:1 144770:1 145293:1 145632:1 145780:1 146737:1 146738:1 146963:1 147610:1 147623:1 148864:1 148865:1 148866:1 148867:1 148868:1 148869:1 148870:1 148871:1 148872:1 148873:1 148874:1 148875:1 148876:1 148877:1 148878:1 148879:1 148880:1 148881:1 148882:1 148883:1 148884:1 148885:1 148886:1 148887:1 148888:1 148889:1 148890:1 148891:1 148892:1 148893:1 148894:1 148895:1 148896:1 148897:1 148898:1 148899:1 148900:1 148901:1 148902:1 148903:1 148904:1 148905:1 148906:1 148907:1 148908:1 148909:1 148910:1 148911:1 148912:1 148913:1 148914:1 148915:1 148916:1 148917:1 148918:1 148919:1 148920:1 148921:1 148922:1 148923:1 148924:1 148925:1 148926:1 148927:1 148928:1 148929:1 148930:1 148931:1 148932:1 148933:1 148934:1 148935:1 148936:1 148937:1 148938:1 148939:1 148940:1 148941:1 148942:1 148943:1 148944:1 148945:1 148946:1 148947:1 148948:1 148949:1 148950:1 148951:1 148952:1 148953:1 148954:1 148955:1 148956:1 148957:1 148958:1 148959:1 148960:1 148961:1 148962:1 148963:1 148964:1 148965:1 148966:1 148967:2 148968:1 148969:1 148970:1 148971:1 148972:1 148973:1 148974:1 148975:1 148976:1 148977:1 148978:1 148979:1 148980:1 148981:1 2779046:1 2780498:1 2780744:1 2781626:1 2782893:1 2784259:1 2784260:1 2786682:1 2787343:1 2788023:1 2789298:1 2791351:1 2792231:1 2792232:1 2792233:1 2792234:1 2792235:1 2792236:1 2792237:1 2792238:1 2792239:1 2792240:1 2792241:1 2792242:1 2792243:1 2792244:1 2792245:1 2792246:1 2792247:1 2792248:1 2792249:1 2792250:1 2792251:1 2792252:1 2792253:1 2792254:1 2792255:1 2792256:1 2792257:1 2792258:1 2792259:1 2792260:1 2792261:1 2792262:1 2792263:1 2792264:1 2792265:1 2792266:1 2792267:1 2792268:1 2792269:1 2792270:1 2792271:1 2792272:1 2792273:1 2792274:1 2792275:1 2792276:1 2792277:1 2792278:1 2792279:1 2792280:1 2792281:1 2792282:1 2792283:1 2792284:1 2792285:1 2792286:1 2792287:1 2792288:1 2792289:1 2792290:1 2792291:1 2792292:1 2792293:1 2792294:1 2792295:1 2792296:1 2792297:1 2792298:1 2792299:1 2792300:1 2792301:1 2792302:1 2792303:1 2792304:1 2792305:1 2792306:1 2792307:1 2792308:1 2792309:1 2792310:1 2792311:1 2792312:1 2792313:1 2792314:1 2792315:1 2792316:1 2792317:1 2792318:1 2792319:1 2792320:1 2792321:1 2792322:1 2792323:1 2792324:1 2792325:1 2792326:1 2792327:1 2792328:1 2792329:1 2792330:1 2792331:1 2792332:1 2792333:1 2792334:1 2792335:1 2792336:1 2792337:1 2792338:1 2792339:1 2792340:1 2792341:1 2792342:1 2792343:1 2792344:1 2792345:1 2792346:1 2792347:1 2792348:1 2792349:1 2792350:1 2792351:1 2792352:1 2792353:1 2792354:1 2792355:1 2792356:1 2792357:1 2792358:1 2792359:1 2792360:1 2792361:1 2792362:1 2792363:1 2792364:1 2792365:1 2792366:1 2792367:1 2792368:1 2792369:1 2792370:1 2792371:1 2792372:1 2792373:1 2792374:1 2792375:1 2792376:1 2792377:1 2792378:1 2792379:1 2792380:1 2792381:1 2792382:1 2792383:1 2792384:1 2792385:1 2792386:1 2792387:1 2792388:1 
1 1 1 1 0:1 1:2 8:3 21:1 32:1 39:2 41:1 44:3 45:1 66:1 70:1 121:1 129:1 134:1 171:1 272:1 418:2 439:1 520:1 594:1 595:1 600:1 701:1 725:1 909:1 995:1 1228:1 1374:1 1416:1 1455:1 1590:1 1763:1 1994:1 2179:1 2399:1 2422:1 2764:1 2881:1 3004:1 3170:1 3171:1 3172:1 3173:1 138998:1 138999:1 139067:1 139070:1 139403:1 139404:1 139856:1 140908:1 141050:1 141467:1 141593:1 141700:1 142178:1 143278:1 145358:1 145375:1 145467:1 145780:1 148055:1 148982:1 148983:1 148984:1 148985:1 148986:1 148987:1 148988:1 148989:1 148990:1 148991:1 148992:1 148993:1 148994:1 148995:1 148996:1 148997:1 148998:1 148999:1 149000:1 149001:1 149002:1 149003:1 149004:1 149005:1 149006:1 149007:1 149008:1 149009:1 149010:1 149011:1 2779544:1 2779988:1 2787446:1 2788023:1 2792389:1 2792390:1 2792391:1 2792392:1 2792393:1 2792394:1 2792395:1 2792396:1 2792397:1 2792398:1 2792399:1 2792400:1 2792401:1 2792402:1 2792403:1 2792404:1 2792405:1 2792406:1 2792407:1 2792408:1 2792409:1 2792410:1 2792411:1 2792412:1 2792413:1 2792414:1 2792415:1 2792416:1 2792417:1 2792418:1 2792419:1 2792420:1 2792421:1 2792422:1 2792423:1 2792424:1 2792425:1 2792426:1 2792427:1 2792428:1 2792429:1 2792430:1 2792431:1 2792432:1 
1 1 1 1 1:3 8:9 14:4 21:1 32:2 34:1 35:1 37:7 39:2 41:3 44:4 53:1 54:3 55:2 56:1 59:1 71:1 98:1 100:1 102:1 105:1 113:1 115:1 121:1 133:1 139:1 144:2 151:1 156:1 159:1 162:1 171:1 191:1 201:3 226:1 272:1 311:1 320:1 345:1 347:1 385:1 406:1 439:1 469:1 480:1 490:2 494:1 497:1 549:1 567:1 575:1 578:1 595:1 647:1 649:1 728:1 776:1 793:1 821:1 824:1 896:1 959:1 1044:1 1170:1 1223:1 1278:1 1315:1 1536:1 1596:1 1675:1 1773:1 1873:1 1943:1 1983:1 2057:1 2084:1 2179:1 2279:1 2296:1 2533:1 2638:1 2686:1 2687:1 3286:1 3287:1 3288:1 3289:1 3290:1 3291:1 3292:1 3293:1 3294:1 3295:1 3296:1 3297:1 3298:1 3299:1 3300:1 3301:1 3302:1 3303:1 3304:1 3305:1 3306:1 3307:1 3308:1 137959:2 137975:1 138072:1 138091:1 138238:1 138357:1 138647:1 138648:1 138870:1 138963:1 139084:1 139171:1 139226:1 139427:1 139856:2 140591:1 140593:1 140813:1 140814:1 141176:1 141242:1 142246:1 142667:1 143190:1 143728:1 143875:1 144059:1 144173:1 144287:1 144599:1 144928:1 145311:1 146390:1 146586:1 146615:1 146664:1 146983:1 147320:1 149297:1 149563:1 149564:1 149565:1 149566:1 149567:1 149568:1 149569:1 149570:1 149571:1 149572:1 149573:1 149574:1 149575:1 149576:1 149577:1 149578:1 149579:1 149580:1 149581:1 149582:1 149583:1 149584:1 149585:1 149586:1 149587:1 149588:1 149589:1 149590:1 149591:1 149592:1 149593:1 149594:1 149595:1 149596:1 149597:1 149598:1 149599:1 149600:1 149601:1 149602:1 149603:1 149604:1 149605:1 149606:1 149607:1 149608:1 149609:1 149610:1 149611:1 149612:1 149613:1 149614:1 149615:1 149616:1 149617:1 149618:1 149619:1 149620:1 149621:1 149622:1 149623:1 149624:1 149625:1 149626:1 149627:1 149628:1 149629:1 149630:1 149631:1 149632:1 149633:1 149634:1 149635:1 149636:1 149637:1 149638:1 149639:1 149640:1 149641:1 149642:1 149643:1 149644:1 149645:1 149646:1 149647:1 149648:1 149649:1 149650:1 149651:1 149652:1 149653:1 149654:1 149655:1 149656:1 149657:1 149658:1 149659:1 2779161:1 2781626:1 2784607:1 2785427:1 2790363:1 2792752:1 2792866:1 2793238:1 2793239:1 2793240:1 2793241:1 2793242:1 2793243:1 2793244:1 2793245:1 2793246:1 2793247:1 2793248:1 2793249:1 2793250:1 2793251:1 2793252:1 2793253:1 2793254:1 2793255:1 2793256:1 2793257:1 2793258:1 2793259:1 2793260:1 2793261:1 2793262:1 2793263:1 2793264:1 2793265:1 2793266:1 2793267:1 2793268:1 2793269:1 2793270:1 2793271:1 2793272:1 2793273:1 2793274:1 2793275:1 2793276:1 2793277:1 2793278:1 2793279:1 2793280:1 2793281:1 2793282:1 2793283:1 2793284:1 2793285:1 2793286:1 2793287:1 2793288:1 2793289:1 2793290:1 2793291:1 2793292:1 2793293:1 2793294:1 2793295:1 2793296:1 2793297:1 2793298:1 2793299:1 2793300:1 2793301:1 2793302:1 2793303:1 2793304:1 2793305:1 2793306:1 2793307:1 2793308:1 2793309:1 2793310:1 2793311:1 2793312:1 2793313:1 2793314:1 2793315:1 2793316:1 2793317:1 2793318:1 2793319:1 2793320:1 2793321:1 2793322:1 2793323:1 2793324:1 2793325:1 2793326:1 2793327:1 2793328:1 2793329:1 2793330:1 2793331:1 2793332:1 2793333:1 2793334:1 2793335:1 2793336:1 2793337:1 2793338:1 2793339:1 2793340:1 2793341:1 2793342:1 2793343:1 2793344:1 2793345:1 2793346:1 2793347:1 2793348:1 2793349:1 2793350:1 2793351:1 2793352:1 2793353:1 2793354:1 2793355:1 2793356:1 2793357:1 2793358:1 2793359:1 2793360:1 2793361:1 2793362:1 2793363:1 2793364:1 2793365:1 2793366:1 2793367:1 
1 1 1 1 8:1 38:1 39:1 60:1 98:1 105:1 121:1 146:1 162:1 594:1 651:1 750:1 1687:1 2328:1 2530:1 3381:1 3382:1 138045:1 139927:1 150030:1 150031:1 150032:1 150033:1 150034:1 150035:1 150036:1 150037:1 150038:1 150039:1 150040:1 150041:1 150042:1 150043:1 2793875:1 2793876:1 2793877:1 2793878:1 2793879:1 2793880:1 2793881:1 2793882:1 2793883:1 2793884:1 2793885:1 2793886:1 2793887:1 2793888:1 2793889:1 
1 1 1 1 1:2 3:3 21:1 31:2 32:2 37:4 38:1 44:2 60:1 66:2 100:1 105:1 120:1 125:1 134:1 150:1 159:1 171:1 191:1 201:1 211:1 260:1 263:1 288:1 330:1 363:1 366:1 386:1 406:1 416:1 469:1 519:1 539:1 554:1 610:1 625:1 629:1 671:1 725:1 749:1 793:1 873:1 1056:1 1068:2 1316:1 1353:1 1409:1 1416:1 2052:1 2081:1 2375:1 2430:1 2558:1 2582:1 2635:1 2999:1 3015:1 3441:1 3442:1 3443:1 3444:1 3445:1 3446:1 3447:1 3448:1 3449:1 3450:1 3451:1 3452:1 3453:1 3454:1 3455:1 3456:1 3457:1 3458:1 3459:1 3460:1 3461:1 3462:1 3463:1 137952:1 138002:1 138146:2 138263:1 138913:1 138930:1 138989:1 139088:1 140078:1 141374:1 141475:1 141593:1 141630:1 144770:1 145827:1 147299:1 148075:1 149287:1 149672:1 150062:1 150307:1 150308:1 150309:1 150310:1 150311:1 150312:1 150313:1 150314:1 150315:1 150316:1 150317:1 150318:1 150319:1 150320:1 150321:1 150322:1 150323:1 150324:1 150325:1 150326:1 150327:1 150328:1 150329:1 150330:1 150331:1 150332:1 150333:1 150334:1 150335:1 150336:1 150337:1 150338:1 150339:1 150340:1 150341:1 150342:1 150343:1 150344:1 150345:1 150346:1 150347:1 150348:1 150349:1 150350:1 150351:1 150352:1 150353:1 150354:1 150355:1 150356:1 150357:1 150358:1 150359:1 150360:1 150361:1 150362:1 150363:1 150364:1 150365:1 150366:1 150367:1 150368:1 150369:1 150370:1 150371:1 150372:1 150373:1 150374:1 150375:1 2779450:1 2781077:1 2783608:1 2786682:1 2788087:1 2794253:1 2794254:1 2794255:1 2794256:1 2794257:1 2794258:1 2794259:1 2794260:1 2794261:1 2794262:1 2794263:1 2794264:1 2794265:1 2794266:1 2794267:1 2794268:1 2794269:1 2794270:1 2794271:1 2794272:1 2794273:1 2794274:1 2794275:1 2794276:1 2794277:1 2794278:1 2794279:1 2794280:1 2794281:1 2794282:1 2794283:1 2794284:1 2794285:1 2794286:1 2794287:1 2794288:1 2794289:1 2794290:1 2794291:1 2794292:1 2794293:1 2794294:1 2794295:1 2794296:1 2794297:1 2794298:1 2794299:1 2794300:1 2794301:1 2794302:1 2794303:1 2794304:1 2794305:1 2794306:1 2794307:1 2794308:1 2794309:1 2794310:1 2794311:1 2794312:1 2794313:1 2794314:1 2794315:1 2794316:1 2794317:1 2794318:1 2794319:1 2794320:1 2794321:1 2794322:1 2794323:1 2794324:1 2794325:1 2794326:1 2794327:1 2794328:1 2794329:1 2794330:1 2794331:1 2794332:1 2794333:1 2794334:1 2794335:1 2794336:1 
1 1 1 1 0:1 2:1 6:3 7:3 8:1 14:2 31:2 32:7 34:1 37:2 39:1 44:1 55:1 60:1 74:3 87:2 93:1 100:1 112:1 122:1 125:2 127:1 146:1 232:1 294:1 301:1 322:1 347:1 363:1 386:1 416:1 468:1 484:1 493:1 521:1 610:2 621:1 646:1 650:1 682:1 685:1 718:1 959:1 1034:1 1124:1 1177:1 1236:1 1260:1 1294:1 1316:1 1363:1 1369:1 1538:1 1713:1 1804:1 2025:2 2203:2 2596:1 3464:1 3465:1 3466:3 3467:3 3468:1 3469:1 3470:1 3471:2 3472:1 3473:1 3474:1 3475:1 3476:1 3477:1 3478:1 3479:1 3480:1 3481:1 3482:1 3483:1 3484:1 3485:1 137916:3 137999:1 138117:1 138162:1 138357:1 139125:2 139402:1 139857:1 140632:1 141775:1 141803:1 142473:1 142487:1 142957:1 143300:1 144254:1 145222:1 146184:1 146274:1 147345:1 147853:1 148178:1 148179:1 148201:1 150376:1 150377:1 150378:3 150379:1 150380:1 150381:1 150382:1 150383:1 150384:1 150385:1 150386:1 150387:1 150388:1 150389:2 150390:2 150391:1 150392:2 150393:1 150394:1 150395:1 150396:1 150397:1 150398:1 150399:1 150400:1 150401:1 150402:1 150403:1 150404:1 150405:1 150406:1 150407:1 150408:1 150409:1 150410:1 150411:1 150412:1 150413:1 150414:1 150415:1 150416:1 150417:1 150418:1 150419:1 150420:1 150421:1 150422:1 150423:1 150424:1 150425:1 150426:1 150427:1 150428:1 150429:1 150430:1 150431:1 150432:1 150433:1 150434:1 150435:1 150436:1 150437:1 150438:1 150439:1 150440:1 150441:1 150442:1 150443:1 150444:1 150445:1 150446:1 150447:1 2780499:1 2788678:1 2791241:1 2793101:1 2794337:1 2794338:1 2794339:1 2794340:1 2794341:1 2794342:1 2794343:1 2794344:1 2794345:1 2794346:1 2794347:1 2794348:1 2794349:1 2794350:1 2794351:1 2794352:1 2794353:1 2794354:2 2794355:1 2794356:1 2794357:2 2794358:2 2794359:1 2794360:1 2794361:1 2794362:1 2794363:1 2794364:1 2794365:1 2794366:1 2794367:1 2794368:1 2794369:1 2794370:1 2794371:1 2794372:1 2794373:1 2794374:1 2794375:1 2794376:1 2794377:1 2794378:1 2794379:1 2794380:1 2794381:1 2794382:1 2794383:1 2794384:1 2794385:1 2794386:1 2794387:1 2794388:1 2794389:1 2794390:1 2794391:1 2794392:1 2794393:1 2794394:1 2794395:1 2794396:1 2794397:1 2794398:1 2794399:1 2794400:1 2794401:1 2794402:1 2794403:1 2794404:1 2794405:1 2794406:1 2794407:1 2794408:1 2794409:1 2794410:1 2794411:1 2794412:1 2794413:1 2794414:1 2794415:1 2794416:1 2794417:1 2794418:1 2794419:1 2794420:1 2794421:1 2794422:1 2794423:1 2794424:1 2794425:1 2794426:1 2794427:1 2794428:1 2794429:1 2794430:1 2794431:1 2794432:1 
1 1 1 1 8:1 31:1 37:1 44:2 96:1 125:1 129:1 168:1 204:1 600:1 1070:1 1276:1 1520:1 2163:1 3530:1 3531:1 3532:1 138088:1 138572:1 139619:1 142238:1 143961:1 144528:1 150720:1 150721:1 150722:1 150723:1 150724:1 150725:1 150726:1 150727:1 150728:1 150729:1 150730:1 2782712:1 2785315:1 2794823:1 2794824:1 2794825:1 2794826:1 2794827:1 2794828:1 2794829:1 2794830:1 2794831:1 2794832:1 2794833:1 2794834:1 2794835:1 2794836:1 
1 1 1 1 1:4 3:3 8:6 12:1 14:2 21:1 34:3 37:4 39:2 44:1 55:2 59:1 66:1 70:1 71:1 74:2 79:1 100:1 102:1 119:1 125:2 189:1 226:1 237:1 263:1 284:1 288:1 295:1 322:2 328:1 355:1 406:1 521:1 539:1 603:1 614:1 796:1 815:1 816:1 821:1 910:1 959:1 1016:1 1020:1 1153:1 1418:1 1454:1 1502:2 1528:1 1757:1 1773:1 1843:1 2094:1 2134:1 2187:2 2275:1 2392:1 2658:1 2768:1 2952:1 3113:1 3125:1 3140:1 3211:1 3440:1 3557:1 3558:1 3559:1 3560:1 3561:1 3562:1 3563:1 3564:1 3565:1 3566:1 3567:1 3568:1 3569:1 3570:1 3571:1 3572:1 3573:1 3574:1 3575:1 3576:1 3577:1 3578:1 3579:2 3580:1 3581:1 3582:1 3583:1 3584:1 138069:1 138376:1 138386:1 138570:1 139084:1 139106:1 139559:2 139705:1 139720:1 139816:1 140210:1 140256:1 140425:1 140531:1 141236:1 141856:1 142820:1 144223:1 144261:1 145341:1 145533:1 146109:1 146130:1 149916:1 150847:1 150859:1 150860:1 150861:1 150862:1 150863:1 150864:1 150865:1 150866:1 150867:1 150868:1 150869:1 150870:1 150871:1 150872:1 150873:1 150874:2 150875:1 150876:1 150877:1 150878:1 150879:1 150880:1 150881:1 150882:1 150883:1 150884:1 150885:1 150886:1 150887:1 150888:1 150889:1 150890:1 150891:1 150892:1 150893:1 150894:1 150895:1 150896:1 150897:1 150898:1 150899:1 150900:1 150901:1 150902:1 150903:1 150904:1 150905:1 150906:1 150907:1 150908:1 150909:1 150910:1 150911:1 150912:1 150913:1 150914:1 150915:1 150916:1 150917:1 150918:1 150919:1 150920:1 150921:1 150922:1 150923:1 150924:1 150925:1 150926:1 150927:2 150928:1 150929:1 150930:1 150931:1 150932:1 150933:1 150934:1 150935:1 150936:1 150937:1 150938:1 150939:1 150940:1 150941:1 150942:1 150943:1 150944:1 150945:1 150946:1 2781174:1 2786027:1 2786028:1 2787676:1 2795017:1 2795018:1 2795019:1 2795020:1 2795021:1 2795022:1 2795023:1 2795024:1 2795025:1 2795026:1 2795027:1 2795028:1 2795029:1 2795030:1 2795031:1 2795032:1 2795033:1 2795034:1 2795035:1 2795036:1 2795037:1 2795038:1 2795039:1 2795040:1 2795041:1 2795042:1 2795043:1 2795044:1 2795045:1 2795046:1 2795047:1 2795048:1 2795049:1 2795050:1 2795051:1 2795052:1 2795053:1 2795054:1 2795055:1 2795056:1 2795057:1 2795058:1 2795059:1 2795060:1 2795061:1 2795062:1 2795063:1 2795064:1 2795065:1 2795066:1 2795067:1 2795068:1 2795069:1 2795070:1 2795071:1 2795072:1 2795073:1 2795074:1 2795075:1 2795076:1 2795077:1 2795078:1 2795079:1 2795080:1 2795081:1 2795082:1 2795083:1 2795084:1 2795085:1 2795086:1 2795087:1 2795088:1 2795089:1 2795090:1 2795091:1 2795092:1 2795093:1 2795094:1 2795095:1 2795096:1 2795097:1 2795098:1 2795099:1 2795100:1 2795101:1 2795102:1 2795103:1 2795104:1 2795105:1 2795106:1 2795107:1 2795108:1 2795109:1 2795110:1 2795111:1 2795112:1 2795113:1 2795114:1 2795115:1 2795116:1 2795117:1 2795118:1 2795119:1 2795120:1 2795121:1 2795122:1 2795123:1 2795124:1 2795125:1 2795126:1 2795127:1 
1 1 1 1 1:3 3:1 6:3 7:3 8:3 17:1 18:1 21:1 31:2 32:4 34:2 35:1 36:2 37:2 39:1 53:1 55:2 66:2 70:1 71:1 87:1 100:2 102:1 104:1 134:1 141:1 150:4 201:2 238:2 272:1 283:1 288:1 311:1 321:1 328:1 354:1 391:1 487:1 554:1 560:1 600:1 618:3 662:1 671:1 701:1 840:1 890:1 1028:1 1112:1 1126:1 1168:1 1177:1 1430:1 1523:1 1535:1 1630:1 1681:1 2440:1 2504:1 2526:1 3127:1 3341:1 3471:1 3598:1 3599:1 3600:1 3601:1 3602:1 3603:1 3604:1 3605:1 3606:1 3607:1 3608:1 3609:1 137916:3 137949:1 138116:1 138165:1 138346:1 138405:1 138987:1 139252:1 140212:1 140421:1 140425:1 140800:1 141168:1 141207:1 141212:1 141625:1 141855:1 142314:1 142371:1 143325:1 143582:1 144863:1 145272:1 145294:1 145976:1 146407:1 146623:1 146753:1 148672:1 148864:1 149401:1 150018:1 150571:1 150572:1 151002:1 151003:1 151004:1 151005:1 151006:1 151007:1 151008:1 151009:1 151010:1 151011:1 151012:1 151013:1 151014:1 151015:1 151016:1 151017:1 151018:1 151019:1 151020:1 151021:1 151022:1 151023:1 151024:1 151025:1 151026:1 151027:1 151028:1 151029:1 151030:1 151031:1 151032:1 151033:1 151034:1 151035:1 151036:1 151037:2 151038:1 151039:1 151040:1 151041:1 151042:1 151043:2 151044:1 151045:1 151046:1 151047:1 151048:1 151049:1 151050:1 151051:1 151052:1 151053:1 151054:1 151055:1 151056:1 151057:1 151058:1 151059:1 151060:1 151061:1 151062:1 2781607:1 2782894:1 2787312:1 2789713:1 2792652:1 2794608:1 2795203:1 2795204:1 2795205:1 2795206:1 2795207:1 2795208:1 2795209:1 2795210:1 2795211:1 2795212:1 2795213:1 2795214:1 2795215:1 2795216:1 2795217:1 2795218:1 2795219:1 2795220:1 2795221:1 2795222:1 2795223:1 2795224:1 2795225:1 2795226:1 2795227:1 2795228:1 2795229:1 2795230:1 2795231:1 2795232:1 2795233:1 2795234:1 2795235:1 2795236:1 2795237:1 2795238:1 2795239:1 2795240:1 2795241:1 2795242:1 2795243:1 2795244:1 2795245:1 2795246:1 2795247:1 2795248:1 2795249:1 2795250:1 2795251:1 2795252:1 2795253:1 2795254:1 2795255:1 2795256:1 2795257:1 2795258:1 2795259:1 2795260:1 2795261:2 2795262:1 2795263:1 2795264:1 2795265:1 2795266:1 2795267:1 2795268:1 2795269:1 2795270:1 2795271:1 2795272:1 2795273:1 2795274:1 2795275:1 2795276:1 2795277:1 2795278:1 2795279:1 2795280:1 2795281:1 2795282:1 2795283:1 2795284:1 2795285:1 2795286:1 2795287:1 2795288:1 2795289:1 2795290:1 2795291:1 2795292:1 2795293:1 
1 1 1 1 8:3 21:2 32:2 34:1 37:3 41:1 43:1 44:1 55:1 59:1 60:1 66:2 70:1 83:1 125:2 151:1 155:1 187:1 201:2 226:1 228:1 238:1 272:1 329:1 363:1 467:1 534:1 629:1 702:1 897:1 1351:1 1427:1 1861:1 2934:1 3610:1 3611:1 3612:1 3613:1 138206:1 138235:1 138238:1 138332:1 138385:1 139272:1 139451:1 140035:1 140324:1 140800:1 140813:1 140814:1 141147:1 142757:1 142758:1 143190:1 143441:1 143895:1 145018:1 145218:1 146689:1 147378:1 150866:1 150950:1 151063:1 151064:1 151065:1 151066:1 151067:1 151068:1 151069:1 151070:1 151071:1 151072:1 151073:1 151074:1 151075:1 151076:1 151077:1 151078:1 151079:1 151080:1 151081:1 151082:1 151083:1 151084:1 2780043:1 2781051:1 2781052:1 2781626:1 2784052:1 2784607:1 2784631:1 2788107:1 2789832:1 2795294:1 2795295:1 2795296:1 2795297:1 2795298:1 2795299:1 2795300:1 2795301:1 2795302:1 2795303:1 2795304:1 2795305:1 2795306:1 2795307:1 2795308:1 2795309:1 2795310:1 2795311:1 2795312:1 2795313:1 2795314:1 2795315:1 2795316:1 2795317:1 2795318:1 2795319:1 2795320:1 2795321:1 2795322:1 2795323:1 2795324:1 2795325:1 2795326:1 2795327:1 2795328:1 2795329:1 
1 1 1 1 0:3 1:11 3:11 5:1 6:1 7:1 8:14 14:4 15:1 17:1 21:4 31:3 32:6 34:7 35:1 36:4 37:16 38:1 39:8 41:2 44:12 45:1 53:2 54:1 55:10 58:2 59:1 60:4 64:1 66:9 70:1 79:3 82:1 87:1 98:3 100:3 102:2 103:1 105:9 107:1 111:1 120:1 122:3 125:3 127:1 129:3 134:1 136:5 142:1 146:2 149:2 150:7 151:1 154:1 159:1 162:1 167:1 168:1 171:2 185:2 193:1 199:1 201:1 207:1 208:2 217:1 218:1 219:2 244:1 258:4 260:6 263:1 265:3 267:1 294:2 311:2 313:3 316:1 318:1 322:1 324:1 330:2 336:2 341:1 342:1 347:4 354:2 358:1 363:2 365:1 366:1 380:2 385:2 394:2 402:2 403:1 404:1 410:1 411:1 414:1 416:1 436:1 439:1 450:1 451:1 458:1 469:3 480:1 485:2 490:2 492:1 496:5 509:1 521:2 535:1 539:1 543:2 553:1 575:1 579:1 585:1 594:1 595:1 600:2 603:1 609:2 619:2 623:2 641:1 645:3 646:3 647:2 675:1 683:1 712:1 716:1 718:1 787:1 798:1 800:2 804:1 816:1 825:1 833:1 856:1 857:1 884:1 897:3 904:1 929:1 931:1 933:2 983:1 993:1 1015:1 1020:1 1036:1 1037:1 1068:1 1119:1 1134:4 1185:1 1200:1 1243:1 1248:1 1262:1 1269:1 1275:1 1315:1 1432:1 1452:1 1528:1 1616:1 1645:1 1647:1 1661:2 1671:2 1686:1 1775:1 1791:1 1825:1 1946:1 1950:1 1994:1 2001:1 2052:1 2080:1 2118:1 2139:1 2192:1 2265:1 2405:1 2433:1 2475:1 2532:1 2533:2 2535:1 2701:1 2754:1 2757:1 2841:1 2861:2 2881:1 2938:1 2948:1 3127:1 3134:1 3219:2 3223:2 3238:1 3293:1 3394:1 3471:1 3614:1 3615:1 3616:1 3617:1 3618:1 3619:1 3620:1 3621:1 3622:1 3623:1 3624:1 3625:1 3626:1 3627:1 3628:1 3629:1 3630:1 3631:1 3632:1 3633:1 3634:1 3635:1 3636:1 3637:1 3638:1 3639:2 3640:1 3641:1 3642:1 3643:1 3644:1 3645:1 3646:1 3647:1 3648:1 3649:1 3650:1 3651:1 3652:1 3653:1 3654:1 3655:1 3656:1 3657:1 3658:1 3659:1 3660:1 3661:1 3662:1 3663:1 3664:1 3665:1 3666:1 3667:1 3668:1 3669:1 3670:1 3671:1 3672:1 3673:1 3674:1 3675:1 3676:1 3677:1 3678:2 3679:1 3680:1 3681:1 3682:1 3683:1 3684:1 3685:1 3686:1 3687:1 3688:1 3689:1 3690:1 3691:1 3692:1 3693:1 3694:1 137910:1 137916:1 137945:1 138014:1 138039:2 138056:1 138057:1 138122:1 138146:1 138165:2 138169:1 138229:1 138230:1 138232:1 138235:2 138238:1 138405:2 138416:1 138455:1 138459:1 138475:2 138489:1 138494:1 138570:1 138658:1 138754:1 138792:1 138870:1 138913:1 138930:2 138998:1 138999:1 139084:2 139144:1 139179:1 139211:1 139452:1 139475:1 139619:1 139681:1 139682:2 139756:1 139870:1 139895:1 139969:1 140018:1 140171:1 140192:1 140211:1 140234:1 140345:1 140363:1 140407:2 140516:1 140545:2 140813:1 140814:1 140854:1 140868:1 140881:1 141045:1 141083:1 141120:1 141289:1 141434:2 141855:2 141995:1 142103:1 142246:1 142369:1 142406:1 142478:2 142505:1 142573:1 142638:1 142646:2 142652:1 142653:1 142654:1 142695:1 142739:1 142835:1 142836:1 143013:1 143046:2 143363:1 143382:1 143765:1 143902:1 144155:1 144156:2 144192:1 144193:1 144397:1 144410:1 144418:1 144599:1 144699:1 145189:1 145271:2 145538:1 145573:1 146167:1 146189:1 146425:1 146426:1 146522:1 146636:3 146701:1 147112:1 147439:1 147842:1 148002:1 148091:1 148213:1 148235:1 148272:1 148796:1 148807:1 148929:1 149231:1 149257:1 149315:1 149385:1 149916:1 150075:1 150315:1 150510:1 150874:1 151085:1 151086:1 151087:1 151088:1 151089:1 151090:1 151091:1 151092:1 151093:1 151094:1 151095:1 151096:1 151097:1 151098:1 151099:1 151100:1 151101:1 151102:1 151103:1 151104:1 151105:1 151106:1 151107:2 151108:1 151109:1 151110:1 151111:1 151112:1 151113:1 151114:1 151115:1 151116:1 151117:1 151118:1 151119:1 151120:1 151121:1 151122:1 151123:1 151124:1 151125:1 151126:1 151127:1 151128:1 151129:1 151130:1 151131:1 151132:1 151133:1 151134:1 151135:1 151136:1 151137:1 151138:1 151139:1 151140:1 151141:1 151142:1 151143:1 151144:1 151145:1 151146:1 151147:1 151148:1 151149:1 151150:1 151151:1 151152:1 151153:1 151154:1 151155:1 151156:1 151157:1 151158:1 151159:1 151160:1 151161:1 151162:1 151163:1 151164:1 151165:1 151166:1 151167:1 151168:1 151169:1 151170:1 151171:1 151172:1 151173:1 151174:1 151175:1 151176:1 151177:1 151178:1 151179:1 151180:1 151181:1 151182:1 151183:1 151184:1 151185:1 151186:1 151187:1 151188:1 151189:1 151190:1 151191:1 151192:1 151193:1 151194:1 151195:1 151196:1 151197:1 151198:1 151199:1 151200:1 151201:1 151202:1 151203:1 151204:1 151205:1 151206:1 151207:1 151208:1 151209:1 151210:1 151211:1 151212:1 151213:1 151214:1 151215:1 151216:1 151217:1 151218:1 151219:1 151220:1 151221:1 151222:1 151223:1 151224:1 151225:1 151226:1 151227:1 151228:1 151229:1 151230:1 151231:1 151232:2 151233:1 151234:1 151235:1 151236:1 151237:1 151238:1 151239:1 151240:1 151241:2 151242:1 151243:1 151244:1 151245:1 151246:1 151247:1 151248:1 151249:1 151250:1 151251:1 151252:1 151253:1 151254:1 151255:1 151256:1 151257:1 151258:1 151259:1 151260:1 151261:1 151262:1 151263:1 151264:1 151265:1 151266:1 151267:1 151268:1 151269:1 151270:1 151271:1 151272:1 151273:1 151274:1 151275:1 151276:1 151277:1 151278:1 151279:1 151280:1 151281:1 151282:1 151283:1 151284:1 151285:1 151286:1 151287:1 151288:1 151289:1 151290:1 151291:1 151292:1 151293:1 151294:1 151295:1 151296:1 151297:1 151298:1 151299:1 151300:1 151301:1 151302:1 151303:1 151304:1 151305:1 151306:1 151307:1 151308:1 151309:1 151310:1 151311:1 151312:1 151313:1 151314:1 151315:1 151316:1 151317:1 151318:1 151319:1 151320:1 151321:1 151322:1 151323:1 151324:1 151325:1 151326:1 151327:1 151328:1 151329:1 151330:1 151331:1 151332:1 151333:1 151334:2 151335:1 151336:1 151337:1 151338:1 151339:1 151340:1 151341:1 151342:1 151343:2 151344:2 151345:1 151346:1 151347:1 151348:1 151349:1 151350:1 151351:1 151352:1 151353:1 151354:1 151355:1 151356:1 151357:1 151358:1 151359:1 151360:1 151361:1 151362:1 151363:1 151364:2 151365:1 151366:1 151367:1 151368:1 151369:1 151370:1 151371:1 151372:1 151373:1 151374:1 151375:1 151376:1 151377:1 151378:1 151379:1 151380:1 151381:1 151382:1 151383:1 151384:1 151385:1 151386:1 151387:1 151388:1 151389:1 151390:1 151391:1 151392:1 151393:1 151394:1 151395:1 151396:1 151397:1 151398:1 151399:1 151400:1 151401:1 151402:1 151403:1 151404:1 151405:1 151406:1 151407:1 151408:1 151409:1 151410:1 151411:1 151412:1 151413:1 151414:1 151415:1 151416:1 151417:1 151418:1 151419:1 151420:1 151421:1 151422:1 151423:1 151424:1 151425:1 151426:1 151427:1 151428:1 151429:1 151430:1 151431:1 2778698:1 2779058:1 2779544:1 2781586:1 2781626:1 2781996:1 2782214:1 2782383:1 2783918:1 2783919:1 2784143:1 2784144:1 2785889:1 2785930:1 2787310:1 2790478:1 2791414:1 2792145:1 2793933:1 2795330:1 2795331:1 2795332:1 2795333:1 2795334:1 2795335:1 2795336:1 2795337:1 2795338:1 2795339:1 2795340:1 2795341:1 2795342:1 2795343:1 2795344:1 2795345:1 2795346:1 2795347:1 2795348:1 2795349:1 2795350:1 2795351:1 2795352:1 2795353:1 2795354:1 2795355:1 2795356:1 2795357:1 2795358:1 2795359:1 2795360:1 2795361:1 2795362:1 2795363:1 2795364:1 2795365:2 2795366:1 2795367:1 2795368:1 2795369:1 2795370:1 2795371:1 2795372:1 2795373:1 2795374:1 2795375:1 2795376:1 2795377:1 2795378:1 2795379:1 2795380:1 2795381:1 2795382:1 2795383:1 2795384:1 2795385:1 2795386:1 2795387:1 2795388:1 2795389:1 2795390:1 2795391:1 2795392:1 2795393:1 2795394:1 2795395:1 2795396:1 2795397:1 2795398:1 2795399:1 2795400:1 2795401:1 2795402:1 2795403:1 2795404:1 2795405:1 2795406:1 2795407:1 2795408:1 2795409:1 2795410:1 2795411:1 2795412:1 2795413:1 2795414:1 2795415:1 2795416:1 2795417:1 2795418:1 2795419:1 2795420:1 2795421:1 2795422:1 2795423:1 2795424:1 2795425:1 2795426:1 2795427:1 2795428:1 2795429:1 2795430:1 2795431:1 2795432:1 2795433:1 2795434:1 2795435:1 2795436:1 2795437:1 2795438:1 2795439:1 2795440:1 2795441:1 2795442:1 2795443:1 2795444:1 2795445:1 2795446:1 2795447:1 2795448:1 2795449:1 2795450:1 2795451:1 2795452:1 2795453:1 2795454:1 2795455:1 2795456:1 2795457:1 2795458:1 2795459:1 2795460:1 2795461:1 2795462:1 2795463:1 2795464:1 2795465:1 2795466:1 2795467:1 2795468:1 2795469:1 2795470:1 2795471:1 2795472:1 2795473:1 2795474:1 2795475:1 2795476:1 2795477:1 2795478:1 2795479:1 2795480:1 2795481:1 2795482:1 2795483:1 2795484:1 2795485:1 2795486:1 2795487:1 2795488:1 2795489:1 2795490:1 2795491:1 2795492:1 2795493:1 2795494:1 2795495:1 2795496:1 2795497:1 2795498:1 2795499:1 2795500:1 2795501:1 2795502:1 2795503:1 2795504:1 2795505:1 2795506:1 2795507:1 2795508:1 2795509:1 2795510:1 2795511:1 2795512:1 2795513:1 2795514:1 2795515:1 2795516:1 2795517:1 2795518:1 2795519:1 2795520:1 2795521:1 2795522:1 2795523:1 2795524:1 2795525:1 2795526:1 2795527:1 2795528:1 2795529:1 2795530:1 2795531:1 2795532:1 2795533:1 2795534:1 2795535:1 2795536:1 2795537:1 2795538:1 2795539:1 2795540:1 2795541:1 2795542:1 2795543:1 2795544:1 2795545:1 2795546:1 2795547:1 2795548:1 2795549:1 2795550:1 2795551:1 2795552:1 2795553:1 2795554:1 2795555:1 2795556:1 2795557:1 2795558:1 2795559:1 2795560:1 2795561:1 2795562:1 2795563:1 2795564:1 2795565:1 2795566:1 2795567:1 2795568:1 2795569:1 2795570:1 2795571:1 2795572:1 2795573:1 2795574:1 2795575:1 2795576:1 2795577:1 2795578:1 2795579:1 2795580:1 2795581:1 2795582:1 2795583:1 2795584:1 2795585:1 2795586:1 2795587:1 2795588:1 2795589:1 2795590:1 2795591:1 2795592:1 2795593:1 2795594:1 2795595:1 2795596:1 2795597:1 2795598:1 2795599:1 2795600:1 2795601:1 2795602:1 2795603:1 2795604:1 2795605:1 2795606:1 2795607:1 2795608:1 2795609:1 2795610:1 2795611:1 2795612:1 2795613:1 2795614:1 2795615:1 2795616:1 2795617:1 2795618:1 2795619:1 2795620:1 2795621:1 2795622:1 2795623:1 2795624:1 2795625:1 2795626:1 2795627:1 2795628:1 2795629:1 2795630:1 2795631:1 2795632:1 2795633:1 2795634:1 2795635:1 2795636:1 2795637:1 2795638:1 2795639:1 2795640:1 2795641:1 2795642:1 2795643:1 2795644:1 2795645:1 2795646:1 2795647:1 2795648:2 2795649:1 2795650:1 2795651:1 2795652:1 2795653:1 2795654:1 2795655:1 2795656:1 2795657:1 2795658:1 2795659:1 2795660:1 2795661:1 2795662:1 2795663:1 2795664:1 2795665:1 2795666:1 2795667:1 2795668:1 2795669:1 2795670:1 2795671:1 2795672:1 2795673:1 2795674:1 2795675:1 2795676:1 2795677:1 2795678:2 2795679:2 2795680:1 2795681:1 2795682:1 2795683:1 2795684:1 2795685:1 2795686:1 2795687:1 2795688:1 2795689:1 2795690:1 2795691:1 2795692:1 2795693:1 2795694:1 2795695:1 2795696:1 2795697:1 2795698:1 2795699:1 2795700:1 2795701:1 2795702:1 2795703:1 2795704:1 2795705:1 2795706:1 2795707:1 2795708:1 2795709:1 2795710:1 2795711:1 2795712:1 2795713:1 2795714:1 2795715:1 2795716:1 2795717:1 2795718:1 2795719:1 2795720:1 2795721:1 2795722:1 2795723:1 2795724:1 2795725:1 2795726:1 2795727:1 2795728:1 2795729:1 2795730:1 2795731:1 2795732:1 2795733:1 2795734:1 2795735:1 2795736:1 2795737:1 2795738:1 2795739:1 2795740:1 2795741:1 2795742:1 2795743:1 2795744:1 2795745:1 2795746:1 2795747:1 2795748:1 2795749:1 2795750:1 2795751:1 2795752:1 2795753:1 2795754:1 2795755:1 2795756:1 2795757:1 2795758:1 2795759:1 2795760:1 2795761:1 2795762:1 2795763:1 2795764:1 2795765:1 2795766:1 2795767:1 2795768:1 2795769:1 2795770:1 2795771:1 2795772:1 2795773:1 2795774:1 2795775:1 2795776:1 2795777:1 2795778:1 2795779:1 2795780:1 2795781:1 2795782:1 2795783:1 2795784:1 2795785:1 2795786:1 2795787:1 2795788:1 2795789:1 2795790:1 2795791:1 2795792:1 2795793:1 2795794:1 2795795:1 2795796:1 2795797:1 2795798:1 2795799:1 2795800:1 2795801:1 2795802:1 2795803:1 2795804:1 2795805:1 2795806:1 2795807:1 
1 1 1 1 1:5 8:5 21:2 31:1 32:1 36:1 37:4 44:5 54:1 55:2 66:3 70:1 87:1 96:1 100:1 115:1 125:5 129:1 150:2 153:1 154:1 159:3 171:1 189:1 201:2 204:2 219:1 244:1 269:1 309:1 311:1 315:1 322:1 385:2 450:1 474:1 480:3 490:1 548:1 564:1 600:1 624:1 700:1 712:1 835:1 962:1 1018:1 1143:1 1195:1 1275:1 1428:1 1448:1 1517:1 1628:2 2073:1 2168:1 2243:1 2423:1 2454:1 2550:1 3569:1 3774:1 3775:1 3776:1 3777:1 3778:1 3779:2 3780:1 3781:1 3782:1 3783:1 138088:1 138165:1 138169:1 138232:1 138238:1 138360:1 138415:1 138416:1 138421:1 138754:1 138855:1 138870:2 138871:1 138872:1 139374:1 139375:1 139376:1 139400:1 139524:1 139555:1 139619:4 139991:1 140010:1 140065:1 140212:1 140331:1 140598:1 141147:1 141207:1 141242:1 141971:1 143652:1 143834:1 143902:1 144526:1 145560:1 148515:1 149012:1 149383:1 149530:1 150610:1 151849:1 151850:1 151851:1 151852:1 151853:1 151854:1 151855:1 151856:1 151857:1 151858:1 151859:1 151860:1 151861:1 151862:1 151863:1 151864:1 151865:1 151866:1 151867:1 151868:1 151869:1 151870:1 151871:1 151872:1 151873:1 151874:1 151875:1 151876:1 151877:1 151878:1 151879:1 151880:1 151881:1 151882:1 151883:1 151884:1 151885:1 151886:1 151887:1 151888:1 151889:1 151890:1 151891:1 151892:1 151893:1 151894:1 151895:1 151896:1 151897:1 151898:1 151899:1 151900:1 151901:1 151902:1 151903:1 151904:1 151905:1 151906:1 2779058:1 2779405:1 2779956:1 2779957:1 2780122:1 2780691:1 2783981:1 2785421:1 2786101:1 2787368:1 2787712:1 2789091:1 2790445:1 2794668:1 2794669:1 2796449:1 2796450:1 2796451:1 2796452:1 2796453:1 2796454:1 2796455:1 2796456:1 2796457:1 2796458:1 2796459:1 2796460:1 2796461:1 2796462:1 2796463:1 2796464:1 2796465:1 2796466:1 2796467:1 2796468:1 2796469:1 2796470:1 2796471:1 2796472:1 2796473:1 2796474:1 2796475:1 2796476:1 2796477:1 2796478:1 2796479:1 2796480:1 2796481:1 2796482:1 2796483:1 2796484:1 2796485:1 2796486:1 2796487:1 2796488:1 2796489:1 2796490:1 2796491:1 2796492:1 2796493:1 2796494:1 2796495:1 2796496:1 2796497:1 2796498:1 2796499:1 2796500:1 2796501:1 2796502:1 2796503:1 2796504:1 2796505:1 2796506:1 2796507:1 2796508:1 2796509:1 2796510:1 2796511:1 2796512:1 2796513:1 2796514:1 2796515:1 2796516:1 2796517:1 2796518:1 2796519:1 2796520:1 2796521:1 2796522:1 2796523:1 2796524:1 2796525:1 2796526:1 2796527:1 2796528:1 2796529:1 2796530:1 2796531:1 2796532:1 2796533:1 2796534:1 2796535:1 
1 1 1 1 1:3 3:3 8:3 15:1 17:1 21:1 31:1 32:4 34:1 35:1 36:1 37:5 38:1 43:1 44:1 55:1 66:2 70:1 79:1 86:1 87:2 129:1 141:1 144:2 146:2 154:3 164:1 238:1 283:1 294:1 317:1 322:1 325:1 330:1 340:1 347:1 363:1 368:1 391:1 568:1 671:1 731:1 735:1 798:1 808:1 981:1 1134:2 1214:1 1393:1 1433:1 1505:2 1687:1 2763:1 2769:1 3006:1 3201:1 3503:1 3689:1 3764:1 3865:1 3866:1 3867:1 3868:1 3869:1 3870:1 3871:1 3872:1 3873:1 3874:1 3875:1 3876:1 3877:1 3878:1 138020:1 138039:1 138106:1 138107:1 138125:2 138146:1 138265:1 138361:1 138405:1 138408:1 138930:1 138989:1 139124:1 139378:1 139477:1 139646:1 140131:1 140236:1 140308:1 140800:1 141145:1 141851:1 142168:1 142716:1 143325:1 143616:1 144185:1 145171:1 147003:1 148629:1 152357:1 152358:1 152359:1 152360:1 152361:1 152362:1 152363:1 152364:1 152365:1 152366:1 152367:1 152368:1 152369:1 152370:1 152371:1 152372:1 152373:1 152374:1 152375:1 152376:1 152377:1 152378:1 152379:1 152380:1 152381:1 152382:1 152383:1 152384:1 152385:1 152386:1 152387:1 152388:1 152389:1 152390:1 152391:1 152392:1 152393:1 152394:1 152395:1 152396:1 152397:1 152398:1 152399:1 152400:1 152401:1 152402:1 152403:1 152404:1 152405:1 152406:1 152407:1 152408:1 152409:1 152410:1 152411:1 152412:1 152413:1 152414:1 152415:1 152416:1 152417:1 152418:1 2778573:1 2780944:1 2788542:1 2795235:1 2796126:1 2797179:1 2797180:1 2797181:1 2797182:1 2797183:1 2797184:1 2797185:1 2797186:1 2797187:1 2797188:1 2797189:1 2797190:1 2797191:1 2797192:1 2797193:1 2797194:1 2797195:1 2797196:1 2797197:1 2797198:1 2797199:1 2797200:1 2797201:1 2797202:1 2797203:1 2797204:1 2797205:1 2797206:1 2797207:1 2797208:1 2797209:1 2797210:1 2797211:1 2797212:1 2797213:1 2797214:1 2797215:1 2797216:1 2797217:1 2797218:1 2797219:1 2797220:1 2797221:1 2797222:1 2797223:1 2797224:1 2797225:1 2797226:1 2797227:1 2797228:1 2797229:1 2797230:1 2797231:1 2797232:1 2797233:1 2797234:1 2797235:1 2797236:1 2797237:1 2797238:1 2797239:1 2797240:1 2797241:1 2797242:1 2797243:1 2797244:1 2797245:1 2797246:1 2797247:1 2797248:1 2797249:1 2797250:1 2797251:1 2797252:1 2797253:1 2797254:1 2797255:1 2797256:1 2797257:1 2797258:1 2797259:1 2797260:1 2797261:1 2797262:1 2797263:1 2797264:1 2797265:1 
1 1 1 1 1:2 3:6 8:2 17:1 21:1 35:1 36:1 37:1 41:1 54:1 55:2 56:1 70:2 83:1 87:1 98:2 102:1 127:2 129:1 133:1 146:1 167:1 201:1 238:1 322:1 329:1 354:1 362:1 701:1 712:1 1162:1 1395:1 1687:1 1861:1 2057:1 2452:1 3272:1 3817:1 3970:1 3971:1 3972:1 3973:1 3974:1 3975:1 3976:1 3977:1 137949:1 138216:1 138238:1 138265:1 138546:1 138547:1 138796:1 139181:1 139375:1 139756:1 140320:1 140800:1 141534:1 142246:1 142314:1 142757:1 142758:1 143556:1 143671:1 144020:1 146363:1 147842:1 148373:1 148890:1 148975:1 151064:1 152863:1 152864:1 152865:1 152866:1 152867:1 152868:1 152869:1 152870:1 152871:1 152872:1 152873:1 152874:1 152875:1 152876:1 152877:1 152878:1 152879:1 152880:1 152881:1 152882:1 152883:1 152884:1 152885:1 152886:1 152887:1 152888:1 152889:1 152890:1 152891:1 152892:1 2779046:1 2784051:1 2784052:1 2784631:1 2797887:1 2797888:1 2797889:1 2797890:1 2797891:1 2797892:1 2797893:1 2797894:1 2797895:1 2797896:1 2797897:1 2797898:1 2797899:1 2797900:1 2797901:1 2797902:1 2797903:1 2797904:1 2797905:1 2797906:1 2797907:1 2797908:1 2797909:1 2797910:1 2797911:1 2797912:1 2797913:1 2797914:1 2797915:1 2797916:1 2797917:1 2797918:1 2797919:1 2797920:1 2797921:1 2797922:1 2797923:1 2797924:1 2797925:1 2797926:1 2797927:1 2797928:1 2797929:1 2797930:1 2797931:1 2797932:1 2797933:1 2797934:1 2797935:1 2797936:1 2797937:1 
